tree
version=v4
num_class=1
num_tree_per_iteration=1
label_index=0
max_feature_idx=84
objective=regression_l1
feature_names=hour_sin hour_cos day_sin day_cos month_sin month_cos day_of_year_sin day_of_year_cos week_sin week_cos is_winter is_spring is_summer is_autumn is_heating_season is_dst_period is_dst_transition_day days_to_dst_change cap_regime_all_day_15000 post_aug_2025_cap_change post_jan_2026_cap_change post_apr_2026_cap_change price_cap_norm is_off_day price_cap feelslike windspeed solarradiation heating_degree cooling_degree temp_hour_interaction temp_summer_interaction solar_hour_interaction solar_summer_interaction price_lag_24 price_lag_48 price_lag_168 price_lag_336 ratio_lag_24 ratio_lag_48 ratio_lag_168 price_lag_167 price_lag_169 diff_24_48 diff_168_336 rolling_mean_24 rolling_std_24 rolling_max_24 rolling_min_24 rolling_mean_hour_3d rolling_mean_hour_7d rolling_mean_hour_14d ratio_mean_hour_3d ratio_mean_hour_7d ratio_mean_hour_14d hour_month_interaction price_volatility_24 demand_supply_ratio_lag_24 demand_ramp_std_24 supply_ramp_std_24 rolling_mean_168 rolling_std_168 price_ema_24 price_ema_168 is_attack days_since_attack system_balance_lag_24 demand_x_price_lag_168 dew humidity precip snow windgust winddir sealevelpressure cloudcover visibility uvindex supply_lag_24 supply_lag_168 demand_ramp supply_ramp garpok_lag_24 vdr_supply_lag_24 prob_low_price
feature_infos=none none [-0.97492791218182362:0.97492791218182362] [-0.90096886790241903:1] [-1:1] [-1:1] [-0.9999631612477099:0.9999631612477099] [-1:1] [-0.99956083650879435:0.99956083650879435] [-0.99824373176432146:0.99298109601351703] [0:1] [0:1] [0:1] [0:1] [0:1] [0:1] none [0:14] [0:1] [0:1] [0:1] [0:1] [0.37333333333333335:1] [0:1] [5600:15000] [-23.199999999999999:35.899999999999999] [0:36.399999999999999] [0:834] [0:41.200000000000003] [0:13.899999999999999] [-278.39999999999998:430.79999999999995] [0:35.899999999999999] [0:10008] [0:777] [10:15000] [10:15000] [10:15000] [10:15000] [0.00066666666666666664:1.1000000000000001] [0.00066666666666666664:1.1000000000000001] [0.00066666666666666664:1.1000000000000001] [10:15000] [10:15000] [-8190:8100] [-11510:9400] [280.27291666666667:15000] [0:5807.3225883299683] [1210:15000] [10:15000] [10:14333.333333333334] [10:12668.477142857142] [57:11012.715714285714] [0.00066666666666666664:1] [0.00066666666666666664:1] [0.0082345238095238096:0.99871173469387753] [12:144] [0:1.4089322791587595] [0.37163390395864848:1.3945811269403361] [110.86956659562401:590.63590926969596] [102.46617115850167:689.85013178929626] [1630.7810714285713:12657.77244047619] [727.30374033007388:5204.3872830090959] [57:14875.158129018877] [57:12839.50945342767] [0:1] [0:30] [-1267:3860.3999999999996] [26558:84754080] [-21.800000000000001:21.100000000000001] [16:99.269999999999996] [0:3] [0:1.2] [8.3000000000000007:71.599999999999994] [0.90000000000000002:360] [991.70000000000005:1047.8] [0:100] [0:49260] [0:8] [1093.4000000000001:6925.6000000000004] [1093.4000000000001:6925.6000000000004] [-990.70000000000027:529.60000000000036] [-1072:1048] [460:7552.8999999999996] [10:14990] [2.4865177692845464e-05:0.99971026182174683]
tree_sizes=2172 2465 2361 2575 2661 2595 2470 2581 2792 2689 2798 3225 3199 3317 3639 3314 3628 3704 3837 3511 4046 3613 3742 3741 3954 3634 4476 3837 3706 3639 4160 4264 3959 3850 3734 3952 4170 4055 3868 3835 4268 3848 3948 3536 4165 3963 3637 4371 4590 3960 3639 3532 4494 4398 2806 2918 3746 3963 3866 3526 3753 3222 3527 3972 4179 3961 3959 4065 2893 3867 4066 4069 4294 4406 3657 4096 3434 4169 3860 3543 4192 3965 3660 4183 3963 3455 3863 4190 3316 3337 3236 3226 2175 3969 4088 3868 4515 3133 3136 3559 2594 3871 3133 4104 2924 3560 2606 1968 3234 2820 3892 3880 4206 4188 2695 3461 4175 4623 3889 2700 4401 4089 3989 2183 3022 2915 4203 3987 3888 2490 3988 3865 3458 2918 3765 3455 3862 4628 2599 4107 3335 4094 3142 3667 2814 4087 3458 4196 4302 3861 3657 2816 3971 3342 3030 4171 3455 3236 3662 3873 3962 4088 3767 4278 3786 3758 3973 3750 3673 3147 3957 3756 3749 3874 3673 3764 3885 3662 3868 3773 2815 3341 3876 3564 3776 3554 3989 3983 4198 3977 4197 4091 3850 4082 3665 3875 4066 3979 3857 3548 3349 3978 3115 3665 3875 3850 3759 3986 4088 3770 3972 3980 3876 4074 3660 4303 3873 3774 3667 3865 4074 4418 3981 3455 3678 4074 4189 3764 3664 3973 3673 3454 3970 3773 3147 3881 3958 3969 3570 3445 3854 3668 3765 3869 3776 3655 3881 3753 3130 3659 2490 2613 4193 3868 3139 2616 4082 3884 3974 3894 4490 3661 4400 4068 3559 3674 3770 4191 4198 3873 2909 4295 3864 3766 3766 3566 4196 3965 3324 3111 3852 2909 3553 2589 3644 3014 3842 3971 3747 4171 3955 3661 3967 3766 3513 3220 3533 3228 4084 3558 2276 4290 3762 3428 3748 4083 3863 3117 3763 2687 2805 4083 3961 3984 3874 3435 3548 4190 3861 4186 4600 4073 4088 3446 4180 2701 4295 2795 4081 2493 4193 3884 3663 4492 3881 3860 3660 3242 4117 3020 2833 3464 4004 3242 4206 3777 2387 3979 4204 3885 4318 4083 2928 3670 3761 3466 3255 3459 2824 3037 3762 3890 3865 2402 3777 3145 2926 3569 3244 3665 2502 2918 3855 3363 2721 2823 2060 4007 2396 3344 2810 2502 2720 4306 4106 3894 3785 3356 4099 4521 2610 3355 4523 3548 3254 3667 4301 3565 4104 3041 3985 3465 3464 4199 3372 2708 3145 2815 2612 3793 3151 4318 3564 3888 4071 3678 4070 4396 4390 2940 3778 4091 2819 3039 3040 3896 3143 3465 3245 3144 3022 3976 4199 4630 4305 4414 4096 3452 4538 2382 3458 3038 3247 3873 3886 2925 3130 4087 3671 3340 3133 4091 3785 2817 4188 3346 4191 3113 2819 3575 3349 3247 4008 4310 3673 2176 2501 2723 2813 2069 4195 3660 2181 3359 3676 3671 3464 2720 3772 3783 2928 2815 2075 3129 3466 2378 2824 3560 4105 3552 3453 3455 2494 3760 3139 2915 4500 2484 3892 2387 3336 3865 2395 3350 3236 3344 3024 3344 2811 3341 2294 1971 3681 2905 3886 3761 3452 2931 3137 4075 2926 3346 3443 3669 3256 2705 3674 2811 3038 3257 2717 2813 2295 3656

Tree=0
num_leaves=20
num_cat=0
split_feature=84 54 61 7 52 44 79 57 56 42 72 6 69 81 60 48 84 25 6
split_gain=460.901 63.9541 43.171 16.8938 11.0102 8.58987 5.06881 2.93572 4.3911 3.52404 3.18798 2.40975 2.19866 1.49955 1.42375 1.31427 0.317533 5.68434e-14 2.84217e-14
threshold=0.57945242524147045 0.14346326530612249 2856.1048106873368 0.17082345007074981 0.31244047619047632 -3355.9999999999995 5991.5500000000002 0.66230091255926804 0.42522804659036545 3999.5000000000005 29.000000000000004 0.85283291294431829 73.805000000000021 -265.84999999999985 8036.4403571428584 386.72000000000008 0.94225996732711803 -3.1499999999999999 0.9294892378951588
decision_type=2 2 2 2 2 2 2 2 2 2 2 2 2 2 2 2 2 2 2
left_child=1 -1 3 6 12 -3 7 13 -9 10 -10 16 18 -2 17 -15 -5 -7 -4
right_child=2 5 4 11 -6 14 -8 8 9 -11 -12 -13 -14 15 -16 -17 -18 -19 -20
leaf_value=0.29830857211613532 0.2943654106500026 0.3043586370386191 0.28667885547469513 0.30760382704554706 0.29247066251828885 0.33243413008774503 0.30016549176339374 0.29354628356562151 0.3037646855865932 0.28945064883415328 0.29809698889952363 0.30160516929267356 0.29210160292188009 0.29087377831014288 0.30808009316870344 0.29419165660828339 0.30384742619826283 0.32746972376680655 0.28918772209591698
leaf_weight=33.549999594688416 9.951020345091818 20.883673429489136 197.45938801765442 8.0497958511114138 37.907142907381058 60.605714153498411 13.415306210517882 12.64520415663719 13.729591816663744 10.908163234591482 7.5132653266191474 11.210204154253004 37.22959178686142 14.559489816427233 47.610204219818115 13.161224365234373 3.9969387706369153 217.43979593366385 43.048979640007019
leaf_count=12 25 15 83 25 27 81 16 34 36 32 25 35 23 28 27 29 22 285 23
internal_value=0.300036 0.337306 0.267455 0.291219 0.258485 0.343219 0.282626 0.27833 0.286346 0.295444 0.306437 0.326646 0.255288 0.268796 0.345067 0.263258 0.341034 0.346334 0.253666
internal_weight=814.875 380.089 434.785 119.14 315.645 346.539 95.8833 82.468 44.7962 32.151 21.2429 23.2569 277.738 37.6717 325.656 27.7207 12.0467 278.046 240.508
internal_count=883 420 463 307 156 408 225 209 127 93 61 82 129 82 393 57 47 366 106
is_linear=0
shrinkage=1


Tree=1
num_leaves=22
num_cat=0
split_feature=84 38 54 7 61 84 61 28 44 57 48 61 54 38 74 60 73 42 69 35 37
split_gain=458.762 47.8951 38.4709 16.9256 14.667 16.3178 13.0936 9.16619 8.40957 6.05593 3.49515 2.60382 3.81348 2.56796 2.1099 2.01783 1.84324 0.702739 0.2747 5.68434e-14 2.84217e-14
threshold=0.32336844503879553 0.30142857142857149 0.14565214965986398 0.49252992309759819 3205.914696364393 0.84486988186836254 3276.7563408157048 6.5500000000000007 -3355.9999999999995 0.67827036978481392 949.00000000000011 2561.6516165670196 0.40523182397959184 0.13577232142857146 1020.2500000000001 8036.4403571428584 219.90000000000003 3220.0000000000005 47.980000000000004 2656.0000000000005 741.00000000000011
decision_type=2 2 2 2 2 2 2 2 2 2 2 2 2 2 2 2 2 2 2 2 2
left_child=2 4 -1 6 5 -2 7 9 -4 -3 -11 12 16 18 -5 19 -7 20 -13 -10 -6
right_child=1 3 8 14 17 11 -8 -9 15 10 -12 13 -14 -15 -16 -17 -18 -19 -20 -21 -22
leaf_value=-0.0023160134010773549 0.0078513555167415271 0.00084830711874027387 0.0041566705969480087 0.0043555930354490669 -0.012919052179406386 -0.0093412656384364249 -0.011035350161034295 0.0034537260298355969 0.017083791286085805 -0.0043344159574898768 -0.0069903731596782891 -0.01245570759347968 -0.0085966049664705294 -0.0053735250901315286 0.0086228769971649147 0.0077056950842733299 0.002495058887129714 -0.010202516450290531 -0.012703927918157068 0.030660746022933779 -0.012508407473317168
leaf_weight=26.031632423400879 8.2163265198469144 19.113571405410767 20.883673429489136 6.1896939203143146 109.09551024436951 8.5412244778126496 19.204081773757935 16.35714302957058 48.167857374995947 13.181632712483408 16.430612295866013 13.351020455360411 10.582959130406378 22.454081386327744 13.52020402997732 47.610204219818115 5.8547959253191939 51.68571412563324 21.197142899036407 219.76540783792734 97.440204113721848
leaf_count=11 12 29 15 18 36 31 10 38 71 33 37 25 24 35 31 27 22 25 31 280 42
internal_value=-0.00015219 -0.0312703 0.038689 -0.00367586 -0.0395067 -0.0234217 -0.012715 -0.0027949 0.042888 -0.0128698 -0.0259933 -0.0296607 -0.0171866 -0.035127 0.034979 0.0447726 -0.00166413 -0.0451253 -0.0430555 0.0463345 -0.0463345
internal_weight=814.875 452.416 362.459 103.997 348.419 90.1976 84.287 65.083 336.427 48.7258 29.6122 81.9812 24.979 57.0022 19.7099 315.543 14.396 258.221 34.5482 267.933 206.536
internal_count=883 479 404 196 283 180 147 137 393 99 70 168 77 91 49 378 53 103 56 351 78
is_linear=0
shrinkage=0.0463345


Tree=2
num_leaves=21
num_cat=0
split_feature=84 54 54 27 60 63 61 61 68 46 61 61 41 60 51 7 69 74 8 45
split_gain=445.812 62.6357 42.3694 19.7781 13.9447 10.0686 9.20317 7.9171 6.19136 4.80739 4.55026 4.32331 4.18672 3.58866 3.15916 2.1557 1.20477 0.546066 5.68434e-14 2.84217e-14
threshold=0.57945242524147045 0.14346326530612249 0.28396530612244902 373.50000000000006 5950.369583333334 7768.1579914445092 2810.5219401504824 2884.4813566353569 4.8500000000000005 2895.2005953321886 2561.6516165670196 2719.1573459947645 2399.5000000000005 5256.2172619047624 2291.9585714285718 -0.29592670134728938 66.555000000000021 1021.5500000000001 -0.88926638608069031 6441.2275000000009
decision_type=2 2 2 2 2 2 2 2 2 2 2 2 2 2 2 2 2 2 2 2
left_child=1 -1 6 4 8 18 10 9 17 12 -2 -12 14 -14 15 -5 19 -4 -3 -8
right_child=2 5 3 7 -6 -7 16 -9 -10 -11 11 -13 13 -15 -16 -17 -18 -19 -20 -21
leaf_value=-0.0028123654929175842 0.0027649027358484283 0.021276362549529988 0.0036205525824178947 -0.0060790236885710034 -0.0081982859578072775 0.0069909834105177831 -0.012115298337732451 -0.012280988422607568 -0.0012174777035570828 2.6526264211605956e-05 -0.012234731513878544 -0.002744022988000363 0.0043967050439499876 -0.0029592072237093672 -0.0066664780268893241 0.00093762850184421422 -0.011812839961310263 0.0082233406882694718 0.029202863159823251 -0.010131762425820368
leaf_weight=33.549999594688416 8.9667347054928559 45.77448982000351 11.808061227202417 11.878571450710298 10.996938824653624 65.400000095367432 181.86020454764366 35.807142823934555 12.205102071166037 9.3397958576679212 13.395918399095537 9.159183591604231 7.6040816158056286 9.5531632602214795 13.068367332220076 6.925510153174403 41.51755091547966 13.029591806232927 235.36489782109857 37.669387817382812
leaf_count=12 28 51 34 34 8 37 78 25 25 17 27 19 21 21 26 28 26 28 320 18
internal_value=1.80446e-05 0.0366727 -0.0320254 -0.0112796 0.0129136 0.0425252 -0.0421099 -0.0236205 0.0265153 -0.0130983 -0.0184609 -0.0295606 -0.018902 -0.0004478 -0.0288361 -0.0166752 -0.0449656 0.0397942 0.0463345 -0.0463345
internal_weight=814.875 380.089 434.785 142.216 48.0397 346.539 292.569 94.1766 37.0428 58.3695 31.5218 22.5551 49.0297 17.1572 31.8724 18.8041 261.047 24.8377 281.139 219.53
internal_count=883 420 463 267 95 408 196 172 87 147 74 46 130 42 88 62 122 62 371 96
is_linear=0
shrinkage=0.0463345


Tree=3
num_leaves=23
num_cat=0
split_feature=84 52 54 78 84 61 63 84 55 47 82 46 69 43 58 37 57 34 59 61 79 34
split_gain=440.067 52.0868 37.2279 14.4145 13.4107 12.2879 12.1648 11.0158 8.82972 6.78346 4.31104 4.0425 4.97196 3.84406 2.99576 1.7863 1.78132 1.56977 1.56448 0.263232 0.225643 5.68434e-14
threshold=0.32336844503879553 0.25659722222222242 0.14565214965986398 3952.2000000000003 0.86656945943832409 3205.914696364393 7700.3221761414052 0.89785692095756542 114.00000000000001 8483.0000000000018 3433.5000000000005 3593.0244404823811 51.050000000000004 -345.99999999999994 357.71836452439646 2683.0000000000005 0.59668761987340846 654.00000000000011 336.88592916961238 2874.5533668563057 5057.4000000000005 3493.5000000000005
decision_type=2 2 2 2 2 2 2 2 2 2 2 2 2 2 2 2 2 2 2 2 2 2
left_child=2 5 -1 11 13 7 21 -2 9 15 18 12 -3 -5 16 -6 -9 -16 -11 -18 -7 -4
right_child=1 3 6 4 8 20 -8 14 -10 10 -12 -13 -14 -15 17 -17 19 -19 -20 -21 -22 -23
leaf_value=-0.0020783927583849326 0.0066191112154343704 -0.0081944208616826254 0.014422697320498343 0.0073116047367260744 0.0018395662784327592 -0.010841392385419129 0.0064814521572216033 -0.011305722263620597 0.002891606247195097 -0.0078184228434512917 -0.0022959303164015719 -0.011921274308487429 0.001448285430628855 0.00045210241315274847 -0.0050171421322310512 0.0058473009938484971 -0.0090636391966222325 0.0011457409437727291 -0.0074979612969441074 -0.0095061255734962876 -0.010663753814232893 0.028157553243437151
leaf_weight=26.031632423400879 10.160204105079172 11.509489804506304 60.526530649513006 14.551836691796781 6.0039795711636526 213.74081635475159 67.124489903450012 14.2134692966938 11.844898045063017 13.740816384553911 14.909183531999586 17.700000047683716 10.701020397245882 14.717347040772436 7.031632646918295 4.3765306174755096 15.810612326487897 5.6357142627239227 13.965306133031843 17.85102042555809 33.952040761709213 208.77612230926752
leaf_count=11 15 35 108 23 33 71 38 25 15 25 18 10 32 24 23 22 29 19 18 17 25 247
internal_value=-0.000236437 -0.0307139 0.0378051 -0.00648146 0.00341421 -0.0409139 0.0419357 -0.0238767 -0.00833728 -0.0164208 -0.0246023 -0.0298157 -0.0166515 0.0294476 -0.031369 0.0171671 -0.0366707 -0.0113317 -0.035413 -0.0424784 -0.0457771 0.0463345
internal_weight=814.875 452.416 362.459 134.02 94.1099 318.396 336.427 70.7027 64.8407 52.9958 42.6153 39.9105 22.2105 29.2692 60.5424 10.3805 47.8751 12.6673 27.7061 33.6616 247.693 269.303
internal_count=883 479 404 255 178 224 393 128 131 116 61 77 67 47 113 55 71 42 43 46 96 355
is_linear=0
shrinkage=0.0463345


Tree=4
num_leaves=24
num_cat=0
split_feature=84 38 54 7 61 61 84 63 7 66 6 38 26 61 51 42 74 25 61 61 42 34 37
split_gain=446.794 49.5467 37.2279 16.485 14.1182 13.5849 12.7414 12.1648 9.76197 7.59622 2.67805 2.61855 3.71879 3.25491 3.72257 2.56119 2.1099 1.24997 0.854053 2.37143 0.702739 5.68434e-14 2.84217e-14
threshold=0.32336844503879553 0.30142857142857149 0.14565214965986398 0.49252992309759819 3205.914696364393 3276.7563408157048 0.84486988186836254 7700.3221761414052 -0.16236614133076385 1819.25 0.66655057241353266 0.18785714285714289 12.15 2561.6516165670196 2206.6907142857149 2810.0000000000005 1020.2500000000001 24.550000000000004 2856.1048106873368 2741.1464445077686 3220.0000000000005 3493.5000000000005 741.00000000000011
decision_type=2 2 2 2 2 2 2 2 2 2 2 2 2 2 2 2 2 2 2 2 2 2 2
left_child=2 4 -1 5 6 8 -2 21 9 10 17 13 -13 14 -8 -10 -5 -3 19 -15 22 -4 -6
right_child=1 3 7 16 20 -7 11 -9 15 -11 -12 12 -14 18 -16 -17 -18 -19 -20 -21 -22 -23 -24
leaf_value=-0.0019820915619984869 0.0074192326388340373 -0.0064532547104672235 0.013754429496007432 0.0037150911661455949 -0.011264999959502274 -0.010127880780228282 0.0023577221110085297 0.0061811376018788616 0.0011892359911933965 0.0027431731542364936 -0.00059152624506955784 -0.0087309824603867096 0.0015172343474202316 -0.0086436804112923326 -0.0092390053791170917 0.0012402568397332902 0.0075035374536836594 -0.0033219491692359662 -0.010909447403426345 -0.0046390609041337344 -0.0091579739769931633 0.026852888350953046 -0.010914840162926983
leaf_weight=26.031632423400879 8.2163265198469144 14.284694001078611 60.526530649513006 6.1896939203143146 109.09551024436951 19.204081773757935 8.7347959186881798 67.124489903450012 11.374489843845369 14.313265264034269 8.5561225712299329 10.014285668730738 6.9237754791975012 14.275510072708132 8.5510203689336759 9.9051020592451078 13.52020402997732 6.6492857038974753 22.633877485990524 10.847959280014036 51.68571412563324 208.77612230926752 97.440204113721848
leaf_count=11 12 23 108 18 36 10 33 38 25 18 25 25 19 29 18 25 31 21 24 20 25 247 42
internal_value=-0.000526079 -0.0312356 0.0378051 -0.0031694 -0.0396128 -0.0120901 -0.0238316 0.0419357 -0.00198563 -0.014493 -0.0279355 -0.0293447 -0.0131174 -0.0335705 -0.016342 0.0237605 0.034979 -0.0368622 -0.0398064 -0.0339252 -0.0451253 0.0463345 -0.0463345
internal_weight=814.875 452.416 362.459 103.997 348.419 84.287 90.1976 336.427 65.083 43.8034 29.4901 81.9812 16.9381 65.0432 17.2858 21.2796 19.7099 20.934 47.7573 25.1235 258.221 269.303 206.536
internal_count=883 479 404 196 283 147 180 393 137 87 69 168 44 124 51 50 49 44 73 49 103 355 78
is_linear=0
shrinkage=0.0463345


Tree=5
num_leaves=23
num_cat=0
split_feature=84 38 18 27 7 61 60 57 57 68 46 51 69 6 83 83 36 82 2 53 8 83
split_gain=430.057 54.6992 39.7013 23.3719 22.5757 13.2815 10.1423 6.71182 3.48598 3.33358 2.86635 2.86775 2.19789 2.15709 1.55749 1.58111 0.747936 0.573934 0.512938 0.340985 5.68434e-14 2.84217e-14
threshold=0.57945242524147045 0.30142857142857149 1.0000000180025095e-35 229.05000000000004 -0.16236614133076385 2856.1048106873368 6027.2960714285718 0.68169120508973802 0.66230091255926804 12.450000000000001 2438.5360219263735 2162.2950000000005 73.990000000000023 0.91628314851554127 1423.7500000000002 559.30000000000007 1361.5000000000002 5975.5500000000002 -1.0000000180025095e-35 0.17445153061224497 -0.88926638608069031 62.275000000000006
decision_type=2 2 2 2 2 2 2 2 2 2 2 2 2 2 2 2 2 2 2 2 2 2
left_child=2 5 17 -4 7 8 13 -3 10 -10 11 -2 19 18 15 -9 -12 20 -6 21 -1 -7
right_child=1 4 3 -5 6 12 -8 14 9 -11 16 -13 -14 -15 -16 -17 -18 -19 -20 -21 -22 -23
leaf_value=0.017741655031944758 0.0016840307498392085 9.6554742526327721e-05 0.0060803458027474796 -0.0013527416095051956 0.0068966197282607361 -0.011240809635640376 -0.0077584634372978266 -0.0075137063462493332 -0.0082367453180390692 0.00030051701771027989 -0.010743497186517363 -0.0017396049090026096 -0.0060684151104781559 0.00031622952922899891 -0.0061569987478565279 -0.00059488790416256003 -0.0043565913024296143 0.025103379320867734 0.00034477774884931193 -0.010744366642190584 0.025347965084858985 -0.0094038671108525439
leaf_weight=47.160204112529755 6.4734693467617017 16.839081645011902 57.659183382987976 47.704081654548645 17.08459185808897 92.112245321273804 10.737551167607306 8.2275511175394076 12.951122453436257 10.411530598998068 12.804081648588182 6.6979590952396393 36.954081475734711 12.280612289905546 16.412244975566864 7.1275510638952246 9.6091836988925916 15.723469257354735 8.78979589790106 35.370407998561859 211.84244892373681 113.90224474668503
leaf_count=52 26 27 28 23 33 25 8 22 37 28 23 14 22 31 15 22 18 13 28 24 304 60
internal_value=0.000537683 -0.0309345 0.0365388 0.0123581 -0.000367285 -0.0397706 0.0218632 -0.0227287 -0.0197911 -0.00588505 -0.028921 -0.0117667 -0.0440019 0.0330584 -0.0352643 -0.0246575 -0.0390019 0.0458127 0.0406483 -0.0456129 0.0463345 -0.0463345
internal_weight=814.875 434.785 380.089 105.363 97.499 337.286 48.8926 48.6064 58.9473 23.3627 35.5847 13.1714 278.339 38.155 31.7673 15.3551 22.4133 274.726 25.8744 241.385 259.003 206.014
internal_count=883 463 420 51 186 277 100 86 146 65 81 40 131 92 59 44 41 369 61 109 356 85
is_linear=0
shrinkage=0.0463345


Tree=6
num_leaves=22
num_cat=0
split_feature=84 38 18 7 6 61 60 69 43 61 82 79 78 6 25 69 82 2 50 8 45
split_gain=414.913 54.0915 43.512 21.3862 21.3163 16.2197 10.1423 8.18038 7.12857 5.61723 5.3496 3.03763 2.61059 2.15709 1.30229 1.19289 0.573934 0.512938 0.307748 5.68434e-14 2.84217e-14
threshold=0.57945242524147045 0.30142857142857149 1.0000000180025095e-35 -0.16236614133076385 0.66655057241353266 3351.0098936477166 6027.2960714285718 74.52500000000002 1698.5000000000002 2666.3713957687301 3277.5000000000005 5323.9500000000016 4452.6500000000005 0.91628314851554127 22.050000000000004 51.630000000000003 5975.5500000000002 -1.0000000180025095e-35 1962.0542857142862 -0.88926638608069031 5463.9354166666681
decision_type=2 2 2 2 2 2 2 2 2 2 2 2 2 2 2 2 2 2 2 2 2
left_child=2 5 16 8 -4 7 13 9 10 11 -3 12 15 17 -11 -2 19 -5 20 -1 -7
right_child=1 3 4 6 -6 18 -8 -9 -10 14 -12 -13 -14 -15 -16 -17 -18 -19 -20 -21 -22
leaf_value=0.016919605109686785 -0.0077547166879152543 -0.0054258872206526419 0.0049283834201005053 0.0065770686096502367 -0.0011870112554107101 -0.010307319261858638 -0.0073989792598640764 7.871718596840063e-05 -0.005634135559722097 -0.0103715763145345 0.0014872626295618038 0.00028659272538235874 -0.008730317451322335 0.00030157720623825724 -0.0080391184323936205 0.00076090273370156081 0.023940227913517336 0.00032880265965230462 -0.0079025625553179636 0.024173480929356717 -0.010071558006044812
leaf_weight=47.160204112529755 9.7482653111219424 13.52142868936062 53.491836547851562 17.08459185808897 51.871428489685059 107.34999999403954 10.737551167607306 14.549081524834035 19.22275522351265 30.84612250328064 15.862244889140127 8.8999999016523343 10.579591765999792 12.280612289905546 20.871428579092026 5.4397959411144248 15.723469257354735 8.78979589790106 38.448979496955872 211.84244892373681 90.553061366081238
leaf_count=52 33 24 27 33 24 38 8 24 28 34 34 14 24 31 35 20 13 28 20 304 35
internal_value=0.000742382 -0.0301707 0.036104 0.000226268 0.0107894 -0.0389575 0.0218632 -0.0234091 -0.0215381 -0.0288225 -0.00718606 -0.0143913 -0.0224519 0.0330584 -0.0384961 -0.010143 0.0458127 0.0406483 -0.0455975 0.0463345 -0.0463345
internal_weight=814.875 434.785 380.089 97.499 105.363 337.286 48.8926 100.934 48.6064 86.3852 29.3837 34.6677 25.7677 38.155 51.7176 15.1881 274.726 25.8744 236.352 259.003 197.903
internal_count=883 463 420 186 51 277 100 184 86 160 58 91 77 92 69 53 369 61 93 356 73
is_linear=0
shrinkage=0.0463345


Tree=7
num_leaves=23
num_cat=0
split_feature=84 38 18 84 61 7 84 66 63 49 34 65 61 84 19 6 73 26 42 69 36 7
split_gain=413.629 55.3267 40.4931 21.3387 20.4408 16.5695 14.3969 6.27322 5.6287 5.48216 4.06558 4.6175 4.11108 2.59119 2.49595 2.80404 2.35952 1.73238 0.700719 0.302744 5.68434e-14 2.84217e-14
threshold=0.32336844503879553 0.30142857142857149 1.0000000180025095e-35 0.00020671339007094505 3259.4303266039201 0.085727341951035305 0.87530058622360241 1819.25 5887.1827122907525 1817.6666666666667 577.50000000000011 29.500000000000004 2561.6516165670196 0.91589894890785228 1.0000000180025095e-35 0.78409092058139029 234.20000000000002 13.250000000000002 3220.0000000000005 47.980000000000004 2897.5000000000005 -0.56532384738233998
decision_type=2 2 2 2 2 2 2 2 2 2 2 2 2 2 2 2 2 2 2 2 2 2
left_child=2 4 20 -4 6 7 -2 9 13 -3 12 -12 -8 -7 15 -11 -15 -13 21 -14 -1 -6
right_child=1 5 3 -5 18 8 10 -9 -10 14 11 17 19 16 -16 -17 -18 -19 -20 -21 -22 -23
leaf_value=0.014757603835861251 0.0062461815902710525 -1.9438610888093962e-05 0.0072359984488372629 -0.0012437431314356855 -0.0098779716752801523 0.0063890976271420361 -0.0037502165135923546 0.0025426844050543238 -0.006070469813612255 -0.005865628259129489 7.5069868032774669e-05 -0.0042320435955440971 -0.0095630677291912453 -0.0033015441953378431 -0.014631175361818531 0.00013472434428786655 0.0038721313753311512 -0.0039008627212528441 -0.0082678666849002949 -0.0096917137348173383 0.023314125168242831 -0.0095475813713320028
leaf_weight=56.028061266988516 10.535714253783224 18.108469516038895 43.914285659790039 53.45714282989502 107.95448991656303 16.578571319580082 12.862346878275273 14.313265264034269 8.9804082065820676 11.221428632736208 13.07887741923332 12.024489730596544 12.661224544048308 6.1254081502556783 15.369387984275816 6.7377551645040503 6.5622449293732643 9.3357142060995084 51.68571412563324 22.631836831569672 209.05928552895784 95.648571372032166
leaf_count=91 15 34 25 25 26 34 38 18 8 31 23 28 23 28 8 20 15 23 25 32 263 50
internal_value=6.72466e-05 -0.0294805 0.0369483 0.0113952 -0.0383329 0.000177578 -0.0197518 -0.0139282 0.024427 -0.0214779 -0.0262583 -0.0141024 -0.0349518 0.0342733 -0.0326279 -0.0208979 0.0185134 -0.0273783 -0.0451114 -0.0431247 0.0463345 -0.0463345
internal_weight=814.875 452.416 362.459 97.3714 348.419 103.997 93.1302 65.7503 38.2466 51.437 82.5945 34.4391 48.1554 29.2662 33.3286 17.9592 12.6877 21.3602 255.289 35.2931 265.087 203.603
internal_count=883 479 404 50 283 196 182 111 85 93 167 74 93 77 59 51 43 51 101 55 354 76
is_linear=0
shrinkage=0.0463345


Tree=8
num_leaves=25
num_cat=0
split_feature=84 38 18 50 7 61 69 74 43 61 82 83 83 78 28 61 28 41 82 82 41 50 8 45
split_gain=444.303 46.8116 29.0793 19.3565 19.2585 17.2391 13.334 11.7657 6.3107 5.30318 4.60937 2.49562 2.44319 2.46387 3.44361 1.88701 2.21385 1.77304 0.83239 0.573934 0.397684 0.307748 5.68434e-14 2.84217e-14
threshold=0.57945242524147045 0.31517857142857147 1.0000000180025095e-35 8016.8314285714296 -0.16236614133076385 3351.0098936477166 74.52500000000002 1012.6500000000002 1698.5000000000002 2810.5219401504824 3277.5000000000005 588.30000000000007 2760.8500000000004 4989.9000000000005 1.2500000000000002 2314.3380446640535 14.750000000000002 1803.5000000000002 3522.0000000000005 5975.5500000000002 407.50000000000006 1962.0542857142862 -0.88926638608069031 5463.9354166666681
decision_type=2 2 2 2 2 2 2 2 2 2 2 2 2 2 2 2 2 2 2 2 2 2 2 2
left_child=2 5 19 -4 8 6 9 -6 10 12 -3 -9 13 14 17 16 -13 18 -2 22 -11 23 -1 -7
right_child=1 4 3 -5 7 21 -8 11 -10 20 -12 15 -14 -15 -16 -17 -18 -19 -20 -21 -22 -23 -24 -25
leaf_value=0.015055397132044977 -0.0062965926717500047 -0.0044965541507132004 -0.00072679360053323652 0.015146749888493629 -0.0063782240450051706 -0.0093873532557241443 0.00035880668776669362 -0.00034869886253365018 -0.0053721802799546964 -0.0063069551907268548 0.0023223821143838965 -0.0011757408203550642 1.7284882046179938e-06 -0.007176808488616385 0.0017514904380430067 0.0039105376277700551 0.0061424158992271893 -0.00079120538429021565 -0.0093209709371226378 0.021750723202301349 -0.0075082681694059756 -0.0070466096400324599 0.022050199262831048 -0.0091377416858728269
leaf_weight=47.160204112529755 7.9234694391489082 13.52142868936062 64.855101823806763 40.508163213729858 14.496938958764074 107.34999999403954 14.549081524834035 3.5693877562880507 19.22275522351265 18.47061225771904 12.451020345091818 4.8806121945381182 9.0510203093290311 15.420408084988592 5.1959183514118186 20.077551126480103 5.1231632307171822 6.4135714173316947 6.0551020354032516 15.723469257354735 22.01122459769249 38.448979496955872 211.84244892373681 90.553061366081238
leaf_count=52 26 24 28 23 22 38 24 9 28 21 31 19 19 27 16 21 26 21 17 13 19 20 304 35
internal_value=0.00128326 -0.030706 0.0378758 0.0171811 -0.00162816 -0.0386552 -0.0230417 0.0187626 -0.023351 -0.0296577 -0.00845572 0.0337963 -0.0195736 -0.0243826 -0.0155659 0.0381429 0.0217023 -0.024146 -0.0334004 0.0458127 -0.0421276 -0.0455975 0.0463345 -0.0463345
internal_weight=814.875 434.785 380.089 105.363 93.3429 341.442 105.09 48.1477 45.1952 90.5413 25.9724 33.6507 50.0595 41.0085 25.5881 30.0813 10.0038 20.3921 13.9786 274.726 40.4818 236.352 259.003 197.903
internal_count=883 463 420 51 180 283 190 97 83 166 55 75 126 107 80 66 45 64 43 369 40 93 356 73
is_linear=0
shrinkage=0.0463345


Tree=9
num_leaves=24
num_cat=0
split_feature=84 38 18 25 61 6 69 83 19 61 74 37 37 25 61 28 54 26 57 17 42 34 34
split_gain=413.322 55.8886 35.3693 22.1751 20.326 15.0891 8.35583 5.45606 5.13207 4.62062 4.13895 3.83621 3.2995 3.11287 2.25553 2.29275 2.22527 2.40957 2.45417 0.918805 0.694971 5.68434e-14 2.84217e-14
threshold=0.57945242524147045 0.30142857142857149 1.0000000180025095e-35 8.8500000000000032 3259.4303266039201 0.66655057241353266 74.52500000000002 1070.4000000000003 1.0000000180025095e-35 2853.2604999642922 1012.2500000000001 2998.5000000000005 3499.0650000000005 22.950000000000003 2314.3380446640535 17.000000000000004 0.39568362074829938 13.250000000000002 0.66230091255926804 4.5000000000000009 3220.0000000000005 3010.0000000000005 124.50000000000001
decision_type=2 2 2 2 2 2 2 2 2 2 2 2 2 2 2 2 2 2 2 2 2 2 2
left_child=2 4 19 10 6 -4 9 11 13 12 -3 -5 16 -9 15 -12 17 18 -2 -1 22 -21 -6
right_child=1 3 5 7 20 -7 -8 8 -10 -11 14 -13 -14 -15 -16 -17 -18 -19 -20 21 -22 -23 -24
leaf_value=0.01433519842420119 -0.0068696086610910588 -0.0089794529587217137 0.0034678680522274991 0.00025324704630798448 -0.0091614643645293453 -0.00090717364263367495 0.00034218157532632846 -0.0044698423140048559 -0.0098313753769480108 -0.0088346616406952318 0.00082467017402883291 -0.003722118888765101 -1.0558592466528919e-05 0.002793922078238214 0.003729344996805971 0.0064676778905847646 -0.01019474994042922 -1.0597641934106517e-05 -0.0021605848372150921 0.0090219265720121559 -0.0077437560832328547 0.021212193905082534 -0.0082295815169492227
leaf_weight=18.140816360712051 11.323469355702406 7.1530612856149665 53.491836547851562 16.988775566220287 99.632041186094284 51.871428489685059 13.059285601601003 9.6744898110628146 16.72449004650116 25.907346934080124 5.7836734652519244 9.869693994522093 13.332653060555456 7.1438774764537802 20.017346978187561 4.1435713917016983 7.6849998980760565 10.992857143282889 7.6887755244970313 52.319999951869249 51.68571412563324 204.26530598104 95.979183554649353
leaf_count=21 28 14 27 39 34 24 23 25 9 27 24 20 27 15 20 20 18 32 22 89 25 259 41
internal_value=0.00157499 -0.0292788 0.0368687 0.00161898 -0.0382104 0.0140454 -0.0193546 -0.0156986 -0.0281598 -0.0251718 0.029815 -0.000136074 -0.0170802 -0.0100866 0.0373791 0.0193216 -0.0240882 -0.0183904 -0.0283746 0.045622 -0.0450719 0.0463345 -0.0463345
internal_weight=814.875 434.785 380.089 97.499 337.286 105.363 89.9894 60.4013 33.5429 76.9301 37.0977 26.8585 51.0228 16.8184 29.9446 9.92724 37.6901 30.0051 19.0122 274.726 247.297 256.585 195.611
internal_count=883 463 420 186 277 51 177 108 49 154 78 59 127 40 64 44 100 82 50 369 100 348 75
is_linear=0
shrinkage=0.0463345


Tree=10
num_leaves=25
num_cat=0
split_feature=84 18 61 27 13 84 9 74 79 43 56 61 27 73 6 59 53 79 84 84 73 83 6 6
split_gain=404.604 50.5498 36.2584 25.8003 10.5315 10.1071 10.0017 9.00833 6.20898 5.34772 3.46201 3.50418 3.4191 3.25104 3.50521 1.51398 1.3864 0.140825 0.274296 0.0843542 0.0660106 0.00600411 2.84217e-14 7.10543e-15
threshold=0.86656945943832409 1.0000000180025095e-35 2856.1048106873368 338.50000000000006 1.0000000180025095e-35 0.5029679834842683 -0.26312423630196802 1015.1500000000002 4859.7000000000007 -794.99999999999989 0.67863875480158165 2729.9567029974874 413.80000000000007 316.95000000000005 0.78409092058139029 339.32269542455418 0.19570102040816331 6005.1500000000005 0.038431955501437194 0.97180947661399852 339.15000000000003 1001.0000000000001 0.54389891703310045 0.96247800481268331
decision_type=2 2 2 2 2 2 2 2 2 2 2 2 2 2 2 2 2 2 2 2 2 2 2 2
left_child=1 5 6 7 16 17 10 -3 -7 -8 11 13 19 14 15 -2 21 20 -19 -11 22 -4 -1 -24
right_child=2 3 4 -5 -6 8 9 -9 -10 12 -12 -13 -14 -15 -16 -17 -18 18 -20 -21 -22 -23 23 -25
leaf_value=0.020229338454494802 -0.0066476537886942869 0.0037897371734581077 -0.0084936867335380761 -0.0016207685851213536 -0.0072477043514789143 0.00080354125419768109 -0.0063301657902881401 -0.00068215429624150553 0.0020778049903093206 0.0033387284770887379 -0.0091101319050131101 0.00024151298235765482 0.00011975168553530147 0.00028272466439657816 0.0043371046557889332 -0.0060043542533452414 -0.005406927435940242 0.020229338454494802 0.0066183064601758436 0.00082572774996346444 0.019968209586703884 -0.0080534986119931845 0.009100794538218035 0.008603900518423243
leaf_weight=194.20214264467359 10.75306122004986 45.64081609249115 167.2387757897377 38.165305972099304 44.002244889736176 20.352040804922581 9.7500000000000018 35.322449088096619 18.087551169097424 7.1704081594944018 13.08469384908676 9.4479592442512494 9.8459183573722822 9.8724489510059339 6.2540816068649283 17.161836624145508 39.073469489812851 20.382040992379189 13.440918400883673 4.4857143070548773 13.859183669090269 38.177550971508026 16.667346775531772 12.436734661459921
leaf_count=238 31 21 66 13 31 36 29 20 25 22 25 19 32 21 20 38 24 25 17 22 29 23 38 18
internal_value=0.00171656 0.0327152 -0.0326713 0.00706848 -0.0409373 0.0425891 -0.00829461 0.0218732 0.0203547 0.0133289 -0.0184454 -0.0132195 0.0262355 -0.0187124 -0.0254791 -0.0325035 -0.044693 0.045743 0.042946 0.0432168 0.0461419 -0.0462148 0.0463345 0.0463345
internal_weight=814.875 428.557 386.318 119.129 288.492 309.428 97.8261 80.9633 38.4396 31.252 66.5741 53.4894 21.502 44.0414 34.169 27.9149 244.49 270.988 33.823 11.6561 237.165 205.416 223.306 29.1041
internal_count=883 480 403 54 144 426 259 41 61 105 154 129 76 110 89 69 113 365 42 44 323 89 294 56
is_linear=0
shrinkage=0.0463345


Tree=11
num_leaves=29
num_cat=0
split_feature=84 38 18 61 84 25 84 66 83 69 7 60 61 42 36 31 45 38 79 42 82 80 58 6 5 7 3 7
split_gain=385.474 66.4729 38.7648 26.2195 21.3387 15.6663 12.5617 8.61042 8.19581 6.02081 5.5269 4.89701 4.37212 3.47672 3.68629 2.40002 1.15365 1.30822 1.10815 0.700719 0.170962 0.452391 0.113458 0.056955 2.84217e-14 2.84217e-14 3.55271e-15 3.55271e-15
threshold=0.32336844503879553 0.30142857142857149 1.0000000180025095e-35 3259.4303266039201 0.00020671339007094505 8.8500000000000032 0.87530058622360241 1819.25 1152.4000000000003 66.555000000000021 -0.62058661934845294 5716.4738988095251 2853.2604999642922 3273.5000000000005 1999.5000000000002 22.450000000000003 5016.229166666667 0.58821428571428591 4088.3500000000008 3220.0000000000005 1393.5000000000002 -155.84999999999988 224.37450624149892 -0.61383352812826175 -0.68301270189221952 -0.56532384738233998 1.0000000180025095e-35 -0.96011450294824408
decision_type=2 2 2 2 2 2 2 2 2 2 2 2 2 2 2 2 2 2 2 2 2 2 2 2 2 2 2 2
left_child=2 3 20 6 -4 11 -2 8 10 12 -7 16 13 14 15 -8 17 -3 -15 25 21 -1 -22 -23 27 -5 -25 -24
right_child=1 5 4 19 -6 7 9 -9 -10 -11 -12 -13 -14 18 -16 -17 -18 -19 -20 -21 22 23 24 26 -26 -27 -28 -29
leaf_value=0.019182812254511163 0.0058870566128130311 0.0035193161813695029 0.0071919722407325793 -0.0081838786639876551 -0.00084857846671857623 -0.0053938962318433661 -9.6571139227368723e-05 0.0021747094468033937 -0.0085151606219398858 0.00028806713288394287 0.00061720693355469083 -0.0077929016210369654 -0.0081056721396220062 -0.0034120474976094442 0.0028701907734954919 -0.0074278129286397309 0.0040999122156484737 0.0051027876209559717 -0.0060368610063535576 -0.0069914030146402623 0.008739095468958083 0.017592350057480437 0.0072643669523036443 0.019220540504182156 0.019292023075861555 -0.007800628374528106 0.019173846531602812 0.0069614073687390031
leaf_weight=6.7642857655882827 10.535714253783224 7.9101019799709338 43.914285659790039 107.95448991656303 53.45714282989502 9.8645919412374479 8.7489795088768059 14.313265264034269 23.829592004418373 15.598265176638959 15.88775520026684 12.199795946478842 23.087755143642426 8.4849999845027941 6.7765306532382956 7.4112244844436637 15.959183752536772 4.0326530784368515 12.486734658479689 51.68571412563324 14.854898020625113 9.0520407855510729 8.807142913341524 12.573469370603563 190.26255079358816 95.648571372032166 9.4239796288311464 13.348979517817495
leaf_count=21 15 37 25 26 25 28 25 18 32 31 35 12 23 27 20 19 19 15 22 25 19 11 20 30 202 50 24 27
internal_value=0.000793325 -0.0277311 0.0363971 -0.0374343 0.0113952 0.00477752 -0.0163899 -0.00946952 -0.0186083 -0.0224677 -0.000487078 0.0274777 -0.0285039 -0.0199209 -0.00745375 -0.0194823 0.0381842 0.027293 -0.0335561 -0.0451114 0.0455807 0.042696 0.0460607 0.0450615 0.0463345 -0.0463345 0.0463345 0.0463345
internal_weight=814.875 452.416 362.459 348.419 97.3714 103.997 93.1302 63.8952 49.5819 82.5945 25.7523 40.1017 66.9962 43.9085 22.9367 16.1602 27.9019 11.9428 20.9717 255.289 265.087 37.8138 227.274 31.0495 212.419 203.603 21.9974 22.1561
internal_count=883 479 404 283 50 196 182 113 95 167 63 83 136 113 64 44 71 52 49 101 354 86 268 65 249 76 54 47
is_linear=0
shrinkage=0.0463345


Tree=12
num_leaves=29
num_cat=0
split_feature=84 38 18 6 61 25 61 34 46 74 68 56 61 84 61 68 68 48 46 61 84 44 82 23 43 58 3 6
split_gain=399.831 47.3411 27.419 17.9684 16.8225 15.3088 7.64272 6.4093 9.5418 5.99498 4.32616 3.8058 3.05599 2.86931 2.71904 1.94913 2.2963 1.98098 1.80898 1.51996 0.918638 2.21482 0.271266 0.488147 0.0847301 2.84217e-14 3.55271e-15 3.55271e-15
threshold=0.79928535223007213 0.30142857142857149 1.0000000180025095e-35 0.66655057241353266 2987.725101544379 12.100000000000001 2856.1048106873368 105.00000000000001 3006.0325624665934 1012.6500000000002 13.950000000000001 0.45547238981751975 3570.5379864083802 0.5029679834842683 2314.3380446640535 13.15 9.0500000000000025 452.50000000000006 2803.7113990349376 1968.9185239265723 0.155048742890358 420.50000000000006 1463.5000000000002 1.0000000180025095e-35 -208.49999999999997 299.62387811951186 -0.22252093395631442 -0.40828930082137055
decision_type=2 2 2 2 2 2 2 2 2 2 2 2 2 2 2 2 2 2 2 2 2 2 2 2 2 2 2 2
left_child=2 4 13 -4 7 9 10 18 15 -3 11 -7 -6 20 19 16 17 -9 -2 -11 22 27 23 24 -1 -24 -26 -22
right_child=1 5 3 -5 12 6 -8 8 -10 14 -12 -13 -14 -15 -16 -17 -18 -19 -20 -21 21 -23 25 -25 26 -27 -28 -29
leaf_value=0.018293987097325045 -0.0014610427056209595 -0.0046888474860883036 0.0038636565764863465 -0.00078916377097872764 -0.0068318477975502214 -0.0040990490055212003 -0.0079610646437620163 -0.0067741175598271955 0.0017060724753099321 0.0039369052742781133 0.0001622960083288733 7.4143376534564282e-05 -0.0076849854399087102 0.0047928066062113348 0.0029940631123209433 0.00020499539501400937 -0.0058225762324566705 0.00079194267556706379 -0.0084106442232826945 -0.00031388283505724772 0.0059600000139709832 0.00042574470367515019 0.018398137694753871 0.013503336198980129 0.01841354906463263 0.018398137694753871 0.018401449800777011 0.006008511031211845
leaf_weight=8.5295918211340886 11.266428461298348 11.207142964005468 61.491836547851562 51.871428489685059 78.631836801767349 9.7816327363252658 14.465306311845778 6.6816325634717959 8.385714262723921 5.2374489679932612 10.027857154607771 12.269387692213057 175.41734692454338 18.930612228810787 18.501020520925522 10.004081696271895 13.468673363327978 6.9255101829767227 14.941836863756178 4.3795918524265289 10.767346829175949 15.504183664917944 95.170816481113434 10.026530630886553 11.561224557459353 90.959795780479908 13.203571368008854 15.265306010842323
leaf_count=17 22 18 28 24 39 21 11 18 14 33 22 29 75 31 19 25 27 26 26 10 11 26 96 22 25 111 27 30
internal_value=0.0028561 -0.0292707 0.0356449 0.016324 -0.037339 0.00133444 -0.0166484 -0.0175145 -0.00699473 0.0226184 -0.00404032 -0.0155149 -0.0429321 0.0431997 0.0340398 -0.0170891 -0.0235464 -0.0101217 -0.035764 0.0140552 0.044418 0.0380775 0.0455659 0.0422636 0.0449627 0.0463345 0.0463345 0.0463345
internal_weight=814.875 411.592 403.282 113.363 325.723 85.8694 46.5442 71.6739 45.4656 39.3252 32.0789 22.051 254.049 289.919 28.1181 37.0799 27.0758 13.6071 26.2083 9.61704 270.988 41.5368 229.452 43.3209 33.2944 186.131 24.7648 26.0327
internal_count=883 435 448 52 272 163 83 158 110 80 72 50 114 396 62 96 71 44 48 43 365 67 298 91 69 207 52 41
is_linear=0
shrinkage=0.0463345


Tree=13
num_leaves=30
num_cat=0
split_feature=84 61 18 6 84 7 47 83 78 84 72 47 28 84 73 50 52 82 84 61 48 73 79 27 59 66 78 7 49
split_gain=383.175 42.5253 29.476 15.4902 11.514 11.3164 8.33092 7.97707 4.69337 3.45046 3.82198 4.51486 3.38281 3.29424 2.10854 2.35225 1.86318 1.66409 1.17921 1.01391 1.54729 0.553971 0.49661 0.106434 0.0891652 0.00679232 0.00497092 2.84217e-14 7.10543e-15
threshold=0.79928535223007213 3044.0119868370143 1.0000000180025095e-35 0.66655057241353266 0.96647542715072643 -0.068612210320797326 9550.0000000000018 3000.5000000000005 4659.9500000000007 0.90440937876701366 39.400000000000013 8944.8800000000028 0.3499999999999997 0.5029679834842683 145.75000000000003 1564.8571428571429 0.15425625000000023 3396.5000000000005 0.98912024497985851 2390.0679844163183 1162.5000000000002 337.9500000000001 3821.1000000000004 42.100000000000009 350.65097569373427 984.20000000000016 4250.8500000000013 0.27122391875406221 4982.043333333334
decision_type=2 2 2 2 2 2 2 2 2 2 2 2 2 2 2 2 2 2 2 2 2 2 2 2 2 2 2 2 2
left_child=2 5 13 -4 -3 6 7 8 12 -7 11 18 14 19 -2 -16 25 -10 -11 20 -1 22 -22 -21 26 -6 -24 -25 -28
right_child=1 4 3 -5 16 9 -8 -9 17 10 -12 -13 -14 -15 15 -17 -18 -19 -20 23 21 -23 24 27 -26 -27 28 -29 -30
leaf_value=0.0059856937108765914 -0.0039091218025486965 -0.0027790840653181422 0.0036846361534979975 -0.00075259829749760201 -0.0075666195768107633 0.0031921620045424013 0.00012150361983128022 0.00019549704504434278 -0.0084504457171426708 0.0036355287398111571 0.0028553348288385262 -0.0088155883729262655 0.0039251349653424226 0.0045707345226915332 0.0015311244031957253 -0.0068198300214820547 -0.0066080012276706467 -0.005050125028944849 -0.00014499522096241371 0.017775693068725715 0.0086796032012275547 0.0073478854642937286 0.017777943612873551 0.010467891750847792 0.0059620561776186362 -0.0071422655315604346 0.0086171618306251016 0.017545670005892147 0.017446345169665721
leaf_weight=13.229081701487301 13.345918476581575 63.593877464532852 61.491836547851562 51.871428489685059 135.85714316368103 9.1232653483748454 11.506122350692747 16.04693877696991 23.37653061747551 3.4520408287644404 7.1282654032111159 5.3969387114048004 6.0908164083957663 18.930612228810787 5.9724489450454739 10.826122403144835 47.843877673149109 15.552040785551069 3.401326498016715 11.26530611515045 5.1255101859569541 10.210612282156942 9.325510270893572 57.992857038974762 10.87448976933956 33.078775465488434 27.305204048752785 112.40163254737854 13.258163183927534
leaf_count=28 39 37 28 24 42 22 8 26 33 18 23 11 21 31 20 37 22 27 22 9 13 27 21 78 29 27 54 81 25
internal_value=0.00282152 -0.028629 0.0349202 0.0148876 -0.0388178 -0.00685873 -0.0140264 -0.0187131 -0.0250444 0.0189725 0.00791084 -0.00778577 -0.0130436 0.0427532 -0.0194073 -0.00848468 -0.0439035 -0.036215 0.017176 0.0440586 0.0400169 0.0425595 0.0441157 0.0460461 0.045284 -0.0461895 0.0461127 0.0463345 0.0463345
internal_weight=814.875 411.592 403.282 113.363 280.374 131.219 102.717 91.2108 75.1639 28.5018 19.3786 12.2503 36.2353 289.919 30.1445 16.7986 216.78 38.9286 6.85337 270.988 89.3286 76.0995 65.8889 181.66 60.7634 168.936 49.8889 170.394 40.5634
internal_count=883 435 448 52 128 307 211 203 177 96 74 51 117 396 96 57 91 60 40 365 197 169 142 168 129 69 100 159 79
is_linear=0
shrinkage=0.0463345


Tree=14
num_leaves=33
num_cat=0
split_feature=84 38 18 61 84 7 45 69 66 47 43 68 60 68 83 68 84 44 61 46 69 50 81 82 23 34 79 7 82 7 74 3
split_gain=320.122 59.0388 35.9664 27.1663 17.8629 13.1626 11.2284 10.501 5.52746 5.03442 4.7582 4.65999 4.6374 4.54865 6.72532 4.34584 3.53688 7.77971 3.30054 3.15192 2.13899 1.25165 0.787108 0.611229 1.07989 0.25353 0.205958 0.120439 0.00729323 2.84217e-14 2.84217e-14 3.55271e-15
threshold=0.32336844503879553 0.26699404761904771 1.0000000180025095e-35 3351.0098936477166 0.00020671339007094505 0.17082345007074981 6164.4787500000011 74.52500000000002 1854.8000000000002 11043.500000000002 1698.5000000000002 12.450000000000001 6027.2960714285718 14.050000000000002 1070.4000000000003 7.8500000000000005 0.155048742890358 420.50000000000006 3570.5379864083802 2746.7008917560506 39.165000000000013 1763.0714285714287 -233.80000000000015 1463.5000000000002 1.0000000180025095e-35 4995.0000000000009 4639.5000000000009 -0.41610936647687707 2249.5000000000005 -0.41610936647687707 1021.9500000000002 -0.22252093395631442
decision_type=2 2 2 2 2 2 2 2 2 2 2 2 2 2 2 2 2 2 2 2 2 2 2 2 2 2 2 2 2 2 2 2
left_child=2 3 16 7 -4 6 9 8 11 10 13 15 20 14 -3 -2 23 -18 -5 -10 -7 -22 -23 24 25 -1 29 -25 -24 -20 -29 -27
right_child=1 5 4 18 -6 12 -8 -9 19 -11 -12 -13 -14 -15 -16 -17 17 -19 26 -21 21 22 28 27 -26 31 -28 30 -30 -31 -32 -33
leaf_value=0.016853354940125576 -5.5123486259334976e-05 0.0037432659746929019 0.0067574471730502926 -0.0094782084946862574 -0.00070217486753444431 -0.0084071228874022814 -0.0044844497775458599 0.00080689992985336545 -0.0015218530703593528 -0.00024484863017107503 -0.0034740091628935373 0.00021203149480197419 -0.0047901641846888757 0.0020573673228786618 -0.0044696437187499733 -0.0069433150632289302 0.0051399087499953344 6.6978168735539872e-05 -0.0072860663294867364 -0.006990703219111479 0.00058877220724750723 0.0034670784958769083 0.0049171408825116223 0.0057083498531121145 0.012069299570650109 0.015439012271047154 -0.0060440771713197493 0.016773319564986341 0.0029223960050217199 -0.0053989781584094483 0.016732700943065844 0.016742625286431948
leaf_weight=9.2954081483185274 16.391836866736416 9.4094898849725777 43.914285659790039 51.036734700202942 53.45714282989502 1.6377550959587122 14.02653071284294 14.549081524834035 20.663265138864517 9.5183674097061139 17.19724503159523 13.308163225650786 10.372244909405707 8.964285731315611 13.524489834904669 15.315306037664412 21.783673301339149 13.852142855525015 102.3489795923233 21.518571555614471 1.8132653012871767 5.0632652640342775 9.8101019784808141 20.98469389975071 10.026530630886553 12.177551090717314 33.731632679700851 109.07346913218498 10.592857167124746 51.622448801994324 56.07244922965765 11.821428507566454
leaf_count=27 29 25 25 16 25 3 13 24 35 6 33 32 8 19 29 31 34 22 24 28 9 24 30 38 22 21 23 107 10 28 62 21
internal_value=0.00135984 -0.0246344 0.0338054 -0.0342312 0.00972293 0.00455875 -0.00712686 -0.0141831 -0.0202634 0.0017846 -0.00419454 -0.0089707 0.0261637 0.00639679 -0.00454226 -0.0186289 0.0426514 0.0290707 -0.0427753 -0.0323147 0.0356974 0.0387851 0.0414335 0.0447606 0.0398036 0.0438181 -0.0456161 0.0459143 0.0454914 -0.0463345 0.0463345 0.0463345
internal_weight=814.875 452.416 362.459 340.486 97.3714 111.93 72.6404 101.746 87.1971 58.6139 49.0955 45.0153 39.2895 31.8983 22.934 31.7071 265.087 35.6358 238.74 42.1818 28.9172 27.2795 25.4662 229.452 43.3209 33.2944 187.703 186.131 20.403 153.971 165.146 23.999
internal_count=883 479 404 270 50 209 125 179 155 112 106 92 84 73 54 60 354 56 91 63 76 73 64 298 91 69 75 207 40 52 169 42
is_linear=0
shrinkage=0.0463345


Tree=15
num_leaves=30
num_cat=0
split_feature=84 61 37 60 52 7 39 62 56 73 77 84 44 61 36 73 69 58 83 18 75 6 61 84 83 2 73 58 56
split_gain=352.287 44.3011 26.9951 19.8087 16.122 14.8516 10.154 6.53358 5.70898 5.52325 4.24339 4.07786 5.46716 4.036 4.7332 3.7369 3.42365 3.28342 2.74104 2.59572 1.98971 0.967675 0.790147 1.28271 2.11666 0.283392 0.0824465 2.84217e-14 7.10543e-15
threshold=0.82141324877738964 3351.0098936477166 14.500000000000002 7827.7201488095243 0.63906557539682562 -0.10281720934011651 0.26113095238095246 5012.2606972089261 0.41727301900813379 113.20000000000002 3.5000000000000004 0.155048742890358 1250.5000000000002 2574.5226239907165 2999.5000000000005 194.45000000000002 64.855000000000004 321.48450167937557 1408.1000000000001 1.0000000180025095e-35 99.950000000000017 0.39255950267913386 2360.952321861866 0.036753747612237937 1326.3500000000001 -0.60785761079279388 197.90000000000003 327.90028725232509 0.36794748474680988
decision_type=2 2 2 2 2 2 2 2 2 2 2 2 2 2 2 2 2 2 2 2 2 2 2 2 2 2 2 2 2
left_child=2 5 -1 11 -5 7 19 9 -9 -2 20 22 17 14 18 -12 21 26 -11 -3 -7 -15 23 25 -25 -4 -13 -24 -27
right_child=1 6 3 4 -6 10 -8 8 -10 13 15 12 -14 16 -16 -17 -18 -19 -20 -21 -22 -23 27 24 -26 28 -28 -29 -30
leaf_value=-0.0043378589648396457 0.00011241761449733796 -0.0065649703593874406 0.013726943923346845 -0.0006757727300318794 0.014870190306602492 0.00076951266111143619 -0.0057871741871092786 -0.0020250389087280007 7.3136120411916982e-05 -0.0031998286560259563 -0.0059812627938600925 0.00029913531607485603 0.00041848406366136307 -0.0066448034176687003 -0.0053881953916620944 0.0037722140594626651 -0.001819963009866931 0.00035574203952030319 0.0024518730424793393 -0.0066894519684821312 0.00116554666558723 -0.0067828734447480509 0.015955518317229741 0.0035462911914487861 0.005847631984647216 0.016072463918776612 0.0051430412045095925 0.015955518317229741 0.016084619793939697
leaf_weight=18.363265156745911 15.79795917868614 53.713265269994736 11.154897995293139 37.344897985458374 34.967347025871277 12.906122505664827 38.853061318397522 14.231938824057577 17.776530593633652 7.3717346936464327 7.7589795589447004 28.819387473165989 14.615306101739405 28.804081618785858 8.593877509236334 6.0714286267757416 14.12979596853256 19.733775481581688 6.0846939235925674 156.43061244487762 6.7622448708862057 13.375510185956953 112.90612244606018 10.621428549289705 9.6540815979242307 23.05122447758913 18.347959101200104 51.044489741325378 15.588673505932091
leaf_count=7 34 34 22 21 20 28 20 29 28 26 27 18 26 35 18 15 17 31 16 49 32 23 96 32 16 53 30 44 36
internal_value=0.00329659 -0.0270774 0.0338537 0.0364527 0.0145791 -0.00802623 -0.0392936 -0.0153079 0.00277653 -0.0214556 0.0193985 0.0414656 0.0325407 -0.0264944 -0.00969024 -0.000267331 -0.0330747 0.0381493 0.00746527 -0.0433169 0.0332272 -0.0396874 0.0445743 0.040456 0.0306316 0.0444563 0.0447888 0.0463345 0.0463345
internal_weight=814.875 408.662 406.213 387.85 72.3122 159.665 248.997 126.166 32.0085 94.1577 33.4988 315.537 81.5164 78.3597 22.0503 13.8304 56.3094 66.9011 13.4564 210.144 19.6684 42.1796 234.021 70.0703 20.2755 49.7948 47.1673 163.951 38.6399
internal_count=883 431 452 445 41 328 103 226 57 169 102 404 105 135 60 42 75 79 42 83 60 58 299 159 48 111 48 140 89
is_linear=0
shrinkage=0.0463345


Tree=16
num_leaves=33
num_cat=0
split_feature=84 52 61 45 58 84 46 7 60 84 43 62 43 74 77 79 73 73 80 80 82 56 53 19 79 84 79 6 51 46 37 6
split_gain=342.804 34.1671 26.5106 20.3381 24.491 11.8785 10.2957 9.74274 8.35715 7.53943 7.00628 6.62357 6.33123 5.42624 4.2653 4.14097 3.47983 3.20644 2.4406 2.90734 2.05005 1.79579 1.60491 0.899468 2.07765 0.570992 0.206199 0.119899 0.0475433 0.008828 2.84217e-14 3.55271e-15
threshold=0.93108409643173229 0.56937500000000008 3351.0098936477166 5765.161250000001 203.40036254897134 0.61916095018386852 3212.0985290367676 -0.14540367380369007 3803.51005952381 0.17056694626808169 267.09999999999997 4832.3520348646371 298.50000000000006 1030.9000000000003 3.5000000000000004 4250.8500000000013 309.40000000000003 270.70000000000005 -132.40000000000006 -426.64999999999981 2555.5000000000005 0.64906557697364331 0.48605442176870767 1.0000000180025095e-35 3662.7500000000005 0.041742917150259025 4731.8500000000013 -0.67924831531502416 1963.2085714285718 1716.5312372032938 5178.5000000000009 0.40828930082137049
decision_type=2 2 2 2 2 2 2 2 2 2 2 2 2 2 2 2 2 2 2 2 2 2 2 2 2 2 2 2 2 2 2 2
left_child=1 3 8 4 -1 22 -5 17 18 13 20 14 -13 23 -10 -16 26 -7 19 -2 -11 -17 28 24 -3 27 -4 -26 -6 -29 -25 -31
right_child=2 9 16 6 5 7 -8 -9 11 10 -12 12 -14 -15 15 21 -18 -19 -20 -21 -22 -23 -24 30 25 -27 -28 29 -30 31 -32 -33
leaf_value=-0.0017599882556860957 0.0045823332357309027 0.0053352505056005429 -0.0066123955790884422 -0.00074712201893167125 0.0020219476619149192 -0.0032322798161941056 0.00028895140938514955 0.0049047411916458413 -0.00087318655120445748 0.00044885995299685165 -0.00091994509670020072 -0.005529763595655394 0.0006041682960794359 0.0055993946452395135 -0.0057041242402221092 -0.0047937480345359891 -0.0056144271233936355 6.453548386246075e-05 0.00098139808456272301 -0.00075006955245886719 0.0034810586530214611 -0.0063369200706484352 0.0048002603347392014 0.01510114078234834 0.015590717039555035 0.005740197480262269 -0.0056774780040138827 0.015219992462272146 0.0051729097290515299 0.015495677560107371 0.015435593136270529 0.012567994431773059
leaf_weight=11.665816251188515 4.1275510191917428 5.0959182679653159 130.5448979139328 23.85204091668129 42.071428284049034 12.003061175346376 49.577550888061523 14.944897934794424 13.347959190607069 14.297755144536497 13.930612295866011 15.470714345574381 8.8908163309097272 19.672040894627571 12.193163231015204 18.656122475862503 63.061224699020386 13.790816277265547 6.6312244758009902 6.2851020377129325 14.556224480271338 27.111428514122963 19.36428577452898 57.212244868278503 4.9112245142459861 13.682653024792669 32.821428626775742 5.4510204195976248 16.596938893198967 17.908163338899616 93.55714276432991 11.591224461793898
leaf_count=9 24 14 46 23 35 23 28 28 15 30 23 35 13 29 37 29 22 19 22 31 14 30 28 36 12 30 23 21 32 38 61 23
internal_value=0.00279343 0.0281675 -0.0328002 0.0138281 0.0248086 0.0311009 -0.00567712 0.0108211 -0.0144391 0.0389204 0.0210659 -0.0197644 0.00109401 0.042255 -0.0268903 -0.0323284 -0.0419403 -0.00642648 0.0154524 0.00146027 0.0340941 -0.0387209 0.0416884 0.0444406 0.0395714 0.042262 -0.0455091 0.0450653 0.045506 0.0460179 0.0463345 0.0463345
internal_weight=814.875 475.733 339.142 203.867 130.437 118.771 73.4296 40.7388 112.714 271.866 42.7846 95.6702 24.3615 229.082 71.3087 57.9607 226.428 25.7939 17.0439 10.4127 28.854 45.7676 78.0327 209.41 58.6402 53.5443 163.366 39.8616 58.6684 34.9504 150.769 29.4994
internal_count=883 556 327 225 174 165 51 70 236 331 67 159 48 264 111 96 91 42 77 55 44 59 95 235 138 124 69 94 67 82 97 61
is_linear=0
shrinkage=0.0463345


Tree=17
num_leaves=34
num_cat=0
split_feature=84 38 61 60 25 58 84 25 61 6 84 84 62 78 47 83 49 36 58 25 84 55 73 61 56 61 6 2 74 57 42 78 4
split_gain=318.219 35.1972 26.8286 18.7903 26.222 22.4159 8.97631 7.63724 7.38492 6.80406 5.84711 5.44532 5.67223 4.99153 4.80102 4.69591 4.4717 4.39067 3.31901 2.35292 1.65517 3.68164 1.50894 0.980825 1.46104 0.759019 0.710949 0.619745 0.610205 0.20158 0.356911 0.140114 1.42109e-14
threshold=0.93108409643173229 0.70866071428571431 3351.0098936477166 7787.4899404761918 18.750000000000004 224.37450624149892 0.82141324877738964 15.750000000000002 2633.0974496852255 -0.60019216940316611 0.57945242524147045 0.85953545570373546 5452.3349024727759 4694.8500000000013 8361.5000000000018 1363.7500000000002 1767.6666666666667 1497.5000000000002 349.73133811095437 5.4500000000000011 0.024778602644801143 114.00000000000001 224.05000000000004 2550.732381130766 0.45547238981751975 2448.6476316787616 0.25467112024122879 -0.8783796973249266 1020.5500000000001 0.99599893477573487 6699.0000000000009 5112.5500000000011 -0.5
decision_type=2 2 2 2 2 2 2 2 2 2 2 2 2 2 2 2 2 2 2 2 2 2 2 2 2 2 2 2 2 2 2 2 2
left_child=1 3 7 4 6 -6 18 9 15 -2 20 12 25 -10 19 22 28 -8 23 -11 27 -22 -9 24 31 -7 -15 -3 -4 30 -29 -1 -31
right_child=2 10 16 -5 5 11 17 8 13 14 -12 -13 -14 26 -16 -17 -18 -19 -20 -21 21 -23 -24 -25 -26 -27 -28 29 -30 32 -32 -33 -34
leaf_value=0.0039458616038132105 0.00077431633433908608 0.014502910308081427 -0.0063373807429508051 -0.000664818431861602 -0.001678440158501439 0.004933225774372124 0.0009717669342764908 -0.0071279783311263226 -7.8583479831882021e-05 0.00087191812594106764 0.0011534797304554173 -0.00034302177585262823 -0.00019718408204289016 -0.006107873089468952 -0.0050366552989501278 0.0025603825446476394 -0.0044870104247117376 -0.0050959111380953518 0.0036899038831269418 -0.00017349337620575946 0.0047540352643371635 0.0083353804654355476 0.00025045989255907599 0.003995284027844998 0.0010921034243853605 0.0032984112776569133 -0.0039647427694414344 0.011985663255398857 -0.0059159916029646303 0.014727866437837318 0.014595016771429277 0.014630356206947906 0.014719489862817214
leaf_weight=5.4367347136139896 6.7836734950542441 23.569183625280857 125.62142857909203 53.473469376564026 21.889795899391174 12.719387739896776 12.648979693651201 10.210510209202772 16.431632578372955 7.3795918729156273 17.713061287999153 12.384693771600721 9.315306216478346 22.896122574806213 15.892857015132902 8.8530612438917142 48.563265323638916 12.67244905233383 23.336122393608093 4.021428570151329 15.038775533437727 19.998979687690735 7.7880612313747397 62.637754619121552 7.162755135446786 10.499999999999998 12.457142829895018 15.97755114734173 52.242857336997986 27.109183579683304 11.091836661100386 10.037857130169867 91.019183605909348
leaf_count=21 6 28 43 30 11 17 15 34 31 38 33 25 17 23 21 21 21 25 30 20 31 21 22 39 19 25 20 27 27 22 19 27 74
internal_value=0.0023064 0.0267537 -0.0319872 0.014989 0.0214906 -0.00222002 0.0333181 -0.0135163 -0.021456 0.00480521 0.0402549 0.0165156 0.0264689 -0.0316807 -0.00551655 -0.00173719 -0.0411819 0.0084752 0.03911 0.0174274 0.0424742 0.03331 -0.0153268 0.0433471 0.0350812 0.038723 -0.0414879 0.0443768 -0.0445843 0.045508 0.0419015 0.0430897 0.0463345
internal_weight=814.875 475.733 339.142 254.215 200.742 66.8092 133.933 112.714 78.6365 34.0776 221.518 44.9194 32.5347 51.7849 27.2939 26.8516 226.428 25.3214 108.611 11.401 203.805 35.0378 17.9986 85.2751 22.6373 23.2194 35.3533 168.767 177.864 145.198 27.0694 15.4746 118.128
internal_count=883 556 327 301 271 95 176 236 151 85 255 84 59 74 79 77 91 40 136 58 222 52 56 106 67 42 43 170 70 142 46 48 96
is_linear=0
shrinkage=0.0463345


Tree=18
num_leaves=35
num_cat=0
split_feature=84 38 61 60 58 59 25 44 6 84 61 38 7 83 56 43 48 49 78 69 57 73 23 68 6 61 84 52 74 83 83 60 63 6
split_gain=313.093 33.3313 28.303 19.39 23.8646 11.0891 7.63657 7.35763 7.09417 6.93928 6.83358 5.4211 6.15181 4.69591 4.65931 4.58473 5.1376 4.4717 4.46699 3.79232 2.60718 1.50894 1.49623 2.56656 1.28492 1.09352 2.78515 1.05178 0.610205 0.360227 0.662704 0.0469997 0.0468928 1.42109e-14
threshold=0.93108409643173229 0.72205357142857152 3351.0098936477166 7787.4899404761918 203.40036254897134 392.20531732403123 15.750000000000002 2820.5000000000005 1.0000000180025095e-35 0.17445319145917895 2633.0974496852255 0.57133928571428583 0.20454453068330622 1363.7500000000002 0.47536991714000448 -1060.9999999999998 449.50000000000006 1767.6666666666667 4694.8500000000013 57.305000000000014 0.61351727877829643 224.05000000000004 1.0000000180025095e-35 -2.5499999999999994 0.25467112024122879 2619.6548070856811 0.28904344141483312 0.38104166666666683 1020.5500000000001 665.45000000000016 488.70000000000005 4136.5150000000003 4710.8747074434787 -0.65365639399891895
decision_type=2 2 2 2 2 2 2 2 2 2 2 2 2 2 2 2 2 2 2 2 2 2 2 2 2 2 2 2 2 2 2 2 2 2
left_child=1 3 6 4 -1 7 8 11 -2 22 13 20 14 21 -13 -10 -17 28 -12 -7 -6 -8 29 -24 -20 26 -22 -18 -4 30 -3 -27 -31 -34
right_child=2 9 17 -5 5 19 10 -9 15 -11 18 12 -14 -15 -16 16 27 -19 24 -21 25 -23 23 -25 -26 31 -28 -29 -30 32 -32 -33 33 -35
leaf_value=-0.0016006705479816516 0.00073843880874745313 0.011080050137402328 -0.0060437416581144883 -0.00063401443193918875 0.002813148833842859 -0.00039813669284985442 -0.0067977073376700474 0.0046620601583838113 -0.0082132612420246168 0.0010996027898683295 -7.4942357097263911e-05 0.0047191964764845247 0.0038101647185936954 0.0024417486140482377 -0.00018804766500502042 -0.0013919290885095305 0.00083151827449797476 -0.0042791072406985443 -0.0058248681167469034 3.8753693638343479e-05 0.0043492645575759579 0.00023885496985957575 0.013829748181133448 0.013708489610963595 -0.003781038572762838 0.0044923633708279327 0.0029960855077663323 0.0016319008715528953 -0.0056418773544044259 0.01256808843974338 0.011941160262860484 0.00077812256448522876 0.014064140327518721 0.014048602685904056
leaf_weight=18.112754944711924 7.2183673679828635 13.854081526398661 125.62142857909203 53.473469376564026 10.37959188967943 9.6469387114048022 10.210510209202772 19.287755228579044 6.6102039515972164 18.26306127011776 16.431632578372955 10.85204076766968 25.8714285120368 8.8530612438917142 12.540816336870192 10.456122463569047 5.3806122690439206 48.563265323638916 22.896122574806213 12.004081703722475 14.793265327811243 7.7880612313747397 20.694693751633167 32.349591851234436 12.457142829895018 10.794897854328154 8.5684693902730924 4.412244901061058 52.242857336997986 1.7642857581377018 9.3285714015364629 56.329591512680054 26.104081809520721 90.719591945409775
leaf_count=13 7 25 43 30 25 15 34 23 19 34 31 23 39 21 18 19 18 21 23 25 28 22 23 37 20 8 22 22 27 3 23 44 24 74
internal_value=0.00227831 0.0265279 -0.0317379 0.0154814 0.0218465 0.0266651 -0.0127663 0.0306555 0.00555442 0.0401446 -0.0207057 0.0341165 0.0215179 -0.00173719 0.00429895 -0.00540516 0.0055324 -0.0411819 -0.0305412 -0.00455964 0.0402698 -0.0153268 0.0427048 0.0360663 -0.0398188 0.0427928 0.0341587 0.0296488 -0.0445843 0.0451886 0.0399061 0.0457977 0.0462212 0.0463345
internal_weight=814.875 475.733 339.142 262.655 209.182 191.069 112.714 169.418 34.0776 213.078 78.6365 150.13 49.2643 26.8516 23.3929 26.8592 20.249 226.428 51.7849 21.651 100.866 17.9986 194.815 53.0443 35.3533 90.4862 23.3617 9.79286 177.864 141.771 23.1827 67.1245 118.588 116.824
internal_count=883 556 327 313 283 270 236 230 85 243 151 207 80 77 41 78 59 91 74 40 127 56 209 60 43 102 50 40 70 149 48 52 101 98
is_linear=0
shrinkage=0.0463345


Tree=19
num_leaves=32
num_cat=0
split_feature=84 21 38 61 60 59 25 6 84 84 74 61 39 78 45 47 38 7 78 83 83 75 82 74 6 45 2 44 81 74 6
split_gain=266.859 61.8424 27.3334 26.4753 21.2135 10.0931 8.71848 6.71419 6.46962 6.35023 7.16558 5.90656 5.86893 5.75652 5.73669 5.07115 4.57362 4.54082 4.46699 3.6835 2.45044 1.89545 1.55836 1.39282 1.28492 1.2382 0.601897 0.733936 0.246311 0.0361886 0.00428312
threshold=0.93108409643173229 1.0000000180025095e-35 0.72205357142857152 3351.0098936477166 7787.4899404761918 387.9538642755212 15.750000000000002 1.0000000180025095e-35 0.17445319145917895 0.5029679834842683 1022.9500000000002 2633.0974496852255 0.19812500000000002 4652.9000000000005 5278.5216666666674 8361.5000000000018 0.62492232142857163 0.22131713103510547 4694.8500000000013 2158.6500000000001 1054.9500000000003 77.90000000000002 3484.5000000000005 1020.5500000000001 0.25467112024122879 4381.5625000000009 -0.60785761079279388 56.809999999999953 87.600000000000151 1021.85 0.36876293119226028
decision_type=2 2 2 2 2 2 2 2 2 2 2 2 2 2 2 2 2 2 2 2 2 2 2 2 2 2 2 2 2 2 2
left_child=1 2 4 6 5 9 7 -2 21 16 13 19 23 -11 -7 20 25 -18 -13 22 -9 -4 -8 -5 -20 -1 27 -23 30 -27 -28
right_child=3 -3 8 12 -6 14 11 15 -10 10 -12 18 -14 -15 -16 -17 17 -19 24 -21 -22 26 -24 -25 -26 29 28 -29 -30 -31 -32
leaf_value=0.0064931745915299188 0.00070422364876208921 -0.00036708440104631372 0.01316779822102845 -0.0057785377292488187 -0.00060463771857464531 5.8900965258213334e-05 -0.0069814943368210446 0.0027229437499822263 0.0010486532935390224 0.0008906867574932629 0.003429746424144833 -7.1469943801282844e-05 -0.0041597526346157819 -0.0034482839637991758 -0.0010876677082948 -0.0049566127764558102 -1.649957172223974e-05 0.0036336228117044862 -0.005554976025286827 0.0023286115220048109 -0.00010096037896829463 0.013415738426345544 -1.7095992877970932e-05 -0.0048492818022149225 -0.0036058462099760728 0.0051532385949641995 0.013398097430551066 0.0089845536539887999 0.011274050676505703 0.0046983097164160076 0.013635446237405447
leaf_weight=13.585204135626553 7.2183673679828635 35.673469066619873 30.783877469599247 135.22142860293388 53.473469376564026 17.453061252832416 9.0441837310791069 5.2735714893788117 18.26306127011776 20.253061190247536 16.929591804742813 16.431632578372955 40.510204076766968 15.369387835264204 10.522448897361754 15.458163142204283 12.793877527117731 12.903061233460901 22.896122574806213 6.4112244546413413 6.1274489536881447 22.633469343185425 11.396224498748778 50.695918560028076 12.457142829895018 40.542857006192207 86.160816550254822 18.732653059065342 20.041836768388748 13.155612230300902 16.462244853377342
leaf_count=31 7 7 34 46 30 38 29 22 34 38 20 31 19 23 13 20 19 21 23 14 36 26 34 26 20 51 84 22 21 22 22
internal_value=0.000141618 0.0225293 0.0272857 -0.0312628 0.0160973 0.023961 -0.0129139 0.00666158 0.0392042 0.0288606 0.0159864 -0.0213971 -0.0403968 0.00419147 -0.00152781 -0.00400044 0.036137 0.0195086 -0.0305412 -0.0037621 0.0194428 0.0416762 -0.0133732 -0.0438789 -0.0398188 0.0424877 0.0436561 0.0388229 0.0452861 0.0456493 0.0462036
internal_weight=814.875 475.733 440.06 339.142 226.982 173.508 112.714 34.0776 213.078 145.533 52.552 78.6365 226.428 35.6224 27.9755 26.8592 92.9806 25.6969 51.7849 26.8516 11.401 194.815 20.4404 185.917 35.3533 67.2837 164.031 41.3661 122.665 53.6985 102.623
internal_count=883 556 549 327 306 276 236 85 243 225 81 151 91 61 51 78 144 40 74 77 58 209 63 72 43 104 175 48 127 73 106
is_linear=0
shrinkage=0.0463345


Tree=20
num_leaves=37
num_cat=0
split_feature=38 84 27 61 18 27 59 61 47 84 35 38 48 84 56 20 35 79 42 57 48 82 84 25 59 44 47 34 2 46 79 62 19 74 83 45
split_gain=262.768 35.3328 34.9063 25.3692 18.4419 10.701 10.65 9.83985 8.96137 10.152 8.82358 8.21549 12.2077 6.94928 6.72094 6.63527 6.129 4.5723 4.91732 4.28362 3.63082 3.23143 3.2155 4.63146 2.4694 2.1496 1.44704 4.73874 0.781191 0.653188 0.514196 0.440862 0.429703 0.560266 0.0319608 2.84217e-14
threshold=0.30401785714285717 0.32336844503879553 285.00000000000006 3351.0098936477166 1.0000000180025095e-35 583.45000000000016 279.86201381007453 3640.8728550795445 10475.000000000002 0.86656945943832409 2498.0000000000005 0.6864285714285715 5207.0000000000009 0.9328463375568391 0.57747564932456086 1.0000000180025095e-35 952.50000000000011 5305.4500000000016 3945.0000000000005 0.85933798927593974 498.50000000000006 3313.5000000000005 0.016593991778790954 5.5500000000000007 367.20706221964701 -497.99999999999994 14450.000000000002 3470.0000000000005 -0.8783796973249266 3593.0244404823811 5257.3500000000013 3562.6578251857404 1.0000000180025095e-35 1022.0500000000001 833.70000000000016 7018.6181250000009
decision_type=2 2 2 2 2 2 2 2 2 2 2 2 2 2 2 2 2 2 2 2 2 2 2 2 2 2 2 2 2 2 2 2 2 2 2 2
left_child=1 4 11 5 -1 13 15 8 9 19 29 12 20 -3 -7 -4 -15 18 24 21 -2 34 28 -24 -11 -18 27 31 -13 -5 -16 -22 33 -30 -8 -34
right_child=2 3 6 10 -6 14 7 -9 -10 17 -12 22 -14 16 30 -17 25 -19 -20 -21 26 -23 23 -25 -26 -27 -28 -29 32 -31 -32 -33 35 -35 -36 -37
leaf_value=0.0039089712498920487 0.0016088584756649125 0.0042429426752090896 4.7317395451453099e-05 -0.0048011553949105458 -0.00097737435332648096 -0.00025828411107913098 0.0066399181379657576 0.0035553708309684919 -0.00046556612441368979 0.0022376947805730673 -0.0045602097894142249 0.012580009251167668 -0.0040046586223666204 -3.4310917073777949e-05 -0.0063026558871447577 -0.0035962755249575517 -0.0010977728591639875 -0.0040252255335146651 -0.0066406366707463726 -6.8297853454138497e-05 0.0049710412258168598 0.0034870607239933216 0.0023251727892837745 0.0060593333704075944 -0.00011051700355192095 -0.0059149632236702799 0.014001357764807874 0.00071694847979553676 0.012764875544830833 -0.0051535994358734502 -0.0044103346258932479 0.0024134679036646564 0.012527905171708334 0.012902066436418527 0.0045012995768997895 0.012777303883874717
leaf_weight=24.426530465483665 11.300408247858284 13.453061297535895 18.047959104180336 51.464693754911423 33.902040719985962 16.301020383834839 10.084795773029329 17.073469400405884 13.618367433547972 6.7918367683887535 42.706122517585754 22.775306075811386 12.334693908691404 25.271734645590186 12.08877547085285 16.757142901420593 7.9530612081289283 8.1469387263059598 6.620408207178115 8.5191836953163129 5.999999985098845 12.180612295866011 20.401020340621471 24.278571590781212 5.9309183806180954 11.896224454045297 18.842857182025909 8.3357143998146039 13.316326513886453 150.17306113243103 20.5224489569664 14.251020438969134 55.367346882820129 13.714285731315611 13.778979629278181 46.247755110263824
leaf_count=33 21 23 33 23 14 39 21 10 9 20 19 25 7 36 29 8 18 13 16 25 31 18 38 28 25 26 12 16 32 52 21 25 36 29 24 28
internal_value=-0.000812831 -0.0269491 0.025675 -0.0324864 0.00645061 -0.0137271 0.00671054 0.0142145 0.0078133 0.0143282 -0.0407385 0.0354388 0.0219417 -0.00036743 -0.0297258 -0.0154412 -0.00908192 -0.00781571 0.00444785 0.0279882 0.0307426 0.0349721 0.0403301 0.0294074 0.0213 -0.0283507 0.036366 0.0297953 0.043553 -0.0447906 -0.041869 0.0418985 0.0449533 0.0397612 0.0448838 0.0463345
internal_weight=814.875 410.159 404.716 351.83 58.3286 107.486 137.551 102.746 85.672 72.0537 244.344 267.165 71.0647 58.5741 48.9122 34.8051 45.121 27.4901 19.3432 44.5636 58.73 36.0444 196.101 44.6796 12.7228 19.8493 47.4296 28.5867 151.421 201.638 32.6112 20.251 128.646 27.0306 23.8638 101.615
internal_count=883 333 550 286 47 192 222 181 171 162 94 328 112 103 89 41 80 74 61 88 105 63 216 66 45 44 84 72 150 75 50 56 125 61 45 64
is_linear=0
shrinkage=0.0463345


Tree=21
num_leaves=33
num_cat=0
split_feature=84 53 18 6 61 36 49 47 84 84 44 34 61 61 74 46 67 75 41 59 73 41 50 39 61 74 74 7 63 79 61 27
split_gain=276.336 42.6967 27.2467 20.7215 16.4899 11.9534 9.58495 11.0033 8.12184 7.93207 7.30671 6.71371 6.09561 7.21529 5.39374 4.1892 3.61767 3.13104 2.86062 2.4574 2.28853 2.77019 5.25155 2.22459 1.9118 1.00365 0.867583 0.863264 0.399775 0.510482 0.238658 0.114123
threshold=0.82141324877738964 0.22901390306122457 1.0000000180025095e-35 0.66655057241353266 3351.0098936477166 442.50000000000006 4099.166666666667 8050.0000000000009 0.97979915142059337 0.096261322498321547 357.50000000000006 3687.5000000000005 2856.1048106873368 2338.8717047260029 1016.0500000000001 3006.0325624665934 5395418.2500000009 26.700000000000006 2095.0000000000005 341.04433988282153 249.30000000000004 4958.5200000000013 4429.510714285715 0.12633928571428574 2810.5219401504824 1016.9500000000002 1015.35 -0.41610936647687707 5547.9680542091419 4336.7500000000009 2938.1177152565383 122.35000000000001
decision_type=2 2 2 2 2 2 2 2 2 2 2 2 2 2 2 2 2 2 2 2 2 2 2 2 2 2 2 2 2 2 2 2
left_child=2 4 9 -4 8 24 7 16 14 20 19 -12 13 -9 -2 18 -7 -10 -15 30 28 22 26 27 -3 -18 -22 -6 29 -1 -11 -23
right_child=1 5 3 -5 23 6 -8 12 17 10 11 -13 -14 15 -16 -17 25 -19 -20 -21 21 31 -24 -25 -26 -27 -28 -29 -30 -31 -32 -33
leaf_value=0.0048028711370007434 -0.0010469081516771262 0.00015907158879875893 0.00020872932125551159 -0.00043277697956746588 -0.005184473466189137 -0.0016646349887421228 0.00084026981600840802 -0.0046083442469646617 -0.0061531289163233357 0.0039736254878233448 0.0039244579362190642 -0.00069054677911780174 -0.0044390726617021415 -0.0030658185045729994 0.00034355051128912007 0.00017630557841649263 0.00026668448381121093 -0.0050990847232372499 5.237923725837709e-05 0.0025953429116829618 0.0081898836979361241 0.012172787150696697 0.0059233083362757273 -0.0037664049641345961 -2.1073586225432885e-05 0.0015795401874069566 0.010584740197728077 -0.0024331961491848805 0.012198712263251768 0.0097557759918795138 0.0040495548087816306 0.009356628602816856
leaf_weight=13.730102006345986 12.852755181491377 9.4155101478099841 61.491836547851562 53.718367218971252 131.14387771487236 7.7551020085811642 17.827346920967102 14.420408129692076 15.137959152460096 15.50408159941435 18.781734637916092 11.931632578372954 36.79285728931427 13.994898051023485 12.621428504586218 8.8897959291934949 7.174489885568617 17.546326650306582 10.303367272019385 14.00612250715494 15.678571410477163 21.450612261891365 16.468367159366608 37.557142972946167 9.7142856419086439 5.4612245112657547 14.514693923294542 40.053061127662659 91.264694005250931 24.608163259923458 15.980612218379973 17.08326530456543
leaf_count=31 24 31 28 25 42 32 25 23 21 34 35 22 23 30 18 14 20 28 23 28 22 21 25 16 9 30 28 22 86 35 13 19
internal_value=0.00161849 -0.0252827 0.0286819 0.0096103 -0.036197 -0.00473126 -0.0100458 -0.015389 -0.0143778 0.0362325 0.0233893 0.00592806 -0.0227687 -0.0118222 0.00523522 6.79539e-05 0.0151573 -0.0296642 -0.00988924 0.0351783 0.0407889 0.0348901 0.0272975 -0.0422758 0.0293342 0.0304469 0.0387774 -0.0445161 0.0446666 0.0406961 0.042361 0.0440842
internal_weight=814.875 408.662 406.213 115.21 266.913 141.749 122.619 104.792 58.1585 291.003 76.2042 30.7134 84.4013 47.6085 25.4742 33.1881 20.3908 32.6843 24.2983 45.4908 214.798 85.1955 46.6616 208.754 19.1298 12.6357 30.1933 171.197 129.603 38.3383 31.4847 38.5339
internal_count=883 431 452 53 171 260 220 195 91 399 132 57 113 90 42 67 82 49 53 75 267 115 75 80 40 50 50 64 152 66 47 40
is_linear=0
shrinkage=0.0463345


Tree=22
num_leaves=34
num_cat=0
split_feature=84 38 61 62 37 28 25 58 77 84 75 65 46 37 84 39 78 73 84 43 43 69 80 53 83 44 74 19 78 61 56 72 67
split_gain=259.316 34.8267 33.4371 16.3783 12.8764 12.2489 12.0453 12.1369 10.506 8.19397 7.83785 8.63072 9.71351 7.36777 6.75196 6.26299 5.34772 4.96693 4.63237 4.43916 4.05578 3.26722 3.62764 6.90171 2.95519 2.6983 1.39282 0.815908 0.782727 0.322941 0.466974 0.0772825 1.42109e-14
threshold=0.93711283802986156 0.72205357142857152 3351.0098936477166 5702.1054215697413 1385.0000000000002 19.550000000000004 18.450000000000003 203.40036254897134 2.5000000000000004 0.17056694626808169 3.3000000000000003 18.500000000000004 2874.9983131617769 4965.0000000000009 0.86656945943832409 0.19812500000000002 4659.9500000000007 293.95000000000005 0.76380586624145519 -19.499999999999996 -1.0000000180025095e-35 82.035000000000011 -96.500000000000441 0.75949043367346947 706.20000000000016 225.50000000000003 1020.5500000000001 1.0000000180025095e-35 5088.3500000000013 2320.9464000086186 0.37023053856163352 30.050000000000001 21615160.000000004
decision_type=2 2 2 2 2 2 2 2 2 2 2 2 2 2 2 2 2 2 2 2 2 2 2 2 2 2 2 2 2 2 2 2 2
left_child=1 3 10 6 -5 -6 8 -8 13 21 16 -12 17 27 19 26 -2 20 24 -9 25 22 31 -24 -10 -13 -4 28 -1 30 -23 -3 -31
right_child=2 9 15 4 5 -7 7 14 18 -11 11 12 -14 -15 -16 -17 -18 -19 -20 -21 -22 29 23 -25 -26 -27 -28 -29 -30 32 -32 -33 -34
leaf_value=0.00048647844969524002 -0.0016248422981335652 0.011483795507281713 -0.0050317833541537824 -0.0015843059601573814 0.0039623822473547291 -0.00040907595638376619 -0.0014441571003101234 0.0023220749952845739 -0.00013428427855060522 0.00094023126925367776 0.00065726538141888918 0.00045349195724379675 -0.0048528952479397836 0.0038619208924562136 -0.00016115916996183811 -0.0037080524457355829 -0.0055911810435050006 -0.0026163160865954969 -0.0043948191263863236 0.0035664732001163412 0.00038446314008421401 0.011476033297063698 0.012072406428624225 0.00023965432017922125 0.0055587388251369775 -0.004996059974707848 -0.0042731183544542509 0.00044557173592549667 0.0087756486623640668 0.011621202884883311 0.011654526546003095 0.011411795138523679 0.011632501719112093
leaf_weight=9.4607142843306082 11.861224517226221 19.697551093995571 135.22142860293388 17.329591810703278 20.240816205739975 45.354081630706787 9.2112243771553022 14.345918297767637 9.5367345958948153 18.948775544762611 15.418979441747068 11.233673438429834 19.58673483133316 23.521428607404232 16.391836628317833 38.700000047683716 16.916530609130859 12.809183672070501 11.908163353800772 21.090816527605057 12.605102062225344 15.282857209444048 22.437755227088928 26.11897936463356 11.256632655858992 6.9938775300979605 50.695918560028076 51.089795589447021 8.7265306338667852 27.909183919429779 9.9153061062097532 14.277959160506724 58.779387593269348
leaf_count=30 32 21 46 11 20 27 4 20 17 36 32 35 27 32 31 18 18 26 24 38 34 34 25 25 23 21 26 22 25 22 24 19 38
internal_value=0.00133867 0.0230143 -0.0301805 0.0119411 -0.00519186 0.00419283 0.0195573 0.00267462 0.0277687 0.0369989 -0.00891921 -0.00134853 -0.0089283 0.0357268 0.0113847 -0.0403489 -0.0296094 0.00323818 0.00518538 0.022759 0.0133133 0.0398336 0.03284 0.0247143 0.0183826 -0.000661439 -0.0438789 0.0433343 0.0349065 0.0449924 0.0403752 0.044453 0.0463345
internal_weight=814.875 482.832 332.043 269.464 82.9245 65.5949 186.54 61.0398 125.5 213.368 107.425 78.6476 63.2286 92.7985 51.8286 224.617 28.7778 43.6418 32.7015 35.4367 30.8327 194.419 82.5322 48.5567 20.7934 18.2276 185.917 69.277 18.1872 111.887 25.1982 33.9755 86.6886
internal_count=883 568 315 324 58 47 266 93 173 244 225 175 143 109 89 90 50 116 64 58 90 208 90 50 40 56 72 77 55 118 58 40 60
is_linear=0
shrinkage=0.0463345


Tree=23
num_leaves=34
num_cat=0
split_feature=84 84 38 34 60 83 40 73 7 45 39 45 25 59 57 50 83 69 45 82 59 80 53 19 37 80 46 75 83 61 56 7 67
split_gain=256.684 42.3514 23.5821 24.7228 14.4398 13.4151 13.3115 13.2809 10.4088 15.7554 10.2417 7.64016 7.34992 6.72484 5.48277 8.59518 4.76646 4.70922 4.21564 4.73055 4.03382 3.87118 5.56395 3.49965 2.24737 1.89957 0.783439 0.539694 0.448198 0.304308 0.472924 0.292987 1.42109e-14
threshold=0.82141324877738964 0.97860604524612438 0.72205357142857152 3493.5000000000005 3849.6362202380965 199.60000000000002 0.59553571428571439 172.50000000000003 0.17082345007074981 6147.1777083333336 0.46419642857142868 4241.0625000000009 14.600000000000001 271.27888132539039 0.99999999966819642 859.00000000000011 579.4000000000002 82.035000000000011 4259.3437500000009 3433.5000000000005 359.44461670775138 -96.500000000000441 0.75949043367346947 1.0000000180025095e-35 2740.0000000000005 -196.5499999999997 3137.4710521548982 56.600000000000009 4850.5000000000009 2320.9464000086186 0.37148040196670645 -0.41610936647687707 21615160.000000004
decision_type=2 2 2 2 2 2 2 2 2 2 2 2 2 2 2 2 2 2 2 2 2 2 2 2 2 2 2 2 2 2 2 2 2
left_child=2 5 3 11 25 -2 8 -5 9 12 -9 13 -7 -1 15 26 -17 21 -14 -20 27 28 -23 24 -8 -3 -6 -13 -4 30 -19 -16 -31
right_child=1 4 17 7 14 6 23 10 -10 -11 -12 20 18 -15 31 16 -18 29 19 -21 -22 22 -24 -25 -26 -27 -28 -29 -30 32 -32 -33 -34
leaf_value=-0.0013772428676807153 -0.0060370199970512179 -0.00015291541870734822 0.005552905219987826 0.00019560031832678047 -0.0047526314311614869 0.00051532826628821154 -0.0060634009779017293 -0.00069168868566871547 0.00091873555593253607 -0.00142807407235881 0.002079638842399925 0.0022144829151819075 0.00017643057597680389 0.005201826109733184 -0.0047766078593576558 2.1978268115507971e-05 -0.0052164637188993482 0.01094429754508932 -0.003654675816017573 0.00014594798169651258 0.0014808828454310427 0.011513038052435628 0.00022855006779028586 -0.0023930560715889827 0.00015497165817071439 0.00063302764280852427 -0.0045218705884232839 0.0038473352428781932 0.01100029249400891 0.011082740779129286 0.011108094230269379 -0.0040309324254560186 0.011093516088028402
leaf_weight=5.6117346100509193 16.699693821370602 6.7948979586362839 16.196326419711113 43.989795841276646 21.957550972700119 24.183673486113548 9.865306109189989 33.781632706522942 28.594898030161858 16.027550995349884 25.721428573131561 18.285816311836243 14.007142722606657 13.016326621174811 106.43877565860748 13.581632748246195 18.171734601259232 16.377755165100101 20.616326689720154 15.886734664440153 16.917755112051964 23.493877679109573 26.514897733926773 13.830612182617186 8.9225510507822019 4.5584694277495128 31.299796044826508 48.156121954321861 21.392449051141739 27.909183919429779 10.068367347121237 37.22448992729187 58.779387593269348
leaf_count=6 9 35 31 31 24 29 20 21 37 16 34 29 30 34 25 13 33 37 39 30 26 28 26 9 26 18 18 50 14 22 25 20 38
internal_value=0.00138381 -0.0245432 0.0274671 0.0164329 -0.0370458 -0.00674761 -0.00241496 0.000478315 0.00475589 -0.00292734 -0.0137931 0.032623 0.00601715 0.00579577 -0.039578 -0.0302513 -0.0111708 0.0387624 -0.00403999 -0.0123319 0.038618 0.0306971 0.0222523 -0.0286455 -0.0156238 0.0139578 -0.0416275 0.0437612 0.0419321 0.0450072 0.0406564 -0.045097 0.0463345
internal_weight=814.875 408.662 406.213 205.481 240.027 168.634 151.935 103.493 119.316 90.7214 59.5031 101.988 74.6939 18.6281 228.674 85.0107 31.7534 200.732 50.5102 36.5031 83.3597 87.5976 50.0088 32.6185 18.7879 11.3534 53.2573 66.4419 37.5888 113.135 26.4461 143.663 86.6886
internal_count=883 431 452 231 186 245 236 86 181 144 55 145 128 40 133 88 46 221 99 69 105 99 54 55 46 53 42 79 45 122 62 45 60
is_linear=0
shrinkage=0.0463345


Tree=24
num_leaves=36
num_cat=0
split_feature=84 61 38 62 58 38 37 28 84 54 35 4 70 60 25 19 46 49 43 84 68 40 78 69 27 51 47 68 74 68 82 2 51 72 53
split_gain=246.435 31.4167 28.945 16.5053 13.7175 14.0806 12.8764 12.2489 8.66307 8.57535 8.51716 8.36872 7.74344 9.7514 6.27443 6.42427 6.05986 4.74304 4.72354 3.14108 3.11032 4.78546 2.79272 2.75562 4.99315 2.67397 2.36235 1.66594 1.32851 1.31717 0.839654 0.606966 0.0750527 0.0361421 7.10543e-15
threshold=0.93711283802986156 3351.0098936477166 0.71659196428571448 5702.1054215697413 203.40036254897134 0.62492232142857163 1385.0000000000002 19.550000000000004 0.83972591161727916 0.69696265476190489 2499.5000000000005 -0.6830127018922193 1.0000000180025095e-35 3883.9850892857148 5.5500000000000007 1.0000000180025095e-35 2997.4295205523858 1963.3333333333337 174.00000000000003 0.89634111523628246 2.4500000000000006 0.40142857142857152 4794.3500000000013 77.330000000000027 229.05000000000004 1661.8314285714289 8999.5000000000018 2.2500000000000004 1020.5500000000001 12.550000000000002 1962.0000000000002 -0.60785761079279388 2464.2121428571431 32.95000000000001 0.87205357142857154
decision_type=2 2 2 2 2 2 2 2 2 2 2 2 2 2 2 2 2 2 2 2 2 2 2 2 2 2 2 2 2 2 2 2 2 2 2
left_child=2 12 3 4 -1 8 -5 -8 20 14 28 -7 13 25 -4 -16 19 18 22 -10 21 -6 -15 24 -11 -2 -19 -27 -3 32 -23 -25 -22 34 -33
right_child=1 10 9 6 5 11 7 -9 16 23 -12 -13 -14 17 15 -17 -18 26 -20 -21 29 30 -24 31 -26 27 -28 -29 -30 -31 -32 33 -34 -35 -36
leaf_value=-0.0013134290695728862 0.0015183547746546238 -0.004489787247672284 -0.00039592200766723322 -0.0016678553674296986 -0.00059786984308926561 -0.00056191284095942864 0.0037362183126203674 -0.00055108905088908206 3.4325025593995464e-05 0.0042856640996974046 -0.0038761970537128606 0.0029646379413924193 0.00011380506750180124 -0.0034845413034492929 0.0018701794851518614 0.0081904007776152747 0.00064113475576756487 0.00016825576133834344 -0.00072827216071660568 -0.0022525216790177612 0.0021737875912245866 0.0084946103662292723 -0.004406726396814927 0.010581045128594941 0.010473215201467725 0.0020974087070511093 -0.0039010331485903643 -0.00091638472926838235 -0.0039270195996692183 0.0033991055393434323 0.0050601539100185869 0.010979649215592363 0.0051556357818174489 0.010538378242221209 0.010567319617236226
leaf_weight=14.16581619158387 6.1705101933330324 131.35204073786736 12.915306143462656 17.329591810703278 8.8887754082679766 14.045918405055998 20.240816205739975 45.354081630706787 9.9765305966138857 21.358163215219975 40.991836905479431 19.572448931634426 11.769387751817701 13.303367406129835 16.888775661587715 18.836734771728516 10.129591852426527 10.285714238882065 15.337040781974791 14.907142907381056 37.596938520669937 6.6969388201832798 30.166530728340149 37.550612211227417 24.771224424242973 5.3560203909873945 9.7489795088768005 5.2877551019191742 52.273469567298889 19.603061258792877 12.073979601263998 17.527551114559174 17.977551028132439 18.981632590293884 45.4428571164608
leaf_count=12 16 45 21 11 9 11 20 27 16 29 18 37 16 36 39 12 11 19 23 36 31 23 36 38 25 33 21 25 27 34 21 22 23 22 38
internal_value=0.000997501 -0.0297288 0.0221279 0.0119945 0.0196718 0.0232921 -0.00519186 0.00419283 0.0298491 0.0348287 -0.0395853 -0.0035947 -0.00911991 -0.0134834 0.0177239 0.0277297 0.0099426 -0.0203154 -0.0269487 -0.00235605 0.0366267 0.023342 -0.0347488 0.0398518 0.0302326 0.0185512 -0.000844847 0.00448246 -0.0438482 0.0415145 0.0366044 0.043565 0.045157 0.0458002 0.0463345
internal_weight=814.875 332.043 482.832 268.559 185.635 171.469 82.9245 65.5949 137.851 214.273 224.617 33.6184 107.425 95.6559 48.6408 35.7255 35.0133 78.8416 58.8069 24.8837 102.837 27.6597 43.4699 165.632 46.1294 16.8143 20.0347 10.6438 183.626 75.1776 18.7709 119.503 55.5745 81.952 62.9704
internal_count=883 315 568 322 264 252 58 47 204 246 90 48 225 209 72 51 63 135 95 52 141 53 72 174 54 74 40 58 72 88 44 120 54 82 60
is_linear=0
shrinkage=0.0463345


Tree=25
num_leaves=33
num_cat=0
split_feature=84 84 61 18 54 43 82 52 44 44 63 7 69 73 26 34 75 34 57 67 49 80 78 42 67 82 26 44 79 83 57 35
split_gain=221.98 31.6629 27.8486 20.6572 16.1406 10.955 10.0039 8.44023 7.32428 7.29952 7.07401 5.72401 5.20339 5.78117 8.35565 4.98369 4.33969 4.27111 3.93799 3.78102 4.55414 3.61718 3.31843 2.62547 2.53574 2.47659 2.27967 0.702452 0.697422 0.401861 0.0312557 1.42109e-14
threshold=0.96036285161972057 0.155048742890358 3044.0119868370143 1.0000000180025095e-35 0.084488095238095251 625.00000000000011 4700.8000000000011 0.15425625000000023 24.069999999999713 -2080.9999999999995 4105.9987096641689 0.051476858357251264 77.330000000000027 256.4500000000001 13.250000000000002 2999.5000000000005 68.800000000000011 1025.0000000000002 0.81901584186399112 9914860.0000000019 1963.3333333333337 -137.45000000000024 5112.5500000000011 4624.5000000000009 4128044.7000000007 3377.5000000000005 14.050000000000002 12.295000000000075 3866.4000000000005 1551.0500000000004 0.99999999982888543 5563.295000000001
decision_type=2 2 2 2 2 2 2 2 2 2 2 2 2 2 2 2 2 2 2 2 2 2 2 2 2 2 2 2 2 2 2 2
left_child=1 3 10 12 -3 -5 8 27 9 -6 21 15 13 26 -15 16 -10 25 22 20 -11 24 -14 -13 -2 -12 29 -4 -20 -1 31 -30
right_child=2 4 7 5 6 -7 -8 -9 11 19 17 23 18 14 -16 -17 -18 -19 28 -21 -22 -23 -24 -25 -26 -27 -28 -29 30 -31 -32 -33
leaf_value=0.0068091462607243183 -0.0048546189273618885 -0.00048133573711253382 -0.0043341666112155109 -0.00049787456134592323 -0.0021481523139395371 0.0039325428023084374 6.8341015918512346e-05 -0.0037464173205642476 0.0027696344650905806 0.0033495523202509872 -0.0051199586256971547 0.0015236740304905385 0.00014719132853244874 -0.00027552302237257971 0.0078254784085499771 -0.0013201736437071507 -0.0032965552598087566 0.00074390697031648581 0.0097304059807211251 0.0020202099439174882 -0.00022830526217472932 0.00076681629044887494 0.011084286456191439 -8.6668344420725112e-05 0.0003692127655951559 -0.0025664442993778786 0.0068203379652648751 -0.0030258962596363898 0.0098232133553004235 0.0069982126428549075 0.010194710893683675 0.010089091072516342
leaf_weight=13.552550982683895 8.8197958748787695 22.475510120391846 123.77775505185127 51.72857129573822 16.472449108958244 36.140816330909729 63.916326284408569 51.264285802841187 12.355101972818376 16.244897827506069 12.044898033142092 7.963367365300658 8.7520408853888529 25.092244952917099 15.492244735360144 20.170408308506012 11.212244912981985 10.157448917627333 22.962244912981987 13.913265295326708 12.424489751458166 8.5498979017138463 15.640816397964953 10.959999948740004 9.4193877726793271 13.278571397066115 11.89999996870756 52.133673816919327 27.833265230059624 23.400612309575081 18.607142806053162 46.218367457389832
leaf_count=30 26 7 55 28 32 18 33 24 29 28 22 18 23 35 21 31 26 21 20 21 34 25 27 25 37 27 22 18 30 22 35 33
internal_value=0.000494434 0.0184435 -0.0320884 0.0276547 0.00439833 0.00855104 0.00888834 -0.039613 0.00109374 0.0128017 -0.00463704 -0.00994048 0.0349706 0.0262403 0.0133157 -0.0191519 -0.0046824 -0.018207 0.0405473 0.0229335 0.0133152 0.0133358 0.0236295 0.0113499 0.00167872 -0.0283884 0.0369774 -0.0444342 0.0441165 0.0426573 0.0459079 0.0463345
internal_weight=814.875 525.429 289.446 317.321 208.108 87.8694 185.633 227.176 121.716 59.0551 62.27 62.6611 229.452 89.4377 40.5845 43.7378 23.5673 35.4809 140.014 42.5827 28.6694 26.7891 24.3929 18.9234 18.2392 25.3235 48.8532 175.911 115.621 36.9532 92.6588 74.0516
internal_count=883 628 255 344 284 46 277 97 244 115 158 129 298 130 56 86 55 70 168 83 62 88 50 43 63 49 74 73 118 52 98 63
is_linear=0
shrinkage=0.0463345


Tree=26
num_leaves=41
num_cat=0
split_feature=84 38 83 57 35 69 42 54 82 48 77 80 39 56 84 34 48 7 80 46 58 48 81 73 72 6 58 49 73 61 79 60 63 47 83 83 58 7 45 28
split_gain=197.418 47.0576 22.2461 22.1147 13.1857 11.6775 11.3035 10.1566 8.74889 8.33311 8.15532 12.2418 14.5083 13.6296 8.25337 8.03965 7.99206 7.22762 6.09034 5.4424 5.32636 4.99563 4.96392 6.25481 4.89745 4.48067 4.34156 3.08854 2.50305 2.48556 1.93673 1.76014 1.69636 1.62939 2.13327 1.52158 0.803548 0.299463 0.0531189 0.00764604
threshold=0.96801471710205089 0.71659196428571448 199.60000000000002 0.99999999966819642 750.32500000000016 78.040000000000006 1999.5000000000002 0.14346326530612249 4806.7000000000016 5207.0000000000009 3.5000000000000004 -54.400000000000084 0.17857232142857146 0.42866720428156024 0.61916095018386852 3200.5000000000005 19.500000000000004 -0.41610936647687707 2.7000000000000459 2603.1282895311438 253.44808727629552 3779.0000000000005 236.09999999999994 282.50000000000006 30.800000000000004 -0.3925595026791337 324.90399398282381 1609.6666666666667 43.550000000000004 3276.7563408157048 5356.0000000000009 4512.522291666668 5063.9524957782141 9354.0000000000018 1195.8000000000002 1537.1000000000001 312.43264008593809 -0.35273909160235833 5315.3247916666678 17.250000000000004
decision_type=2 2 2 2 2 2 2 2 2 2 2 2 2 2 2 2 2 2 2 2 2 2 2 2 2 2 2 2 2 2 2 2 2 2 2 2 2 2 2 2
left_child=1 2 -1 4 17 8 20 -8 18 10 11 12 -9 21 15 35 -6 29 26 27 -4 -14 23 32 38 -22 -3 -18 -7 31 -29 -2 -16 34 36 -12 39 -5 -13 -30
right_child=3 5 6 37 16 28 7 9 -10 -11 14 24 13 -15 22 -17 19 -19 -20 -21 25 -23 -24 -25 -26 -27 -28 30 33 -31 -32 -33 -34 -35 -36 -37 -38 -39 -40 -41
leaf_value=-0.0013276025907986992 -0.0020450716377273426 0.0084994286898368993 0.00033433215581185117 -0.0041443290163413644 0.0033852822441342257 0.0094018248037864745 -0.0020679819658034051 0.0030979476912022363 0.0080560450806221959 -0.0029954562570414021 0.0038343561975780179 0.0053598743764971656 0.0012370152030225503 -0.0007045398628809349 -0.0023310849155694507 -0.00045797477651224322 0.00046180433622366524 -0.0041251971584995257 -0.0012225252400567916 -0.0034231553111290958 -0.00055828336903676558 0.0062313869448845077 -0.00088193658809528638 0.0031079483766512663 0.0013146128628268913 -2.2638398650433976e-05 -0.00040505422709766133 -0.0055979700010055202 0.0097690183373523587 -0.0045674803447866954 0.00070943844604325632 -0.0038699788933771934 -0.0056379536252402192 0.0096365862771699458 0.003052842995373597 0.0030029514672743692 0.0083874001343593567 -0.0026247915771955453 0.0065969161187018005 0.0096378355359186818
leaf_weight=33.933672994375229 10.804387822747232 21.378571555018425 19.796428386121988 114.13265311717987 7.1785715594887725 22.016326457262039 19.299999952316284 16.763265252113342 27.02346932888031 15.851020455360411 10.723979562520983 14.444897904992102 12.294897906482221 33.969387754797935 14.095918402075769 12.945918411016462 8.2846938818693179 17.335000133141875 16.865306109189987 13.170408159494398 14.872448980808256 9.9683672189712507 14.192857146263121 12.529897972941397 12.531632781028746 19.088775523006916 13.582449018955229 9.9988774880766851 7.3265305906534257 34.043877452611923 5.6744897514581671 11.467346996068953 9.9357142448425275 77.235714316368103 10.270000040531157 10.206122457981108 8.6367347836494428 37.097959280014038 19.228571504354477 14.677551075816153
leaf_count=14 23 31 14 29 6 14 9 15 19 9 25 23 37 32 33 21 24 20 28 16 13 7 19 26 20 28 25 38 16 20 17 18 23 48 13 15 23 20 18 34
internal_value=-0.000958999 0.015059 0.00391799 -0.03343 -0.0183926 0.0316767 0.00803468 0.00371645 0.0174121 0.00654768 0.00906422 0.0168735 0.0050599 -0.00621851 -0.0019351 0.0157761 0.00158048 -0.030408 0.00626717 -0.00707244 0.0272316 0.0219589 -0.0137564 -0.0047282 0.035537 0.0160964 0.0172992 0.0060804 0.0397013 -0.0384611 -0.00601477 -0.0264262 -0.0185664 0.0423743 0.0348978 0.0335285 0.0410233 -0.0451589 0.0447394 0.0457242
internal_weight=814.875 545.686 326.674 269.188 117.958 219.013 292.74 238.982 78.8498 219.682 203.831 119.201 72.9959 56.2327 84.6304 33.876 44.307 73.6506 51.8263 37.1285 53.7577 22.2633 50.7544 36.5615 46.2051 33.9612 34.961 23.9581 140.163 56.3156 15.6734 22.2717 24.0316 118.147 40.9108 20.9301 30.6408 151.231 33.6735 22.0041
internal_count=883 652 401 231 182 251 387 332 103 323 314 152 91 76 162 61 101 81 84 95 55 44 101 82 61 41 56 79 148 61 55 41 56 134 86 40 73 49 41 50
is_linear=0
shrinkage=0.0463345


Tree=27
num_leaves=35
num_cat=0
split_feature=84 27 52 37 60 63 80 77 67 80 59 43 42 56 73 26 8 80 83 8 26 82 47 60 77 79 81 66 6 27 84 45 6 60
split_gain=207.32 30.6734 29.0078 22.2475 18.7468 18.04 11.7516 10.245 9.71715 9.12377 8.54559 7.76933 7.39426 5.93486 5.9348 5.89168 5.01436 4.70825 4.35953 4.16331 3.14025 3.10328 2.93721 3.88564 2.63143 3.93184 2.13893 1.77029 1.664 1.41387 0.79791 0.389576 0.0521526 1.42109e-14
threshold=0.93108409643173229 134.05000000000004 0.10909523809523834 49.000000000000007 7827.7201488095243 4996.0368032795186 -304.04999999999967 2.5000000000000004 133254.80000000002 -198.55000000000015 356.62079849119999 1632.5000000000002 6867.3600000000015 0.66644142095372361 113.20000000000002 8.2500000000000018 -0.2058881604517783 -314.5499999999999 1181.1500000000003 0.58272345581112295 11.450000000000001 3412.5000000000005 9354.0000000000018 5934.0336904761916 1.0000000180025095e-35 5335.8500000000013 44.500000000000007 1819.25 -0.24635219865135785 554.50000000000011 0.0064966750796884307 5315.3247916666678 -0.36075750887067731 5322.8913392857148
decision_type=2 2 2 2 2 2 2 2 2 2 2 2 2 2 2 2 2 2 2 2 2 2 2 2 2 2 2 2 2 2 2 2 2 2
left_child=1 19 13 -3 6 8 15 12 -4 -7 11 27 24 -2 -10 -5 -11 20 -12 22 -16 -19 23 26 -8 -26 31 28 -9 -15 -24 -1 -33 -31
right_child=2 3 5 4 -6 9 7 10 14 16 18 -13 -14 29 17 -17 -18 21 -20 -21 -22 -23 30 -25 25 -27 -28 -29 -30 33 -32 32 -34 -35
leaf_value=0.0093038935457820573 -0.0014123388832363824 -0.0040569846186478565 0.00046832887114735744 0.0019123884012568677 -0.00029686621881079686 -0.0039071587627941985 0.0031664082098672168 0.0051017072689317983 0.00097246148940443645 -0.0026789288190330754 -0.0010586278800599983 -0.00023782743725828375 0.0058619638348696339 -0.0048457778458425053 -0.00098805740031639448 -0.00048370826569192111 -0.0047364441664370415 -0.0047102949811514763 -9.5641599079826736e-06 0.0038555494889962478 0.0024739024243065184 -0.00038808006690929647 0.0091762746208899678 0.0090299792275292216 0.00044463265253149838 0.0090281252463120729 0.00016348374347312678 0.0052478159545597007 0.0016425608259933188 -0.0040159364111288284 0.0032764695357419054 0.0091657404323227422 0.0096202170474638925 -0.0038467062242568675
leaf_weight=6.8433673642575767 34.469796001911163 24.731632500886917 10.842755094170569 10.57448983192444 60.428571343421936 15.702040761709211 59.6361223757267 10.894897878170012 9.1897958964109403 20.124795958399773 14.91061218082905 14.405102238059042 30.186734825372696 47.17459206841886 6.565510198473925 16.392857030034065 46.099999904632568 19.123469337821014 15.569387733936308 16.674489855766296 5.6051020920276642 12.715612232685087 63.879795789718628 8.6157142221927625 13.621428564190866 16.467959083616734 8.8224490582942945 14.856122419238089 14.489693865180017 50.195510357618332 31.440816283226013 8.5816326737403887 13.709183752536772 61.33265295624733
leaf_count=24 32 11 10 21 34 15 34 26 24 36 31 28 31 30 24 28 25 39 22 26 17 28 40 11 32 20 20 19 34 27 16 20 28 20
internal_value=-0.000245337 0.0194874 -0.0279256 0.0111685 0.0147372 -0.0123368 0.0207245 0.0245063 0.00608669 -0.0267384 0.0122137 0.0231778 0.0332329 -0.0397052 -0.00206141 -0.00802981 -0.0342676 -0.00913325 -0.0074432 0.0361269 0.015379 -0.0185032 0.0387006 0.0291634 0.0399066 0.0287357 0.0355398 0.0336309 0.0261962 -0.0434901 0.0433604 0.0415925 0.0445613 -0.0463345
internal_weight=814.875 475.733 339.142 317.166 292.434 145.969 232.005 205.038 64.0422 81.9268 85.1258 54.6458 119.912 193.173 53.1995 26.9673 66.2248 44.0097 30.48 158.567 12.1706 31.8391 141.893 46.5723 89.7255 30.0894 37.9566 40.2407 25.3846 158.703 95.3206 29.1342 22.2908 111.528
internal_count=883 556 327 371 360 218 326 277 142 76 160 107 117 109 132 49 61 108 53 185 41 67 159 103 86 52 92 79 60 77 56 72 48 47
is_linear=0
shrinkage=0.0463345


Tree=28
num_leaves=34
num_cat=0
split_feature=84 84 78 42 61 74 44 75 73 58 6 52 63 53 56 43 59 3 37 79 69 84 5 78 73 74 69 61 79 51 66 54 28
split_gain=171.914 46.1795 25.9203 21.2609 19.7497 13.5314 13.0827 12.0901 10.725 9.08036 8.91942 6.81009 5.911 5.66275 5.55424 5.45486 4.97169 4.78371 5.94073 4.83664 4.28421 3.7701 3.51189 3.28333 3.28303 4.35149 2.86905 2.64915 2.90968 2.384 0.35979 0.024349 1.42109e-14
threshold=0.96801471710205089 0.155048742890358 3781.2500000000005 13650.000000000002 3044.0119868370143 1030.5500000000002 2820.5000000000005 66.100000000000009 108.45000000000002 246.06579864275946 -0.77332218843568024 0.15425625000000023 4105.9987096641689 0.4451915816326531 0.62970187098470431 -345.99999999999994 275.94375813804203 1.0000000180025095e-35 3854.5000000000005 4742.8000000000011 60.520000000000003 0.9845983386039735 -0.5 3541.5500000000006 188.35000000000002 1021.85 53.585000000000008 2360.952321861866 5100.1500000000005 1891.6250000000002 874.85000000000002 0.63092903061224492 17.450000000000003
decision_type=2 2 2 2 2 2 2 2 2 2 2 2 2 2 2 2 2 2 2 2 2 2 2 2 2 2 2 2 2 2 2 2 2
left_child=1 3 9 5 12 7 8 16 15 -3 -10 22 26 23 24 -4 -1 18 19 -12 -19 -14 -6 -11 30 27 -2 28 -26 -28 31 -9 -33
right_child=4 2 6 -5 11 -7 -8 14 10 13 17 -13 21 -15 -16 -17 -18 20 -20 -21 -22 -23 -24 -25 25 -27 29 -29 -30 -31 -32 32 -34
leaf_value=-0.0010701578597102645 -0.00085640792922549701 -0.0011129313592478033 -0.0010878378703594515 -0.00030373647408398906 -0.0037704959508233528 -0.00019509216733631436 -0.0020070049067429773 0.0053968694112293443 0.001823778926337553 0.00093567078054413182 0.002497615263218986 -0.0032149680875199612 -0.0022384092587584992 -0.0053683697864695349 0.007257915798881593 -2.2178488979416464e-05 0.0040613906838341757 -0.0014643471487924028 0.001791344885234259 -0.00026803387077136971 0.00025330063548243596 -0.0041198022976110527 -0.0034214231510070574 -0.00011510416253599047 0.0028039843839831073 0.0065239204293211896 0.0004583883623616279 0.0089563416804867638 0.0066930392173519225 -1.6400128924187707e-06 0.0090386130267871706 0.0087520146944265586 0.0089192507776226573
leaf_weight=16.784897804260254 11.868367359042169 29.230612143874168 18.161224499344826 19.502040863037109 112.68877565860748 27.150612339377403 14.910204052925108 17.21020396053791 28.417346835136414 11.157142728567129 16.040816269814968 47.843877673149109 18.501020252704624 8.9520407766103727 40.423469439148903 21.677550882101059 22.730000011622906 18.681734770536423 16.418163120746613 21.250000149011612 14.942857183516024 12.321428656578062 54.418571531772614 8.5258164107799512 11.620408147573473 23.114285700023174 7.7351020704954845 38.948775500059128 9.5428571254014951 3.811122439801693 15.944387841969727 25.816326558589935 48.532652974128723
leaf_count=11 35 12 19 11 36 34 18 21 32 29 28 22 34 17 31 21 31 30 24 31 30 23 32 17 31 32 26 32 19 23 28 26 37
internal_value=-0.000431121 0.0145164 -0.00137236 0.0259511 -0.0307322 0.0290202 0.00772168 0.0321482 0.0116949 -0.0281678 0.0188317 -0.0370364 -0.00574723 -0.00962327 0.0361971 -0.00904093 0.00846341 0.0114948 0.0200751 0.00985011 -0.00221055 -0.0190793 -0.0414493 0.00427258 0.0395036 0.0325946 0.0118028 0.0391644 0.0259687 0.0282467 0.0448523 0.0459709 0.0463345
internal_weight=814.875 545.686 228.366 317.321 269.188 297.819 170.5 270.668 155.59 57.8656 115.751 214.951 54.237 28.635 231.153 39.8388 39.5149 87.3336 53.709 37.2908 33.6246 30.8224 167.107 19.683 190.73 83.2263 23.4146 60.112 21.1633 11.5462 107.504 91.5592 74.349
