tree
version=v4
num_class=1
num_tree_per_iteration=1
label_index=0
max_feature_idx=84
objective=regression_l1
feature_names=hour_sin hour_cos day_sin day_cos month_sin month_cos day_of_year_sin day_of_year_cos week_sin week_cos is_winter is_spring is_summer is_autumn is_heating_season is_dst_period is_dst_transition_day days_to_dst_change cap_regime_all_day_15000 post_aug_2025_cap_change post_jan_2026_cap_change post_apr_2026_cap_change price_cap_norm is_off_day price_cap feelslike windspeed solarradiation heating_degree cooling_degree temp_hour_interaction temp_summer_interaction solar_hour_interaction solar_summer_interaction price_lag_24 price_lag_48 price_lag_168 price_lag_336 ratio_lag_24 ratio_lag_48 ratio_lag_168 price_lag_167 price_lag_169 diff_24_48 diff_168_336 rolling_mean_24 rolling_std_24 rolling_max_24 rolling_min_24 rolling_mean_hour_3d rolling_mean_hour_7d rolling_mean_hour_14d ratio_mean_hour_3d ratio_mean_hour_7d ratio_mean_hour_14d hour_month_interaction price_volatility_24 demand_supply_ratio_lag_24 demand_ramp_std_24 supply_ramp_std_24 rolling_mean_168 rolling_std_168 price_ema_24 price_ema_168 is_attack days_since_attack system_balance_lag_24 demand_x_price_lag_168 dew humidity precip snow windgust winddir sealevelpressure cloudcover visibility uvindex supply_lag_24 supply_lag_168 demand_ramp supply_ramp garpok_lag_24 vdr_supply_lag_24 prob_low_price
feature_infos=none none [-0.97492791218182362:0.97492791218182362] [-0.90096886790241903:1] [-1:1] [-1:1] [-0.9999631612477099:0.9999631612477099] [-1:1] [-0.99956083650879435:0.99956083650879435] [-0.99824373176432146:0.99298109601351703] [0:1] [0:1] [0:1] [0:1] [0:1] [0:1] none [0:14] [0:1] [0:1] [0:1] [0:1] [0.46000000000000002:1] [0:1] [6900:15000] [-23.699999999999999:33.600000000000001] [0.40000000000000002:29.199999999999999] [0:0.29999999999999999] [0:41.700000000000003] [0:11.600000000000001] [-545.10000000000002:772.80000000000007] [0:33.600000000000001] [0:6.8999999999999995] [0:0.29999999999999999] [57:15000] [57:15000] [57:15000] [57:15000] [0.0098550724637681154:1.1000000000000001] [0.0098550724637681154:1.1000000000000001] [0.0098550724637681154:1.1000000000000001] [57:15000] [57:15000] [-10714.530000000001:9697.6700000000001] [-12100:12000] [280.27291666666667:15000] [0:5851.5501661480248] [1210:15000] [10:15000] [57:15000] [57:13384.639999999999] [57:13106.802857142857] [0.0098550724637681154:1.1000000000000001] [0.0098550724637681154:1.1000000000000001] [0.0098550724637681154:1.1000000000000001] [23:276] [0:1.2743607072813463] [0.39815627735690068:1.8857918620823082] [120.01467543113479:569.34517840578303] [107.12323933580619:697.76564999922414] [1630.7810714285713:12809.451011904763] [731.09605897264657:5114.7042496966069] [57:14950.10852203076] [57:12965.168631628381] [0:1] [0:30] [-2087.9000000000001:3016.2000000000003] [104988.3:72386046.444000006] [-20.600000000000001:22.5] [24:100] [0:4.2999999999999998] none [2.5:56.899999999999999] [0.10000000000000001:359.80000000000001] [985.5:1048] [0:100] [0:44460] none [814.79999999999995:5550.1999999999998] [814.79999999999995:5550.1999999999998] [-1444.2999999999997:1034.5000000000005] [-1375.5:1034.5000000000005] [40:6208.6000000000004] [10:15000] [8.5924220911692828e-06:0.99874734878540039]
tree_sizes=2794 2909 2681 2677 2568 2562 2561 2909 2666 3102 2892 2986 2990 2879 2881 2984 2999 3099 3303 2681 2793 3007 2999 3000 2891 2679 3324 2901 3206 2905 3188 3086 3122 2988 3222 3300 3501 3215 3228 3425 3222 3210 3633 3437 3127 3015 3312 2998 3210 3188 3535 3431 3319 3536 3320 3193 3101 3219 3516 3321 3518 3331 3627 3296 3002 3740 3647 3840 3417 3529 3109 3224 3422 3102 3644 3537 3750 3738 3940 4145 3959 3531 3189 3326 3326 3641 3331 3122 3836 3639 3454 3535 3122 3633 3736 3766 3531 3315 3534 3865 3622 3640 3853 4082 3755 3758 3527 3859 4243 3859 3442 4071 3863 3760 3965 4171 3647 3965 3860 3863 3760 4069 4176 3973 3976 4182 4038 3967 3741 4292 3744 4398 4064 4078 4271 4170 4284 4174 3663 4176 3016 3767 3850 3116 3966 3122 3986 4408 2598 4283 3766 3758 3353 3853 3348 4086 3130 4490 3885 4315 4099 4096 3981 3451 3242 2491 3775 3777 3874 3655 2924 3988 3673 3881 2915 3136 2833 3143 3035 2498 4067 3344 2929 3463 3565 2815 4168 3557 3247 4078 3987 3900 3760 3993 4095 4094 3254 4012 3022 4001 3574 3022 3882 3566 3989 3879 3684 2504 3666 3322 3894 3478 2831 3793 4296 3883 3140 3360 2929 3978 3254 2930 2709 3987 3038 3562 3460 3669 3565 4100 4310 4094 4428 4521 3985 4407 3883 3974 4095 3661 3437 4004 4109 3561 3249 4091 4298 4098 3432 3977 3229 4182 3857 3785 3240 3762 4224 4217 3874 3460 4296 3858 4204 3780 3679 3892 3134 3033 2835 3245 3779 3991 4321 3788 3883 3888 3880 3774 4001 4497 3131 4208 3980 3997 4213 4182 3888 3342 3627 4409 3453 4062 4183 3128 4302 4103 3565 4300 3248 4172 3955 4105 3882 3363 3574 3887 3680 4191 3035 2604 2929 2724 2930 3258 3878 3672 3222 3366 3778 3978 3884 3573 3460 3765 3774 3882 4202 4412 3885 3444 4513 4090 3990 3792 3577 3881 3039 4103 4637 2816 3354 3361 2825 3354 3358 3783 2825 3563 3682 3254 4315 4431 3146 3759 3662 3466 2602 3787 3124 4098 3549 3348 3975 3980 3025 3877 3971 3132 3888 3689 2928 4416 4317 4540 4104 3787 3987 4632 4429 3255 3900 3890 3147 4103 4404 4096 3973 3463 2719 4204 4323 3245 4298 4282 3975 4202 3568 3872 3576 4214 4086 3974 4312 4205 3774 3990 3687 4422 4710 3766 3546 4200 4074 4191 3248 3868 3872 3766 3671 3875 3866 3988 3365 3876 4180 3849 3885 3866 3998 3668 3984 3345 3990 3779 3135 3668 3640 2600 2908 4078 4311 3451 3457 3781 4086 3964 3852 3874 4198 3872 2822 3667 3877 4198 3868 3883 3882 3354 3797 3151 4520 3038 3552 3357 4087 2701 3890 4093 3242 3777 3553 3256 3250 3119 3108 4516 3685 3874 4313 3249 3473 3779 2614 2604 3993 3467 3478 4201 3580 4310 3982 3345 3669 4214 3571 3793 3786 3361 3143 3571 4217 4201 4216 3331 3573 3669 4096 3678 4197 3875 3988 3783 3569 3350 3463 4315 4525 3985 4306 3560 4083 3890 4108 3891 4109 4085 3239 3156 3041 3661 3229 3990 4208 4416

Tree=0
num_leaves=26
num_cat=0
split_feature=52 18 34 59 80 36 60 46 84 60 42 79 7 55 49 25 43 82 67 58 58 26 8 75 44
split_gain=414.382 41.4946 21.2728 20.3482 13.8127 12.8618 9.14227 7.11134 7.97327 6.28811 5.72187 4.04126 2.85232 2.74171 4.71709 1.64498 0.877719 0.399931 0.258719 0.0608209 0.0512112 0.0297857 2.84217e-14 2.84217e-14 7.10543e-15
threshold=0.94623188405797098 1.0000000180025095e-35 6898.5000000000009 291.88794005207154 -220.74999999999997 7224.5000000000009 8171.9269642857153 2638.7646948348852 0.00064547345391474675 7182.4176488095245 14863.000000000002 4756.8000000000002 -0.20454453068330639 241.50000000000003 8841.0383333333357 -8.3999999999999986 -1246.1949999999995 48.500000000000007 21923044.800000004 215.71594200413355 217.59536135927829 16.150000000000002 0.67468657362675943 60.650000000000013 -942.49999999999989
decision_type=2 2 2 2 2 2 2 2 2 2 2 2 2 2 2 2 2 2 2 2 2 2 2 2 2
left_child=1 3 4 7 -2 11 22 8 -1 10 13 12 -5 16 -15 -14 -4 -18 -19 -20 -17 23 -3 -21 -22
right_child=2 6 9 5 -6 -7 -8 -9 -10 -11 -12 -13 15 14 -16 20 17 18 19 21 24 -23 -24 -25 -26
leaf_value=0.94397638846280973 0.9453865677536929 0.92334007751923397 0.9493485007046859 0.93867142814178484 0.93867142814178484 0.93836383119310185 0.92077248637667941 0.94471505406867695 0.93182198744992295 0.93422121203631681 0.9453865677536929 0.94060538965355978 0.94128361714978648 0.9493485007046859 0.9493485007046859 0.92322661062466982 0.9493485007046859 0.94471505406867695 0.9493485007046859 0.9493485007046859 0.93156526199100653 0.9493485007046859 0.92154782641212996 0.9493485007046859 0.92889719873334409
leaf_weight=17.433469474315647 27.86734713613987 94.404081583023071 10.857142716646193 6.9755101948976508 14.236734628677366 26.755102083086967 67.628571510314941 28.618367433547974 11.849489772692321 11.851020455360411 36.103469341993332 11.984693758189676 3.3718367218971244 23.095918416976929 25.220408082008362 2.498163290321826 10.848979592323301 18.035714238882065 6.7520408928394309 94.166938737034798 14.467755109071726 9.5224490165710431 115.73265290260315 93.4713264554739 31.125510185956959
leaf_count=21 32 19 11 15 17 27 38 18 27 7 23 18 9 39 20 11 18 26 9 169 18 22 46 154 69
internal_value=0.942224 0.911183 0.977394 0.930382 0.946328 0.917427 0.900463 0.952126 0.936073 0.981243 0.98244 0.907037 0.902011 0.984592 0.974509 0.898242 0.986591 0.987192 0.987617 0.988087 0.896048 0.988235 0.895695 0.988363 0.895695
internal_weight=814.875 432.845 382.029 155.08 42.1041 97.1786 277.765 57.9013 29.283 339.925 328.074 70.4235 58.4388 291.971 48.3163 51.4633 243.655 232.797 221.948 203.913 48.0914 197.161 210.137 187.638 45.5933
internal_count=883 336 547 233 49 167 103 66 48 498 491 140 122 468 59 107 409 398 380 354 98 345 65 323 87
is_linear=0
shrinkage=1


Tree=1
num_leaves=26
num_cat=0
split_feature=52 18 49 59 36 43 60 67 46 84 37 40 79 7 42 25 26 82 73 47 58 8 25 44 53
split_gain=403.862 42.635 20.3657 18.8505 15.1711 11.9094 9.14227 8.53478 7.46825 7.54153 4.49667 5.05423 4.04126 2.85232 1.89674 1.64498 0.78367 0.898942 0.233126 0.870662 0.0512112 2.84217e-14 2.84217e-14 7.10543e-15 7.10543e-15
threshold=0.94623188405797098 1.0000000180025095e-35 6882.9666666666672 291.88794005207154 7224.5000000000009 -1106.9999999999998 8171.9269642857153 32014800.000000004 2638.7646948348852 0.00064547345391474675 9993.5000000000018 0.8543478260869567 4756.8000000000002 -0.20454453068330639 14897.955000000002 -8.3999999999999986 15.200000000000001 68.500000000000014 110.15000000000002 8905.0000000000018 217.59536135927829 0.67468657362675943 6.2500000000000009 -942.49999999999989 1.056211180124224
decision_type=2 2 2 2 2 2 2 2 2 2 2 2 2 2 2 2 2 2 2 2 2 2 2 2 2
left_child=1 3 -2 8 12 7 21 -4 9 -1 11 -7 13 -5 16 -15 18 -18 19 -13 -17 -3 -20 -22 -21
right_child=2 6 5 4 -6 10 -8 -9 -10 -11 -12 14 -14 15 -16 20 17 -19 22 24 23 -23 -24 -25 -26
leaf_value=0.0018571579193808114 -0.0033438137966452681 -0.017822980796952683 -0.00033914510942376736 -0.0032019999547117563 -0.0034953445663216029 0.0025615978567417085 -0.020271604002450271 0.0069803562666488506 0.0025615978567417085 -0.0097340755429169614 0.0048259427135135553 0.0069803562666488506 -0.0013576474961814128 -0.00071084530157075295 0.0032019973209271341 -0.017931190264761199 0.0069803562666488506 0.0069803562666488506 0.0069803562666488506 0.0064765258440131201 -0.0099789057675294321 -0.01953218892522476 0.0069803562666488506 -0.012523345767407225 0.0069803562666488506
leaf_weight=17.433469474315647 18.109183609485626 94.404081583023071 27.804081484675407 6.9755101948976508 26.755102083086967 24.868367284536362 67.628571510314941 16.769387871026993 28.618367433547974 11.849489772692321 24.044285744428635 15.761224567890165 11.984693758189676 3.3718367218971244 18.295918345451355 2.498163290321826 12.471428543329241 10.772449016571043 55.539081662893295 12.29897955060005 14.467755109071726 115.73265290260315 113.99550998210907 31.125510185956959 31.299592047929764
leaf_count=21 17 19 35 15 27 26 38 13 18 27 16 37 18 9 11 11 26 22 74 11 18 46 192 69 67
internal_value=-5.50854e-05 -0.0306999 0.034666 -0.0112382 -0.0237076 0.0370524 -0.0415657 0.0146167 0.0096899 -0.00676078 0.0401839 0.0417528 -0.0349918 -0.0400183 0.043591 -0.043787 0.0446363 0.0365302 0.0454595 0.0429605 -0.0459805 -0.0463345 0.0463345 -0.0463345 0.0463345
internal_weight=814.875 432.845 382.029 155.08 97.1786 363.92 277.765 44.5735 57.9013 29.283 319.347 295.303 70.4235 58.4388 270.434 51.4633 252.138 23.2439 228.894 59.3598 48.0914 210.137 169.535 45.5933 43.5986
internal_count=883 336 547 233 167 530 103 48 66 48 482 466 140 122 440 107 429 48 381 115 98 65 266 87 78
is_linear=0
shrinkage=0.0463345


Tree=2
num_leaves=24
num_cat=0
split_feature=52 38 49 18 43 78 47 41 67 74 54 42 43 60 28 68 53 26 59 75 69 6 8
split_gain=404.493 36.0264 27.4742 12.7717 12.5799 10.3871 15.4032 9.80733 8.53453 6.90817 6.30871 5.90457 3.25566 2.9281 2.07188 1.55652 0.880244 0.989741 1.09616 0.363091 0.301615 2.84217e-14 2.84217e-14
threshold=0.90413043478260857 0.86739130434782619 6882.9666666666672 1.0000000180025095e-35 -1106.9999999999998 4078.6000000000004 8361.5000000000018 5583.5750000000007 32014800.000000004 1018.5000000000001 0.89880434782608709 14863.000000000002 1962.6049999999998 8171.9269642857153 10.850000000000003 -2.6499999999999999 0.97106625258799195 15.200000000000001 302.61409403660792 95.050000000000011 48.64500000000001 0.95768026224311686 0.67468657362675943
decision_type=2 2 2 2 2 2 2 2 2 2 2 2 2 2 2 2 2 2 2 2 2 2 2
left_child=1 3 7 5 8 6 14 -2 -4 -3 -6 12 16 22 -1 -7 -12 20 -19 -17 -18 -22 -5
right_child=2 9 4 13 10 15 -8 -9 -10 -11 11 -13 -14 -15 -16 19 17 18 -20 -21 21 -23 -24
leaf_value=-0.011038547970241824 0.00094514579665626168 0.0020632155274117573 -0.00032343100550651647 -0.016997162689670147 0.0010016417383067223 -0.010340991372379458 0.0024429076153183924 -0.0048168218865193404 0.0066569252611423336 -0.0065043429891913857 0.006612432213788294 0.0030536345191479867 0.0066569252611423336 -0.020649576004063575 -0.012506317038036351 -0.0034408822903213192 0.0066569252611423336 0.0066569252611423336 0.0066569252611423336 -0.0071311124438844528 0.0066569252611423336 0.002023478625133429 -0.018627175590302022
leaf_weight=6.9704081565141705 30.264489613473415 25.974285572767258 31.462244853377342 94.404081583023071 12.969387784600256 6.9722449555993071 17.884693890810013 22.188367307186127 16.769387871026993 23.550000056624413 18.314285665750504 31.348367422819138 16.963265389204025 55.093877673149109 12.440306114032863 8.9612245410680753 19.089795991778374 11.466326579451563 10.462244868278502 23.306530587375164 189.25153045356274 13.034693896770476 115.73265290260315
leaf_count=20 30 24 38 19 10 23 13 18 13 18 21 20 17 31 38 26 37 25 21 41 318 16 46
internal_value=0.000287008 -0.0336782 0.0316627 -0.0390301 0.036099 -0.022356 -0.00484712 0.00027384 0.0140267 0.00325528 0.0393959 0.0407208 0.0428661 -0.0438417 -0.0334297 -0.0389971 0.0441416 0.044879 0.0354893 -0.0432868 0.0458091 0.0463345 -0.0463345
internal_weight=814.875 391.29 423.584 341.766 371.132 76.5354 37.2954 52.4529 48.2316 49.5243 322.9 309.931 278.582 265.231 19.4107 39.24 261.619 243.305 21.9286 32.2678 221.376 202.286 210.137
internal_count=883 299 584 257 536 161 71 48 51 42 485 475 455 96 58 90 438 417 46 67 371 334 65
is_linear=0
shrinkage=0.0463345


Tree=3
num_leaves=24
num_cat=0
split_feature=52 38 49 18 43 78 47 67 74 54 42 75 43 60 28 68 53 26 59 75 69 6 8
split_gain=406.027 36.0264 25.9621 12.7717 12.5799 10.3871 15.4032 8.53453 6.90817 6.30871 5.90457 5.31488 3.25566 2.9281 2.07188 1.55652 0.880244 0.989741 1.09616 0.363091 0.301615 2.84217e-14 2.84217e-14
threshold=0.90413043478260857 0.86739130434782619 6882.9666666666672 1.0000000180025095e-35 -1106.9999999999998 4078.6000000000004 8361.5000000000018 32014800.000000004 1018.5000000000001 0.89880434782608709 14863.000000000002 99.850000000000009 1962.6049999999998 8171.9269642857153 10.850000000000003 -2.6499999999999999 0.97106625258799195 15.200000000000001 302.61409403660792 95.050000000000011 48.64500000000001 0.95768026224311686 0.67468657362675943
decision_type=2 2 2 2 2 2 2 2 2 2 2 2 2 2 2 2 2 2 2 2 2 2 2
left_child=1 3 11 5 7 6 14 -4 -3 -6 12 -2 16 22 -1 -7 -11 20 -19 -17 -18 -22 -5
right_child=2 8 4 13 9 15 -8 -9 -10 10 -12 -13 -14 -15 -16 19 17 18 -20 -21 21 -23 -24
leaf_value=-0.010527082862593209 0.0023991147996388633 0.0019676175597556165 -0.00030844500603500785 -0.016209608414576238 0.0009552312139434185 -0.0098618471697428534 0.0023297168215824049 0.006348480255107326 -0.0062029677996176631 0.0063060487688676578 0.0029121460269780032 -0.0024177076844182832 0.006348480255107326 -0.019692789147468952 -0.011926843650106066 -0.0032814508836028077 0.006348480255107326 0.006348480255107326 0.006348480255107326 -0.0068006962330206403 0.006348480255107326 0.0019297218452001841 -0.017764095555304019
leaf_weight=6.9704081565141705 21.295918345451355 25.974285572767258 31.462244853377342 94.404081583023071 12.969387784600256 6.9722449555993071 17.884693890810013 16.769387871026993 23.550000056624413 18.314285665750504 31.348367422819138 31.156938575208187 16.963265389204025 55.093877673149109 12.440306114032863 8.9612245410680753 19.089795991778374 11.466326579451563 10.462244868278502 23.306530587375164 189.25153045356274 13.034693896770476 115.73265290260315
leaf_count=20 24 24 38 19 10 23 13 13 18 21 20 24 17 31 38 26 37 25 21 41 318 16 46
internal_value=0.000351365 -0.0336782 0.0317865 -0.0390301 0.036099 -0.022356 -0.00484712 0.0140267 0.00325528 0.0393959 0.0407208 0.00127365 0.0428661 -0.0438417 -0.0334297 -0.0389971 0.0441416 0.044879 0.0354893 -0.0432868 0.0458091 0.0463345 -0.0463345
internal_weight=814.875 391.29 423.584 341.766 371.132 76.5354 37.2954 48.2316 49.5243 322.9 309.931 52.4529 278.582 265.231 19.4107 39.24 261.619 243.305 21.9286 32.2678 221.376 202.286 210.137
internal_count=883 299 584 257 536 161 71 51 42 485 475 48 455 96 58 90 438 417 46 67 371 334 65
is_linear=0
shrinkage=0.0463345


Tree=4
num_leaves=23
num_cat=0
split_feature=52 38 38 18 84 52 47 34 42 43 37 5 40 40 42 26 74 76 44 69 2 81
split_gain=397.114 34.616 27.611 13.1331 11.9294 10.0696 9.81018 9.49905 8.49313 7.93291 4.66037 4.19538 2.97254 2.57499 1.643 0.965388 1.22579 0.294218 0.275728 0.270137 2.84217e-14 3.55271e-15
threshold=0.90413043478260857 0.86572463768115948 0.99917101449275381 1.0000000180025095e-35 0.00060788579867221426 0.94623188405797098 8361.5000000000018 6284.0000000000009 9145.0000000000018 -1919.4999999999998 9993.5000000000018 0.25000000000000017 0.89326086956521755 0.8543478260869567 14897.955000000002 14.750000000000002 1013.85 13.516666666666667 544.50000000000011 48.64500000000001 1.0000000180025095e-35 -307.2999999999999
decision_type=2 2 2 2 2 2 2 2 2 2 2 2 2 2 2 2 2 2 2 2 2 2
left_child=1 3 4 6 7 -4 12 -2 -3 -7 13 20 18 -11 15 17 -17 -15 21 -19 -5 -1
right_child=2 8 5 11 -6 9 -8 -9 -10 10 -12 -13 -14 14 -16 16 -18 19 -20 -21 -22 -23
leaf_value=-0.013928384973064782 0.0056335363597789191 -0.0052095222526540117 -0.0056135215083754362 -0.015822123423227061 -0.0051715492750221059 -0.00044062460241215513 -0.0021948448725813705 -6.4258474463323455e-05 0.0022339244571955674 0.0023455231617481977 0.004325914094388511 -0.019783993212076783 -0.0065942913340755784 0.0060543268804209936 0.0019217904268879983 0.0060543268804209936 0.0060543268804209936 0.0060543268804209936 -0.014616141085140543 0.0060543268804209936 -0.01576345762577264 -0.014585030574668213
leaf_weight=11.81224484741688 20.404081761837006 30.589591816067696 15.885714344680308 122.19999980926514 23.357142955064774 18.293877393007278 36.94979590177536 24.012040689587593 24.22857141494751 22.771428525447845 24.044285744428635 58.297959208488464 7.3112245798110953 18.634693890810013 19.838775515556335 9.0336734950542468 15.554081618785856 21.011224523186684 6.02295915223658 190.74336723983288 81.257142901420593 12.620816402137281
leaf_count=43 20 33 12 37 25 13 32 29 15 24 16 33 12 39 12 21 34 37 35 302 24 35
internal_value=0.000912941 -0.032741 0.0320011 -0.0383037 0.00489577 0.0371641 -0.02117 0.0189927 0.00140223 0.0388491 0.0405372 -0.0431944 -0.0377766 0.0421226 0.0433633 0.0443626 0.0356354 0.045294 -0.0441456 0.0457852 -0.0463345 -0.0463345
internal_weight=814.875 391.29 423.584 336.472 67.7733 355.811 74.717 44.4161 54.8182 339.925 321.632 261.755 37.7672 297.587 274.816 254.977 24.5878 230.389 30.456 211.755 203.457 24.4331
internal_count=883 299 584 251 74 510 157 49 48 498 485 94 125 469 445 433 55 378 113 339 61 78
is_linear=0
shrinkage=0.0463345


Tree=5
num_leaves=23
num_cat=0
split_feature=38 18 40 74 52 45 5 43 60 37 40 42 26 74 7 59 44 76 69 44 8 43
split_gain=391.545 57.1766 24.0437 26.2738 17.9654 11.1211 9.45405 7.93291 7.90377 4.66037 2.57499 1.643 0.965388 1.22579 0.937052 0.810526 0.412935 0.294218 0.270137 0.250106 2.84217e-14 7.10543e-15
threshold=0.99917101449275381 1.0000000180025095e-35 0.86572463768115948 1022.2500000000001 0.94623188405797098 5783.5139583333339 0.25000000000000017 -1919.4999999999998 8171.9269642857153 9993.5000000000018 0.8543478260869567 14897.955000000002 14.750000000000002 1013.85 -0.35273909160235833 213.68392018381971 597.50000000000011 13.516666666666667 48.64500000000001 -5849.7699999999995 0.67468657362675943 -866.27000000000032
decision_type=2 2 2 2 2 2 2 2 2 2 2 2 2 2 2 2 2 2 2 2 2 2
left_child=1 2 5 6 -2 14 -4 -6 20 10 -9 12 17 -14 -1 -16 19 -12 -19 -17 -3 -21
right_child=4 8 3 -5 7 -7 -8 9 -10 -11 11 -13 13 -15 15 16 -18 18 -20 21 -22 -23
leaf_value=-0.0022234703309857995 0.00032111609752205096 -0.014725435567136531 0.0037461690066389912 -0.0031516250708081743 -0.0004202085014618409 -0.00033819525866262773 0.0023086764873079236 0.0022368446236243496 -0.01839263059002616 0.0041254752210937813 0.005773802942129265 0.0018327453142322242 0.005773802942129265 0.005773802942129265 -0.010698430398571891 -0.0031540308385608119 -0.01379778658223269 0.005773802942129265 0.005773802942129265 -0.0063838927356460254 -0.016212204787002756 -0.011442927098730332
leaf_weight=2.3377550691366187 42.29591827839613 94.404081583023071 28.595918491482735 34.346938818693161 18.293877393007278 19.195509999990463 31.118367463350296 22.771428525447845 60.516326665878296 24.044285744428635 18.634693890810013 19.838775515556335 9.0336734950542468 15.554081618785856 3.3924489337950936 3.6414286494255057 6.1743878349661818 21.011224523186684 190.74336723983288 7.3291836827993349 115.73265290260315 25.868367411196235
leaf_count=5 36 19 30 31 13 15 38 24 34 16 39 12 21 34 7 3 32 37 302 11 46 78
internal_value=0.00113435 -0.0290538 -0.00728214 0.00788842 0.0353057 -0.0282857 0.0264607 0.0388491 -0.0420853 0.0405372 0.0421226 0.0433633 0.0443626 0.0356354 -0.0400498 -0.0414917 -0.0432114 0.045294 0.0457852 -0.04507 -0.0463345 -0.0463345
internal_weight=814.875 432.653 162 94.0612 382.221 67.9391 59.7143 339.925 270.653 321.632 297.587 274.816 254.977 24.5878 48.7436 46.4058 43.0134 230.389 211.755 36.839 210.137 33.1976
internal_count=883 349 250 99 534 151 68 498 99 485 469 445 433 55 136 131 124 378 339 92 65 89
is_linear=0
shrinkage=0.0463345


Tree=6
num_leaves=23
num_cat=0
split_feature=52 38 38 78 84 52 34 46 43 18 47 37 45 28 40 42 26 74 76 69 60 6
split_gain=392.246 36.4602 27.611 18.2673 11.9294 10.0696 9.49905 8.46236 7.93291 7.62359 9.75305 4.66037 4.25428 3.1046 2.57499 1.643 0.965388 1.22579 0.294218 0.270137 0.00930945 3.55271e-15
threshold=0.90413043478260857 0.7389855072463769 0.99917101449275381 4107.1500000000005 0.00060788579867221426 0.94623188405797098 6284.0000000000009 4018.516149263754 -1919.4999999999998 1.0000000180025095e-35 8361.5000000000018 9993.5000000000018 7648.7587500000018 9.1500000000000004 0.8543478260869567 14897.955000000002 14.750000000000002 1013.85 13.516666666666667 48.64500000000001 2862.2427678571435 0.67924831531502439
decision_type=2 2 2 2 2 2 2 2 2 2 2 2 2 2 2 2 2 2 2 2 2 2
left_child=1 9 4 7 6 -4 -2 -3 -7 10 13 14 -11 -1 -10 16 18 -18 -16 -20 -15 -22
right_child=2 3 5 -5 -6 8 -8 -9 11 12 -12 -13 -14 20 15 -17 17 -19 19 -21 21 -23
leaf_value=-0.0085431261934563792 0.0052655382535284918 0.0022017052197743636 -0.0053683007863674715 -0.0041393557722234336 -0.0046361341635557576 -0.00040073836942867459 -4.5610999950210151e-05 -0.013607926832866726 0.0021332016463686903 -0.0142936267531739 -0.0028442886476884848 0.0039343235738167363 -0.017750432637708629 -0.023364173954829148 0.0055062769277205654 0.0017478260583696462 0.0055062769277205654 0.0055062769277205654 0.0055062769277205654 0.0055062769277205654 -0.012088234787817377 -0.014879515679427
leaf_weight=5.2255102545022991 20.404081761837006 22.339795768260956 15.885714344680308 40.734693884849548 23.357142955064774 18.293877393007278 24.012040689587593 25.536734580993652 22.771428525447845 198.83265292644501 17.06795933842659 24.044285744428635 57.395918369293213 4.2913265321403768 18.634693890810013 19.838775515556335 9.0336734950542468 15.554081618785856 21.011224523186684 190.74336723983288 11.787142999470236 8.0785713791847211
leaf_count=18 20 27 12 37 25 13 29 15 24 60 16 16 31 31 39 12 21 34 37 302 36 28
internal_value=0.00110406 -0.032343 0.0320011 -0.00620272 0.00489577 0.0371641 0.0189927 0.0132024 0.0388491 -0.0399958 -0.022725 0.0405372 -0.0431267 -0.0389068 0.0421226 0.0433633 0.0443626 0.0356354 0.045294 0.0457852 -0.0459117 -0.0463345
internal_weight=814.875 391.29 423.584 88.6112 67.7733 355.811 44.4161 47.8765 339.925 302.679 46.4505 321.632 256.229 29.3826 297.587 274.816 254.977 24.5878 230.389 211.755 24.157 19.8657
internal_count=883 299 584 79 74 510 49 42 498 220 129 485 91 113 469 445 433 55 378 339 95 64
is_linear=0
shrinkage=0.0463345


Tree=7
num_leaves=26
num_cat=0
split_feature=38 52 18 84 23 69 43 78 73 60 44 43 53 74 59 57 58 7 59 58 7 79 36 43 6
split_gain=384.303 42.4562 24.1012 13.6731 11.0282 11.9197 10.0967 8.89728 7.02854 5.40161 4.81174 4.0318 3.18912 2.02819 2.00543 0.980214 0.733408 0.713321 0.214048 0.116624 0.31994 0.0282073 2.84217e-14 2.84217e-14 3.55271e-15
threshold=0.84905797101449287 0.99777294685990336 1.0000000180025095e-35 0.00090632363571785401 1.0000000180025095e-35 76.105000000000004 -1106.9999999999998 4147.8000000000002 284.65000000000003 7917.9469940476201 -994.24499999999978 366.09999999999997 0.99974948240165651 1007.9000000000001 319.03401185885093 0.76708093498293584 217.59536135927829 -0.14540367380369007 269.00005720412736 258.29473715021658 -0.37672789363518483 3612.7000000000003 8473.5000000000018 8.0950000000002564 -0.90199700731761212
decision_type=2 2 2 2 2 2 2 2 2 2 2 2 2 2 2 2 2 2 2 2 2 2 2 2 2
left_child=2 4 3 -1 5 -2 -3 -7 13 23 11 14 -12 -5 -8 -14 -17 -15 -19 20 -18 -20 -21 -4 -23
right_child=1 6 9 8 -6 7 10 -9 -10 -11 12 -13 15 17 -16 16 19 18 21 22 -22 24 -24 -25 -26
leaf_value=0.00094601905900659246 0.0055638274221375857 0.0052511465854715774 -0.013631339343116918 -0.0073922818584000053 -0.0031662514735084058 0.0013841194510811432 0.0052511465854715774 -0.0027228892567700098 -0.0075767363689637152 -0.016540246856009803 0.0014179009452206367 0.0052511465854715774 0.0052511465854715774 -0.0073087248181467682 0.0052511465854715774 0.0052511465854715774 0.0052511465854715774 -0.0095132901990201222 -0.0083428518615499426 0.0049355339383446413 0.0052511465854715774 -0.0070926699020864518 0.0052511465854715774 -0.013335360681266301 -0.014628330529270582
leaf_weight=27.19510206580162 21.995918244123459 38.352040812373161 102.82448971271515 7.4344898071140042 42.402448825538158 31.786734893918037 24.259796008467674 29.114285707473755 15.869693890213965 64.279591798782349 22.054081663489342 22.455510079860687 17.097958981990814 1.9461224526166905 13.935714334249495 6.3632653653621665 22.444897949695587 2.9799999780952993 4.3346939012408283 57.944489791989326 9.742857098579405 7.5265306234359821 110.73397965729237 94.651020407676697 15.148979678750031
leaf_count=29 23 39 29 24 38 27 27 25 29 36 21 22 32 8 15 11 32 7 7 86 19 5 200 29 63
internal_value=0.00155384 0.028764 -0.0356562 -0.0138081 0.00565997 0.0154912 0.0371457 0.0049321 -0.0270484 -0.042537 0.0399456 0.0282547 0.0428235 -0.0375415 0.0374146 0.0444764 0.0453561 -0.0426156 -0.0443796 0.0458467 0.0432909 -0.0456798 0.0463345 -0.0463345 -0.0463345
internal_weight=814.875 470.684 344.191 82.4356 125.299 82.8969 345.385 60.901 55.2405 261.755 307.033 60.651 246.382 39.3708 38.1955 224.327 207.229 31.9363 29.9902 200.866 32.1878 27.0102 168.678 197.476 22.6755
internal_count=883 617 266 172 113 75 504 52 143 94 465 64 401 114 42 380 348 90 82 337 51 75 286 58 68
is_linear=0
shrinkage=0.0463345


Tree=8
num_leaves=24
num_cat=0
split_feature=52 38 38 78 84 52 34 46 43 18 47 60 37 82 40 42 26 74 76 69 68 48 58
split_gain=384.089 35.996 26.1975 17.6106 12.5566 9.99091 8.6513 8.03743 7.85414 7.832 9.1001 5.57695 4.58651 3.91367 2.6231 1.6338 0.960157 1.22579 0.302048 0.269637 0.116776 2.84217e-14 3.55271e-15
threshold=0.90413043478260857 0.7389855072463769 0.99917101449275381 4109.8500000000013 0.00060788579867221426 0.94623188405797098 6284.0000000000009 4018.516149263754 -1919.4999999999998 1.0000000180025095e-35 8361.5000000000018 7917.9469940476201 9993.5000000000018 169.50000000000003 0.87014492753623196 14897.955000000002 14.750000000000002 1013.85 13.516666666666667 48.64500000000001 4.0500000000000007 1008.0000000000001 255.54198268432921
decision_type=2 2 2 2 2 2 2 2 2 2 2 2 2 2 2 2 2 2 2 2 2 2 2
left_child=1 9 4 7 6 -4 -2 -3 -7 10 13 -11 14 -1 -10 16 18 -18 -16 -20 22 -21 -15
right_child=2 3 5 -5 -6 8 -8 -9 12 11 -12 -13 -14 20 15 -17 17 -19 19 21 -22 -23 -24
leaf_value=-0.008712393696580386 0.0013692948505079287 0.0020558571298412457 -0.0048282881440527775 -0.0035275337070669027 -0.0037435256851153153 -0.00062547939216517758 0.00010320889829806178 -0.011305176276205512 0.0030837903809223387 -0.01275746956275199 -0.002207885506046353 -0.016532582550563842 0.0035087198171914352 -0.013829271031415267 0.0050078375686645393 0.0016497867081833851 0.0050078375686645393 0.0050078375686645393 0.0050078375686645393 0.0050078375686645393 -0.014191073764853245 0.0050078375686645393 -0.012687483685988236
leaf_weight=4.8438775837421444 20.404081761837006 23.298979431390762 15.885714344680308 39.775510221719742 23.357142955064774 18.293877393007278 24.012040689587593 25.536734580993652 26.714897871017456 193.80816316604614 17.06795933842659 62.420408129692078 24.044285744428635 7.204591812565929 18.187755107879639 19.838775515556335 9.0336734950542468 15.554081618785856 21.011224523186684 93.106428489089012 4.0173469334840766 94.14040818810463 13.316734835505484
leaf_count=17 20 29 12 35 25 13 29 15 30 56 16 35 16 28 38 12 21 34 37 144 21 153 47
internal_value=0.00141977 -0.0316777 0.0319939 -0.00570437 0.00559143 0.0370229 0.0200542 0.0129373 0.0387014 -0.0392816 -0.0217764 -0.042455 0.0403811 -0.0374071 0.0419539 0.04332 0.0443316 0.0356354 0.0452759 0.045776 -0.0449202 0.0463345 -0.0463345
internal_weight=814.875 391.29 423.584 88.6112 67.7733 355.811 44.4161 48.8357 339.925 302.679 46.4505 256.229 321.632 29.3826 297.587 270.872 251.034 24.5878 226.446 208.258 24.5387 187.247 20.5213
internal_count=883 299 584 79 74 510 49 44 498 220 129 91 485 113 469 439 427 55 372 334 96 297 75
is_linear=0
shrinkage=0.0463345


Tree=9
num_leaves=28
num_cat=0
split_feature=38 52 18 47 34 80 36 59 43 62 41 37 73 46 26 66 66 63 76 79 82 47 59 83 78 25 36
split_gain=375.827 42.5942 19.4042 12.0628 10.9698 8.83126 8.39241 12.8442 7.68136 7.02195 4.59705 4.42856 3.96947 2.86648 2.88247 2.78672 1.01049 0.818663 0.606672 0.550623 0.995041 0.294371 0.787012 0.0948763 0.0231207 2.84217e-14 3.55271e-15
threshold=0.84905797101449287 0.95884057971014502 1.0000000180025095e-35 8361.5000000000018 6872.5000000000009 -499.04999999999967 7224.5000000000009 300.59233969961053 -1919.4999999999998 8000.1720293308163 6175.0000000000009 9993.5000000000018 166.55000000000004 5100.691630842015 14.250000000000002 321.69999999999987 1183.6500000000005 5864.8539947350846 13.516666666666667 4081.4000000000001 190.50000000000003 8784.6250000000018 355.10914837504424 324.65000000000003 3739.8500000000004 11.200000000000001 3420.0000000000005
decision_type=2 2 2 2 2 2 2 2 2 2 2 2 2 2 2 2 2 2 2 2 2 2 2 2 2 2 2
left_child=2 6 3 10 -3 -5 7 -2 -6 -4 19 13 -11 14 16 -16 18 -17 -10 20 -1 22 -20 -23 -21 -25 -26
right_child=1 4 9 5 8 -7 -8 -9 11 12 -12 -13 -14 -15 15 17 -18 -19 21 24 -22 23 -24 25 26 -27 -28
leaf_value=-0.016699971208665072 0.0014191090805400349 0.00093251549684480117 -0.012498449257112892 -0.0026421687720168704 -0.00059649814521963915 0.0017857621831833563 0.0016781652743310942 -0.0051198251261606095 0.0047758021426240202 -0.013995130868923809 0.00083102599154375345 0.0033461451956156092 -0.025950915266486539 0.0010816325267645748 0.0047758021426240202 0.0047758021426240202 0.0047758021426240202 0.0047758021426240202 0.0047758021426240202 -0.01264249373748755 -3.6357391986553017e-05 0.0047758021426240202 0.0047758021426240202 0.0047758021426240202 -0.019341631177621034 0.0047758021426240202 -0.011471126697460754
leaf_weight=6.5810203440487367 38.398775458335876 28.663265392184258 180.44285702705383 17.873469471931458 18.293877393007278 25.159183651208878 28.925510287284851 36.193469293415546 16.684693932533264 45.032652974128723 6.6265306770801535 24.044285744428635 36.279591917991638 12.13061213493347 10.177550986409186 12.777551084756853 12.102040648460386 9.1438775658607465 16.51224480569363 4.5775510221719768 4.9735714849084616 11.653061330318449 7.582959219813346 94.252346962690353 5.2479591891169575 93.147857174277306 11.396326556801794
leaf_count=35 29 35 50 14 13 28 25 32 35 25 9 16 19 7 20 27 19 20 37 8 18 24 18 94 35 166 25
internal_value=0.00173134 0.0286397 -0.0350661 -0.0154622 0.0360407 0.00149819 0.00238917 -0.00582632 0.0383713 -0.04124 -0.033985 0.0400396 -0.0299349 0.0415922 0.0425342 0.0294574 0.0442003 0.0387598 0.0448595 -0.0411011 -0.0329622 0.0454967 0.0406597 0.0460822 -0.0455324 0.0463345 -0.0463345
internal_weight=814.875 470.684 344.191 82.4356 367.166 43.0327 103.518 74.5922 338.503 261.755 39.403 320.209 81.3122 296.165 284.034 32.099 251.935 21.9214 239.833 32.7764 11.5546 223.148 24.0952 199.053 21.2218 187.4 16.6443
internal_count=883 617 266 172 531 42 86 61 496 94 130 483 44 467 460 67 393 47 374 121 53 339 55 284 68 260 60
is_linear=0
shrinkage=0.0463345


Tree=10
num_leaves=26
num_cat=0
split_feature=38 38 18 57 84 36 59 48 73 62 73 52 53 2 74 57 68 7 7 81 59 43 79 25 6
split_gain=331.235 59.2482 21.9743 20.9285 13.6731 12.4072 12.513 8.20292 7.02854 7.02195 3.96947 3.53482 3.29788 6.10715 2.02819 1.83941 1.6457 0.713321 0.441695 0.257645 0.214048 0.0698653 0.0282073 2.84217e-14 3.55271e-15
threshold=0.84905797101449287 1.0861594202898555 1.0000000180025095e-35 0.99999999975594289 0.00090632363571785401 7354.0000000000009 293.77806400854456 51.500000000000007 284.65000000000003 8000.1720293308163 166.55000000000004 1.0313526570048313 1.0864389233954455 -0.60785761079279388 1007.9000000000001 0.75595443958670472 6.8500000000000005 -0.14540367380369007 0.93867560834981001 68.300000000000423 269.00005720412736 -983.9749999999998 3612.7000000000003 24.100000000000005 -0.90199700731761212
decision_type=2 2 2 2 2 2 2 2 2 2 2 2 2 2 2 2 2 2 2 2 2 2 2 2 2
left_child=2 3 4 5 -1 6 -2 -3 14 -4 -11 -7 13 -9 -6 -14 18 -16 -15 21 -19 -17 -22 -23 -24
right_child=1 7 9 -5 8 11 -8 12 -10 10 -12 -13 15 16 17 19 -18 20 -20 -21 22 23 24 -25 -26
leaf_value=0.0009611637010270718 0.00087039874886455119 0.0026071260557172342 -0.011919340418526223 -0.001445326304126494 -0.0066845856252350901 0.0047414762036149709 -0.0011023192170654937 0.0045545179516624261 -0.0061430380844868888 -0.013346674103076757 -0.024748493742737628 0.0039376000809285897 0.0045545179516624261 0.0047336945476153577 -0.006794940211139946 0.0045545179516624261 0.0045545179516624261 -0.0078459422776696597 0.0043905079768010499 0.0045545179516624261 -0.0064710028158800935 0.0045545179516624261 -0.0068042884977669322 0.0045545179516624261 -0.013720159013926059
leaf_weight=27.19510206580162 42.580612257122993 19.794285833835602 180.44285702705383 44.19632625579834 7.4344898071140042 27.791836827993393 48.234693877398968 25.248571410775185 15.869693890213965 45.032652974128723 36.279591917991638 15.91020408272743 10.551020264625548 45.056122422218323 1.9461224526166905 7.7959183454513541 25.203061252832413 2.9799999780952993 13.740816265344618 10.615306079387663 4.3346939012408283 121.13969400525093 7.5265306234359821 12.825510233640669 15.148979678750031
leaf_count=29 37 22 50 29 24 28 39 36 29 25 19 20 19 59 8 6 29 7 16 30 7 212 5 35 63
internal_value=-0.000124409 0.0251372 -0.03467 0.00412525 -0.0138081 0.0132139 0.00345222 0.0379986 -0.0270484 -0.04124 -0.0299349 0.0334991 0.040093 0.0338645 -0.0375415 0.0442695 0.0398706 -0.0426156 0.0441167 0.0455649 -0.0443796 0.0460863 -0.0456798 0.0463345 -0.0463345
internal_weight=814.875 470.684 344.191 178.714 82.4356 134.517 90.8153 291.97 55.2405 261.755 81.3122 43.702 272.176 109.249 39.3708 162.927 84 31.9363 58.7969 152.376 29.9902 141.761 27.0102 133.965 22.6755
internal_count=883 617 266 153 172 124 76 464 143 94 44 48 442 140 114 302 104 90 75 283 82 253 75 247 68
is_linear=0
shrinkage=0.0463345


Tree=11
num_leaves=27
num_cat=0
split_feature=52 38 49 78 63 8 50 42 34 36 74 62 50 83 76 25 44 34 57 39 7 26 68 65 37 25
split_gain=347.301 32.0748 32.0155 17.9541 16.6444 17.0779 9.51342 11.766 11.4851 8.12312 8.64773 6.62617 5.84838 5.23273 2.89767 2.19453 1.98224 1.97479 1.55014 0.699386 0.279516 0.158847 0.114131 0.0117923 2.84217e-14 3.55271e-15
threshold=0.90413043478260857 0.7389855072463769 7471.0000000000009 4107.1500000000005 6265.0978982201113 0.32012920303568743 6330.1428571428578 8449.5000000000018 6427.5000000000009 7354.0000000000009 1015.7500000000001 8353.900713753761 6905.7142857142871 658.90000000000009 10.833333333333334 5.0500000000000007 -994.24499999999978 12250.000000000002 0.76394076914564157 0.72318840579710153 0.28770616809944943 14.750000000000002 3.6500000000000008 10.500000000000002 8893.345000000003 -1.3499999999999999
decision_type=2 2 2 2 2 2 2 2 2 2 2 2 2 2 2 2 2 2 2 2 2 2 2 2 2 2
left_child=1 6 4 12 5 13 7 8 19 10 -4 20 -3 -2 -11 -7 -16 -12 -18 22 -8 24 23 -1 -20 -25
right_child=2 3 9 -5 -6 15 11 -9 -10 14 17 -13 -14 -15 16 -17 18 -19 21 -21 -22 -23 -24 25 -26 -27
leaf_value=-0.010497125234357377 0.00044697760499871593 0.003345959082056601 -0.0002753360527559172 -0.0019385433724048787 -0.0036233677770842747 0.001386552502708941 -0.010900393531655783 0.0017402287145768674 -0.014932078484770329 0.0043434868431584403 0.0043581105832529877 -0.012414282669153684 -0.0047129843719160404 -0.0028903844578228848 0.0043434868431584403 0.00031479459399919588 0.0043434868431584403 0.0049875009318671544 0.0043434868431584403 -0.010854641579398642 -0.014661309759783709 0.0043434868431584403 -0.012720534624974765 -0.017473922634433672 0.0043434868431584403 -0.01477106469650445
leaf_weight=3.5080612543970409 19.84285706281662 24.228571176528931 22.092448964715004 40.734693884849548 29.461836636066437 31.622448921203613 163.86428543925285 8.8744899332523328 7.2122448682785025 12.97142857313156 27.004081696271896 52.026530623435974 23.647959172725677 22.292040847241879 23.867755025625229 20.660204097628593 13.037754982709883 19.620408177375793 112.0943878442049 5.3965307027101508 37.838775724172592 16.173469483852386 3.8346938937902442 14.27755104750395 52.843265384435654 5.8459183126687995
leaf_count=17 17 27 27 37 20 28 41 6 4 26 38 29 15 27 23 27 22 12 168 9 26 34 21 42 115 25
internal_value=0.0005556 -0.030917 0.0296287 -0.00639907 0.0098152 0.0193025 -0.0380948 -0.0193926 -0.0300826 0.0378184 0.0238328 -0.0417028 0.012839 -0.00264841 0.041979 0.0369929 0.0432448 0.0351473 0.0447939 -0.041703 -0.0455056 0.0459048 -0.0446991 -0.0459023 0.0463345 -0.0463345
internal_weight=814.875 391.29 423.584 88.6112 123.879 94.4176 302.679 48.9495 40.075 299.705 68.7169 253.73 47.8765 42.1349 230.988 52.2827 218.017 46.6245 194.149 32.8628 201.703 181.111 27.4662 23.6315 164.938 20.1235
internal_count=883 299 584 79 119 99 220 124 118 465 77 96 42 44 388 55 362 50 339 114 67 317 105 84 283 67
is_linear=0
shrinkage=0.0463345


Tree=12
num_leaves=27
num_cat=0
split_feature=38 38 82 74 48 45 74 36 51 41 45 48 39 53 2 69 57 68 7 81 81 43 63 79 25 40
split_gain=324.888 69.2493 15.9559 14.8549 17.0301 15.4046 11.727 16.4609 13.1052 9.38239 14.1015 8.20292 6.1144 3.29788 6.10715 2.78674 1.83941 1.6457 0.441695 0.257645 0.146832 0.0698653 0.0310749 0.102956 2.84217e-14 2.84217e-14
threshold=0.7389855072463769 1.0861594202898555 66.500000000000014 1020.5000000000001 1306.5000000000002 6304.2391666666672 1016.0500000000001 7044.2100000000009 6386.3421428571446 5510.0000000000009 5813.9118750000007 51.500000000000007 0.65014782608695665 1.0864389233954455 -0.60785761079279388 83.940000000000012 0.75595443958670472 6.8500000000000005 0.93867560834981001 68.300000000000423 -791.89999999999998 -983.9749999999998 3305.4519599373871 3735.4000000000001 24.100000000000005 0.56700000000000006
decision_type=2 2 2 2 2 2 2 2 2 2 2 2 2 2 2 2 2 2 2 2 2 2 2 2 2 2
left_child=2 3 -1 6 -5 -6 7 8 -2 10 12 -3 20 14 -13 25 -15 18 -16 21 -4 -18 23 -22 -23 -11
right_child=1 11 9 4 5 -7 -8 -9 -10 15 -12 13 -14 16 17 -17 19 -19 -20 -21 22 24 -24 -25 -26 -27
leaf_value=-0.0020768972163650594 0.0002428263725893057 0.0022850731929556648 -0.019119102925227758 -0.0033049641903284219 0.0027257905262880753 -0.0089924966831629975 0.0014005906708845382 0.004788412539836963 -0.00023193558373383214 -0.010538671196012782 -0.007902392611800502 0.0041422337461211036 -0.0049593996609244495 0.0041422337461211036 0.0043155706458825032 -0.012551596265997575 0.0041422337461211036 0.0041561799031837252 0.0040075474855022853 0.0041422337461211036 -0.015601255107045213 0.0041422337461211036 -0.011148936736045906 -0.016503876735472069 0.0041422337461211036 -0.01382224711516062
leaf_weight=5.748979687690734 31.386326350271702 19.794285833835602 0.84387755393981834 38.387959107756615 21.836734756827354 24.312244981527328 45.321428254246712 23.136734932661057 30.397959023714066 108.4224488735199 21.614285707473755 25.248571410775185 13.961224578320978 10.551020264625548 45.056122422218323 55.947959244251251 7.7959183454513541 25.203061252832413 13.740816265344618 10.615306079387663 2.5433673504739982 121.13969400525093 33.588775500655174 6.6204081773757935 12.825510233640669 58.833673536777496
leaf_count=6 33 22 5 29 32 15 39 23 20 31 12 36 17 19 59 36 6 29 16 30 20 212 39 39 35 23
internal_value=0.000494376 0.0233079 -0.0370253 0.00333744 -0.0117876 0.00717976 0.0131547 0.00299767 -0.00948581 -0.0384792 -0.024775 0.0379986 -0.0367581 0.040093 0.0338645 -0.0433401 0.0442695 0.0398706 0.0441167 0.0455649 -0.0453042 0.0460863 -0.045682 -0.0432904 0.0463345 -0.0463345
internal_weight=814.875 506.75 308.125 214.779 84.5369 46.149 130.242 84.921 61.7843 302.376 79.1719 291.97 57.5577 272.176 109.249 223.204 162.927 84 58.7969 152.376 43.5964 141.761 42.7526 9.16378 133.965 167.256
internal_count=883 655 228 191 76 47 115 76 53 222 132 464 120 442 140 90 302 104 75 283 103 253 98 59 247 54
is_linear=0
shrinkage=0.0463345


Tree=13
num_leaves=26
num_cat=0
split_feature=52 49 38 78 60 6 50 53 72 34 36 74 83 62 50 57 59 69 34 65 65 7 68 84 26
split_gain=326.639 42.2852 30.8373 17.9541 14.5477 13.9723 13.0481 14.6777 12.4354 11.1875 7.97428 8.64773 7.96518 6.62617 5.84838 3.00797 2.406 2.28881 1.97479 1.11877 1.07957 0.279516 0.261367 0.0517241 2.84217e-14
threshold=0.90413043478260857 7471.0000000000009 0.7389855072463769 4107.1500000000005 6104.7984821428581 0.95768026224311686 6330.1428571428578 0.80712422360248459 20.350000000000005 6427.5000000000009 7354.0000000000009 1015.7500000000001 658.90000000000009 8353.900713753761 6905.7142857142871 0.74390957220261067 274.63616096598213 85.760000000000005 12250.000000000002 4.5000000000000009 6.5000000000000009 0.28770616809944943 3.6500000000000008 0.00042782377568073576 9.5500000000000025
decision_type=2 2 2 2 2 2 2 2 2 2 2 2 2 2 2 2 2 2 2 2 2 2 2 2 2
left_child=2 4 6 14 5 8 7 9 12 20 11 -3 -2 21 -4 -12 17 -17 -13 -18 -1 -8 -22 24 -21
right_child=1 10 3 -5 -6 -7 13 -9 -10 -11 15 18 -14 -15 -16 16 19 -19 -20 23 22 -23 -24 -25 -26
leaf_value=-0.01764925114926397 0.00030036341768619233 -0.00033191593881587135 0.0060580079878619943 -0.00201337923772392 -0.0029222980847865157 0.00075381858266755555 -0.0099159384745686318 0.0016071295320457669 0.0011973112352532216 -0.013748585112901572 0.0039503056017150704 0.0039636055711864794 -0.002627950626023212 -0.011221008412324554 -0.0043856844969487217 0.0039649293418096178 0.0039503056017150704 0.0039503056017150704 0.0045437694122541375 0.0039503056017150704 -0.014817638469356128 -0.013400414581592716 -0.011333092648496183 0.0039455732507080975 0.0039503056017150704
leaf_weight=3.553571471944454 17.933673426508904 22.092448964715004 24.228571176528931 40.734693884849548 31.080203950405121 25.089795887470245 163.86428543925285 10.8285716176033 25.919387623667717 7.2122448682785025 14.289795786142347 27.004081696271896 23.856326676905155 52.026530623435974 23.647959172725677 13.120408147573469 11.426836803555487 18.958163350820541 19.620408177375793 111.09693875908852 22.924489803612236 37.838775724172592 4.4306122511625281 10.469387918710707 51.626530528068542
leaf_count=14 18 27 27 37 21 23 41 8 30 4 23 38 27 29 15 28 19 30 12 176 74 26 24 11 101
internal_value=8.26571e-05 0.0282777 -0.0304394 -0.00639907 0.005507 0.0146961 -0.0374773 -0.0155746 0.00375171 -0.0290972 0.0376897 0.0238328 -0.0118864 -0.0417028 0.012839 0.041812 0.0431697 0.0314571 0.0351473 0.0452049 -0.0412223 -0.0455056 -0.0443434 0.0461314 0.0463345
internal_weight=814.875 423.584 391.29 88.6112 123.879 92.7992 302.679 48.9495 67.7094 38.1209 299.705 68.7169 41.79 253.73 47.8765 230.988 216.698 32.0786 46.6245 184.62 30.9087 201.703 27.3551 173.193 162.723
internal_count=883 584 299 79 119 98 220 124 75 116 465 77 45 96 42 388 365 58 50 307 112 67 98 288 277
is_linear=0
shrinkage=0.0463345


Tree=14
num_leaves=26
num_cat=0
split_feature=52 38 49 36 50 53 63 8 34 74 36 74 62 81 45 57 59 69 34 65 65 7 68 84 26
split_gain=338.577 33.9789 29.4934 20.4949 13.0038 14.6777 12.6781 12.0714 11.1875 10.6455 7.97428 8.64773 6.61 6.13794 5.1712 3.00797 2.406 2.28881 1.97479 1.11877 1.07957 0.277337 0.261367 0.0517241 2.84217e-14
threshold=0.90413043478260857 0.73608695652173928 7471.0000000000009 7224.5000000000009 6330.1428571428578 0.80712422360248459 6265.0978982201113 0.32012920303568743 6427.5000000000009 1019.5000000000001 7354.0000000000009 1015.7500000000001 8353.900713753761 -363.15000000000003 5302.8333333333339 0.74390957220261067 274.63616096598213 85.760000000000005 12250.000000000002 4.5000000000000009 6.5000000000000009 0.27122391875406221 3.6500000000000008 0.00042782377568073576 9.5500000000000025
decision_type=2 2 2 2 2 2 2 2 2 2 2 2 2 2 2 2 2 2 2 2 2 2 2 2 2
left_child=1 4 6 9 5 8 7 13 20 -3 11 -4 21 -2 -9 -12 17 -17 -13 -18 -1 -6 -22 24 -21
right_child=2 3 10 -5 12 -7 -8 14 -10 -11 15 18 -14 -15 -16 16 19 -19 -20 23 22 -23 -24 -25 -26
leaf_value=-0.016831482710578827 -0.0017707185410118262 9.2651165284181501e-05 -0.00031653679458110357 0.0014686853967855464 -0.0094698880320110285 0.0015326640605608378 -0.0030624499893264537 0.0015345002615807881 -0.013111551910369565 -0.0046664124737015684 0.0037672703433393336 0.003779954065969609 -0.010701089099475852 0.0015551053864990179 0.00022478609153796125 0.003781216500401966 0.0037672703433393336 0.0037672703433393336 0.0043332363314690474 0.0037672703433393336 -0.014131071261852162 -0.01277881381615591 -0.010807979973615284 0.0037627572632386234 0.0037672703433393336
leaf_weight=3.553571471944454 18.352040857076645 28.298979461193085 22.092448964715004 23.848979622125626 162.02142831683159 10.8285716176033 29.461836636066437 21.894897922873497 7.2122448682785025 38.124489635229111 14.289795786142347 27.004081696271896 52.026530623435974 23.782857052981853 30.38775509595871 13.120408147573469 11.426836803555487 18.958163350820541 19.620408177375793 111.09693875908852 22.924489803612236 38.020408362150192 4.4306122511625281 10.469387918710707 51.626530528068542
leaf_count=14 15 32 27 21 40 8 20 34 4 27 23 38 29 29 21 28 19 30 12 176 74 26 24 11 101
internal_value=0.00112356 -0.0299512 0.0298292 -0.00501803 -0.0374284 -0.0155746 0.0108121 0.0190922 -0.0290972 -0.0182469 0.0376897 0.0238328 -0.0416723 0.000637135 0.0339652 0.041812 0.0431697 0.0314571 0.0351473 0.0452049 -0.0412223 -0.0454987 -0.0443434 0.0461314 0.0463345
internal_weight=814.875 391.29 423.584 90.2724 301.018 48.9495 123.879 94.4176 38.1209 66.4235 299.705 68.7169 252.068 42.1349 52.2827 230.988 216.698 32.0786 46.6245 184.62 30.9087 200.042 27.3551 173.193 162.723
internal_count=883 299 584 80 219 124 119 99 116 59 465 77 95 44 55 388 365 58 50 307 112 66 98 288 277
is_linear=0
shrinkage=0.0463345


Tree=15
num_leaves=27
num_cat=0
split_feature=52 18 53 36 62 57 74 54 69 78 50 59 69 72 58 58 66 62 61 50 41 36 42 7 67 44
split_gain=337.479 36.1643 26.2171 15.2478 14.7329 9.85128 9.84104 12.5004 9.15932 14.3624 8.48856 9.39885 7.91472 6.07889 4.83095 4.37072 2.54509 3.4365 1.50534 2.69198 0.737866 1.77946 0.478871 0.279691 0.0500329 2.84217e-14
threshold=0.90413043478260857 1.0000000180025095e-35 1.0864389233954455 7433.505000000001 8401.3613673317668 0.99999999976554721 1018.5000000000001 0.69612480124223619 92.90000000000002 4039.6500000000005 6896.9800000000005 390.51920992338802 62.955000000000005 25.750000000000004 212.09549574873148 309.02468008422875 910.99999999999966 6225.638721350334 2727.8811244366375 7880.5000000000009 3990.0000000000005 3988.7450000000003 4550.0000000000009 0.28770616809944943 25099775.000000004 208.75000000000003
decision_type=2 2 2 2 2 2 2 2 2 2 2 2 2 2 2 2 2 2 2 2 2 2 2 2 2 2
left_child=1 3 8 6 23 -6 7 22 10 -10 12 13 -2 18 -8 -15 24 -18 19 -12 21 -16 -1 -3 -4 -26
right_child=2 4 16 -5 5 -7 14 -9 9 -11 11 -13 -14 15 20 -17 17 -19 -20 -21 -22 -23 -24 -25 25 -27
leaf_value=-0.013219695377272979 -0.0049772490887028242 -0.0090081795187213348 0.0035927159239635322 0.0013779054478050279 -0.0061708204111052874 -0.012468460757943667 0.00016960503768080306 0.00086175412137541054 0.003591006143243643 -0.0034165876633459602 0.0036048119532143953 0.00011864059657767523 0.0011398148368897644 0.0013626410283010715 -0.01578044406725056 0.0035659221078127522 0.0035927159239635322 0.0035927159239635322 0.0036708466626287693 0.0039939298700815869 -0.0045151025072637354 -0.0013732243212248682 -0.0077954585812733549 -0.012208264102622412 0.0035927159239635322 0.0035927159239635322
leaf_weight=5.5459183584898701 18.730612397193909 159.32857120037079 10.694897949695585 30.961224630475044 41.763265252113342 40.728571534156799 3.6647958867251864 32.04632656276226 19.811224371194839 29.828979402780533 14.634693890810015 25.48061203956604 29.766122438013554 21.453061312437057 6.093877546489237 14.182652980089186 14.798979490995409 13.439795881509779 60.305714547634125 11.766326576471327 22.737755060195923 3.6046938449144363 8.8704081475734693 35.944898009300232 90.513979598879814 48.176734820008278
leaf_count=38 14 37 29 34 23 23 11 27 19 31 30 24 33 29 39 18 22 24 42 21 15 10 22 20 181 67
internal_value=0.00146391 -0.0295604 0.030123 -0.0075267 -0.0385658 -0.0221476 -0.0179253 -0.00382472 0.020327 0.00254553 0.0248232 0.0303417 0.00800208 0.0356737 -0.036073 0.0195631 0.0436876 0.0309309 0.042295 0.0330679 -0.0417703 -0.03107 -0.0396572 -0.0455016 0.046099 0.0463345
internal_weight=814.875 391.29 423.584 113.525 277.765 82.4918 82.5638 46.4627 245.96 49.6402 196.32 147.823 48.4967 122.342 36.1011 35.6357 177.624 28.2388 86.7067 26.401 32.4363 9.69857 14.4163 195.273 149.386 138.691
internal_count=883 299 584 196 103 46 162 87 261 50 211 164 47 140 75 47 323 46 93 51 64 49 60 57 277 248
is_linear=0
shrinkage=0.0463345


Tree=16
num_leaves=27
num_cat=0
split_feature=38 38 40 36 74 59 38 45 47 73 49 74 78 6 42 66 59 49 66 48 45 40 6 83 34 46
split_gain=280.724 47.2116 27.4044 23.9311 18.7442 13.1844 17.1478 10.9892 8.25175 11.255 5.88306 4.98202 4.47328 3.72191 3.05914 2.38199 1.95336 1.57934 1.09824 0.457977 0.134076 0.405718 0.0762733 0.203231 2.84217e-14 1.77636e-15
threshold=0.99917101449275381 0.65014782608695665 0.86572463768115948 7354.0000000000009 1022.2500000000001 293.77806400854456 1.0868840579710148 5757.9506250000004 13932.500000000002 177.60000000000002 7431.2633333333351 1016.0500000000001 4553.2000000000016 1.0000000180025095e-35 8295.0000000000018 975.44999999999982 274.63616096598213 8765.0000000000018 586.4000000000002 1792.0000000000002 3493.2679166666671 0.49154347826086964 -0.78409092058138996 1115.0500000000004 8835.0000000000018 1192.8335025384533
decision_type=2 2 2 2 2 2 2 2 2 2 2 2 2 2 2 2 2 2 2 2 2 2 2 2 2 2
left_child=1 8 7 5 12 11 -7 -3 13 -10 -5 -2 18 -1 -8 16 17 -12 -4 -13 21 25 23 -18 -24 -15
right_child=3 2 4 10 -6 6 14 -9 9 -11 15 19 -14 20 -16 -17 22 -19 -20 -21 -22 -23 24 -25 -26 -27
leaf_value=-0.0069845386818621928 7.0527117530565925e-05 -0.003816203816618494 0.0019378183980470393 0.0032788541485597933 -0.00080687214087032401 -0.00014485236033325965 0.004068446001385795 -0.0025730847413152724 -0.010238308616128783 -0.0094772228594493715 0.0034249256179088869 0.0031433675367777353 0.0010781192788566103 -0.015365607407307545 0.00022033379073863673 0.0034262493885320049 0.0034262493885320049 0.0034262493885320049 0.0040269614158696823 0.0034389916053740809 -0.010295714963427972 -0.009570330510604276 0.0034262493885320049 0.0034262493885320049 0.0034262493885320049 -0.0093167360217220451
leaf_weight=6.6000000536441794 17.869387656450272 47.429796151816845 19.666122630238533 23.80204077064991 29.520408123731613 38.946938760578632 19.731632575392723 51.305714339017868 60.248979568481445 55.175510048866272 17.052040874958042 21.652040809392929 15.903265327215193 5.7142857294529694 18.759795963764191 25.631632447242737 19.627551048994068 11.078571408987044 19.353061273694038 17.598979622125626 111.02857109159231 4.5163265690207473 48.053571417927742 8.8473469913005811 93.569795876741409 6.1913265995681286
leaf_count=7 15 39 14 29 28 26 29 26 30 25 29 15 19 39 15 39 44 21 26 26 56 24 79 14 153 16
internal_value=0.00249681 -0.0230647 -0.00520245 0.031431 0.0141766 0.0157019 0.00324544 -0.0217762 -0.0361801 -0.0270988 0.0399768 0.0325892 0.0301811 -0.0439996 0.0251778 0.0423054 0.044024 0.0327138 0.0386231 0.0418222 -0.0457565 -0.0418489 0.0458945 0.0437064 0.0463345 -0.0463345
internal_weight=814.875 432.653 183.178 382.221 84.4429 134.559 77.4384 98.7355 249.475 115.424 247.663 57.1204 54.9224 134.051 38.4914 223.861 198.229 28.1306 39.0192 39.251 127.451 16.4219 170.098 28.4749 141.623 11.9056
internal_count=883 349 152 534 87 126 70 65 197 55 408 56 59 142 44 379 340 50 40 41 135 79 290 58 232 55
is_linear=0
shrinkage=0.0463345


Tree=17
num_leaves=28
num_cat=0
split_feature=38 38 38 34 42 45 73 37 44 41 60 53 69 50 2 66 79 75 50 46 84 81 62 78 43 6 6
split_gain=266.603 52.648 21.5471 16.5859 15.107 14.906 13.5858 11.9325 13.5133 8.64067 19.278 7.99334 6.54995 5.23252 5.0303 4.3277 4.30191 3.42225 3.1075 0.962157 0.34474 0.249855 0.168932 0.31359 0.0573278 2.84217e-14 3.55271e-15
threshold=0.84905797101449287 1.0861594202898555 0.57807898550724646 8995.9050000000007 13100.000000000002 6505.8970833333342 164.05000000000004 6315.5000000000009 -2817.4999999999995 5510.0000000000009 5671.793482142858 1.0864389233954455 95.16500000000002 6330.1428571428578 -0.60785761079279388 975.44999999999982 4128.7500000000009 96.300000000000011 7500.1464285714292 3973.4317370746508 0.00016303718439303341 53.550000000000189 3243.3435697939035 3798.8500000000004 -983.9749999999998 0.70403958523943977 0.77332218843568057
decision_type=2 2 2 2 2 2 2 2 2 2 2 2 2 2 2 2 2 2 2 2 2 2 2 2 2 2 2
left_child=2 5 9 4 6 7 -4 16 -9 10 22 12 14 -8 -3 21 -2 -10 -16 -11 -20 24 23 -1 -13 -26 -24
right_child=1 11 3 -5 -6 -7 13 8 17 19 -12 15 -14 -15 18 -17 -18 -19 20 -21 -22 -23 26 -25 25 -27 -28
leaf_value=-0.012743103411782133 -0.00021932840955080494 0.0032349614920450143 -0.0054819106320861512 -0.0038156864321554108 -0.00019242021154926791 -0.002423497394707421 0.00075833097903735725 -0.00063028584018639785 0.00088338546212748373 -0.0091597835722610019 0.0049713748751557766 0.003267495989347554 -0.00041957183502247129 -0.0043235781455175509 0.0032419436500738747 0.003267495989347554 0.0013256293570160849 0.0033612115411977925 0.0036459373039928623 -0.011596572367533651 0.0037706957149422709 0.003267495989347554 -0.010457352784380303 -0.014381223571649305 0.003267495989347554 0.003267495989347554 -0.010094355046035992
leaf_weight=2.766836727038025 22.116530500352383 25.973469451069832 20.685714356601238 64.187755107879639 17.551020264625549 54.465510040521622 21.722449205815792 19.266326576471329 35.422449126839638 114.47755089402199 20.263673424720764 9.3938775062561017 16.342857182025909 14.059183597564695 23.038775473833084 19.135714113712311 14.368367463350294 33.074489593505859 36.933673411607742 38.830612421035767 16.506122440099716 10.918367296457289 11.772448919713499 4.055102065205574 118.79959204792976 14.927857190370558 13.818367332220076
leaf_count=20 23 35 26 16 7 34 32 16 32 46 12 7 18 17 35 30 17 31 39 19 20 31 32 24 221 28 15
internal_value=0.00185463 0.0245181 -0.0291378 -0.0149847 -3.73037e-05 0.00471098 -0.0117075 0.0135707 0.0228289 -0.0386339 -0.0224444 0.0366419 0.0273855 0.00557293 0.0317309 0.0429916 -0.0086995 0.0324715 0.0377141 -0.0441966 0.0438466 0.0455733 -0.0446074 -0.0381286 0.0460887 0.0463345 -0.0463345
internal_weight=814.875 470.684 344.191 138.206 74.0184 178.714 56.4673 124.248 87.7633 205.985 52.6764 291.97 118.795 35.7816 102.452 173.175 36.4849 68.4969 76.4786 153.308 53.4398 154.04 32.4128 6.82194 143.121 133.727 25.5908
internal_count=883 617 266 98 82 153 75 119 79 168 103 464 147 49 129 317 40 63 94 65 59 287 91 44 256 249 47
is_linear=0
shrinkage=0.0463345


Tree=18
num_leaves=30
num_cat=0
split_feature=52 49 38 7 78 43 63 83 83 53 6 69 26 44 44 39 53 66 62 62 80 6 6 69 67 43 7 80 44
split_gain=260.361 37.4619 34.5049 13.0085 14.8291 12.7227 10.4068 10.0691 16.6795 9.35321 8.97609 8.54049 8.47036 8.2797 6.89075 6.53636 5.52076 4.00144 3.64488 3.28894 2.92859 2.40574 2.30489 0.865978 0.0500329 0.0470405 0.0163272 0.00810423 2.84217e-14
threshold=0.90413043478260857 7471.0000000000009 0.65014782608695665 -0.82964644928663578 4107.1500000000005 1910.0000000000002 6095.4934839665857 4003.5000000000005 3006.0000000000005 1.0864389233954455 -0.93568234840038322 83.205000000000013 12.450000000000001 1488.115 -4923.2949999999992 0.81014492753623202 1.0295755693581785 910.99999999999966 8000.1720293308163 6225.638721350334 -255.99999999999997 0.96699210069650932 0.91628314851554127 78.725000000000009 25099775.000000004 -2290.0049999999997 -0.53667642277345495 -320.04999999999967 208.75000000000003
decision_type=2 2 2 2 2 2 2 2 2 2 2 2 2 2 2 2 2 2 2 2 2 2 2 2 2 2 2 2 2
left_child=2 6 7 -4 5 -5 10 8 14 11 -2 22 16 20 -1 -6 -13 24 26 -19 23 25 27 -12 -11 -16 -9 -3 -26
right_child=1 9 3 4 15 -7 -8 18 -10 17 13 12 -14 -15 21 -17 -18 19 -20 -21 -22 -23 -24 -25 28 -27 -28 -29 -30
leaf_value=0.0085134313546612796 -0.0021912866845213751 0.0031104707324796899 -0.0034625843389322381 0.00035012592857746309 -0.00042431444533278824 -0.0032931934639130072 -0.00091895147330519939 -0.0082158041113962292 -0.002781905656197208 0.0031160983424434181 0.0034596049298207775 0.0034579513932389539 -0.0014945515729570282 -0.00022263139404748148 -0.01070224427909494 -0.0031546930284218769 0.0030816694865201302 0.0031160983424434181 -0.0090739779953129002 0.0031160983424434181 0.00018255133120509314 -0.0083080738951360443 0.0031232062131044199 0.0026583271173410685 0.0031160983424434181 -0.010692003014784663 -0.010902157435503795 0.0039904195558966059 0.0031160983424434181
leaf_weight=2.0557143092155448 20.119591891765594 24.381224527955055 15.959183692932127 42.056122615933418 21.419183917343616 33.766326412558556 38.788367211818695 78.77551007270813 23.530612111091614 10.694897949695585 19.919387683272362 20.767346978187561 20.969387799501419 15.713265173137186 3.490816354751586 30.173673450946808 26.157551109790802 14.798979490995409 57.777550935745239 13.439795881509779 14.260204106569288 8.9275510013103467 14.115306079387663 15.078571498394011 90.513979598879814 32.351530635729432 41.006530523300171 15.68979589641094 48.176734820008278
leaf_count=2 15 29 2 31 23 22 25 19 10 29 25 20 27 20 3 25 25 22 31 24 18 29 25 16 181 81 21 16 67
internal_value=0.00225799 0.0274305 -0.024992 -0.00689904 -0.00195962 0.0110795 0.00599782 -0.0354556 -0.0206212 0.0362894 0.015065 0.026416 0.0154677 0.0234394 -0.0366138 -0.0211223 0.026408 0.0430753 -0.0413336 0.0270801 0.0327815 -0.0404226 0.0401341 0.0399932 0.046099 -0.0457831 -0.0459442 0.0458059 0.0463345
internal_weight=814.875 423.584 391.29 143.374 127.415 75.8224 123.879 247.916 70.3562 299.705 85.091 122.081 67.8943 64.9714 46.8256 51.5929 46.9249 177.624 177.56 28.2388 49.2582 44.7699 54.1863 34.998 149.386 35.8423 119.782 40.071 138.691
internal_count=883 584 299 103 101 53 119 196 125 465 94 142 72 79 115 48 45 323 71 46 59 113 70 41 277 84 40 45 248
is_linear=0
shrinkage=0.0463345


Tree=19
num_leaves=24
num_cat=0
split_feature=18 49 40 47 42 75 37 69 83 83 46 58 43 6 46 37 50 66 6 62 62 26 4
split_gain=257.507 73.7163 17.6768 14.1569 12.3227 11.5565 14.7524 11.389 10.874 10.847 11.5863 10.3434 7.22098 6.37244 6.01626 4.64979 3.7964 1.87465 2.26517 1.8588 0.402202 0.192226 2.84217e-14
threshold=1.0000000180025095e-35 7471.0000000000009 0.48293768115942032 13932.500000000002 10768.000000000002 97.850000000000009 6294.5000000000009 95.960000000000022 6774.4900000000007 658.90000000000009 2752.3984559567357 310.15927989257563 -1919.4999999999998 0.80493205379724742 2359.9133496814879 5225.0000000000009 7488.6428571428578 902.0500000000003 0.91628314851554127 6170.6431884452222 4348.8043444831374 14.750000000000002 -0.6830127018922193
decision_type=2 2 2 2 2 2 2 2 2 2 2 2 2 2 2 2 2 2 2 2 2 2 2
left_child=1 2 20 -2 13 8 15 12 9 -4 14 -8 -3 -5 -11 -7 -14 18 21 -19 -1 22 -18
right_child=3 7 5 4 -6 6 11 -9 -10 10 -12 -13 16 -15 -16 -17 17 19 -20 -21 -22 -23 -24
leaf_value=-0.010984691635126553 -0.0086780171884771485 0.0013444725920378467 0.0039266989720010657 -0.0082288268735745355 -0.0034395737088216446 -0.00046525198767839856 0.00091497741364017331 0.0029717156230442674 0.00050744176879225118 -0.00016784624404558878 -7.8959519448745222e-05 -0.0039589520990966597 0.0025447124456903442 -0.0082274204826757995 0.00082777021690993839 -0.002996177570854062 0.0029717156230442674 0.0029717156230442674 0.0029759894692316835 0.0029717156230442674 -0.0079459041479157649 0.0029717156230442674 0.0029717156230442674
leaf_weight=12.860714258626105 111.78571403026581 23.981632739305496 25.144897855818272 65.812245011329651 67.095918416976929 15.089999996125696 38.523469358682632 26.351020485162735 20.36408144235611 16.069591864943508 35.874694049358368 28.617346823215485 14.395918369293211 38.506122469902039 11.712857216596602 20.754897952079773 60.79683692753315 22.565714150667191 12.376530587673185 15.292857170104979 5.7755102142691603 13.971428602933882 111.15469373762608
leaf_count=64 34 21 37 24 27 34 35 26 12 37 23 28 25 21 11 16 89 31 22 28 14 32 192
internal_value=0.00218256 0.0211923 0.00149274 -0.0335061 -0.0251402 0.00529336 -0.00584059 0.0363025 0.015797 0.0087941 -0.00138356 0.00697291 0.0390953 -0.0351035 0.0210791 -0.0298415 0.0414201 0.0428283 0.0446321 0.0333803 -0.0417729 0.0459098 0.0463345
internal_weight=814.875 531.675 230.788 283.2 171.414 212.152 102.986 300.887 109.166 88.802 63.6571 67.1408 274.536 104.318 27.7824 35.8449 250.554 236.158 198.299 37.8586 18.6362 185.923 171.952
internal_count=883 777 311 106 72 233 113 466 120 108 71 63 440 45 48 50 419 394 335 59 78 313 281
is_linear=0
shrinkage=0.0463345


Tree=20
num_leaves=25
num_cat=0
split_feature=18 49 84 47 42 69 73 3 62 45 79 43 46 40 59 6 50 66 6 62 26 83 44 69
split_gain=259.669 67.2858 15.7704 14.1569 12.3227 11.0433 10.7845 11.5003 13.42 10.9642 11.5006 10.6856 8.72335 8.25718 7.87741 6.37244 3.75547 1.8171 2.22063 1.8588 0.423845 0.0763874 2.84217e-14 1.77636e-15
threshold=1.0000000180025095e-35 7471.0000000000009 0.029915342107415203 13932.500000000002 10768.000000000002 95.960000000000022 333.95000000000005 -0.56174490092936669 6021.0294272484589 5427.1395833333345 4555.4500000000016 -2049.6949999999993 3871.8413164759913 1.0002173913043479 293.77806400854456 0.80493205379724742 7488.6428571428578 902.0500000000003 0.91628314851554127 6170.6431884452222 14.750000000000002 1105.2500000000002 144.50500000000014 86.730000000000004
decision_type=2 2 2 2 2 2 2 2 2 2 2 2 2 2 2 2 2 2 2 2 2 2 2 2
left_child=1 2 6 -2 15 11 7 8 -1 10 13 -3 -11 14 -9 -5 -13 18 20 -19 22 23 -18 -4
right_child=3 5 21 4 -6 -7 -8 9 -10 12 -12 16 -14 -15 -16 -17 17 19 -20 -21 -22 -23 -24 -25
leaf_value=0.00018723862420596982 -0.0082759259888513913 0.00055414170185144834 -0.012613451565111603 -0.0078475486625217104 -0.0032802029345141552 0.0028340227983051016 0.00028970003456124535 -8.2987265376038144e-05 -0.0034444316126776733 0.0018572214568424758 0.0039007279665326661 0.0024268045805908318 -2.771379017601934e-05 0.0026972682175641118 -0.00067059234800242768 -0.0078462074359792241 0.0028340227983051016 0.0028340227983051016 0.0028380986181573329 0.0028340227983051016 0.0028340227983051016 -0.015019033675578821 0.0028340227983051016 -0.013908472484072209
leaf_weight=22.115306168794632 111.78571403026581 21.929591953754425 6.9787755198776704 65.812245011329651 67.095918416976929 26.351020485162735 19.75775507837534 17.801020383834839 30.178775548934937 35.867755174636841 13.954081535339354 14.395918369293211 25.918367028236389 26.469387844204903 24.378163225948811 38.506122469902039 115.96153055131435 22.565714150667191 12.376530587673185 15.292857170104979 14.405102074146269 3.4204082116484633 57.608367428183556 3.9482653122395277
leaf_count=32 34 19 46 24 27 26 14 17 24 35 19 25 15 35 33 21 204 31 22 28 33 12 78 29
internal_value=0.00233203 0.0214214 0.00260064 -0.0335061 -0.0251402 0.0358575 0.00571907 0.00244099 -0.0161763 0.00918372 -0.00185897 0.0386076 0.0239468 -0.00965373 -0.0223837 -0.0351035 0.041301 0.0426898 0.0444489 0.0333803 0.0457006 -0.0444429 0.0463345 -0.0463345
internal_weight=814.875 531.675 230.788 283.2 171.414 300.887 216.441 196.683 52.2941 144.389 82.6027 274.536 61.7861 68.6486 42.1792 104.318 252.606 238.21 200.352 37.8586 187.975 14.3474 173.57 10.927
internal_count=883 777 311 106 72 466 224 210 56 154 104 440 50 85 50 45 421 396 337 59 315 87 282 75
is_linear=0
shrinkage=0.0463345


Tree=21
num_leaves=27
num_cat=0
split_feature=38 38 18 40 46 42 80 6 69 78 83 48 46 81 67 6 49 43 83 74 58 53 28 69 7 6
split_gain=259.576 45.6047 27.3031 12.5735 10.6083 10.1837 9.68012 11.3119 8.6491 8.57776 7.45147 6.29454 5.56117 4.55933 3.53316 5.31312 2.16601 1.89933 1.27683 1.14353 0.358795 0.335977 0.285809 0.0837585 2.84217e-14 3.55271e-15
threshold=0.84905797101449287 1.0861594202898555 1.0000000180025095e-35 0.61370434782608707 4338.960389256983 9999.5000000000018 -159.99999999999974 0.153890576704062 95.16500000000002 4107.1500000000005 4523.1500000000005 51.500000000000007 3556.2594432889159 -346.60000000000008 26463040.000000004 0.25467112024122879 8816.1133333333364 -500.84000000000009 780.40000000000009 1009.9500000000002 225.41963249227783 1.0232298136645965 20.450000000000003 86.370000000000019 -0.84831994561267254 -0.88664765382614386
decision_type=2 2 2 2 2 2 2 2 2 2 2 2 2 2 2 2 2 2 2 2 2 2 2 2 2 2
left_child=2 5 3 19 10 6 7 -2 11 -5 -4 -3 18 -7 15 16 -13 -16 -9 -1 -19 -22 -12 -21 -23 -18
right_child=1 8 4 9 -6 13 -8 12 -10 -11 22 14 -14 -15 17 -17 25 20 -20 23 21 24 -24 -25 -26 -27
leaf_value=-0.0066229714209201374 -0.00060578083280219753 0.00093159986509519358 -0.0080394371024308797 0.00055082184715236101 -0.0034402876958710832 -4.5467571477516764e-06 -0.0058119328892854115 0.0026970118476230594 0.0027027098956007478 -0.00066442352845473486 -0.0068253654108397311 0.0029974370216150959 -0.00013063700621041317 0.00093523305346710221 0.0027027098956007478 0.0020677213075732804 0.0027027098956007478 0.0027027098956007478 0.0023774344014927942 -0.0087814757791308731 0.0029464255152603694 0.0027027098956007478 -0.0094841931554809841 -0.012010949798025864 0.0027027098956007478 0.0035381590808258984
leaf_weight=4.7004081811755922 39.556122422218323 16.622857272624969 60.473469138145447 33.335306145250797 45.681632876396179 37.339591681957245 20.237550899386406 10.858163319528105 26.959183722734451 29.980408303439617 120.24081611633301 16.843877494335175 24.155101895332336 33.624490022659302 18.866326481103897 16.275510206818581 15.778571397066118 11.522448986768721 12.94265305995941 11.16040815040469 11.80000004172325 46.563571393489838 35.359183788299561 3.2590816169977179 96.811836659908295 13.926122456789015
leaf_count=29 35 20 21 34 17 23 20 23 28 38 36 25 13 20 23 33 30 15 19 49 12 104 20 22 160 14
internal_value=0.00230035 0.0246631 -0.028281 -0.00502678 -0.0356045 0.00622848 -0.00274765 0.00393089 0.0359469 0.00491725 -0.0398934 0.0384904 0.0190603 0.0198575 0.0403378 0.0308404 0.038808 0.0435532 0.0349558 -0.0379565 0.0451302 0.0457159 -0.0452576 -0.0444261 0.0463345 0.0463345
internal_weight=814.875 470.684 344.191 82.4356 261.755 178.714 107.75 87.512 291.97 63.3157 216.073 265.011 47.9559 70.9641 248.388 62.8241 46.5486 185.564 23.8008 19.1199 166.698 155.175 155.6 14.4195 143.375 29.7047
internal_count=883 617 266 172 94 153 110 90 464 72 77 436 55 43 416 102 69 314 42 100 291 276 56 71 264 44
is_linear=0
shrinkage=0.0463345


Tree=22
num_leaves=27
num_cat=0
split_feature=52 38 53 40 59 83 83 45 58 37 25 52 48 41 44 43 62 6 37 66 47 26 42 79 7 50
split_gain=261.646 35.1343 30.109 15.5908 12.0426 10.2095 16.5291 9.91965 8.88285 7.77491 8.07302 7.56955 7.05843 7.04817 6.8549 4.12564 3.64488 2.35548 1.85521 1.74759 0.80396 0.0835659 0.0444323 0.114391 0.0163272 2.84217e-14
threshold=0.90413043478260857 0.65014782608695665 1.0864389233954455 0.86572463768115948 384.37122366037823 4003.5000000000005 3006.0000000000005 5757.9506250000004 305.56984339926947 5858.5000000000009 1.5500000000000003 0.83229082125603859 976.00000000000011 4747.505000000001 -4923.2949999999992 -983.9749999999998 8000.1720293308163 0.96699210069650932 7354.0000000000009 975.44999999999982 10610.500000000002 15.200000000000001 4202.5000000000009 3998.4000000000005 -0.53667642277345495 8488.1428571428587
decision_type=2 2 2 2 2 2 2 2 2 2 2 2 2 2 2 2 2 2 2 2 2 2 2 2 2 2
left_child=1 5 4 7 8 6 14 -3 9 -2 18 -5 -12 -10 -1 -4 24 22 -11 21 -15 25 23 -16 -7 -17
right_child=2 3 15 11 -6 16 -8 -9 13 10 12 -13 -14 20 17 19 -18 -19 -20 -21 -22 -23 -24 -25 -26 -27
leaf_value=0.0080110493214621218 -0.00020521408287359512 -0.0027912606245361323 0.0025774813047187788 0.0025467697336076008 -3.5830608702478966e-05 -0.0067333279917808466 0.00014337330214154667 -0.00156689627046566 0.0026130785913835515 0.0025189800382538997 0.0004854178494074512 -0.00043833684692069048 -0.00075755335243890033 0.0029232878233747834 -0.01144299418889108 0.0025774813047187788 -0.0078301627896288899 -0.0071386201226226109 0.0028771529333200428 0.0025774813047187788 0.0025517056987081278 0.0025774813047187788 -0.0090385402171929731 -0.012838424689716315 -0.0090314416853228725 0.0025774813047187788
leaf_weight=2.0557143092155448 21.834897823631763 39.281632907688618 14.493877440690992 23.650000020861626 42.207142844796181 78.77551007270813 23.530612111091614 54.02142870426178 23.394693925976753 20.702653110027313 40.204693868756294 26.421428456902504 25.641836926341057 20.260203987360001 2.4403061289340249 25.376836761832237 57.777550935745239 8.9275510013103467 13.83265310525894 18.269387632608414 37.881224364042282 9.4744898378849012 28.420408219099045 4.9816326424479485 41.006530523300171 110.00979606807232
leaf_count=2 26 30 13 23 38 19 10 25 30 19 35 25 26 36 20 57 31 29 27 30 24 21 30 34 21 202
internal_value=0.00246095 -0.0248562 0.0276955 -0.00659895 0.0171976 -0.0354148 -0.0204774 -0.017792 0.0218639 0.0139619 0.0194124 0.0142582 0.00989623 0.0337084 -0.0363977 0.0422321 -0.0413336 -0.0401966 0.0375562 0.0443369 0.0423498 0.0460401 -0.0455008 -0.0423084 -0.0459442 0.0463345
internal_weight=814.875 391.29 423.584 143.374 245.96 247.916 70.3562 93.3031 203.753 122.217 100.382 50.0714 65.8465 81.5361 46.8256 177.624 177.56 44.7699 34.5353 163.131 58.1414 144.861 35.8423 7.42194 119.782 135.387
internal_count=883 299 584 103 261 196 125 55 223 133 107 48 61 90 115 323 71 113 46 310 60 280 84 54 40 259
is_linear=0
shrinkage=0.0463345


Tree=23
num_leaves=27
num_cat=0
split_feature=18 49 59 47 42 75 43 42 54 74 67 84 48 69 9 6 67 36 6 50 7 66 6 43 26 7
split_gain=252.624 71.1032 15.1753 14.1569 12.3227 12.0291 11.7628 11.0976 8.66471 7.69392 7.2028 7.86799 6.87992 6.82566 6.44522 6.37244 5.47258 4.79959 4.15714 3.6922 2.4792 1.48012 1.52594 0.500292 0.0808694 2.84217e-14
threshold=1.0000000180025095e-35 7471.0000000000009 346.58149157199659 13932.500000000002 10768.000000000002 18.350000000000005 -997.99999999999989 8949.0250000000033 0.74940069254658392 1019.9000000000001 20878426.050000001 0.00031609152210876351 1994.0000000000002 95.960000000000022 0.42930989242249129 0.80493205379724742 32725990.000000004 6901.5000000000009 0.91628314851554127 7488.6428571428578 -0.077175462126646291 902.0500000000003 -0.13690605792347518 -206.49999999999997 16.250000000000004 0.20454453068330622
decision_type=2 2 2 2 2 2 2 2 2 2 2 2 2 2 2 2 2 2 2 2 2 2 2 2 2 2
left_child=1 2 7 -2 15 -4 16 8 20 -9 -10 -12 17 18 -14 -5 -3 23 19 -8 -1 24 -23 -7 25 -21
right_child=3 6 5 4 -6 12 13 9 10 -11 11 -13 14 -15 -16 -17 -18 -19 -20 21 -22 22 -24 -25 -26 -27
leaf_value=-0.0057383110471013118 -0.0072639219932046544 0.00073884477445945469 0.0015302793243885085 -0.0068557020961330997 -0.0020131937135827202 -0.00066222544775311476 0.0024045135364165922 0.0011892940109026248 0.00042791404394160675 -4.9061044172532944e-05 0.0021505617054399647 -0.007797795673947794 0.0028437171505493585 0.0024580551123849501 -0.0082576908384553102 -0.0066252589097205959 0.0023503131429468741 -0.0028558712833591407 0.002445919324658733 0.0024580551123849501 -0.0051288109203898972 0.0024580551123849501 0.0024580551123849501 -0.0054881672918702966 0.0024580551123849501 0.0028078220004799474
leaf_weight=5.2193877547979382 111.78571403026581 28.054081618785858 14.105101957917212 65.812245011329651 67.095918416976929 10.60306106507778 12.667346954345701 40.936530619859695 28.165510281920433 29.340816497802734 18.447142750024796 15.971020340919493 9.9632653295993823 18.876530647277832 8.0367346405982953 38.506122469902039 18.94183686375618 16.920408114790916 11.269387781620024 111.04306131601334 11.288265319541095 17.479999929666519 14.612244814634321 21.790816359221935 10.398979634046553 57.54316321015358
leaf_count=9 34 32 24 24 27 19 22 37 30 18 24 17 13 20 31 21 15 19 20 220 33 24 26 37 23 64
internal_value=0.00184256 0.0206712 0.00132393 -0.0335061 -0.0251402 -0.0147689 0.0355111 0.010096 -0.00180909 0.0234941 0.00606733 -0.00815233 -0.0229214 0.0394527 0.00159702 -0.0351035 0.0142174 -0.0318708 0.0416058 0.0429888 -0.0316701 0.0444469 0.0352839 -0.0423178 0.0460898 0.0463345
internal_weight=814.875 531.675 230.788 283.2 171.414 81.4194 300.887 149.369 79.0913 70.2773 62.5837 34.4182 67.3143 253.891 18 104.318 46.9959 49.3143 235.014 223.745 16.5077 211.077 32.0922 32.3939 178.985 168.586
internal_count=883 777 311 106 72 143 466 168 113 55 71 41 119 419 44 45 47 75 399 379 42 357 50 56 307 284
is_linear=0
shrinkage=0.0463345


Tree=24
num_leaves=26
num_cat=0
split_feature=38 53 18 40 46 67 69 38 78 81 7 80 83 47 51 61 66 43 66 74 26 28 69 26 50
split_gain=272.078 34.7883 28.2723 12.9877 10.6083 10.4172 12.6348 8.60123 9.44187 8.58437 9.39692 7.46328 7.45147 5.70216 4.74964 4.60394 5.66956 4.12564 1.74759 1.14353 0.78497 0.285809 0.0837585 0.0835659 2.84217e-14
threshold=0.84905797101449287 1.0864389233954455 1.0000000180025095e-35 0.61370434782608707 4338.960389256983 27185361.600000005 92.240000000000009 1.0471014492753625 3823.6500000000005 -445.15000000000026 0.96914236212857585 -532.10000000000002 4523.1500000000005 10250.000000000002 8507.5714285714294 2913.7311495685685 461.50000000000006 -983.9749999999998 975.44999999999982 1009.9500000000002 12.950000000000001 20.450000000000003 86.370000000000019 15.200000000000001 8488.1428571428587
decision_type=2 2 2 2 2 2 2 2 2 2 2 2 2 2 2 2 2 2 2 2 2 2 2 2 2
left_child=2 5 3 19 12 7 14 8 -2 -5 -11 -9 -4 -10 20 16 -13 -3 23 -1 -7 -14 -21 24 -19
right_child=1 17 4 9 -6 6 -8 11 13 10 -12 15 21 -15 -16 -17 -18 18 -20 22 -22 -23 -24 -25 -26
leaf_value=-0.0057476949121086918 0.0004156609748228908 0.0023491546330912955 -0.0070640673672784614 -0.00055201690216626054 -0.0023461786371065632 0.0025982421933532377 -0.001219357219057751 -0.00038608287904470112 -0.00024579497154990425 0.0015718222170779746 -0.0029067819956460485 -0.0010851895549430449 -0.0058444054212082597 -0.0029234491819885703 0.0019688133846937034 0.0031428439625360662 0.0030059353927342487 0.0023441624676230274 0.0023441624676230274 -0.0078072213819752349 0.002007474069542044 -0.0083676324467726812 -0.010476951959121484 0.0023441624676230274 0.0023441624676230274
leaf_weight=4.7004081811755922 51.924489766359329 14.493877440690992 60.473469138145447 22.037755064666271 45.681632876396179 40.908571600914001 30.747346758842468 20.837347060441971 20.424489788711071 25.69714293628931 15.580816447734831 9.916326507925989 120.24081611633301 32.010203927755356 30.092857301235199 23.996938616037369 11.855102106928824 25.376836761832237 18.269387632608414 11.16040815040469 20.345918238162994 35.359183788299561 3.2590816169977179 9.4744898378849012 110.00979606807232
leaf_count=29 38 13 21 21 17 44 30 25 26 31 20 20 36 20 20 16 25 57 30 49 30 20 22 21 202
internal_value=0.00315697 0.0260519 -0.0281521 -0.0044888 -0.0356045 0.0162451 0.0265824 0.00886271 0.000559971 0.00561769 0.0180837 0.0218716 -0.0398934 -0.013309 0.03523 0.0323369 0.0169085 0.0422321 0.0443369 -0.0379565 0.0426354 -0.0452576 -0.0444261 0.0460401 0.0463345
internal_weight=814.875 470.684 344.191 82.4356 261.755 293.06 122.095 170.965 104.359 63.3157 41.278 66.6057 216.073 52.4347 91.3473 45.7684 21.7714 177.624 163.131 19.1199 61.2545 155.6 14.4195 144.861 135.387
internal_count=883 617 266 172 94 294 124 170 84 72 51 86 77 46 94 61 45 323 310 100 74 56 71 280 259
is_linear=0
shrinkage=0.0463345


Tree=25
num_leaves=24
num_cat=0
split_feature=18 34 42 47 59 42 69 61 67 69 56 34 48 6 66 47 57 6 50 58 81 43 6
split_gain=264.383 61.2427 18.7984 14.1569 13.6599 12.3227 8.87255 8.56669 12.6078 9.28466 7.8369 6.75108 6.46356 6.37244 4.96964 4.47619 4.06364 3.5473 1.85835 1.15737 0.549666 0.292827 0.0275072
threshold=1.0000000180025095e-35 7494.5000000000009 9525.0000000000018 13932.500000000002 241.94334247107858 10768.000000000002 95.16500000000002 3026.5415931309471 18889059.065000001 92.465000000000018 0.6864643859949926 6889.2000000000016 51.500000000000007 0.80493205379724742 967.50000000000034 8949.9800000000014 0.74066638947998864 0.91628314851554127 7427.0764285714295 217.59536135927829 -104.09999999999989 -500.84000000000009 0.94159970902280288
decision_type=2 2 2 2 2 2 2 2 2 2 2 2 2 2 2 2 2 2 2 2 2 2 2
left_child=1 2 4 -2 11 13 12 8 14 15 -4 -1 -3 -5 -6 -10 -14 18 -18 -20 22 -21 -16
right_child=3 6 10 5 7 -7 -8 -9 9 -11 -12 -13 16 -15 20 -17 17 -19 19 21 -22 -23 -24
leaf_value=0.00037928206972635288 -0.0066769554467778092 0.00054650036457779406 4.3123340947254526e-05 -0.0062672495318993595 0.0030141589967339361 -0.0014296808823947582 0.0022355469765203157 -0.0028099822432965478 0.00030592315866881224 -0.0029728607831277782 0.00086157667947267427 0.0020316571753378771 0.0022355469765203157 -0.0059758947929589119 -0.0080167600682985781 0.0038198467425643759 0.0031924456385637331 0.0023815735097492078 0.0022355469765203157 0.0022403078327207756 -0.0061563034750568993 0.0022355469765203157 -0.0073773521238019888
leaf_weight=16.869795957580212 111.78571403026581 16.622857272624969 55.943673551082611 65.812245011329651 5.9265306293964413 67.095918416976929 26.959183722734451 40.894081622362137 20.951632767915726 12.619795888662336 41.930612325668335 13.330612123012541 12.443877339363096 38.506122469902039 12.13265296071768 13.64285698533058 14.69183675944805 18.110204070806503 9.8724490106105787 19.970408141613007 3.4386735036969158 171.57499998807907 3.7479591816663751
leaf_count=31 34 20 35 24 24 27 28 26 38 16 25 13 18 21 50 15 29 31 12 23 21 302 20
internal_value=0.0026559 0.0219178 0.00467545 -0.0335061 -0.00600024 -0.0251402 0.0362601 -0.0133777 -0.00380856 0.0103244 0.0203337 0.0216903 0.0388524 -0.0351035 -0.0302397 0.0227344 0.0407371 0.0421079 0.0437586 0.044919 -0.0416259 0.0457164 -0.0452627
internal_weight=814.875 531.675 241.429 283.2 143.555 171.414 290.246 113.354 72.4601 47.2143 97.8743 30.2004 263.287 104.318 25.2458 34.5945 246.664 234.22 216.11 201.418 19.3193 191.545 15.8806
internal_count=883 777 314 106 254 72 463 210 184 69 60 44 435 45 115 53 415 397 366 337 91 325 70
is_linear=0
shrinkage=0.0463345


Tree=26
num_leaves=30
num_cat=0
split_feature=38 53 6 49 18 72 7 40 59 69 56 69 44 62 62 43 6 25 26 68 66 50 58 58 26 36 79 46 50
split_gain=267.782 42.6285 17.736 12.0862 12.6976 10.7155 19.7033 10.7325 10.0041 7.88269 8.64973 7.6455 7.3513 7.33288 4.45417 4.12564 3.9942 4.39436 5.8131 3.80454 1.74759 1.32005 5.04351 0.478449 0.0835659 0.0549873 0.176396 0.0443245 2.84217e-14
threshold=0.73608695652173928 1.0864389233954455 -0.19613531578169993 6882.9666666666672 1.0000000180025095e-35 27.550000000000001 -0.77873524214321999 0.65808695652173921 298.19725459339969 74.495000000000019 0.43126397470135308 95.085000000000022 -1004.1249999999999 5323.6024484175496 4720.1793548417891 -983.9749999999998 -0.89445413044074662 4.4000000000000012 8.3500000000000032 -0.54999999999999993 975.44999999999982 7369.6200000000008 196.52391023818004 253.28071937362574 15.200000000000001 6899.5000000000009 3890.3500000000004 2918.7423692595635 8488.1428571428587
decision_type=2 2 2 2 2 2 2 2 2 2 2 2 2 2 2 2 2 2 2 2 2 2 2 2 2 2 2 2 2
left_child=2 3 -1 8 11 12 -7 25 -2 -10 -11 13 -4 14 -5 -3 -15 18 -18 -20 24 22 -14 -24 28 26 -8 -19 -17
right_child=1 15 5 4 -6 6 7 -9 9 10 -12 -13 21 16 -16 20 17 27 19 -21 -22 -23 23 -25 -26 -27 -28 -29 -30
leaf_value=6.6680250169914913e-05 0.0010063716461614323 0.0021365043895580052 -0.0034963489344996285 0.0024137049404604418 -0.013165009797193015 -0.0013482468219452753 -0.0047757505151120056 -0.0035315866792824013 0.00094929576187272307 0.0002917483757442302 -0.0032944127558936875 -0.00070651119529564624 0.0080151791706620616 0.0010397489432164111 -0.00018277113922439601 0.002131964125036414 0.0024761120676989215 0.0022562377231706201 -0.00026652928616886892 0.00040723214927721721 0.002131964125036414 -0.0066642134257172223 -0.0079746842727944477 -0.0079444849483884701 0.002131964125036414 -0.0063940910831644347 -0.0096908703897543528 0.00041326299765642223 0.002131964125036414
leaf_weight=15.970408409833906 39.573265194892883 14.493877440690992 34.553673297166824 14.282653018832209 26.971428632736206 23.877551078796387 5.8820408545434502 26.43204091489315 15.197959080338476 14.858979575335978 41.557346627116203 18.096938818693161 3.2792857363820103 21.424489915370941 17.26775524020195 25.376836761832237 26.20306122303009 17.772448986768723 21.108163177967072 21.847959160804749 18.269387632608414 127.05714279413223 4.4973468985408571 20.094897948205471 9.4744898378849012 32.663265347480774 12.156122446060179 34.624081611633301 110.00979606807232
leaf_count=17 38 13 27 23 15 3 16 20 20 19 32 21 8 17 23 57 24 23 29 25 30 42 16 39 21 11 28 24 202
internal_value=0.00330086 0.0239229 -0.0309102 0.0140913 0.0203934 -0.0335238 -0.0213355 -0.0327213 0.00164436 -0.00868723 -0.0166659 0.0245625 -0.0400212 0.027535 0.00731685 0.0422321 0.0319964 0.0352476 0.0275794 0.0170877 0.0443369 -0.0443313 -0.0351996 -0.0423971 0.0460401 -0.0452005 -0.0431472 0.0453689 0.0463345
internal_weight=814.875 508.411 306.464 330.787 219.599 290.493 101.011 77.1335 111.188 71.6143 56.4163 192.628 189.482 174.531 31.5504 177.624 142.98 121.556 69.1592 42.9561 163.131 154.929 27.8715 24.5922 144.861 50.7014 18.0382 52.3965 135.387
internal_count=883 656 227 333 224 210 78 75 109 71 51 209 132 188 46 323 142 125 78 54 310 105 63 55 280 55 44 47 259
is_linear=0
shrinkage=0.0463345


Tree=27
num_leaves=26
num_cat=0
split_feature=38 53 53 46 3 69 44 83 38 58 81 46 45 80 66 62 43 3 66 59 26 26 80 50 68
split_gain=278.691 43.4118 19.4769 15.6437 14.9455 11.5961 12.8298 11.1351 15.0117 11.9862 8.44001 8.41368 6.97634 11.6442 5.4651 5.21076 4.12564 4.03663 1.74759 1.6242 0.981766 0.0835659 0.0754168 2.84217e-14 7.10543e-15
threshold=0.67801533333333341 1.0864389233954455 0.59693740372670823 4040.9004927111669 0.81174490092936691 92.240000000000009 -2435.4999999999995 4523.1500000000005 0.55672318840579715 333.32585208567656 -184.99999999999997 3319.0836450514503 5448.8439583333338 -179.20000000000002 957.19999999999993 8401.3613673317668 -983.9749999999998 1.0000000180025095e-35 975.44999999999982 341.87149915630579 11.250000000000002 15.200000000000001 -426.85000000000008 8488.1428571428587 0.55000000000000016
decision_type=2 2 2 2 2 2 2 2 2 2 2 2 2 2 2 2 2 2 2 2 2 2 2 2 2
left_child=7 2 -2 4 5 6 -4 8 9 22 -7 12 13 14 19 -9 -3 -5 21 -8 -14 23 -1 -18 -24
right_child=1 16 3 17 -6 10 11 15 -10 -11 -12 -13 20 -15 -16 -17 18 -19 -20 -21 -22 -23 24 -25 -26
leaf_value=-0.0073377090037069839 -0.015316309481844134 0.002037510622393799 -0.0011367881981827065 0.00013503584313089134 0.0016467720929272552 -0.0010503422849103417 0.0023627899843966177 -0.0052954408230932682 -0.0042551494258180325 -0.0065918573154930826 0.0010597328730422054 -0.0044289245051271284 0.0019957701463298753 -0.0029942039233447201 0.00012543822025789633 -0.0067152803649196012 0.0020331807285557972 0.0013427255662425642 0.0020331807285557972 0.0020300097932570223 0.0025107581481060427 0.0020331807285557972 -0.010162379394483974 0.0020331807285557972 -0.0056050644656422469
leaf_weight=10.583673469722269 24.853061310946941 14.493877440690992 30.828571617603302 67.169387698173523 31.32142847776413 26.474897906184196 18.430612273514274 125.05510187149048 22.404693961143494 24.420816406607628 18.068367332220078 26.206122368574142 22.171836793422699 12.353061288595198 23.241020381450653 46.618367433547974 25.376836761832237 41.879183530807495 18.269387632608414 12.843877553939818 15.021632641553877 9.4744898378849012 12.353163179010151 110.00979606807232 24.951428493484855
leaf_count=18 14 13 31 32 38 23 28 41 27 32 28 17 24 13 27 26 57 26 30 32 24 21 32 202 27
internal_value=0.00451246 0.0233965 0.0143752 0.0172209 0.0105375 0.00599613 0.0117818 -0.0343694 -0.0216156 -0.0318836 -0.0149285 0.0181428 0.0240521 0.0151048 0.0243087 -0.0414058 0.0422321 0.031744 0.0443369 0.0369554 0.0401382 0.0460401 -0.0453551 0.0463345 -0.0463345
internal_weight=814.875 548.487 370.863 346.01 236.961 205.64 161.097 266.387 94.7138 72.3091 44.5433 130.268 104.062 66.8686 54.5155 171.673 177.624 109.049 163.131 31.2745 37.1935 144.861 47.8883 135.387 37.3046
internal_count=883 680 357 343 285 247 196 203 136 109 51 165 148 100 87 67 323 58 310 60 48 280 77 259 59
is_linear=0
shrinkage=0.0463345


Tree=28
num_leaves=29
num_cat=0
split_feature=38 5 38 42 37 83 38 58 74 58 73 73 49 68 79 62 2 45 83 57 47 51 80 6 83 66 36 68
split_gain=295.422 38.7751 17.9361 14.3124 13.6497 11.1351 15.0117 11.9862 10.8426 9.31775 9.88774 10.8827 7.02504 6.82331 14.819 5.21076 3.80274 2.99828 2.98634 1.56144 0.790329 0.71414 0.0754168 0.054873 0.0147596 2.84217e-14 1.42109e-14 7.10543e-15
threshold=0.67801533333333341 -0.5 1.0861594202898555 9525.0000000000018 9050.0000000000018 4523.1500000000005 0.55672318840579715 333.32585208567656 1019.9000000000001 243.451847089898 176.20000000000002 277.75000000000006 6982.1666666666679 5.8500000000000005 4133.3000000000011 8401.3613673317668 -0.8783796973249266 5360.0618750000003 1139.6500000000003 0.7154988730873092 7938.5000000000009 7953.8510714285721 -426.85000000000008 -0.78409092058138996 440.75000000000006 827.70000000000016 8888.1950000000015 0.55000000000000016
decision_type=2 2 2 2 2 2 2 2 2 2 2 2 2 2 2 2 2 2 2 2 2 2 2 2 2 2 2 2
left_child=5 19 3 4 9 6 7 22 -5 -3 12 -12 -11 16 18 -7 -4 -18 24 -2 -21 -19 -1 -22 -15 -25 -23 -24
right_child=1 2 13 8 -6 15 -8 -9 -10 10 11 -13 -14 14 -16 -17 17 21 -20 20 23 26 27 25 -26 -27 -28 -29
leaf_value=-0.0069977202537742341 0.0009055280539891111 0.00042982984007883799 0.0019227681486986463 -3.5571586958605928e-05 -0.0077433202006049872 -0.0050500794569125181 -0.0040579893948969282 -0.0062864271972780774 9.4237998706837488e-06 -0.0031133112287451805 0.0013468288496378464 -0.0016578158278539696 0.00083149557159624453 0.0019389744069450822 -0.0018625874407657832 -0.0064041315069363336 0.0019389744069450822 0.0021363827742554389 0.0019389744069450822 0.0013492336211262943 0.0019396308441848296 0.0023180625847726488 -0.00969151108055555 0.0019389744069450822 0.0019389744069450822 0.0019389744069450822 0.0022537243605297453 -0.0053453568566319346
leaf_weight=10.583673469722269 4.6081631779670706 25.53775492310524 18.043673560023308 49.200816333293915 17.991836786270142 125.05510187149048 22.404693961143494 24.420816406607628 41.526530623435974 17.879591636359692 29.023469358682632 31.252040810883045 14.684693992137907 11.666326448321348 18.534694090485573 46.618367433547974 22.098979592323303 20.931632608175278 10.55000004172325 11.064591839909552 12.21632659435272 29.289285704493523 12.353163179010151 104.87173496186733 7.8642856627702704 26.680612146854401 22.970408022403717 24.951428493484855
leaf_count=18 4 29 23 30 11 41 27 32 25 19 36 34 21 22 18 26 35 33 12 38 16 35 32 157 21 34 27 27
internal_value=0.00566256 0.0251051 0.0172184 0.00881699 -0.000670806 -0.0343694 -0.0216156 -0.0318836 0.0230778 0.00504411 -0.00177377 0.00934062 -0.0223462 0.0289994 0.0144781 -0.0414058 0.0352284 0.0389217 0.0345587 0.0443492 0.0451402 0.0434379 -0.0453551 0.0460586 0.0452887 0.0463345 0.0463345 -0.0463345
internal_weight=814.875 548.487 389.046 227.097 136.369 266.387 94.7138 72.3091 90.7273 118.378 92.8398 60.2755 32.5643 161.949 48.6153 171.673 113.334 95.2903 30.0806 159.441 154.833 73.1913 47.8883 143.769 19.5306 131.552 52.2597 37.3046
internal_count=883 680 431 205 150 203 136 109 55 139 110 70 40 226 73 67 153 130 55 249 245 95 77 207 43 191 62 59
is_linear=0
shrinkage=0.0463345


Tree=29
num_leaves=26
num_cat=0
split_feature=38 53 54 59 69 48 83 38 58 46 79 83 54 80 62 66 84 43 78 66 26 26 80 50 68
split_gain=286.841 39.6325 13.3441 17.3755 11.4463 11.4179 11.1351 15.0117 11.9862 9.36818 7.19862 6.73171 6.69196 6.64553 5.21076 5.09217 9.61697 4.12564 2.16224 1.74759 1.18504 0.0835659 0.0754168 2.84217e-14 7.10543e-15
threshold=0.67801533333333341 1.0864389233954455 0.89727991718426503 241.94334247107858 95.655000000000015 2499.5000000000005 4523.1500000000005 0.55672318840579715 333.32585208567656 3896.0965794540884 4719.2000000000016 1003.7000000000002 0.78411749482401671 -198.24999999999997 8401.3613673317668 785.20000000000039 0.00042304904491174972 -983.9749999999998 3844.8000000000006 975.44999999999982 10.350000000000003 15.200000000000001 -426.85000000000008 8488.1428571428587 0.55000000000000016
decision_type=2 2 2 2 2 2 2 2 2 2 2 2 2 2 2 2 2 2 2 2 2 2 2 2 2
left_child=6 2 3 -2 9 -5 7 8 22 10 11 13 -7 15 -8 20 -17 -3 -11 21 -4 23 -1 -19 -24
right_child=1 17 4 5 -6 12 14 -9 -10 18 -12 -13 -14 -15 -16 16 -18 19 -20 -21 -22 -23 24 -25 -26
leaf_value=-0.0066734846973822001 0.00061312848022609858 0.0018532623544987084 0.0019614725500268098 -0.0026938873359047713 -0.00053880637168448535 0.00066773460298083574 -0.0048160867759886317 -0.0038699646666180694 -0.0059951490172267747 0.0017445220809474582 0.0026112378606601215 -0.0001279093011968878 -0.00089738895028128459 -0.00059458323007997036 -0.0061073995618090163 0.0029546023935040837 -0.00030016343820395212 0.0018491330839332501 0.0020297021680339522 0.0018489124922543817 0.0024554931772193798 0.0018491330839332501 -0.0092424601934771936 0.0018491330839332501 -0.0050976826582257804
leaf_weight=10.583673469722269 32.87530642747879 14.493877440690992 22.7377550303936 37.151020340621471 26.492857068777084 24.146938778460026 125.05510187149048 22.404693961143494 24.420816406607628 30.451020359992981 26.250816106796265 40.964898094534874 26.646938696503639 15.487755089998243 46.618367433547974 21.539795845746994 14.179591983556746 25.376836761832237 39.538367241621017 18.269387632608414 12.400000110268591 9.4744898378849012 12.353163179010151 110.00979606807232 24.951428493484855
leaf_count=18 17 13 27 31 29 19 41 27 32 18 38 39 22 27 26 25 15 57 25 30 25 21 32 202 27
internal_value=0.0050769 0.024235 0.0156153 0.00297149 0.0217248 -0.00777169 -0.0343694 -0.0216156 -0.0318836 0.0251376 0.018734 0.0141786 0.00650645 0.0215174 -0.0414058 0.0275271 0.0152074 0.0422321 0.0391873 0.0443369 0.0400507 0.0460401 -0.0453551 0.0463345 -0.0463345
internal_weight=814.875 548.487 370.863 120.82 250.043 87.9449 266.387 94.7138 72.3091 223.55 153.561 127.31 50.7939 86.3449 171.673 70.8571 35.7194 177.624 69.9894 163.131 35.1378 144.861 47.8883 135.387 37.3046
internal_count=883 680 357 89 268 72 203 136 109 239 196 158 41 119 67 92 40 323 43 310 52 280 77 259 59
is_linear=0
shrinkage=0.0463345


Tree=30
num_leaves=29
num_cat=0
split_feature=38 36 38 58 69 48 8 41 26 5 56 80 25 28 65 58 84 26 3 79 48 57 50 58 43 49 66 58
split_gain=248.091 56.8806 17.3777 15.6978 13.945 11.1866 19.5976 10.6429 13.476 10.4205 9.242 8.51288 9.22476 7.87107 6.49752 5.74415 7.12151 3.50344 4.77313 3.18745 5.36257 1.67662 1.38613 2.46258 0.79438 0.496994 0.164538 2.84217e-14
threshold=0.67801533333333341 7499.5000000000009 1.0868840579710148 293.84617500198812 61.905000000000008 800.50000000000011 0.53358894222643671 5865.0000000000009 10.350000000000003 -0.5 0.37161664672668476 -663.14999999999975 1.0500000000000003 7.8500000000000014 7.5000000000000009 276.51576640585773 9.1781894298037528e-05 11.550000000000002 1.0000000180025095e-35 4756.8000000000002 2332.0000000000005 0.76608109240219668 7369.6200000000008 235.35876532818892 -378.48500000000007 7596.166666666667 717.8000000000003 344.88941344931681
decision_type=2 2 2 2 2 2 2 2 2 2 2 2 2 2 2 2 2 2 2 2 2 2 2 2 2 2 2 2
left_child=5 2 3 4 -2 22 -7 8 -8 21 -6 -5 -13 -12 -11 16 -16 26 -19 20 -4 -3 23 -1 -10 -23 -17 -27
right_child=1 9 19 11 10 6 7 -9 24 14 13 12 -14 -15 15 17 -18 18 -20 -21 -22 25 -24 -25 -26 27 -28 -29
leaf_value=-0.0038108885595387002 -0.0052449759927749523 0.0017673924527507503 0.0024177060533348018 0.00012260684063188714 -0.0024057000354977499 0.00090292232249505108 3.5819691748008616e-05 -0.0061625008817503234 -0.0063448350066921694 -5.8207216918152996e-05 -0.00012059429863451403 -0.00015428169474416872 -0.00021010567214981501 0.0011938997184060469 0.0017543179215094979 0.0021570877024092278 0.00033581121540507441 0.0017488707420286144 0.0025691923263975827 0.0021061253665286658 -0.00054361580835480649 0.0012010390419558287 -0.0050188900379530684 -0.0036688846795150821 -0.0058218206021717423 0.0017634545096877838 0.0017634545096877838 0.0017634545096877838
leaf_weight=11.552551114931704 11.930612325668333 9.1489794254302961 31.037346929311752 20.953061118721962 20.452244766056538 27.521428570151329 31.051020413637161 68.561224460601807 11.722448915243151 22.466632574796677 12.970612213015555 30.114081643521786 31.931632608175278 40.800612211227417 16.138775587081909 43.332653075456619 24.204081565141678 19.85204091668129 17.449999988079071 22.44387748837471 16.3132653683424 9.098673537373541 78.67959189414978 20.273469373583794 17.02551007270813 107.54826535284519 12.355102151632307 27.944898068904877
leaf_count=20 7 11 35 18 25 29 35 32 12 22 10 24 27 32 28 46 37 36 25 27 21 29 18 25 32 129 24 67
internal_value=0.00492836 0.0227455 0.00576263 -0.00226376 0.0115904 -0.0317568 -0.0237623 -0.0313696 -0.0170836 0.0358553 0.0190641 -0.0166446 -0.025268 0.0291477 0.0274102 0.0312944 0.0166933 0.0376289 0.0266402 0.0252153 0.0183981 0.0444134 -0.043034 -0.0348747 -0.0399434 0.0456305 0.0449896 0.0463345
internal_weight=814.875 548.487 238.947 169.153 86.1541 266.387 155.882 128.36 59.799 309.54 74.2235 82.9988 62.0457 53.7712 155.799 133.333 40.3429 92.9898 37.302 69.7945 47.3506 153.741 110.506 31.826 28.748 144.592 55.6878 135.493
internal_count=883 680 226 143 74 203 140 111 79 454 67 69 51 42 218 196 65 131 61 83 56 236 63 45 44 225 70 196
is_linear=0
shrinkage=0.0463345


Tree=31
num_leaves=28
num_cat=0
split_feature=38 36 38 58 48 8 62 5 50 80 25 65 84 58 58 26 3 79 48 47 57 35 66 56 6 60 34
split_gain=247.785 55.8549 15.3853 17.7324 14.0614 19.1284 11.5136 10.5857 9.26488 8.48427 10.2377 6.61253 6.35441 5.20226 7.46633 3.50344 4.77313 3.18745 5.36257 2.04024 1.68792 0.349763 0.164538 0.0505114 0.132786 0.0391241 2.84217e-14
threshold=0.65014782608695665 7499.5000000000009 1.0868840579710148 300.43252048799366 800.50000000000011 0.53358894222643671 8000.1720293308163 -0.5 6305.6428571428578 -663.14999999999975 -2.6499999999999999 7.5000000000000009 0.00026507163420319563 276.51576640585773 253.28071937362574 11.550000000000002 1.0000000180025095e-35 4756.8000000000002 2332.0000000000005 8951.3100000000031 0.76608109240219668 7799.5000000000009 717.8000000000003 0.36929578389564327 0.7396616116502498 4329.6233928571437 8887.5000000000018
decision_type=2 2 2 2 2 2 2 2 2 2 2 2 2 2 2 2 2 2 2 2 2 2 2 2 2 2 2
left_child=4 2 3 8 25 -6 23 20 -2 -5 -11 -9 -10 14 19 22 -17 18 -4 -13 -3 -22 -15 24 -7 -1 -23
right_child=1 7 17 9 5 6 -8 11 12 10 -12 13 -14 15 -16 16 -18 -19 -20 -21 21 26 -24 -25 -26 -27 -28
leaf_value=-0.0044622971409505382 0.00067638209622383598 0.0016855012861280679 0.0023056829602463636 0.00011692591945354768 0.0008610859084922113 -0.0062616311792534811 -0.0055175908906184715 -5.55102172269579e-05 0.0012404915499922068 -0.0041477357256259721 -0.00019471302227050852 0.0017388641538690392 -0.0017921230723467411 0.0020571402186555193 -0.0013929358015990806 0.0016678377687837141 0.0024501501993593727 0.00200853919484947 -0.00051842766597509843 0.0017091847969947869 0.0014819958909024985 0.001681745805511978 0.001681745805511978 -0.0050243498869417622 -0.0088626214914671753 -0.004977219003381223 0.001681745805511978
leaf_weight=24.258673468604684 33.796734601259232 9.1489794254302961 31.037346929311752 20.953061118721962 27.521428570151329 7.7112244963645917 65.114285588264465 22.466632574796677 23.548163235187531 23.19775515794754 36.550000041723251 10.575510293245317 38.147959157824516 43.332653075456619 17.791836738586426 19.85204091668129 17.449999988079071 22.44387748837471 16.3132653683424 13.863265275955198 12.652755126357077 48.945918351411819 12.355102151632307 48.242856979370117 3.6224489808082581 73.004081577062607 90.976837053894997
leaf_count=36 35 11 35 18 29 20 35 22 20 17 31 20 26 46 19 36 25 27 21 27 35 67 24 33 21 23 124
internal_value=0.00642693 0.0233989 0.00680397 -0.000489186 -0.0320376 -0.0232443 -0.030961 0.0361791 0.0130236 -0.0164788 -0.0253757 0.0276368 0.00234177 0.0315043 0.0180183 0.0376289 0.0266402 0.0252153 0.0183981 0.0346415 0.0445082 0.0456673 0.0449896 -0.0456805 -0.042897 -0.0457988 0.0463345
internal_weight=814.875 565.4 245.988 176.194 249.475 152.212 124.691 319.412 95.4929 80.7008 59.7478 157.687 61.6961 135.22 42.2306 92.9898 37.302 69.7945 47.3506 24.4388 161.724 152.576 55.6878 59.5765 11.3337 97.2628 139.923
internal_count=883 686 230 147 197 138 109 456 81 66 48 219 46 197 66 131 61 83 56 47 237 226 70 74 41 59 191
is_linear=0
shrinkage=0.0463345


Tree=32
num_leaves=28
num_cat=0
split_feature=38 53 84 84 41 52 45 7 42 52 46 59 37 2 35 79 48 79 43 62 66 80 78 60 84 6 40
split_gain=211.605 50.8789 15.3759 15.2669 13.5371 18.4272 18.3551 10.31 10.8939 11.0197 9.85596 9.23178 14.5823 9.14431 9.07277 6.67264 4.36319 8.00518 4.01181 2.95879 1.80439 0.324607 0.140961 0.0954275 0.225956 2.84217e-14 7.10543e-15
threshold=0.67801533333333341 1.0864389233954455 0.00012896256521344188 0.00013263582513900476 5865.0000000000009 0.58246422222222216 7598.1904166666673 -0.82964644928663578 8688.0000000000018 0.83473429951690814 3081.1556246432333 293.77806400854456 5881.0000000000009 -0.60785761079279388 6898.5000000000009 3890.3500000000004 999.49500000000012 4775.4000000000005 -700.49999999999989 5894.1651962346959 975.44999999999982 -99.79999999999994 3939.1500000000005 3185.6677380952383 0.075811773538589491 -0.73966161165024946 0.50724565217391315
