tree
version=v4
num_class=1
num_tree_per_iteration=1
label_index=0
max_feature_idx=84
objective=regression_l1
feature_names=hour_sin hour_cos day_sin day_cos month_sin month_cos day_of_year_sin day_of_year_cos week_sin week_cos is_winter is_spring is_summer is_autumn is_heating_season is_dst_period is_dst_transition_day days_to_dst_change cap_regime_all_day_15000 post_aug_2025_cap_change post_jan_2026_cap_change post_apr_2026_cap_change price_cap_norm is_off_day price_cap feelslike windspeed solarradiation heating_degree cooling_degree temp_hour_interaction temp_summer_interaction solar_hour_interaction solar_summer_interaction price_lag_24 price_lag_48 price_lag_168 price_lag_336 ratio_lag_24 ratio_lag_48 ratio_lag_168 price_lag_167 price_lag_169 diff_24_48 diff_168_336 rolling_mean_24 rolling_std_24 rolling_max_24 rolling_min_24 rolling_mean_hour_3d rolling_mean_hour_7d rolling_mean_hour_14d ratio_mean_hour_3d ratio_mean_hour_7d ratio_mean_hour_14d hour_month_interaction price_volatility_24 demand_supply_ratio_lag_24 demand_ramp_std_24 supply_ramp_std_24 rolling_mean_168 rolling_std_168 price_ema_24 price_ema_168 is_attack days_since_attack system_balance_lag_24 demand_x_price_lag_168 dew humidity precip snow windgust winddir sealevelpressure cloudcover visibility uvindex supply_lag_24 supply_lag_168 demand_ramp supply_ramp garpok_lag_24 vdr_supply_lag_24 prob_low_price
feature_infos=none none [-0.97492791218182362:0.97492791218182362] [-0.90096886790241903:1] [-1:1] [-1:1] [-0.9999631612477099:0.9999631612477099] [-1:1] [-0.99956083650879435:0.99956083650879435] [-0.99824373176432146:0.99298109601351703] [0:1] [0:1] [0:1] [0:1] [0:1] [0:1] none [0:14] [0:1] [0:1] [0:1] [0:1] [0.37333333333333335:1] [0:1] [5600:15000] [-24.800000000000001:31.399999999999999] [0.40000000000000002:34.200000000000003] [0:744] [0:42.799999999999997] [0:9.3999999999999986] [-272.80000000000001:345.39999999999998] [0:31.399999999999999] [0:8184] [0:739] [10:15000] [10:15000] [10:15000] [10:15000] [0.00066666666666666664:1.1000000000000001] [0.00066666666666666664:1.1000000000000001] [0.00066666666666666664:1.1000000000000001] [10:15000] [10:15000] [-9620:9123.0100000000002] [-11957.01:9150] [280.27291666666667:15000] [0:5792.8199978541152] [1210:15000] [10:15000] [10:14971.083333333334] [25:13301.428571428571] [57:11523.815714285714] [0.00066666666666666664:1.1000000000000001] [0.001666666666666631:1.1000000000000001] [0.010178571428571429:1.1000000000000001] [11:132] [0:1.527782938350883] [0.37982459940523927:1.2936463270644356] [110.29500231756623:581.97854061737564] [104.19685765380277:690.79900488125111] [1630.7810714285713:12659.595654761904] [725.30668302149286:5202.7939713135993] [57:14864.302314150953] [57:12911.719147480695] [0:1] [0:30] [-1095.8000000000002:3708.9000000000001] [26079:87418488.850000009] [-22.5:21.199999999999999] [19:100] [0:2.6000000000000001] [0:1.1000000000000001] [4.2999999999999998:65.900000000000006] [1.1000000000000001:359.30000000000001] [991.5:1048] [0:100] [0:47500] [0:6] [1072.4000000000001:6914.1000000000004] [1072.4000000000001:6914.1000000000004] [-1083.7999999999997:572.30000000000018] [-958.79999999999973:1050.9000000000005] [381:7477.1000000000004] [10:14990] [2.3255863197846338e-05:0.99928504228591919]
tree_sizes=1771 1841 1955 2698 2906 3009 2800 3115 3105 3540 3633 3934 3941 3617 3416 3618 3624 3630 3827 3622 3954 3731 3639 4054 3947 3847 3961 4040 3839 4169 3967 4056 3954 3956 4061 4360 3965 3758 3527 3637 3838 3956 4053 3959 3647 3635 3849 3967 4181 2802 4078 3966 3635 3524 3443 4269 3669 3747 3858 3752 2894 3432 4489 2903 3656 3965 3448 3449 3130 4383 3871 3862 2597 3239 3858 3009 4287 3866 3336 3659 3970 4187 3968 3763 3733 3960 4073 3980 3655 3978 3248 3356 3969 3128 3876 3849 3542 2798 3980 3965 3969 3342 3968 4286 3848 3966 3317 3982 3445 3331 3750 4502 3866 4397 3329 3954 4069 2703 3873 3975 2803 3772 3240 2801 3555 3653 3442 2927 2491 2920 4055 3125 3671 3970 3435 3766 3662 3027 4275 3026 3854 3432 4192 4078 3993 2920 3767 4182 4082 4067 3754 3978 3529 3964 3427 2703 4181 4061 3856 4159 3858 3442 4082 3867 3865 4188 3646 3661 4406 3757 3772 3669 3763 3775 3877 3353 3346 3864 3967 3243 4207 3032 3986 4074 3768 3557 3032 3881 4097 3759 3253 3872 3465 4322 4195 3996 4192 3879 3872 4089 3865 3746 3678 2494 3874 4408 3459 2921 3037 3142 4312 3549 3669 3868 3757 3672 3027 3341 3338 3664 3766 3743 2812 3553 3128 4305 3232 3973 3984 3248 3775 3658 4303 3141 4286 3034 3766 3885 3678 3468 3992 3766 4310 4183 3969 4094 3665 3762 4091 3769 3989 3976 3853 3980 4186 4087 3969 3359 3882 3562 3765 3239 3981 3631 3027 3552 4186 4204 3874 3983 2813 3457 2818 4096 4186 4199 3225 3457 3752 4085 3994 3016 3117 3771 4097 4174 3876 3344 3565 4086 3318 3354 3554 4080 4062 3016 2373 3982 3870 3561 2711 2484 2487 3027 2809 3117 3660 2384 3961 3128 3765 3543 3861 3030 3759 3647 2372 3120 2390 3237 3865 4084 3766 4179 3229 3457 3575 2922 2818 3017 4083 3020 3873 4410 3866 3871 3658 3868 3040 3786 3996 4099 4317 2598 2717 2616 2720 2185 2717 3156 2722 2293 3897 2705 3570 3572 2926 3458 3252 2602 2713 3038 2401 4295 2300 3243 1762 3665 2612 3673 3145 3453 3567 2510 3252 2169 2719 3350 3246 3140 3671 2927 2720 2504 2292 3456 3355 2929 3026 3040 3451 3228 2915 2618 3665 2288 3439 2725 2400 2807 2724 3760 3785 3878 3253 2941 3330 2519 4090 2918 3560 2613 3679 3682 2708 2504 3131 2818 3251 3779 4198 2504 2604 3337 2606 2607 3996 4270 3889 3667 3447 3897 4105 3026 3145 3348 3126 3784 2384 3980 3880 2931 2497 2622 2501 3035 2937 3143 3243 3779 2612 3040 3875 3888 3470 3462 3360 2817 3886 4187 2940 2183 3351 2922 2811 2600 3862 3659 2830 3783 2400 2707 2507 2723 3896 3790 2944 3264 3362 4101 3872 4218 2831 3776 2610 4098 3678 4099 3569 3564 3155 3048 3990 3548 3995 3573 2922 3998 3884 2499 2810 2830 3238 2814 3883 2919 2819 3453 3450 4292 4080 3662 3945 3344 4193 4098 3036 3020 3359 4085 3556 3882 3562 3680 3995 3783 3870 3866 3452 3018 3784 3030 4099 2287

Tree=0
num_leaves=16
num_cat=0
split_feature=84 18 34 82 37 27 82 53 79 9 84 81 27 26 43
split_gain=520.662 105.461 43.2731 8.48378 5.9481 5.08941 6.4547 2.04321 1.73476 1.52143 0.903538 0.0152018 5.68434e-14 2.84217e-14 3.55271e-15
threshold=0.57906609773635875 1.0000000180025095e-35 7983.5250000000005 2972.0000000000005 4690.0000000000009 392.55000000000007 2705.0000000000005 0.45182397959183684 4340.5500000000011 0.14764656400248086 0.34005489945411688 75.200000000000287 97.450000000000003 10.550000000000002 11.034999999999856
decision_type=2 2 2 2 2 2 2 2 2 2 2 2 2 2 2
left_child=1 10 -3 4 5 6 9 11 -9 -2 12 13 -1 -5 -7
right_child=3 2 -4 7 -6 14 -8 8 -10 -11 -12 -13 -14 -15 -16
leaf_value=0.51877490346858024 0.47955609519021558 0.4839125094220329 0.50670187082383789 0.46951461715807929 0.48918062260471679 0.47525361031044783 0.4905605288794252 0.48559612255848672 0.47874188367572007 0.48848375181630066 0.4967577618909067 0.47202652588333127 0.51055905996526818 0.4679802552295928 0.47848047414288292
leaf_weight=108.15479599311948 14.275918439030653 67.724489808082581 36.989795804023743 105.08469396829605 12.020408183336256 14.406122460961344 7.8437754493206731 18.076836585998535 30.761224672198296 7.242755100131034 14.101020514965056 41.376836679875851 221.81295891106129 100.11428560316563 14.888775557279585
leaf_count=157 26 33 21 44 25 22 17 31 32 34 20 36 328 39 18
internal_value=0.490537 0.523988 0.483274 0.44953 0.46395 0.457865 0.471498 0.44608 0.454738 0.458382 0.536379 0.444365 0.53687 0.444201 0.444201
internal_weight=814.875 448.783 104.714 366.092 70.6778 58.6573 29.3624 295.414 48.8381 21.5187 344.069 246.576 329.968 205.199 29.2949
internal_count=883 559 54 324 142 117 77 182 63 60 505 119 485 83 40
is_linear=0
shrinkage=1


Tree=1
num_leaves=16
num_cat=0
split_feature=84 18 38 52 42 63 44 82 84 82 27 45 27 26 4
split_gain=497.264 118.228 31.9782 11.0974 5.711 9.481 4.31701 1.13906 0.903538 0.410098 0.624844 0.174952 5.68434e-14 2.84217e-14 3.55271e-15
threshold=0.57906609773635875 1.0000000180025095e-35 0.5550857142857144 0.40410714285714283 4301.0000000000009 5212.8400785742351 -2294.4999999999995 2861.5000000000005 0.34005489945411688 2724.5000000000005 330.00000000000006 3700.227291666667 97.450000000000003 9.9500000000000011 1.0000000180025095e-35
decision_type=2 2 2 2 2 2 2 2 2 2 2 2 2 2 2
left_child=1 8 -3 7 6 -6 -5 -2 12 10 -8 -9 -1 -13 -11
right_child=3 2 -4 4 5 -7 9 11 -10 14 -12 13 -14 -15 -16
leaf_value=0.026930749366783344 -0.011918634019809353 -0.0063121040370903957 0.015453327040585949 -0.0020538493481841694 0.00023646928236310122 -0.011147875173568324 -0.0032724455750941257 -0.022029590465815256 0.0059337600516625542 -0.011060695917243504 -0.012075840353456926 -0.017739051285974403 0.019095582497134812 -0.021290364301396414 -0.015232075842540138
leaf_weight=108.15479599311948 18.915714360773563 67.775510191917419 36.938775420188904 12.133673593401907 17.82551009953022 25.260510072112083 8.4927551224827784 31.599387949332595 14.101020514965056 13.238979607820511 8.2102041840553266 104.03020402789116 221.81295891106129 110.62959168851376 15.75510199368
leaf_count=157 31 33 21 16 31 34 29 32 20 15 14 49 328 47 26
internal_value=3.28168e-05 0.0327239 -0.0103848 -0.0400424 -0.0269655 -0.0141955 -0.0364796 -0.045019 0.0458436 -0.0430029 -0.0372198 -0.0458606 0.0463345 -0.0463345 -0.0463345
internal_weight=814.875 448.783 104.714 366.092 100.917 43.086 57.8307 265.175 344.069 45.697 16.703 246.259 329.968 214.66 28.9941
internal_count=883 559 54 324 165 65 100 159 505 84 43 128 485 96 41
is_linear=0
shrinkage=0.0463345


Tree=2
num_leaves=17
num_cat=0
split_feature=84 18 38 53 41 84 73 44 84 45 66 75 27 36 59 25
split_gain=486.2 117.775 31.9782 12.2766 9.46962 4.90169 4.3935 3.21733 0.886668 0.533102 0.391413 0.675116 0.0572582 5.68434e-14 2.84217e-14 7.10543e-15
threshold=0.57906609773635875 1.0000000180025095e-35 0.5550857142857144 0.33047619047619053 105.00000000000001 0.82946631312370311 265.10000000000008 2006.7150000000004 0.34005489945411688 3631.8125000000005 736.05000000000007 41.250000000000007 22.950000000000003 6717.5000000000009 227.24373870793823 12.450000000000001
decision_type=2 2 2 2 2 2 2 2 2 2 2 2 2 2 2 2
left_child=1 8 -3 10 -5 6 -6 9 12 -7 14 -12 -1 -14 -2 -11
right_child=3 2 -4 4 5 7 -8 -9 -10 15 11 -13 13 -15 -16 -17
leaf_value=0.025682927763699986 -0.017843810919807208 -0.0060196361346522313 0.01473730554938529 -0.0017897293421948761 -0.0018857292111887191 -0.004250964474647582 0.00013391564282751853 -0.0036400946377081306 0.0056588225117101725 -0.013764469239277904 -0.015680011436000167 -0.0086464224688121757 0.0199729135408113 0.025682927763699986 -0.020816274013356936 -0.013474444228677057
leaf_weight=10.811224460601805 96.186836441978812 67.775510191917419 36.938775420188904 18.497040629386902 20.400000005960464 9.8693877309560758 14.516326606273649 14.542142882943152 14.101020514965056 25.253061220049858 22.197346955537796 15.270000040531157 220.59122449532151 98.565305948257446 104.67040845751762 24.689081728458405
leaf_count=15 28 33 21 30 32 37 23 20 20 26 24 21 346 124 41 42
internal_value=0.000315961 0.0326413 -0.0103848 -0.0393109 -0.0277225 -0.0329124 -0.0185917 -0.0396374 0.0457359 -0.0443899 -0.0455235 -0.0411758 0.0462221 0.0463345 -0.0463345 -0.0463345
internal_weight=814.875 448.783 104.714 366.092 127.767 109.27 34.9163 74.3537 344.069 59.8115 238.325 37.4673 329.968 319.157 200.857 49.9421
internal_count=883 559 54 324 210 180 55 125 505 105 114 45 485 470 69 68
is_linear=0
shrinkage=0.0463345


Tree=3
num_leaves=24
num_cat=0
split_feature=84 18 7 53 41 26 84 25 84 6 46 59 66 75 46 34 75 56 7 5 58 34 6
split_gain=452.172 116.506 28.8026 15.001 8.97832 8.65493 3.41005 3.56116 2.18951 5.54268 1.79254 1.75 0.353387 0.566791 0.279186 0.175146 0.10565 0.058645 8.11568e-05 2.84217e-14 2.84217e-14 7.10543e-15 3.55271e-15
threshold=0.57906609773635875 1.0000000180025095e-35 0.66012780149078465 0.31764923469387757 105.00000000000001 17.650000000000002 0.86464446783065807 7.8500000000000005 0.073831945657730116 -0.97516411509186662 2020.8488482455311 353.54912323238381 736.05000000000007 38.150000000000013 2192.0319521924562 3799.5000000000005 4.9500000000000011 0.21513462272832864 0.068612210320797354 -0.24999999999999994 239.32767657071176 2954.0000000000005 0.27947533894953847
decision_type=2 2 2 2 2 2 2 2 2 2 2 2 2 2 2 2 2 2 2 2 2 2 2
left_child=1 8 -3 12 -5 6 7 -6 16 -10 11 -11 18 -14 -8 21 -1 -18 20 22 -2 -12 -19
right_child=3 2 -4 4 5 -7 14 -9 9 10 15 -13 13 -15 -16 -17 17 19 -20 -21 -22 -23 -24
leaf_value=0.010815037465469484 -0.022763216841457063 -0.0094945826847756369 0.0083040983478681555 -0.0015855761113373447 -0.00033843435467630328 -0.00084003144398391895 -0.0045801425234450613 -0.0041627153807215281 -0.0027450295077172636 0.0063055053644809232 0.009533629780656791 0.0012596183251764263 -0.017054928727563864 -0.0082457951933128642 -0.013672412598678102 0.0039060428156812671 0.020124047057762069 0.0076293468659479318 -0.014676099434221343 0.024492923294923408 -0.019903666800178334 0.0046395630727030695 0.015903355559679547
leaf_weight=16.038979515433311 102.39387726783752 46.72857129573822 57.985714316368103 18.809285521507263 14.208163276314734 19.099999994039536 9.6561223864555341 26.355408295989037 8.6418367922306043 7.5919388085603705 31.12653061747551 8.0704081952571851 21.300408184528351 15.854693919420241 42.119693949818611 14.057142823934553 8.6322449892759305 15.551020324230196 36.868469407781959 205.97295907512307 59.425510495901108 15.560204043984411 12.825510233640669
leaf_count=27 24 21 33 32 24 32 39 39 11 15 45 25 22 21 48 21 9 35 22 266 21 26 25
internal_value=-0.000359558 0.030814 -0.0119796 -0.0385745 -0.0259535 -0.0309514 -0.0368241 -0.0267644 0.0438379 0.0373875 0.0413655 0.027389 -0.0455447 -0.0413971 -0.0447054 0.0449692 0.0459559 0.0461963 -0.0463203 0.0463345 -0.0463345 0.0463345 0.0463345
internal_weight=814.875 448.783 104.714 366.092 130.249 111.439 92.3394 40.5636 344.069 85.0481 76.4062 15.6623 235.843 37.1551 51.7758 60.7439 259.021 242.982 198.688 234.349 161.819 46.6867 28.3765
internal_count=883 559 54 324 214 182 150 63 505 143 132 40 110 43 87 92 362 335 67 326 45 71 60
is_linear=0
shrinkage=0.0463345


Tree=4
num_leaves=26
num_cat=0
split_feature=84 18 84 53 41 26 84 7 84 6 46 59 84 44 35 66 75 46 34 50 7 6 58 34 6
split_gain=451.846 108.477 27.0524 15.596 8.7465 8.38291 3.89589 4.22437 1.96162 5.54268 1.79254 1.75 1.04922 0.461518 0.785887 0.353387 0.566791 0.279186 0.175146 0.0239262 8.11568e-05 2.84217e-14 2.84217e-14 7.10543e-15 3.55271e-15
threshold=0.57906609773635875 1.0000000180025095e-35 0.0011328533873893323 0.31764923469387757 105.00000000000001 17.650000000000002 0.86464446783065807 0.17082345007074981 0.073831945657730116 -0.97516411509186662 2020.8488482455311 353.54912323238381 0.81441515684127819 -1668.4999999999998 5870.0000000000009 736.05000000000007 38.150000000000013 2192.0319521924562 3799.5000000000005 3270.5714285714289 0.068612210320797354 0.61383352812826175 239.32767657071176 2954.0000000000005 0.86167001593038561
decision_type=2 2 2 2 2 2 2 2 2 2 2 2 2 2 2 2 2 2 2 2 2 2 2 2 2
left_child=1 8 -3 15 -5 6 7 12 13 -10 11 -11 -6 14 -1 20 -17 -8 23 -15 22 -21 -2 -12 -23
right_child=3 2 -4 4 5 -7 17 -9 9 10 18 -13 -14 19 -16 16 -18 -19 -20 21 -22 24 -24 -25 -26
leaf_value=0.019732895620722349 -0.0217084955879343 -2.0875570206788232e-05 -0.0090546563676514227 -0.0015121093058610745 -0.0020617441128274534 -0.00080110904458105189 -0.0043679241143648939 -0.001127504016049413 -0.0026178400606588137 0.0060133432079439069 0.0090918942376133696 0.0012012545961769857 -0.0039698382309323555 0.015558128127505583 0.020130888563109798 -0.016264697894568553 -0.0078637307644073839 -0.013038908808102467 0.00372505844938705 0.023358057035027743 -0.01399609036081589 0.024101771857883689 -0.018981441240258759 0.004424591444838628 0.011832057271614996
leaf_weight=18.112245053052906 102.39387726783752 66.973469495773315 37.740816116333008 18.809285521507263 14.145918428897859 19.099999994039536 9.6561223864555341 12.873469367623327 8.6418367922306043 7.5919388085603705 31.12653061747551 8.0704081952571851 13.544183775782583 13.757653083652256 12.547959208488463 21.300408184528351 15.854693919420241 42.119693949818611 14.057142823934553 192.05673436075449 36.868469407781959 11.810408160090448 59.425510495901108 15.560204043984411 10.735714271664618
leaf_count=27 24 38 16 32 21 32 39 21 11 15 45 25 21 23 20 22 21 48 21 242 22 27 21 26 23
internal_value=-0.000236437 0.0309259 -0.0103668 -0.0384376 -0.0255688 -0.0305017 -0.0362814 -0.0255289 0.043493 0.0373875 0.0413655 0.027389 -0.0357242 0.0454977 0.04016 -0.0455447 -0.0413971 -0.0447054 0.0449692 0.0462144 -0.0463203 0.0463345 -0.0463345 0.0463345 0.0463345
internal_weight=814.875 448.783 104.714 366.092 130.249 111.439 92.3394 40.5636 344.069 85.0481 76.4062 15.6623 27.6901 259.021 30.6602 235.843 37.1551 51.7758 60.7439 228.361 198.688 214.603 161.819 46.6867 22.5461
internal_count=883 559 54 324 214 182 150 63 505 143 132 40 42 362 47 110 43 87 92 315 67 292 45 71 50
is_linear=0
shrinkage=0.0463345


Tree=5
num_leaves=27
num_cat=0
split_feature=84 18 84 53 41 25 45 84 75 36 80 73 45 45 47 66 66 75 47 27 25 58 57 7 2 58
split_gain=438.895 104.084 27.0524 16.2905 8.48515 8.73979 9.20132 2.78631 2.55457 3.80437 2.09054 1.27087 1.13904 2.18169 0.457324 0.358556 0.353387 0.566791 0.218706 0.153974 0.144034 0.389379 0.00885313 8.11568e-05 2.84217e-14 2.84217e-14
threshold=0.57906609773635875 1.0000000180025095e-35 0.0011328533873893323 0.31764923469387757 105.00000000000001 5.4500000000000011 4643.8347916666671 0.8586331605911256 32.350000000000009 3161.5000000000005 -53.700000000000038 155.70000000000002 4353.6666666666679 4210.5625000000009 8827.0000000000018 1281.2000000000003 736.05000000000007 38.150000000000013 8318.0000000000018 283.00000000000006 18.350000000000005 353.82862648061518 0.61098436697201186 0.068612210320797354 -0.8783796973249266 239.32767657071176
decision_type=2 2 2 2 2 2 2 2 2 2 2 2 2 2 2 2 2 2 2 2 2 2 2 2 2 2
left_child=1 8 -3 16 -5 6 -6 10 9 -1 -7 -11 13 15 -14 -10 23 -18 -9 -13 24 -22 -17 25 -16 -2
right_child=3 2 -4 4 5 7 -8 18 12 11 -12 19 14 -15 20 22 17 -19 -20 -21 21 -23 -24 -25 -26 -27
leaf_value=0.0020631371703190948 -0.020702644269200661 -1.990831203190581e-05 -0.0086351137968090561 -0.0014420465448001397 0.00051971064986155069 -0.0013515645475882701 -0.0061782398216205089 -0.0039779570005295519 0.010330565350620812 0.0058174574565883364 -0.0037858979388210095 0.016819603591101368 0.018818582650386041 0.00043208270013753207 0.022275774185137549 0.0063442416195260993 -0.015511081976791694 -0.0074993690827097467 -0.012446417056979037 0.0041884105584508186 0.010903346321631868 0.0045616812005698981 0.012871628354303968 -0.01334758913743464 0.022275774185137549 -0.018101946499333867
leaf_weight=13.118367314338682 102.39387726783752 66.973469495773315 37.740816116333008 18.809285521507263 13.085714265704153 16.440816462039951 19.32142847776413 10.486020401120184 5.4147959090769353 15.243673548102377 11.799285784363745 11.826734624803064 20.344489984214306 6.2683673352003089 20.67938768863678 6.0173469632864025 21.300408184528351 15.854693919420241 40.30612251162529 25.703469425439835 16.89285716414452 6.9765306115150443 11.303061231970785 36.868469407781959 184.27969361841679 59.425510495901108
leaf_count=30 24 38 16 32 37 27 19 35 25 27 18 19 38 13 27 19 22 21 46 34 28 19 29 22 197 21
internal_value=-0.000631329 0.0300812 -0.0103668 -0.0382811 -0.0251288 -0.0299874 -0.00972383 -0.0382965 0.0423912 0.034188 -0.0266289 0.0397388 0.0443343 0.035644 0.0453459 0.0423167 -0.0455447 -0.0413971 -0.0447837 0.0443213 0.0459377 0.0425314 0.0455701 -0.0463203 0.0463345 -0.0463345
internal_weight=814.875 448.783 104.714 366.092 130.249 111.439 32.4071 79.0322 344.069 65.8922 28.2401 52.7739 278.177 29.0036 249.173 22.7352 235.843 37.1551 50.7921 37.5302 228.828 23.8694 17.3204 198.688 204.959 161.819
internal_count=883 559 54 324 214 182 56 126 505 110 45 80 395 86 309 73 110 43 81 53 271 47 48 67 224 45
is_linear=0
shrinkage=0.0463345


Tree=6
num_leaves=25
num_cat=0
split_feature=84 18 84 53 26 6 41 84 35 43 79 82 43 83 2 73 77 74 80 66 75 73 7 26
split_gain=420.003 98.9575 27.0524 18.514 9.5937 13.2446 9.56303 5.06631 4.69663 4.74389 4.09466 2.33928 2.08179 2.01147 2.72084 1.21194 0.717341 0.830227 0.585387 0.470271 0.815148 0.187708 8.13565e-05 2.84217e-14
threshold=0.57906609773635875 1.0000000180025095e-35 0.0011328533873893323 0.33047619047619053 15.550000000000002 0.93568234840038345 105.00000000000001 0.028046057559549812 3892.0000000000005 -862.99999999999989 3794.8500000000008 2505.5000000000005 1167.3600000000004 2327.5000000000005 1.0000000180025095e-35 197.60000000000005 2.5000000000000004 1017.7500000000001 -225.29999999999993 736.05000000000007 41.250000000000007 180.60000000000002 0.068612210320797354 11.550000000000002
decision_type=2 2 2 2 2 2 2 2 2 2 2 2 2 2 2 2 2 2 2 2 2 2 2 2
left_child=1 7 -3 19 6 -6 -5 16 12 13 -8 -12 18 14 -10 -14 23 -18 -9 22 -21 -13 -2 -1
right_child=3 2 -4 4 5 -7 10 8 9 -11 11 21 15 -15 -16 -17 17 -19 -20 20 -22 -23 -24 -25
leaf_value=0.021243638321591717 -0.016532584362752799 -1.8985871237703992e-05 -0.0082350105024673256 -0.0015190386916950661 -0.0047309326030360258 2.6148795390866954e-05 -0.00093149922725903355 0.0016371884832384945 0.0012648786247045235 -0.00027568209065607365 -0.0054984312585323099 -0.0080611560463021998 0.0055479087340302184 0.0082755216413820248 0.0054162274886478071 0.0028217808648362441 0.014050415117078 0.019988068073296304 0.0071137698664809797 -0.014860542472636391 -0.0071518899010705322 -0.010885686330106031 -0.01272913586500864 0.021243638321591717
leaf_weight=102.60326521843672 163.98877549171448 66.973469495773315 37.740816116333008 15.334795743227003 16.886020377278331 11.095918416976927 10.579591855406759 10.101020425558088 8.5796939283609444 14.995918378233908 16.802040979266167 15.077551051974295 10.478571437299253 12.959183752536772 10.074489757418631 10.247959166765211 8.9265305399894732 8.4012244641780836 55.176530562341213 22.197346955537796 15.270000040531157 41.991122379899025 36.868469407781959 91.524387788027525
leaf_count=97 47 38 16 23 38 17 27 23 20 28 33 26 21 9 25 19 20 23 82 24 21 46 22 138
internal_value=-0.000971682 0.0290726 -0.0103668 -0.0378022 -0.0235713 0.000405012 -0.0302947 0.0410756 0.0339759 0.0221311 -0.0364071 -0.0402682 0.040395 0.032312 0.0225705 0.0276018 0.0455282 0.0364952 0.0444571 -0.0454315 -0.040666 -0.0447421 -0.0463205 0.0463345
internal_weight=814.875 448.783 104.714 366.092 127.767 27.9819 99.7851 344.069 132.613 46.6093 84.4503 73.8707 86.0041 31.6134 18.6542 20.7265 211.455 17.3278 65.2776 238.325 37.4673 57.0687 200.857 194.128
internal_count=883 559 54 324 210 55 155 505 227 82 132 105 145 54 45 40 278 43 105 114 45 72 69 235
is_linear=0
shrinkage=0.0463345


Tree=7
num_leaves=28
num_cat=0
split_feature=84 18 84 53 26 6 84 44 77 84 79 2 48 72 61 61 3 80 78 27 74 66 59 63 28 7 35
split_gain=400.329 95.8473 27.0524 22.0315 11.7206 10.4241 6.38833 5.8985 4.4176 4.24595 4.26511 3.4986 3.17509 1.35698 1.13223 0.784825 1.07703 0.778021 0.400913 0.734943 0.299498 0.245728 0.0328947 0.030764 0.00727239 8.06107e-05 2.84217e-14
threshold=0.57906609773635875 1.0000000180025095e-35 0.0011328533873893323 0.30054846938775515 15.550000000000002 0.93568234840038345 0.29677690565586096 -2479.3199999999997 2.5000000000000004 0.86464446783065807 4181.3000000000002 -1.0000000180025095e-35 1449.5000000000002 33.650000000000006 2417.8708327244522 1903.1222294491179 1.0000000180025095e-35 -90.599999999999895 3853.1500000000005 512.50000000000011 1028.1500000000003 736.05000000000007 358.78262991758828 4836.6265834288724 1.7999999999999992 0.068612210320797354 6378.4950000000008
decision_type=2 2 2 2 2 2 2 2 2 2 2 2 2 2 2 2 2 2 2 2 2 2 2 2 2 2 2
left_child=1 6 -3 21 7 -6 8 -5 15 10 -9 12 -10 18 17 16 22 -11 19 -13 23 25 -1 -17 -20 -2 -25
right_child=3 2 -4 4 5 -7 -8 9 11 14 -12 13 -14 -15 -16 20 -18 -19 24 -21 -22 -23 -24 26 -26 -27 -28
leaf_value=0.020259325911092394 -0.01573509235365322 -1.8106171235259698e-05 -0.0078534457763378938 -0.00091543126585601155 -0.0045117274177513926 2.4844357375586025e-05 0.0023604855035907688 -0.00063912844987018026 0.0022632647022613815 -0.0058824149252213109 -0.0033557136025141872 0.018609506698541098 -0.00023021228584322882 0.0050951779881603671 -0.011579557277893861 0.019456648225005622 0.014863319812498544 -0.0033435917979807361 0.003663292190517903 0.0064415299544019053 0.018646563658055181 -0.0092476705584839426 0.0069701822117515565 0.016502130185401902 0.010217211212379021 -0.012139338288097094 0.020259325911092394
leaf_weight=6.059183716773985 156.11938771605492 66.973469495773315 37.740816116333008 18.248979672789574 16.992142826318744 11.503061279654501 17.562244951725006 14.63061213493347 13.961224570870401 8.4010203778743726 23.382653042674065 6.6897958666086179 14.215203851461409 13.26632648706436 39.662755161523819 17.338775455951691 5.66479593142867 4.9060203880071631 20.274489790201187 5.5979592055082321 19.732244879007339 35.376530691981316 3.4551020637154579 93.859183847904205 12.131020590662954 36.868469407781959 94.261224210262299
leaf_count=19 42 38 16 22 39 19 29 27 28 29 31 20 24 23 39 24 25 18 26 20 35 36 22 93 22 22 95
internal_value=-0.000884302 0.0284478 -0.0103668 -0.0368419 -0.0222055 0.00425874 0.0402607 -0.0291091 0.041725 -0.0339313 -0.0221156 0.0327217 0.0193287 0.0392326 -0.0424107 0.0449513 0.0347536 -0.0307154 0.0430952 0.0359687 0.0456387 -0.0456692 0.0442771 0.0461623 0.0457975 -0.0463199 0.0463345
internal_weight=814.875 448.783 104.714 366.092 137.727 28.4952 344.069 109.232 326.507 90.9831 38.0133 86.136 28.1764 57.9596 52.9698 240.371 15.1791 13.307 44.6933 12.2878 225.191 228.364 9.51429 205.459 32.4055 192.988 188.12
internal_count=883 559 54 324 224 58 505 166 476 144 58 163 52 111 86 313 66 47 88 40 247 100 41 212 48 64 188
is_linear=0
shrinkage=0.0463345


Tree=8
num_leaves=28
num_cat=0
split_feature=84 18 84 53 35 63 68 84 61 84 35 82 50 82 53 60 63 43 77 74 78 61 80 56 37 63 7
split_gain=390.075 94.6274 27.0524 23.6647 14.5002 8.73314 10.8739 7.02519 5.47951 5.03651 4.7594 5.96856 3.98219 2.94048 2.70159 1.91551 1.56873 1.02588 0.663215 0.830227 0.198741 0.111048 0.317077 0.0616589 0.0610601 0.0426028 8.09499e-05
threshold=0.57906609773635875 1.0000000180025095e-35 0.0011328533873893323 0.28383928571428579 69.000000000000014 5219.4392294868931 3.4500000000000006 0.028046057559549812 2751.3457337399986 0.8412073850631715 3746.0000000000005 2240.0000000000005 3824.7657142857147 2287.5000000000005 0.75255102040816335 4079.9031845238101 4125.8517729424257 1167.3600000000004 2.5000000000000004 1017.7500000000001 4799.6000000000013 2013.8725161056711 -232.09999999999988 0.47779985827212462 2842.0000000000005 5512.0128519761283 -0.37672789363518483
decision_type=2 2 2 2 2 2 2 2 2 2 2 2 2 2 2 2 2 2 2 2 2 2 2 2 2 2 2
left_child=1 7 -3 20 -5 6 8 18 13 -8 15 -12 -13 -6 24 -9 -11 23 21 -20 26 22 -1 -17 -7 -24 -2
right_child=3 2 -4 4 5 14 9 10 -10 16 11 12 -14 -15 -16 17 -18 -19 19 -21 -22 -23 25 -25 -26 -27 -28
leaf_value=0.017216709293600196 -0.015024100720679379 -1.7267231653270774e-05 -0.0074895606439603583 0.00018837333005395466 0.00097996734240543277 -0.016370006068070399 -0.0012568007880838835 0.0034982361917504294 0.00045611029348993621 -0.0034383847037540612 -8.6322152622088417e-06 0.0020924751209236746 0.0079914725375829481 -0.0021863673512753368 -0.0040245371641549794 0.0035322557140288879 -0.010657252401713575 0.0048093126742231257 0.013100932003885133 0.018588522910014654 -0.011884867099827228 0.019320621079991475 0.017412703117521088 0.008530603221959766 -0.0093231440229432968 0.019570642083435955 -0.010753489336721626
leaf_weight=2.7040816396474865 150.78265312314034 66.973469495773315 37.740816116333008 11.282653033733366 5.6458163410425204 17.416326403617859 15.941836580634115 11.566326558589934 7.3734693527221671 12.842142894864081 17.085714355111122 13.686734631657599 23.97561226785183 6.3295918703079224 19.446224495768547 11.617347016930578 21.677755191922188 17.431632667779922 8.9265305399894732 8.4012244641780836 35.023469373583794 173.84959179162979 4.5607142932713058 37.249999910593033 25.796938925981522 13.013265281915663 36.532755112275481
leaf_count=6 42 38 16 7 26 19 29 36 5 38 39 23 33 25 30 19 28 28 20 23 28 178 26 49 24 25 23
internal_value=-0.000753986 0.0282001 -0.0103668 -0.0362481 -0.0215973 -0.025892 -0.014621 0.0399375 0.0149108 -0.0259446 0.0315771 0.0211089 0.0314132 -0.00443726 -0.0384494 0.0389375 -0.0358923 0.0419729 0.0451807 0.0364952 -0.0457205 0.045956 0.0427112 0.0454153 -0.0449034 0.0449839 -0.0463195
internal_weight=814.875 448.783 104.714 366.092 143.753 132.47 69.8106 344.069 19.3489 50.4617 132.613 54.7481 37.6623 11.9754 62.6595 77.8653 34.5199 66.299 211.455 17.3278 222.339 194.128 20.2781 48.8673 43.2133 17.574 187.315
internal_count=883 559 54 324 231 224 151 505 56 95 227 95 56 51 73 132 66 96 278 43 93 235 57 68 43 51 65
is_linear=0
shrinkage=0.0463345


Tree=9
num_leaves=32
num_cat=0
split_feature=84 18 53 79 63 68 61 77 54 73 84 42 26 81 84 51 61 41 83 51 47 19 43 68 48 81 7 35 81 4 26
split_gain=380.826 84.488 29.8701 25.3467 15.6116 18.6147 8.86115 7.87996 6.39358 5.66846 4.43419 3.67014 4.6609 2.01492 2.00841 1.73539 1.52534 1.72643 1.34508 1.15472 0.332545 0.290745 0.671205 0.249747 0.195728 0.0683372 8.00259e-05 2.84217e-14 2.84217e-14 7.10543e-15 3.55271e-15
threshold=0.35250033438205725 1.0000000180025095e-35 0.28383928571428579 4990.5000000000009 4970.4605379533014 4.7500000000000009 2751.3457337399986 2.5000000000000004 0.66786352040816344 274.20000000000005 0.8412073850631715 4093.5000000000005 10.750000000000002 436.70000000000033 0.97229135036468517 2828.8928571428573 1903.1222294491179 4297.0000000000009 619.85000000000002 3781.3007142857145 8952.0500000000011 1.0000000180025095e-35 -612.49999999999989 10.450000000000001 1460.0000000000002 -97.349999999999667 0.085727341951035305 6876.3150000000014 -89.950000000000259 0.25000000000000011 8.7000000000000011
decision_type=2 2 2 2 2 2 2 2 2 2 2 2 2 2 2 2 2 2 2 2 2 2 2 2 2 2 2 2 2 2 2
left_child=1 7 23 -3 5 6 14 16 24 -10 -7 12 -9 18 -4 -12 17 19 -13 -1 -20 22 -18 26 -6 -24 28 -23 -2 -27 -22
right_child=2 3 4 -5 8 10 -8 11 9 -11 15 13 -14 -15 -16 -17 21 -19 20 -21 30 27 25 -25 -26 29 -28 -29 -30 -31 -32
leaf_value=0.0099989193346100014 -0.014299632396164623 -0.0071944947254075596 0.000180773618846193 0.00091409368963414649 -0.013749388213516062 -0.00034005569337328747 0.00034087358342318845 -8.2322462698866061e-06 -0.0096980147669417857 0.00042743621667645001 -0.0049216608906626491 0.0067771322762206227 0.0046362588081652004 0.0040608813558037646 -0.0056136441540557049 -0.0027064304553873907 0.01842541062593939 0.018663847042372433 0.0043348751745702074 -0.00020222491725839479 0.0035803573579726478 0.015035162758853748 0.016143473314714343 -0.010853689336643409 -0.009578867619389083 0.018413826038927956 -0.011128289700392093 0.01842541062593939 -0.014304061646432839 0.018599498243393943 0.0094371899061566206
leaf_weight=4.0790816955268365 50.626530766487122 48.085714101791382 7.555102080106737 54.763265371322632 31.072448968887329 17.104081615805626 17.196938753128052 16.318367287516597 19.667346924543384 11.489081636071203 16.861428603529934 14.426530525088308 13.854081571102141 9.7204082012176496 4.1254081726074219 11.914591908454893 18.072448968887329 7.459183655679225 10.507142931222914 4.0030612647533417 13.588061183691027 107.95367333292961 8.7397958934307081 38.481224566698074 16.689795970916748 25.521428644657135 36.866428663954139 52.293877482414246 99.691224187612534 14.489795893430708 11.657142907381056
leaf_count=23 17 22 31 31 25 27 13 30 28 23 27 37 27 18 23 30 38 23 19 22 18 73 20 27 20 57 22 32 29 28 23
internal_value=-0.000950678 0.0286108 -0.0348911 -0.00809262 -0.0191354 -0.00396189 0.0251813 0.0399577 -0.033509 -0.0171801 -0.0223049 0.0282543 0.0150761 0.0348924 -0.00596196 -0.0334103 0.0443026 0.0302594 0.0386327 0.0154234 0.0434516 0.0452638 0.0426963 -0.0456206 -0.0441606 0.0455237 -0.0463195 0.0463345 -0.0463345 0.0463345 0.0463345
internal_weight=814.875 435.533 379.342 102.849 153.676 74.7576 28.8774 332.684 78.9187 31.1564 45.8801 90.0717 30.1724 59.8993 11.6805 28.776 242.612 15.5413 50.1789 8.08214 35.7523 227.071 66.8235 225.665 47.7622 48.751 187.184 160.248 150.318 40.0112 25.2452
internal_count=883 541 342 53 247 151 67 488 96 51 84 172 57 115 54 57 316 68 97 45 60 248 143 95 45 105 68 105 46 85 41
is_linear=0
shrinkage=0.0463345


Tree=10
num_leaves=33
num_cat=0
split_feature=84 18 79 84 46 68 61 47 84 9 2 26 79 75 83 66 78 12 57 59 5 7 36 35 69 81 61 6 50 50 44 6
split_gain=356.808 72.6893 28.6258 27.665 14.2571 9.21379 8.3504 7.62162 7.88164 7.32811 5.61138 4.53715 4.24599 3.09437 3.97517 3.75115 3.09095 5.25596 2.99948 2.96218 2.77684 1.86042 1.43456 1.1858 2.12448 1.16322 0.508799 0.50894 0.0761869 0.0327118 2.84217e-14 7.10543e-15
threshold=0.83787092566490184 1.0000000180025095e-35 4990.5000000000009 0.50738556683063518 2587.0210518251547 4.2500000000000009 2879.7951450373052 9288.5000000000018 0.091121278703212752 -0.088795895322935095 -1.0000000180025095e-35 9.2500000000000018 4967.2500000000009 48.150000000000013 929.10000000000002 525.05000000000007 4870.3000000000011 1.0000000180025095e-35 0.65944388965522072 352.80217047106868 -0.24999999999999994 -0.99374406038856444 1999.5000000000002 6876.6500000000005 91.740000000000023 -105.74999999999999 1917.1971490705303 0.49254806795386441 6069.907857142859 2206.0000000000005 959.01499999999999 0.79462857753386984
decision_type=2 2 2 2 2 2 2 2 2 2 2 2 2 2 2 2 2 2 2 2 2 2 2 2 2 2 2 2 2 2 2 2
left_child=1 3 -3 7 5 9 11 8 13 -2 12 -5 -10 14 15 -1 29 -18 -12 -11 -13 -15 -7 26 -25 -9 27 -23 31 -6 -27 -28
right_child=4 2 -4 6 16 22 -8 25 10 19 18 20 -14 21 -16 -17 17 -19 -20 -21 -22 23 -24 24 -26 30 28 -29 -30 -31 -32 -33
leaf_value=-0.00052497909419993872 0.00016709858438217144 -0.007092999584783901 0.00087173965641981256 -0.0022405382467796976 -0.013641290741280456 -0.008017757077432356 1.2435713154231529e-05 0.013533975929257397 0.0049796824312535364 -0.0076572701029972269 0.0011613565631244109 -0.0012183726324117431 -0.00030974399679150726 0.0024523308795999549 0.008519144748593133 0.0092076278608482515 -0.0069824460617793366 -0.010738126271608205 0.0048121875783257006 0.0005970597864647342 0.0013154938068766257 0.017813617251020292 -0.0034086451105993071 0.017571679260666394 0.017572216026195596 0.015864057042729158 0.016127500485819183 0.0035483488072290195 0.017737700623189436 -0.0096448217937154575 0.017571679260666394 0.016985942538447769
leaf_weight=6.8051019906997743 10.295918449759485 53.869387626647949 54.763265371322632 11.182653039693834 177.57142868638039 13.288775429129602 21.689795881509781 29.08163258433342 8.5887754857540148 5.9183672424405795 11.111224561929705 8.9510204046964663 11.768367335200308 2.8204081058502188 9.9191836565732938 10.739285774528978 22.52673476934433 29.609183639287949 15.637755095958708 4.4581632912158966 7.9724490344524375 5.4943877868354303 12.684285700321196 10.908163279294969 11.106122493743895 91.647958993911743 45.423061400651932 3.3224489986896515 9.6316326558589918 39.518367350101471 45.293877482414246 11.275510132312773
leaf_count=19 13 24 31 18 56 23 17 18 24 17 24 20 18 6 18 29 21 31 37 24 22 24 39 23 24 61 87 18 20 28 29 20
internal_value=-0.000999184 0.0233946 -0.0101286 0.0327235 -0.0395357 -0.0158864 0.000465243 0.03744 0.03068 0.00719615 0.0144853 -0.0162029 -0.00384611 0.0366659 0.0228903 0.00963555 -0.0436331 -0.0335024 0.0284363 -0.0202835 -0.00107001 0.0404499 -0.0342583 0.0415267 0.0320694 0.0445472 0.0442972 0.0338399 0.0456872 -0.0460661 0.0463345 0.0463345
internal_weight=814.875 499.003 108.633 390.371 315.871 46.6455 49.7959 340.575 174.551 20.6724 47.1061 28.1061 20.3571 127.445 27.4636 17.5444 269.226 52.1359 26.749 10.3765 16.9235 99.9817 25.9731 97.1613 22.0143 166.023 75.147 8.81684 66.3302 217.09 136.942 56.6986
internal_count=883 631 55 576 252 116 77 499 391 54 103 60 42 288 66 48 136 52 61 41 42 222 62 216 47 108 169 42 127 84 90 107
is_linear=0
shrinkage=0.0463345


Tree=11
num_leaves=36
num_cat=0
split_feature=84 54 63 84 54 73 35 63 68 34 37 67 43 62 58 54 46 66 8 84 84 82 50 84 49 75 77 42 61 78 69 9 7 6 25
split_gain=340.837 71.961 24.4444 28.8964 14.7881 14.4099 12.9916 8.51393 7.78654 7.19799 5.33473 6.86662 6.63712 5.17376 3.8264 3.75239 3.43102 3.43098 3.34563 3.00736 2.91825 4.51952 2.5686 3.30878 2.54893 2.76464 1.47021 1.38083 1.06291 0.431697 0.123939 0.0693954 0.004697 1.42109e-14 7.10543e-15
threshold=0.8412073850631715 0.20196710884353744 7734.1827173213242 0.073831945657730116 0.36257971938775513 170.70000000000002 99.500000000000014 4776.1183813307207 6.9500000000000011 2518.6500000000005 774.50000000000011 12817681.500000002 201.50000000000003 4305.8326106075938 322.28948329227143 0.48903698979591836 2931.6101589198511 990.45000000000039 0.58272345581112295 0.30695639550685888 0.012232921086251737 3168.5000000000005 6207.8021428571437 0.00059900604537688207 3884.0750000000003 53.500000000000007 5.5000000000000009 4607.5000000000009 3275.2427519475691 4602.0000000000009 75.175000000000011 -0.14738725703201683 -0.36874934642598389 -0.9092740615363033 -2.7499999999999996
decision_type=2 2 2 2 2 2 2 2 2 2 2 2 2 2 2 2 2 2 2 2 2 2 2 2 2 2 2 2 2 2 2 2 2 2 2
left_child=1 -1 3 16 29 -4 -6 8 13 15 -11 12 18 -8 -13 -5 20 -14 -12 -17 22 24 30 -24 31 -26 -10 -27 -9 32 -3 -22 -2 -18 -32
right_child=4 2 5 9 6 -7 7 28 26 10 11 14 17 -15 -16 19 33 -19 -20 -21 21 -23 23 -25 25 27 -28 -29 -30 -31 34 -33 -34 -35 -36
leaf_value=-0.0064836216803130691 -0.013076754960364131 0.016758041838716226 0.017287974871116572 0.0039970023957639472 0.00013461757050058212 -0.0062657204003995371 -0.0027769327191602116 -0.0049096397365142822 -0.0076462586704168231 0.0011217679310298121 -5.2194969113956094e-06 0.0026292937712774581 -0.000171348551216922 0.00048023819275294644 0.00035793878911961083 0.0058445240238174804 0.017699986287786986 -0.00040807708720594674 0.0010260114477866949 -0.0001338705181153453 0.004131808231292439 -7.7107479478798441e-05 0.016863212524822837 0.010976440611960856 -0.00039741051634748431 0.0085505441961546743 -0.0028989522852655562 0.016824420310094301 -0.012611472271769899 -0.011219162906181464 0.014338199013803055 0.012254886827470028 -0.010163925009129623 0.016836626818535681 0.017002424630091644
leaf_weight=30.406122207641602 145.81938776373863 14.988265264779328 35.159183740615845 21.64183659106493 8.7346938848495466 35.595918416976929 8.140816316008566 17.57071428000927 9.4869388490915298 12.851020336151121 12.504081659018995 15.596938923001291 12.24387761950493 7.8418367505073538 12.911326393485067 10.126530587673189 26.392857134342194 13.082653149962423 10.696938857436178 9.4510204493999463 12.774489745497705 8.1316326260566694 14.082653105258943 11.692857116460798 7.3361224085092571 7.9887756034731892 9.0747959017753601 9.4561224281787855 31.499387592077255 38.682143025100231 27.668979562819004 9.7193878889083845 37.803163228556514 90.817142635583878 26.9040816873312
leaf_count=11 37 34 20 21 5 20 38 36 21 18 21 24 25 8 23 22 21 18 25 19 22 14 20 22 20 23 19 24 20 38 41 22 27 62 42
internal_value=-0.00102077 0.0227459 0.0272167 0.031667 -0.0388038 0.00211692 -0.023219 -0.0288359 -0.0112142 0.0138422 0.00649031 0.00187995 -0.00872285 0.0124925 0.0199283 0.0298745 0.0403885 -0.0251237 0.00918049 0.0151759 0.0357652 0.0273086 0.0406799 0.0281859 0.032797 0.0225466 -0.031627 0.0325826 -0.0412413 -0.045278 0.0453095 0.0440896 -0.0462151 0.0463345 0.0463345
internal_weight=814.875 500.221 469.815 399.06 314.654 70.7551 92.3492 83.6145 34.5444 131.106 89.8868 77.0358 48.5276 15.9827 28.5083 41.2194 267.953 25.3265 23.201 19.5776 150.743 55.4065 95.3368 25.7755 47.2749 24.781 18.5617 17.4449 49.0701 222.305 69.5613 22.4939 183.623 117.21 54.5731
internal_count=883 634 623 583 249 40 147 142 86 216 154 136 89 46 47 62 367 43 46 41 284 125 159 42 111 67 40 47 56 102 117 44 64 83 83
is_linear=0
shrinkage=0.0463345


Tree=12
num_leaves=36
num_cat=0
split_feature=84 54 60 53 73 84 35 63 75 42 48 41 62 9 80 80 80 54 57 56 35 73 27 44 2 79 61 81 83 75 43 73 58 6 2
split_gain=329.065 64.8747 26.1679 24.1174 16.271 16.2239 13.2623 8.92459 6.65833 6.90867 6.43332 5.46865 5.20791 4.23245 4.02846 3.65131 5.10927 3.08456 2.52632 2.0474 2.03192 1.82328 3.28971 1.76236 1.61471 1.49441 0.899418 0.703448 0.405258 0.909914 0.0913065 0.0912607 0.00494405 1.42109e-14 3.55271e-15
threshold=0.72003409266471874 0.20196710884353744 7795.417827380953 0.26500416326530618 179.85000000000002 0.028046057559549812 69.000000000000014 5219.4392294868931 92.700000000000003 3994.0000000000005 51.500000000000007 99.000000000000014 5228.4431527636707 0.029633327822559546 -239.0499999999997 -46.299999999999947 -176.99999999999997 0.64055829081632665 0.66085358876172318 0.67278397176629112 4624.5000000000009 270.90000000000003 152.50000000000003 -325.49999999999994 -0.60785761079279388 4209.4500000000007 2265.7110969554983 137.70000000000007 867.10000000000014 81.15000000000002 444.50000000000006 191.15000000000003 324.49284291798881 -0.97516411509186662 1.0000000180025095e-35
decision_type=2 2 2 2 2 2 2 2 2 2 2 2 2 2 2 2 2 2 2 2 2 2 2 2 2 2 2 2 2 2 2 2 2 2 2
left_child=1 -1 5 27 -4 21 -5 10 9 12 -8 -12 -7 14 -13 16 -11 -9 -10 -19 30 28 26 -15 -16 -17 -23 32 29 -3 -20 34 -2 -30 -31
right_child=3 2 4 6 -6 8 7 17 18 15 11 13 -14 23 24 25 -18 19 20 -21 -22 22 -24 -25 -26 -27 -28 -29 33 31 -32 -33 -34 -35 -36
leaf_value=-0.0065827917561203098 -0.011770387607578472 0.016543993567823018 0.015030812626353567 0.00015398849410486792 -0.0043552745429895935 0.0024429225440274092 -0.012703414412517704 -0.0088776906112504016 0.0060368653078718432 0.0036764545998016229 0.00012678182467285823 0.0002900589973359644 -0.00016340920942759817 -0.00041100418183788603 -0.0069758798718032788 0.005573721186609603 -8.047878732918931e-05 -0.0026365753825941694 0.0075076610115937734 -0.023004788654677186 0.0060676665965483283 0.016214626545854417 0.0086088087163759004 0.00097110468247610686 -0.0012297961190222597 0.0020755833530954866 0.012328450837585403 -0.010998920197232281 0.017219069738219947 0.016093127560973291 0.0091797689604223697 0.016234814153326563 -0.012367205446575314 0.016056510885588998 0.01613448615914061
leaf_weight=26.487754821777344 134.9014286082238 11.740816354751585 38.714285731315613 11.483673438429831 39.028571486473083 16.538775488734249 11.816734746098517 35.22653067111969 14.788775652647017 14.39489793777466 12.618367254734038 11.156122505664817 11.895918428897856 5.3265306055545807 10.87448985874652 9.9693876504898089 14.642959237098692 13.508469358086588 20.736734613776207 10.400000005960463 14.432653218507765 15.022448956966398 17.719795748591423 4.2397959232330305 10.880612224340455 14.515306025743483 31.050204068422318 38.618061266839504 3.7714285850524893 11.167857069522144 13.002040818333624 9.9653061777353269 43.146938741207123 97.058367326855659 14.032653123140333
leaf_count=10 36 26 22 8 22 36 16 25 31 28 14 32 19 24 19 23 24 31 24 9 20 38 27 16 21 20 27 27 4 25 23 26 25 82 23
internal_value=-0.0017545 0.0240636 0.0283582 -0.035334 0.00400169 0.0336705 -0.0201586 -0.0245016 0.0217276 0.0130227 -0.0129112 -0.00625756 -0.0054339 -0.0142138 -0.0220991 0.0228281 0.0117152 -0.0376164 0.0330591 -0.0247713 0.0382018 0.0418525 0.0353061 0.0129143 -0.0337077 0.0360074 0.0418315 -0.0449668 0.0446793 0.0411213 0.0444258 0.0448501 -0.0461964 0.0463345 0.0463345
internal_weight=814.875 460.677 434.189 354.198 77.7429 356.446 137.531 126.048 144.917 81.9572 66.9127 55.0959 28.4347 42.4776 32.9112 53.5226 29.0379 59.135 62.9602 23.9085 48.1714 211.529 63.7924 9.56633 21.7551 24.4847 46.0727 216.666 147.736 46.9066 33.7388 35.1658 178.048 100.83 25.2005
internal_count=883 580 570 303 44 526 215 207 248 150 142 126 55 112 72 95 52 65 98 40 67 278 92 40 40 43 65 88 186 100 47 74 61 86 48
is_linear=0
shrinkage=0.0463345


Tree=13
num_leaves=33
num_cat=0
split_feature=84 18 53 6 35 84 84 41 7 34 79 73 60 7 58 61 75 61 68 57 59 73 69 41 81 83 75 66 73 58 6 2
split_gain=331.31 62.0883 28.7628 19.9991 12.0309 11.2449 10.4698 7.18026 7.46437 6.23563 9.05367 4.62572 3.87063 3.11971 2.89342 2.876 2.4935 2.07881 3.64805 2.05493 1.98718 1.79401 3.455 3.41721 1.59578 0.403024 0.909914 0.099045 0.0912607 0.00494405 1.42109e-14 3.55271e-15
threshold=0.50738556683063518 1.0000000180025095e-35 0.26500416326530618 0.64056958004474651 69.000000000000014 0.91268831491470348 0.028046057559549812 398.00000000000006 -0.17928075881073577 3789.5000000000005 4967.2500000000009 240.85000000000002 4267.0443750000004 0.34470738398793405 288.75157403541317 2735.9419250363285 63.20000000000001 2744.1702649367739 11.750000000000002 0.6752770282322359 329.4400435146469 270.90000000000003 81.120000000000019 4965.0000000000009 137.70000000000007 867.10000000000014 81.15000000000002 462.75000000000006 191.15000000000003 324.49284291798881 -0.96699210069650898 1.0000000180025095e-35
decision_type=2 2 2 2 2 2 2 2 2 2 2 2 2 2 2 2 2 2 2 2 2 2 2 2 2 2 2 2 2 2 2 2
left_child=1 6 24 -3 -4 7 21 -6 14 13 15 -10 16 17 -9 -11 -7 18 20 -16 -8 25 23 -23 29 26 -1 -24 31 -2 -27 -28
right_child=2 3 4 -5 5 12 9 8 11 10 -12 -13 -14 -15 19 -17 -18 -19 -20 -21 -22 22 27 -25 -26 30 28 -29 -30 -31 -32 -33
leaf_value=0.015777436637154606 -0.011225013108957332 0.010940863805073189 0.00014685352110603556 -0.0062466982011804978 0.00012153666875695664 -0.0058932265271655964 0.0043649572355117508 -0.0075008246865329673 -0.0016399289904871612 0.0041247257146864863 -0.00015995594429823911 0.00051977588795882376 -0.012628771985659714 0.012080715913410226 -3.1346274296562869e-06 0.0034373876334037406 0.00032954467177761544 0.0088681611070468742 0.0035044889509055141 -0.0019859537406616426 0.00041539495965013651 0.0011723074303286443 0.015342368437395094 0.013102614317913971 -0.010489291220861334 0.00070427718380927781 0.015347461261151453 0.015894731846627166 0.015482582882422864 -0.011794177718463117 0.015312541199476466 0.015386903531200178
leaf_weight=11.740816354751585 134.9014286082238 41.951020479202271 11.483673438429831 62.763265132904053 17.392857044935226 11.110408291220667 8.8479592949152011 17.690816313028336 17.098979622125629 12.41836726665497 20.950102239847183 11.969387814402578 40.402040719985962 14.380612254142759 8.9928572028875369 12.174489766359327 6.7359182983636847 28.213265269994736 21.18265300989151 10.042142942547796 10.952040702104567 15.085101917386055 26.060000121593475 13.44122439622879 38.618061266839504 5.6989795565605155 11.167857069522144 10.863265216350554 9.9653061777353269 43.146938741207123 93.400204077363014 14.032653123140333
leaf_count=26 36 24 8 30 22 29 20 23 26 38 30 20 37 26 16 15 34 32 35 27 25 26 27 14 27 6 25 26 26 25 79 23
internal_value=-0.00105581 0.0258603 -0.0334853 -0.00534232 -0.0180992 -0.0218024 0.035454 -0.01087 -0.0178691 0.0250576 0.0112639 -0.000326929 -0.0374155 0.0325741 -0.0317536 0.0303315 -0.0194442 0.0366551 0.0299917 -0.0192158 0.0156932 0.0418022 0.0354278 0.0233162 -0.0443445 0.0446596 0.0411213 0.0447851 0.0448501 -0.0461964 0.0463345 0.0463345
internal_weight=814.875 445.289 369.586 104.714 152.919 141.435 340.575 83.187 65.7942 129.119 45.543 29.0684 58.2484 83.5765 36.7258 24.5929 17.8463 69.1959 40.9827 19.035 19.8 211.455 65.4496 28.5263 216.666 146.006 46.9066 36.9233 35.1658 178.048 99.0992 25.2005
internal_count=883 553 330 54 242 234 499 134 112 221 83 46 100 138 66 53 63 112 80 43 45 278 93 40 88 185 100 53 74 61 85 48
is_linear=0
shrinkage=0.0463345


Tree=14
num_leaves=31
num_cat=0
split_feature=84 18 53 84 84 63 68 34 61 79 36 6 2 26 81 19 62 68 51 69 54 82 81 59 79 61 57 26 28 58
split_gain=317.96 52.5026 30.1994 22.0679 15.6528 12.0312 12.954 7.81474 6.78196 5.49978 8.24328 4.96731 5.13994 4.54855 4.23142 2.93295 2.37854 2.61228 1.93668 1.92326 3.7727 1.77637 1.59578 1.3474 0.972871 1.06389 0.250277 0.0396656 0.0130303 0.00494405
threshold=0.50738556683063518 1.0000000180025095e-35 0.26500416326530618 0.0011328533873893323 0.028046057559549812 4970.4605379533014 4.7500000000000009 4511.5000000000009 2751.3457337399986 5135.9500000000016 3220.0000000000005 -0.96247800481268297 -0.60785761079279388 15.900000000000002 277.90000000000015 1.0000000180025095e-35 4614.1433512883968 7.2500000000000009 3903.5250000000001 81.02500000000002 0.97391887755102047 2430.5000000000005 137.70000000000007 343.47758024925196 4209.4500000000007 2780.9020192920639 0.77445336059995762 15.550000000000002 20.350000000000005 324.49284291798881
decision_type=2 2 2 2 2 2 2 2 2 2 2 2 2 2 2 2 2 2 2 2 2 2 2 2 2 2 2 2 2 2
left_child=1 4 22 -3 19 6 8 15 21 13 -11 -8 -13 16 -14 18 17 -6 -7 20 23 -4 29 28 25 -18 -21 -28 -1 -2
right_child=2 3 5 -5 9 7 11 -9 -10 10 -12 12 14 -15 -16 -17 24 -19 -20 26 -22 -23 -24 -25 -26 -27 27 -29 -30 -31
leaf_value=0.015008788528006399 -0.010704908240671452 0.00079646173844154569 0.00043594203204022717 -0.0055887591721832507 0.00039614786045494207 -0.0047877154327060105 -0.008101639179293187 -0.00059441166290327978 0.00013826505287722817 -0.00019571827321005197 0.0021478310514205941 -0.0084485874846076791 -0.001725992750397081 0.0037609158206038645 0.00048484316168784811 -0.011272366115653657 0.004371405368413744 0.0067488962134224419 -0.0024223930134991988 0.014666128477561931 0.015345525932175435 -0.0020862151778289436 -0.010003275625522305 0.014591402017017936 0.0073592483500524416 0.011525072673877283 0.014603042943539413 0.014631488152635585 0.014839894792361178 -0.011247700918012297
leaf_weight=35.460203990340233 134.9014286082238 66.973469495773315 5.0254081785678881 37.740816116333008 9.3969388157129305 8.8989795446395892 11.251224517822264 20.786734879016876 18.54387754201889 24.279591858386993 26.649081625044346 10.741122454404829 7.7408163398504284 16.243877582252026 15.352040782570837 38.179591774940491 9.5428571552038211 8.6336734443902952 10.730918303132055 17.365306228399277 23.492448776960373 5.6683673709630966 38.618061266839504 14.376938723027704 24.830612242221832 9.5428570806980115 92.908163376152515 15.694897972047327 12.157448943704365 43.146938741207123
leaf_count=41 36 38 28 16 25 19 9 26 13 34 39 26 22 34 27 23 30 16 26 33 26 23 27 29 31 12 95 31 23 25
internal_value=-0.00144804 0.0249202 -0.0332174 -0.00377286 0.0337423 -0.0174518 -0.00408684 -0.03009 0.0199341 0.0210304 0.00918156 -0.0196644 -0.0107954 0.0287481 0.00152121 -0.038851 0.0344707 0.0203012 -0.024296 0.0415044 0.0361403 -0.00945223 -0.0443445 0.0421323 0.0402883 0.0324222 0.0451447 0.0459705 0.0458857 -0.0461964
internal_weight=814.875 445.289 369.586 104.714 340.575 152.919 74.3229 78.5962 29.2377 129.119 50.9287 45.0852 33.834 78.1908 23.0929 57.8095 61.9469 18.0306 19.6299 211.455 85.487 10.6938 216.666 61.9946 43.9163 19.0857 125.968 108.603 47.6177 178.048
internal_count=883 553 330 54 499 242 148 94 64 221 73 84 75 148 49 68 114 41 45 278 119 51 88 93 73 42 159 126 64 61
is_linear=0
shrinkage=0.0463345


Tree=15
num_leaves=33
num_cat=0
split_feature=84 18 53 38 84 35 84 41 47 80 75 42 80 80 54 43 60 73 69 78 75 61 46 81 76 75 61 82 82 69 58 7
split_gain=322.102 45.0104 26.5231 18.638 16.3984 12.2635 10.8508 8.74385 7.10828 6.278 4.87198 6.55404 4.94101 5.36679 4.6946 4.39895 3.84749 2.89299 5.04699 4.07103 2.4935 2.31909 1.70046 1.59578 0.918984 0.835241 0.598952 0.201258 0.148931 0.250571 0.00494405 1.42109e-14
threshold=0.72003409266471874 1.0000000180025095e-35 0.26500416326530618 0.5550857142857144 0.028046057559549812 69.000000000000014 0.91490504145622265 398.00000000000006 10999.500000000002 -242.95000000000024 95.300000000000026 3994.0000000000005 -47.950000000000266 -176.99999999999997 0.66786352040816344 201.50000000000003 4267.0443750000004 270.90000000000003 81.120000000000019 4725.1000000000013 63.20000000000001 2298.5229036934702 2679.2580908776195 137.70000000000007 22.750000000000004 50.600000000000009 2680.3149011299588 1451.0000000000002 1141.0000000000002 92.390000000000015 324.49284291798881 0.85728304567511382
decision_type=2 2 2 2 2 2 2 2 2 2 2 2 2 2 2 2 2 2 2 2 2 2 2 2 2 2 2 2 2 2 2 2
left_child=1 4 23 -3 17 -4 7 -7 10 -9 11 15 13 -13 26 -6 20 25 19 -19 -8 -12 -23 30 -14 -1 -11 -20 29 -27 -2 -30
right_child=2 3 5 -5 8 6 16 9 -10 14 21 12 24 -15 -16 -17 -18 18 27 -21 -22 22 -24 -25 -26 28 -28 -29 31 -31 -32 -33
leaf_value=0.013505799167290203 -0.01020890214816329 -0.0057749483840975786 0.00013364270728087425 0.015246658870150444 0.00054900108212466105 0.0001043273143301274 -0.0055401941520287021 0.00046955318948881575 0.0038719397277675602 -0.0020180043191245821 0.00074163698697954535 0.002935702739971284 0.0079042408060911815 -0.00047860319333419715 -0.0017416727832544054 -0.00063056318981163614 -0.011818129128264529 0.0090181864701298579 0.014074508338015152 0.00417264504882055 0.00039424833287346646 0.0039204385225307123 0.0035866558345777847 -0.0095397792980669791 0.0019481916328392712 0.013800235386776841 -0.0065973976572306714 0.011420209965642705 0.014178390408835017 0.013989641814531249 -0.01072654482245161 0.013799139760640898
leaf_weight=19.035714402794838 134.9014286082238 67.775510191917419 11.483673438429831 36.938775420188904 17.462245017290119 14.464285612106321 11.110408291220667 12.483673587441443 35.891836762428284 11.878571406006815 8.6673470288515073 12.888775497674944 10.509183645248413 12.264387786388395 16.065612271428108 10.751020282506941 39.776530534029007 14.389795802533628 12.988775469362734 14.136530511081217 6.7359182983636847 14.16734689474106 12.486734658479689 38.618061266839504 9.418367326259613 9.7413265593349951 13.532653152942656 23.934489868581295 57.905102118849754 13.402040831744669 43.146938741207123 45.921632446348667
leaf_count=28 36 33 8 21 37 17 29 23 23 29 33 28 33 22 29 21 35 22 27 18 34 20 21 27 10 21 11 26 68 29 25 39
internal_value=-0.0010203 0.0245232 -0.0342427 -0.00217991 0.0323785 -0.0183283 -0.0225046 -0.0100291 0.0203484 -0.0186046 0.0144411 0.00762871 0.0185899 0.00493624 -0.0272751 -0.0098856 -0.0373187 0.0405997 0.032505 0.0178666 -0.0194442 0.028577 0.0353473 -0.0443445 0.0358238 0.0442283 -0.0396698 0.0438144 0.0455852 0.0422241 -0.0461964 0.0463345
internal_weight=814.875 460.677 354.198 104.714 355.963 137.531 126.048 68.4248 144.507 53.9605 108.615 73.294 45.0807 25.1532 41.4768 28.2133 57.6229 211.455 65.4496 28.5263 17.8463 35.3214 26.6541 216.666 19.9276 146.006 25.4112 36.9233 126.97 23.1434 178.048 103.827
internal_count=883 580 303 54 526 215 207 109 248 92 225 151 93 50 69 58 98 278 93 40 63 74 41 88 43 185 40 53 157 50 61 107
is_linear=0
shrinkage=0.0463345


Tree=16
num_leaves=33
num_cat=0
split_feature=84 54 38 46 63 27 73 68 43 84 54 59 80 80 26 68 75 20 6 36 46 63 79 45 46 78 79 26 55 78 41 37
split_gain=303.991 46.2748 22.6604 16.9808 16.3029 8.99918 8.82868 8.28641 8.74463 7.78723 5.93337 9.72289 5.8385 6.04872 5.82925 5.58412 4.91367 4.70919 5.48496 4.53687 3.10466 2.55828 3.98657 2.46413 2.37863 2.36776 2.27646 1.10456 0.311112 0.282598 0.178003 1.42109e-14
threshold=0.8412073850631715 0.20196710884353744 0.83080357142857164 2787.3005449710413 7734.1827173213242 224.35000000000002 261.30000000000007 4.2500000000000009 -1029.9999999999998 0.073831945657730116 0.71138099489795936 284.99368472958207 -46.299999999999947 -114.49999999999976 8.7000000000000011 -10.649999999999999 20.500000000000004 1.0000000180025095e-35 -0.86167001593038528 2518.6500000000005 2482.2912772119366 4214.4936909362468 4815.9000000000005 5420.3125000000009 2305.4924287165209 4781.0500000000002 5323.4000000000005 16.100000000000005 82.500000000000014 4029.1000000000004 2942.5000000000005 3853.0000000000005
decision_type=2 2 2 2 2 2 2 2 2 2 2 2 2 2 2 2 2 2 2 2 2 2 2 2 2 2 2 2 2 2 2 2
left_child=1 -1 4 7 9 15 20 8 -2 16 11 -11 13 14 -13 -4 -3 18 -5 -14 -7 22 -9 25 -10 -17 28 30 -18 -19 -25 -32
right_child=3 2 5 17 -6 6 -8 21 24 10 -12 12 19 -15 -16 23 26 29 -20 -21 -22 -23 -24 27 -26 -27 -28 -29 -30 -31 31 -33
leaf_value=-0.0050907438100644235 -0.0097098032172122824 0.0014851824904010106 0.01424663960119495 -0.0034648683774121725 -0.0054014053175364049 0.0075380021136774149 -0.00029346944524815218 -0.0019685791346062131 0.00037769440102546585 0.0062700040389182194 -0.0012195213769418277 -0.00030442659887131327 -0.00036581945387752658 -0.0012412817072385398 0.0029763156020761752 0.0014903833627473184 0.014121977483382843 -0.010400427513005123 -0.0075823722528527782 0.0018579232346861338 0.0085484083882791176 -0.0069329280526452671 0.00045754426859499894 0.0057634172940452333 2.0146461710046125e-05 0.012711755603492525 0.0067745156824476262 0.013172856599057384 0.013329633406192476 -0.0064486622356373551 0.013374449795672457 0.01328704327823824
leaf_weight=30.406122207641602 8.0418365746736544 12.967755138874052 24.734081514179707 20.535918354988098 42.632653117179871 11.764081522822382 17.27561229467392 9.0094897896051389 6.7244898434728366 19.188775390386581 17.05714289098978 12.457142844796183 13.436734713613985 10.603061199188231 17.549999997019768 10.976530574262144 13.951530698686836 162.65510201454163 31.809183895587921 21.238775506615639 16.665306285023689 21.748265132308006 5.6602040976285926 15.381632685661314 7.7734694480895996 13.363673686981199 18.607142776250839 23.311224341392517 27.414285749197006 40.695918440818787 14.805101990699766 94.432449012994766
leaf_count=11 14 22 20 16 24 26 29 26 36 20 33 21 20 18 37 26 36 44 36 36 20 36 14 17 5 20 25 39 31 22 12 91
internal_value=-0.00142924 0.021016 0.0246012 -0.0371116 0.0140815 0.0344446 0.0159213 -0.0146955 0.00738448 0.0200495 0.0123508 0.0168918 0.00938747 -0.00253572 0.00809399 0.038742 0.0318213 -0.0422802 -0.0298865 0.0233513 0.0317959 -0.0283613 -0.0134085 0.0416979 0.0288788 0.0280364 0.0374134 0.0439457 0.0434679 -0.0454705 0.0456773 0.0463345
internal_weight=814.875 500.221 469.815 314.654 227.105 242.71 45.705 58.9578 22.5398 184.472 111.532 94.4745 75.2857 40.6102 30.0071 197.005 72.9407 255.696 52.3451 34.6755 28.4294 36.418 14.6697 172.271 14.498 24.3402 59.973 147.93 41.3658 203.351 124.619 109.238
internal_count=883 634 623 249 323 300 75 131 55 299 185 152 132 76 58 225 114 118 52 56 46 76 40 205 41 46 92 159 67 66 120 103
is_linear=0
shrinkage=0.0463345


Tree=17
num_leaves=33
num_cat=0
split_feature=84 18 18 7 84 74 46 53 57 39 78 46 36 61 2 79 60 49 69 82 34 69 60 84 75 82 81 51 76 69 44 6
split_gain=305.654 45.4159 24.3865 17.8739 17.6626 10.4899 8.88198 8.17276 6.98929 5.69128 5.15092 5.84871 5.0246 4.87032 4.37027 4.00603 4.59143 6.00594 3.92319 3.13412 2.15493 2.06943 3.166 1.60969 0.96606 0.704969 0.679127 0.208194 0.145809 0.188023 1.42109e-14 7.10543e-15
threshold=0.60249826312065136 1.0000000180025095e-35 1.0000000180025095e-35 0.72208999473568902 0.012232921086251737 1022.7500000000001 2995.6939556906532 0.45411623129251705 0.99999999969280884 0.27723214285714293 5573.8500000000013 2346.0540529185378 2199.5000000000005 2751.3457337399986 -1.0000000180025095e-35 3636.0000000000005 4428.999285714287 3207.6666666666674 69.020000000000024 2530.0000000000005 4624.5000000000009 75.835000000000022 6073.5774404761914 0.94952639937400829 71.500000000000014 3206.0000000000005 224.15000000000012 4590.6407142857161 13.66666666666667 94.40000000000002 -2544.4999999999995 0.09427574864652731
decision_type=2 2 2 2 2 2 2 2 2 2 2 2 2 2 2 2 2 2 2 2 2 2 2 2 2 2 2 2 2 2 2 2
left_child=1 4 5 -3 21 6 8 -7 9 -2 12 -12 14 19 -6 18 17 -17 -14 -11 27 22 -1 -8 25 -21 28 31 29 -23 -30 -18
right_child=2 3 -4 -5 10 7 23 -9 -10 13 11 -13 15 -15 -16 16 20 -19 -20 24 -22 26 -24 -25 -26 -27 -28 -29 30 -31 -32 -33
leaf_value=0.011389056165171019 -0.0048180818599901278 -0.0048263511306478463 -0.0096374638925530286 0.00355606406062262 -0.00024417094554365096 0.00017803431834593263 -0.0058420513562765196 -0.0029498159381889742 -2.1015136990172869e-05 -0.00023832089582644632 0.0037121574425690107 -0.00015591466741675722 0.0089225907220259765 0.00050909073828215407 0.0048480599919409556 0.0037727049612480677 0.0047289908741284473 -0.00099671450867958402 -0.0012213727675937458 -0.0026578541453934545 0.0077646757103294649 0.012559557697515848 0.014189068401627583 -0.008954376898968202 -0.0020365897973235133 -0.0019756621808314956 0.012873855639026533 0.013987551685433624 0.011736410610277519 0.012724270891238901 0.012651479011842682 0.013108576718153294
leaf_weight=16.84948975220323 19.201428553089499 55.657142758369446 178.4857143163681 49.057142853736877 14.383673548698427 15.677755147218706 31.544897824525833 15.006122484803198 11.544898003339766 11.723367467522619 20.333163194358349 22.532653093338013 8.1418367177247983 16.155510097742081 12.978571273386477 12.058163329958917 23.156122475862503 9.660204164683817 6.8704080879688254 10.888061106204992 18.789795964956284 8.747959181666376 15.097959026694296 38.770000249147415 7.1938774883747092 6.7826530188322058 27.990816347301006 12.675510317087172 3.4418368041515341 9.4530612230300886 90.701428487896919 13.32346937060356
leaf_count=38 28 26 52 28 24 20 26 32 11 37 31 25 26 21 20 25 27 36 19 26 30 20 15 29 21 18 35 16 5 20 77 19
internal_value=-0.00246086 0.0229717 -0.0341242 -0.00377466 0.0310386 -0.0223113 -0.0272461 0.00242503 -0.0170278 -0.0223981 0.0206664 0.00671107 0.025197 -0.014535 0.00751823 0.0298182 0.0335272 0.0149819 0.00766572 -0.023891 0.0394552 0.0415686 0.0309254 -0.0393791 -0.0332027 -0.03903 0.0439916 0.0445569 0.0456005 0.0418041 0.0463345 0.0463345
internal_weight=814.875 451.9 362.974 104.714 347.186 184.489 153.805 30.6839 83.4898 71.9449 174.904 42.8658 132.038 52.7435 27.3622 104.676 89.6633 21.7184 15.0122 36.588 67.9449 172.283 31.9474 70.3149 24.8646 17.6707 140.335 49.1551 112.344 18.201 94.1433 36.4796
internal_count=883 562 321 54 508 269 217 52 162 151 298 56 242 123 44 198 153 61 45 102 92 210 53 55 65 44 157 62 122 40 82 46
is_linear=0
shrinkage=0.0463345


Tree=18
num_leaves=35
num_cat=0
split_feature=84 54 27 63 46 84 84 27 68 63 46 46 60 43 61 41 80 82 78 73 54 72 78 63 49 84 84 58 82 69 80 43 51 72
split_gain=278.194 42.4641 24.2148 26.5337 17.8521 16.4635 8.82034 8.33026 8.22645 9.80889 7.81111 6.83449 6.29451 6.15073 5.307 5.1735 5.04846 4.28287 4.16771 4.12996 5.34567 4.83368 3.4847 2.66297 3.34846 1.98174 1.50269 1.02812 0.466631 0.79788 0.289248 0.0127464 0.00558624 1.42109e-14
threshold=0.8412073850631715 0.20196710884353744 85.200000000000017 7734.1827173213242 2953.2726324778305 0.073831945657730116 0.045765554532408721 389.4500000000001 4.2500000000000009 5037.3404898829567 2968.2987188126012 3299.9943365061822 4205.3827976190487 -800.49999999999989 2751.3457337399986 407.00000000000006 -107.74999999999999 2937.5000000000005 4949.9000000000005 146.15000000000001 0.97391887755102047 18.200000000000003 4607.7000000000016 5542.1472531662885 3776.6666666666674 0.020692885853350166 0.97229135036468517 289.33481174359582 859.00000000000011 93.340000000000018 -2.4000000000000905 862.50000000000011 1948.4285714285718 28.600000000000005
decision_type=2 2 2 2 2 2 2 2 2 2 2 2 2 2 2 2 2 2 2 2 2 2 2 2 2 2 2 2 2 2 2 2 2 2
left_child=1 -1 6 5 8 11 28 13 9 14 17 19 15 -7 26 -10 -15 -9 -19 25 21 -21 32 24 -23 -4 -2 -13 29 -3 -14 33 -6 -30
right_child=4 2 3 -5 22 7 -8 10 12 -11 -12 27 30 16 -16 -17 -18 18 -20 20 -22 23 -24 -25 -26 -27 -28 -29 31 -31 -32 -33 -34 -35
leaf_value=-0.0046312406176982806 0.00081025436360324273 0.012119008906965953 0.012085195976300788 -0.005082293219053932 -0.0094403704829699297 0.0010513361503016623 0.00024639488593686108 0.0024055935017534076 0.00031544754928797167 -0.015773252621113825 0.0020841148372192876 0.013066866947398963 -0.0070056227779224647 0.0011716288707131607 6.3103281597453331e-05 -0.0022075969623041817 -0.0003950909495426206 0.0010903960340835728 -0.00020070341473269349 0.00031888453494293513 -0.00047449409184097878 0.0046234277728891696 -0.0065548718726849229 0.013119338406982449 0.0012236358927247689 0.008140943499932567 -0.004644565525984308 0.012937682410243226 0.012025195890551408 0.012214711620398402 -0.012799157467476278 0.012618829155860102 -0.0059799677181897846 0.012067623604089571
leaf_weight=30.406122207641602 4.1037755385041299 7.305612254887822 19.243265315890312 55.018367409706116 149.13469398021698 23.955204285681248 14.001020409166811 17.841836810112 7.7775510549545315 11.457142710685728 18.491836696863174 24.823469460010529 15.349387735128404 11.902040809392931 9.6693878173828107 13.095204114913939 15.780612125992773 15.282653063535689 19.071428537368774 13.429591737687586 18.071428418159485 9.4755102694034594 44.191632807254791 20.56571426987648 9.4040816202759725 14.155102148652075 3.7237755190581083 43.681428402662277 45.929591812193394 9.7989795953035337 16.61765293776989 18.004081770777702 39.533673375844955 24.581836707890034
leaf_count=11 19 19 30 31 39 33 26 34 11 11 23 17 29 21 6 35 24 39 23 22 25 21 34 27 28 36 22 29 41 22 16 22 27 30
internal_value=-0.00278568 0.0186861 0.0221205 0.0159725 -0.0369204 0.0214789 0.0401188 0.00847118 -0.0182988 0.00155194 0.0188056 0.0306844 -0.0291761 -0.00567577 0.023375 -0.00938522 -0.0205515 0.00963791 7.29417e-05 0.0232191 0.0168944 0.0243299 -0.0434614 0.0325043 0.0199392 0.0366543 -0.0049868 0.0420554 0.0446997 0.0376936 -0.0420985 0.0460535 -0.0462046 0.0463345
internal_weight=814.875 500.221 469.815 350.194 314.654 295.175 119.621 122.326 81.7939 28.9541 70.6878 172.85 52.8398 51.6379 17.4969 20.8728 27.6827 52.1959 34.3541 104.345 70.9463 52.8749 232.86 39.4453 18.8796 33.3984 7.82755 68.5049 105.62 17.1046 31.967 88.5155 188.668 70.5114
internal_count=883 634 623 463 249 432 160 197 149 58 119 235 91 78 47 46 45 96 62 189 123 98 100 76 49 66 41 46 134 41 45 93 66 71
is_linear=0
shrinkage=0.0463345


Tree=19
num_leaves=33
num_cat=0
split_feature=84 54 27 60 46 84 68 84 60 47 46 82 84 60 46 66 3 41 56 78 34 46 19 69 46 46 61 57 80 80 51 26
split_gain=265.533 40.6964 26.1283 20.1885 18.7573 17.2662 9.20707 10.5422 9.03795 12.6686 18.895 12.3117 8.57153 6.29451 5.81009 8.96557 5.74314 5.1735 4.45833 3.4847 3.39692 3.25901 2.76455 1.14071 0.842058 1.61724 0.608229 0.933322 0.289248 0.0389204 0.00558624 1.42109e-14
threshold=0.8412073850631715 0.20196710884353744 85.200000000000017 7795.417827380953 2953.2726324778305 0.012232921086251737 4.2500000000000009 0.97685310244560253 6638.4119047619051 14950.945000000002 2962.4118275602887 3364.5000000000005 0.045765554532408721 4205.3827976190487 2346.0540529185378 1083.0500000000006 -0.22252093395631442 407.00000000000006 0.32152312947460099 4607.7000000000016 4143.0900000000011 1889.7157535093907 1.0000000180025095e-35 62.70000000000001 3394.8482325217415 2192.0319521924562 2137.1651372741176 0.78376524079765231 -2.4000000000000905 -175.05000000000038 1948.4285714285718 9.5500000000000025
decision_type=2 2 2 2 2 2 2 2 2 2 2 2 2 2 2 2 2 2 2 2 2 2 2 2 2 2 2 2 2 2 2 2
left_child=1 -1 12 5 6 21 7 -2 9 10 11 14 26 17 18 20 -17 -8 -7 30 -16 -4 -20 -12 25 -23 27 -3 -15 -28 -6 -31
right_child=4 2 3 -5 19 8 13 -9 -10 -11 23 -13 -14 28 15 16 -18 -19 22 -21 -22 24 -24 -25 -26 -27 29 -29 -30 31 -32 -33
leaf_value=-0.0044166546062533547 0.0002635441601466197 0.0093620836884134619 0.0098216559965417158 -0.0025205660438181814 -0.0090029560586877087 -0.00033874029153706253 0.00030083145891186304 -0.011738889224099387 0.010321034038952046 -0.0016003112905502107 0.0021612055966126571 -0.00037168920225061168 0.0002349783131050446 -0.0066810210623784241 0.0024682873204137919 -0.00052628940562541888 -0.00012442121733529044 -0.0021053091595049775 0.002525482946795052 -0.0062511554548169449 -4.396440066843732e-05 0.012445857729961459 0.00095265049051406142 0.004747671794706987 0.012424345573604565 0.0086474736879811036 0.0072923221210407941 0.011650471818530635 -0.012206115477754244 0.011720171648590877 -0.0057028891711775756 0.011557481230327151
leaf_weight=30.406122207641602 15.814999997615816 5.2698979713022736 20.359387546777725 62.006122469902039 149.13469398021698 12.981632657349108 7.7775510549545315 13.139081588014959 15.271428704261778 12.859183669090269 21.938775479793549 9.8071427345275861 14.001020409166811 15.349387735128404 12.957142710685732 14.489795953035353 21.79081629216671 13.095204114913939 36.143367365002632 44.191632807254791 8.7163265794515592 16.693877547979355 9.940816402435301 21.680612415075302 35.692653000354767 16.864489853382111 15.329591810703276 15.245102047920225 16.61765293776989 24.02040821313858 39.533673375844955 45.755102097988129
leaf_count=11 33 20 33 35 39 35 11 25 9 8 23 12 26 29 30 18 40 35 91 34 24 24 7 26 24 24 14 36 16 21 27 43
internal_value=-0.00340767 0.0175698 0.020932 0.0145457 -0.0367566 0.0197061 -0.0176687 0.00333184 0.0120875 0.00923429 0.01258 0.00353276 0.0396279 -0.0291761 0.00771201 -0.00271097 -0.0167966 -0.00938522 0.0179388 -0.0434614 0.020868 0.0365891 0.0246951 0.0388857 0.0413803 0.036111 0.0441437 0.0369822 -0.0420985 0.04587 -0.0462046 0.0463345
internal_weight=814.875 500.221 469.815 350.194 314.654 288.187 81.7939 28.9541 198.577 183.306 170.446 126.827 119.621 52.8398 117.02 57.9541 36.2806 20.8728 59.0658 232.86 21.6735 89.6104 46.0842 43.6194 69.251 33.5584 105.62 20.515 31.967 85.1051 188.668 69.7755
internal_count=883 634 623 463 249 428 149 58 323 314 306 257 160 91 245 112 58 46 133 100 54 105 98 49 72 48 134 56 45 78 66 64
is_linear=0
shrinkage=0.0463345


Tree=20
num_leaves=36
num_cat=0
split_feature=84 18 61 84 34 81 77 60 8 46 35 23 19 79 19 37 63 61 7 46 54 62 27 60 44 75 67 45 54 28 56 56 51 42 48
split_gain=284.927 36.3343 28.5979 19.6347 18.4742 10.6753 11.0862 6.91695 6.87537 6.75188 5.76059 5.7546 5.5391 4.96945 4.51554 3.95621 4.59586 3.68444 3.5155 2.85983 7.41651 2.44797 2.42445 2.26252 2.62569 3.44375 1.76132 1.52539 0.765508 0.550312 0.331256 0.881686 0.270103 0.133702 2.84217e-14
threshold=0.50738556683063518 1.0000000180025095e-35 3352.165403097873 0.012232921086251737 7983.5250000000005 19.149999999999867 3.5000000000000004 3913.0599107142862 0.48258017802146697 2962.4118275602887 3010.0000000000005 1.0000000180025095e-35 1.0000000180025095e-35 5891.7000000000016 1.0000000180025095e-35 2415.0000000000005 5556.4124256634013 4032.3663365037623 -0.63395513778623447 1883.5336404285624 0.97158163265306141 4764.5684327650415 404.80000000000007 4354.4633928571438 1352.5000000000002 32.350000000000009 9887124.6000000015 5504.5389583333335 0.45297831632653068 6.2500000000000009 0.40646199191113663 0.36260095514453122 2363.5867857142862 6422.0000000000009 102.50000000000001
decision_type=2 2 2 2 2 2 2 2 2 2 2 2 2 2 2 2 2 2 2 2 2 2 2 2 2 2 2 2 2 2 2 2 2 2 2
left_child=1 3 5 19 -3 6 -2 22 -4 11 28 13 18 14 23 -12 -17 -11 -13 20 33 -8 -7 26 25 -25 -5 -21 -9 -27 31 -29 34 -1 -10
right_child=2 4 8 9 -6 7 21 10 32 17 15 12 -14 -15 -16 16 -18 -19 -20 27 -22 -23 -24 24 -26 29 -28 30 -30 -31 -32 -33 -34 -35 -36
leaf_value=0.011140938415373175 0.00030361454083323698 -0.0039725210619768019 -0.0019824771619325328 0.004866780942171519 0.012769732167969368 -0.0021031284414560871 -0.0014542867380564356 -0.0063710760137410012 -0.0084613076707240938 0.0060241256701322275 -0.0071390685354142539 -0.00018073164071630732 -0.00025981339505042674 -0.00016701859838487364 0.0029161783160308939 0.00038420080989894404 -0.0055695129216160998 0.0080255225391370599 0.0046043108159692708 0.010059324765381739 -0.00074868211732191886 5.64845613761803e-05 0.0022201109255844879 0.0031894577848822908 0.00044605496265886601 0.012911626254311222 -0.00091684746846943895 0.011110653552678467 -0.0034254382515110228 0.011001674513667594 0.011035284176762389 0.010913775210068357 -0.0060320795932460192 0.011021077731853415 -0.0085858089935006935
leaf_weight=8.9290815703570861 13.906530706211926 67.724489808082581 47.533673375844955 7.7336734160780889 36.989795804023743 6.3812244758009893 8.7908162772655505 21.386938780546188 109.89387726783752 31.221428573131561 13.072449028491972 6.2602040320634869 10.357142806053163 15.659591823816298 13.71632659435272 12.251020431518556 9.1319388598203641 24.928571462631226 10.58683669567108 19.059183716773987 10.906122386455534 7.3234693109989157 5.6346939504146576 10.133673518896105 9.9948979318141919 7.6551020741462734 7.5928572416305542 20.705306142568592 15.503367289900778 12.452040821313856 89.242652893066406 10.499183744192122 42.630612254142761 12.941020369529722 56.144898295402527
leaf_count=24 24 33 29 28 21 37 28 22 29 37 21 16 7 22 9 22 19 16 30 31 15 16 13 25 25 20 29 30 28 25 67 20 23 23 19
internal_value=-0.00321898 0.021742 -0.0332929 0.029081 -0.00212754 -0.0139183 0.00977326 -0.0224502 -0.0418671 0.0178247 -0.0279276 0.0112576 -0.00728887 0.0171976 0.0225261 -0.0143043 -0.00202825 0.0309404 0.00910434 0.0400767 0.0277607 -0.0163837 0.0100723 0.0166486 0.0224193 0.029224 0.00149924 0.0429703 -0.0406517 0.0403243 0.0448976 0.0407883 -0.0454898 0.0433251 -0.0463345
internal_weight=814.875 445.289 369.586 340.575 104.714 113.382 30.0208 83.3616 256.203 168.292 71.3457 112.142 27.2042 84.9382 69.2786 34.4554 21.383 56.15 16.847 172.283 32.7762 16.1143 12.0159 55.5622 40.2357 30.2408 15.3265 139.506 36.8903 20.1071 120.447 31.2045 208.669 21.8701 166.039
internal_count=883 553 330 499 54 230 68 162 100 289 112 236 53 183 161 62 41 53 46 210 62 44 50 152 95 70 57 148 50 45 117 50 71 47 48
is_linear=0
shrinkage=0.0463345


Tree=21
num_leaves=34
num_cat=0
split_feature=84 18 38 84 6 35 47 63 75 63 80 34 79 50 61 69 42 39 78 6 46 54 34 61 66 66 45 80 56 56 35 6 42
split_gain=253.389 36.4342 35.9766 24.8608 17.3731 16.0602 10.557 9.78108 8.81398 8.02206 6.06206 5.8544 6.78306 6.39661 6.50619 5.74764 5.33898 4.37045 4.09011 4.72448 2.85983 7.41651 2.73322 2.54971 2.1789 1.69209 1.52539 1.20259 0.331256 0.881686 0.282968 0.245918 0.133702
threshold=0.72003409266471874 1.0000000180025095e-35 0.26717261904761908 0.012232921086251737 0.64056958004474651 271.50000000000006 9653.5000000000018 4874.9919942911665 99.100000000000009 4533.59459072144 -50.150000000000084 4511.5000000000009 4607.7000000000016 3969.7857142857151 2289.4816174232437 62.390000000000008 2999.5000000000005 0.55241071428571431 4340.5500000000011 0.52941438753421288 1883.5336404285624 0.97158163265306141 2755.0000000000005 2874.1366688218659 695.25000000000011 1726.6500000000003 5504.5389583333335 -122.95000000000003 0.40646199191113663 0.36260095514453122 4143.0900000000011 0.51477383718533543 6422.0000000000009
decision_type=2 2 2 2 2 2 2 2 2 2 2 2 2 2 2 2 2 2 2 2 2 2 2 2 2 2 2 2 2 2 2 2 2
left_child=1 3 6 20 -3 -4 10 9 11 18 -2 13 -13 14 -5 -16 -10 -9 -7 -20 21 32 -21 27 -19 30 -22 -18 29 -28 -15 -8 -1
right_child=2 4 5 8 -6 7 31 17 16 -11 -12 12 -14 25 15 -17 23 24 19 22 26 -23 -24 -25 -26 -27 28 -29 -30 -31 -32 -33 -34
leaf_value=0.010624729102220133 -0.0018416785924279769 0.007424911943434101 9.4288966868943879e-05 -0.00043872252435813927 -0.0043861160572259295 0.00020483453390449335 -0.0073779105955160094 -0.0055228692236865612 4.7360356001865547e-05 0.00025463821160822255 -0.005941904432594642 0.002710980727548799 -0.00083985628298907569 0.010592275273111773 0.0011880692839710601 -5.9726404071498196e-05 0.0017556674021664473 -0.0012164857336885682 -0.0050212104541036973 0.00060513311001709363 0.0095932314315602587 -0.00071399233921315322 -0.004541819721035025 0.011962900731303979 -0.0011823095628996638 0.0012464376574410842 0.010595847472142615 0.010538365501079876 0.010523970295206899 0.010408091380300293 0.0050275251568118956 -0.0081946710473243291 0.010510422098184716
leaf_weight=8.9290815703570861 17.253163440153003 41.951020479202271 10.686734601855276 15.64183661341667 62.763265132904053 8.0602041259408015 29.101836740970612 19.622449159622192 11.36938778311014 13.725510239601133 23.037448681890965 14.726530641317366 20.215408086776733 9.8234693408012443 23.591836646199226 20.088775455951691 9.1183674484491331 15.059489861130716 10.541734613478186 6.6959183663129789 19.059183716773987 10.906122386455534 6.1397959291934967 26.901020497083664 16.36530613899231 10.520816415548323 20.705306142568592 12.777551129460337 89.242652893066406 10.499183744192122 8.9051020294427854 177.90816330909729 12.941020369529722
leaf_count=24 32 24 8 30 30 25 17 14 17 14 21 38 27 22 33 39 19 20 13 28 31 15 20 23 32 17 30 33 67 20 18 59 23
internal_value=-0.00228995 0.0203657 -0.0317564 0.0274331 -0.00365908 -0.0092958 -0.0414651 -0.0152814 0.0155741 0.000425135 -0.0197653 0.00849013 -0.00757048 0.0148261 0.00608271 0.0152651 0.0301166 -0.0291775 -0.012478 -0.0222914 0.0400767 0.0277607 -0.00341458 0.036779 -0.0184642 0.0325591 0.0429703 0.0250393 0.0448976 0.0407883 0.0409119 -0.0456886 0.0433251
internal_weight=814.875 460.677 354.198 355.963 104.714 106.897 247.301 96.2104 183.68 45.1632 40.2906 123.514 34.9419 88.5718 59.3224 43.6806 60.1663 51.0472 31.4377 23.3774 172.283 32.7762 12.8357 48.7969 31.4248 29.2494 139.506 21.8959 120.447 31.2045 18.7286 207.01 21.8701
internal_count=883 580 303 526 54 174 129 166 316 100 53 224 65 159 102 72 92 66 86 61 210 62 48 75 52 57 148 52 117 50 40 76 47
is_linear=0
shrinkage=0.0463345


Tree=22
num_leaves=33
num_cat=0
split_feature=84 54 46 82 82 84 48 28 2 60 38 46 82 50 69 58 40 3 34 56 45 66 73 84 79 84 81 61 46 54 53 6
split_gain=225.217 41.3516 26.0269 21.5438 14.4498 13.6981 10.9418 10.1686 9.81554 9.60246 9.49261 7.66587 7.31561 7.1124 7.08883 6.40987 5.3227 5.19711 4.82225 4.19118 3.83203 3.05377 3.02481 2.62331 4.06998 1.74539 1.64547 1.15395 0.978538 2.52368 0.0503023 0.00568098
threshold=0.84981968998909008 0.75009266666666685 2623.3655266661162 5567.5000000000009 5207.6000000000013 0.073831945657730116 19.500000000000004 35.300000000000004 -1.0000000180025095e-35 5816.3218452380961 0.25723214285714296 2954.9371275067861 2964.0000000000005 3715.7142857142862 74.745000000000019 314.09027787067834 1.0149107142857143 1.0000000180025095e-35 3999.5000000000005 0.61193963555775932 4771.3133333333344 674.50000000000034 159.70000000000002 0.0063832520972937354 4607.7000000000016 0.94952639937400829 157.04999999999998 2163.7141824339037 2235.8234371887011 1.0269451530612248 0.98919642857142887 0.58637393129089799
decision_type=2 2 2 2 2 2 2 2 2 2 2 2 2 2 2 2 2 2 2 2 2 2 2 2 2 2 2 2 2 2 2 2
left_child=1 3 6 4 8 7 -2 14 13 11 26 12 19 15 16 -1 -3 -14 -15 21 22 -10 -8 28 -25 -24 31 -23 29 30 -16 -4
right_child=2 5 10 -5 -6 -7 20 -9 9 -11 -12 -13 17 18 23 -17 -18 -19 -20 -21 -22 27 25 24 -26 -27 -28 -29 -30 -31 -32 -33
leaf_value=-0.0011557072377894615 -0.00013671918917476731 -0.00044706344465865255 -0.0078456584833647702 -0.0037698253488386286 0.00019485362080502589 -0.00044532903519894343 -0.0064992477901558475 -0.0027442725489453903 0.002283238168871723 -0.00070384570995956524 -0.0020858834508150795 0.0023794416044489938 -0.00013895191340183323 0.0031916816994325375 0.0099782442206429647 0.00022435662443647634 0.011070058611924409 0.0012689219981513562 -0.00018129618154221267 -4.1219518962942172e-05 -0.0059990904151587402 0.0018970110510123099 0.00051785766439281923 0.010663388648149611 0.010620961631342445 -0.0013352419972052177 -0.0080457324682408002 0.0070301827523280647 0.0099935691641652325 0.01010317244307035 0.010104894650940265 -0.0078660945798671045
leaf_weight=22.037755012512207 8.9397959485650045 12.029387824237348 38.073469609022141 83.832652807235718 24.259183526039124 15.799081631004809 9.8941836860030907 17.369387745857239 10.07653062045574 12.404081672430037 42.148979783058167 29.289795994758606 13.404081538319589 12.752040818333628 21.387755081057552 16.115306228399277 18.315510138869286 13.573469445109366 10.367346875369547 9.6311223395168764 13.876836523413656 8.257142901420595 6.9466327354311925 17.708163425326347 15.743877477943895 4.6717346906661987 39.53693887591362 22.589796006679535 90.378367215394974 13.050000011920927 9.8918367624282819 130.52244877815247
leaf_count=28 8 22 14 39 9 30 34 10 28 8 31 33 24 18 28 35 29 27 25 17 29 33 20 24 26 23 34 35 71 20 21 50
internal_value=-0.00196723 0.0163631 -0.0343375 0.00465911 0.0127596 0.0309426 -0.00161393 0.0339906 0.0082471 0.015993 -0.0401334 0.0204739 0.0128448 -0.00682512 0.0369653 -0.0191137 0.0163531 -0.00663874 0.0134543 0.0232418 -0.0131839 0.0297139 -0.000938236 0.0406848 0.0290716 0.0150951 -0.0441941 0.036948 0.0435687 0.03793 0.0450708 -0.0461892
internal_weight=814.875 520.264 294.611 288.59 204.758 231.673 44.3292 215.874 180.498 119.226 250.282 106.822 77.5321 61.2724 198.505 38.1531 30.3449 26.9776 23.1194 50.5546 35.3894 40.9235 21.5126 168.16 33.452 11.6184 208.133 30.8469 134.708 44.3296 31.2796 168.596
internal_count=883 640 243 359 320 281 114 251 311 205 129 197 164 106 241 63 51 51 43 113 106 96 77 190 50 43 98 68 140 69 49 64
is_linear=0
shrinkage=0.0463345


Tree=23
num_leaves=37
num_cat=0
split_feature=84 52 38 44 58 35 74 8 50 82 84 61 68 34 68 78 9 41 72 75 6 63 3 7 34 52 80 2 46 54 58 59 26 79 7 61
split_gain=222.868 27.3544 26.2348 18.7855 16.0941 15.9278 13.6536 11.7453 16.7802 10.5481 9.82209 9.52206 8.19163 7.26134 9.65337 6.84417 6.71553 8.18373 6.13304 5.54274 4.9302 4.26577 4.25797 3.489 3.47697 2.61768 1.93571 1.80058 1.19208 2.92463 0.529599 0.0939131 0.0800413 0.0646962 0.0451138 1.42109e-14
threshold=0.60249826312065136 0.76101190476190472 0.26717261904761908 3834.5000000000005 189.60944999778766 271.50000000000006 1023.9000000000001 0.48258017802146697 896.07142857142867 3142.0000000000005 0.0059454727452248344 3543.996632302164 -10.649999999999999 4487.5000000000009 7.5500000000000007 5479.3000000000011 -0.20597861874109835 402.50000000000006 31.500000000000004 30.850000000000005 0.98805149616583232 4239.6601956775185 -0.22252093395631442 -0.15388490756722698 97.000000000000014 0.22419642857142816 -110.84999999999989 -1.0000000180025095e-35 2235.8234371887011 1.0135778061224492 305.34187726361841 246.94588691314803 15.200000000000001 4137.8000000000002 0.22131713103510547 3404.815684713592
decision_type=2 2 2 2 2 2 2 2 2 2 2 2 2 2 2 2 2 2 2 2 2 2 2 2 2 2 2 2 2 2 2 2 2 2 2 2
left_child=1 3 7 4 -1 -4 15 8 -2 -8 12 16 -3 30 -15 19 17 -7 -17 23 22 -21 -18 -6 -9 -10 -19 -23 29 32 -12 -30 -14 -26 -29 -33
right_child=2 10 5 -5 6 11 9 24 25 -11 13 -13 28 14 -16 18 20 26 -20 21 -22 27 -24 -25 33 -27 -28 34 31 -31 -32 35 -34 -35 -36 -37
leaf_value=-0.0069621179867101956 5.1544641401285552e-05 0.0073056655522856706 9.2206011926918171e-05 -0.0049380575329834699 0.001358732234308495 0.00034247083144872865 0.0032751722358938884 -0.0087341570319644998 -0.0055951213470014144 -0.0048076349975386444 0.012159316646918604 -0.0045642780549988672 0.0097783948517029921 -0.00080170713458127031 0.010540998717923043 0.002432236678999966 0.00046698672436891188 -0.0010920443945066271 -0.0006005779959825353 0.0045150270009794418 -0.0015134698265320331 0.010360834118935342 -0.00037535615125064382 -0.00063889020801688803 -0.0074453679476942777 -0.0074201049810584683 -0.0044072975449505015 0.0091738670046519668 0.0094514008349612447 0.0095600920595902104 0.0035977880108737877 0.0094023224340127401 0.0079065880880260526 -0.0050276974855361896 0.0015964119030161708 0.0097742827115990024
leaf_weight=10.59540808573365 15.681326588615773 27.130816213786602 10.686734601855276 24.595918521285057 15.797959327697756 12.624489724636076 15.724489808082579 66.459184005856514 17.958163231611252 16.721428453922272 12.317346975207331 24.034694075584412 23.384285777807236 25.774591684341431 17.091836899518967 25.125510200858116 12.183571487665175 15.827551022171969 15.456122457981108 13.471428669989107 9.0887754857540113 20.551020443439484 13.743877530097963 12.336734667420385 88.860203772783279 17.841428503394127 17.48397965729237 30.422448724508286 9.851224482059477 16.948979586362839 10.610612258315085 26.041632741689682 10.330204024910925 40.500306069850922 16.824489772319794 54.795918196439743
leaf_count=7 12 22 8 21 35 23 31 22 18 13 20 13 37 38 28 29 29 39 18 36 15 27 36 12 24 22 29 35 13 28 20 26 20 31 12 34
internal_value=-0.000475159 0.0212418 -0.0275126 0.00941384 0.0142733 -0.00929884 0.0174976 -0.036032 -0.0163382 -0.00975593 0.0322289 -0.0147844 0.0381576 0.0170471 0.00578956 0.0233932 -0.007181 -0.0188327 0.00714182 0.0294214 0.00810423 0.0355578 0.018398 0.0116962 -0.0412095 -0.033846 -0.0308723 0.0402897 0.0426336 0.0369407 0.0380942 0.0458139 0.0448339 -0.0456349 0.0452697 0.0463345
internal_weight=814.875 451.9 362.974 217.623 193.027 115.674 182.432 247.301 51.4809 32.4459 234.277 104.987 168.483 65.7944 42.8664 149.986 80.9522 45.936 40.5816 109.404 35.0162 81.2694 25.9274 28.1347 195.82 35.7996 33.3115 67.798 141.352 50.6635 22.928 90.6888 33.7145 129.361 47.2469 80.8376
internal_count=883 562 321 276 255 192 248 129 52 44 286 184 180 106 66 204 171 91 47 157 80 110 65 47 77 40 68 74 158 85 40 73 57 55 47 60
is_linear=0
shrinkage=0.0463345


Tree=24
num_leaves=36
num_cat=0
split_feature=84 52 60 37 73 63 39 84 84 7 48 62 75 17 44 68 41 2 80 61 68 56 18 74 50 27 54 62 58 73 54 76 34 79 62
split_gain=207.579 40.9076 24.7891 19.3333 18.4395 15.0271 14.826 14.7039 12.9739 12.3275 9.61407 9.41288 10.5731 9.18603 8.35333 8.29653 9.05505 7.73713 6.89477 6.56093 4.95015 4.26659 3.40414 4.72891 3.16877 2.46941 2.32934 2.22066 1.87666 1.49889 5.0493 0.169857 0.107642 0.04646 1.42109e-14
threshold=0.84981968998909008 0.84513888888888855 4957.9682738095244 84.000000000000014 179.85000000000002 7816.4464172940543 0.69500000000000017 0.012232921086251737 0.98347008228302013 -0.12839835514655126 92.500000000000014 4674.5375615382227 98.100000000000009 9.5000000000000018 -1.0000000180025095e-35 4.7500000000000009 402.50000000000006 -1.0000000180025095e-35 -23.000000000000224 3080.7408080078367 -7.9499999999999993 0.4180391957786167 1.0000000180025095e-35 1013.9500000000002 4513.0414285714296 525.10000000000014 0.72619676870748318 4269.6493107934375 348.73684501562963 256.75000000000006 1.0135778061224492 14.833333333333334 3582.5000000000005 4946.4500000000007 5458.2312506141197
decision_type=2 2 2 2 2 2 2 2 2 2 2 2 2 2 2 2 2 2 2 2 2 2 2 2 2 2 2 2 2 2 2 2 2 2 2
left_child=1 3 8 -1 6 9 11 20 15 10 -6 12 -5 -9 -8 -2 -17 -12 -19 24 -3 -11 23 -4 -15 -10 -23 -18 32 31 33 -22 -13 -31 -33
right_child=2 7 22 4 5 -7 14 13 25 21 17 28 -14 19 -16 16 27 18 -20 -21 29 26 -24 -25 -26 -27 -28 -29 -30 30 -32 34 -34 -35 -36
leaf_value=-0.0035619499371359539 0.00044018319565590513 0.010028689897204804 -0.0074877129559727511 -0.00044427323987618241 0.00019284014559460002 -0.0057211564604952546 -0.0013245800760817233 0.00634172329513663 -0.0070778493006657369 0.00077039586301967677 -0.00076294237410221271 0.0012052304195097274 0.006591746702033446 0.0024804015525421511 0.0092792290096943321 0.00032660263201292941 -0.00099518576350191641 -0.00019546977017267339 0.0015632068158898615 -0.0012381426205394363 0.00914121518189219 0.0094023460262816373 -0.0071869218599389341 -0.0068896407410579908 -0.00012429649266948922 -0.0075955457800952779 0.0056960054922931607 -0.0049536973501277471 0.0069819227270929854 0.0097579138082396714 0.0050325427876770426 0.0088460870024831811 0.0097470709608063234 0.0090628311104084241 0.0090925970706762522
leaf_weight=30.674999754875898 23.252755224704742 31.992448978126049 32.406530439853668 15.167346775531769 10.328571379184721 26.77142870426178 14.595918431878088 12.852040886878966 18.919285839423537 14.166326448321341 18.879591882228851 27.238775432109833 15.449999988079071 10.386734649538996 19.458163291215897 17.17571434378624 9.9013266414403933 19.620408058166504 12.988775506615637 11.053061127662657 18 15.912244886159899 131.18775522708893 28.102346882224083 13.343367516994475 20.072448879480362 14.812244981527327 13.592857152223585 22.395918339490891 21.503469370305538 16.190816193819046 14.842857152223585 21.645918488502502 15.08142853528261 54.910816341638565
leaf_count=17 35 34 25 29 14 15 23 12 34 33 25 17 27 24 29 24 25 33 23 7 37 21 42 33 30 7 24 18 21 23 19 12 27 20 44
internal_value=-0.00121632 0.0163817 -0.0322933 0.00525355 0.00922169 -0.00301151 0.0212324 0.031551 -0.0139499 0.0047755 -0.00864493 0.030078 0.00859052 0.00876268 -0.00523559 -0.00110118 -0.0137231 -0.0168289 -0.00316223 -0.00360549 0.0378431 0.0232562 -0.0421411 -0.0330495 0.0101284 -0.0350139 0.0329558 -0.0324166 0.0393075 0.0415879 0.0354174 0.0452989 0.0443962 0.0449517 0.0463345
internal_weight=814.875 520.264 294.611 300.107 269.432 133.48 135.952 220.157 102.914 106.708 61.8173 101.898 30.6173 47.6352 34.0541 63.9227 40.6699 51.4888 32.6092 34.7832 172.522 44.8908 191.697 60.5089 23.7301 38.9917 30.7245 23.4942 71.2806 140.529 52.7757 87.7537 48.8847 36.5849 69.7537
internal_count=883 640 243 378 361 188 173 262 143 173 95 121 56 73 52 102 67 81 56 61 189 78 100 58 54 41 45 43 65 155 62 93 44 43 56
is_linear=0
shrinkage=0.0463345


Tree=25
num_leaves=35
num_cat=0
split_feature=84 18 54 18 63 68 27 2 61 74 42 47 62 60 54 36 26 60 61 78 43 41 57 50 73 19 56 5 49 35 61 69 61 69
split_gain=216.66 36.4569 34.3582 17.3604 15.6151 11.0802 9.68112 9.3929 7.23364 9.20946 6.84948 6.86218 6.09196 5.94242 5.69827 5.57526 5.5698 8.5501 7.44393 6.78552 5.19818 4.67731 4.65904 4.51633 3.72364 3.41131 2.99821 2.24483 2.09455 1.46549 1.189 1.14923 0.698953 0.916267
threshold=0.35250033438205725 1.0000000180025095e-35 0.75009266666666685 1.0000000180025095e-35 4970.4605379533014 3.7500000000000004 90.200000000000017 -0.8783796973249266 2758.4444826620993 1020.8500000000001 3705.0000000000005 9050.0000000000018 3830.9963284022947 4144.623125000001 0.24107142857142863 999.50000000000011 9.0500000000000025 5677.4688392857151 3587.7001060247362 4892.4000000000005 394.4650000000002 824.50000000000011 0.6355737022611947 3957.428571428572 183.90000000000003 1.0000000180025095e-35 0.43062978412210834 -0.24999999999999994 2005.3333333333337 4750.0000000000009 3076.3288944594233 76.115000000000023 2325.9639300329241 89.465000000000018
decision_type=2 2 2 2 2 2 2 2 2 2 2 2 2 2 2 2 2 2 2 2 2 2 2 2 2 2 2 2 2 2 2 2 2 2
left_child=2 4 3 7 5 13 32 -1 9 22 14 12 -12 24 -7 -16 18 19 -8 -18 25 -10 -9 26 -2 27 -24 -6 -3 -25 31 -19 33 -4
right_child=1 28 6 -5 20 10 16 8 21 -11 11 -13 -14 -15 15 -17 17 30 -20 -21 -22 -23 23 29 -26 -27 -28 -29 -30 -31 -32 -33 -34 -35
leaf_value=-0.00041067581975047393 0.00042006442936256237 -0.0068675368738580714 0.0086973209151196881 -0.0029968701152289141 -0.001236201822982732 0.0013947944224984715 0.0083409455130218878 0.0025586778616373909 0.0028878922021109282 -0.00061215006972569397 0.0006643424203460562 -0.0073991564568471353 -0.0016619908901244972 0.00042495350024813875 -0.0053816384545016856 0.00031146967695478643 -0.00051357910722851763 0.01005674951608951 -0.0020036888977006187 0.0096067883891034333 -0.00025513309838229818 0.0088207616831299206 0.0035209550307347313 0.0052444440823900167 -0.00025501649473990323 -0.0071483843422489599 -0.00050556733537887382 -0.0014413562005893873 -0.0043324288428806491 0.0020533372264558026 0.0097589818247849815 0.0071203192924870319 0.0086208220996488154 0.0088743325979756295
leaf_weight=12.566326461732386 6.9839796032756585 132.98163282871246 11.913469322025778 73.189795732498169 11.556428566575052 11.281224548816679 24.31826539337635 13.991836801171301 20.424489706754684 15.473979476839302 10.208469256758692 17.461224675178528 14.787755161523817 16.720408201217651 7.0746937394142178 15.596938863396643 9.9877552464604396 13.748775482177736 23.408163070678711 10.577551022171972 20.101020365953445 37.147959232330322 11.377551145851614 9.0540816113352793 5.400714248418808 53.103469461202621 13.274489820003508 8.7142856717109662 47.369387626647949 8.1326529681682569 33.691020518541336 11.292652904987333 66.098979562520981 15.863265432417391
leaf_count=23 32 33 28 36 27 9 28 27 24 33 21 12 27 15 12 38 21 25 14 20 26 34 27 24 18 32 30 20 20 20 23 16 51 37
internal_value=-0.00266593 -0.0282661 0.0196314 0.00642885 -0.0145913 -0.00237473 0.0324594 0.015908 0.0196365 0.00977268 -0.0116415 -0.0240471 -0.00847822 0.0219536 0.00387149 -0.00951831 0.0241206 0.0316478 0.0116142 0.00593607 -0.0283815 0.0318529 0.0185392 0.0107988 -0.00237303 -0.0341005 -0.00191214 -0.0179301 -0.0433543 0.0290309 0.0406508 0.0330039 0.0437427 0.0375752
internal_weight=814.875 379.342 435.533 214.633 198.991 105.515 220.9 141.443 128.877 71.3046 76.4103 42.4574 24.9962 29.1051 33.9529 22.6716 127.024 79.2978 47.7264 20.5653 93.4752 57.5724 55.8306 41.8388 12.3847 73.3742 24.652 20.2707 180.351 17.1867 58.7324 25.0414 93.8757 27.7767
internal_count=883 342 541 278 289 184 263 242 219 161 119 60 48 65 59 50 147 105 42 41 105 58 128 101 50 79 57 47 53 44 64 41 116 65
is_linear=0
shrinkage=0.0463345


Tree=26
num_leaves=36
num_cat=0
split_feature=84 38 51 61 60 68 84 36 52 79 34 84 59 52 44 63 84 26 41 61 60 50 72 68 6 83 18 35 80 43 73 54 26 73 51
split_gain=200.904 48.6274 19.8431 17.8882 17.3618 14.8159 12.1118 12.0466 10.5825 9.94709 9.51105 8.84329 7.88256 7.73661 12.9877 8.57627 6.34537 6.09793 5.6615 5.65543 5.12652 4.15791 4.02181 3.96199 3.76334 3.67861 3.56705 4.93346 3.19783 2.14321 1.70339 4.18174 0.151594 0.0440381 1.42109e-14
threshold=0.87672808766365062 0.98189642857142867 1292.2982142857145 4548.5928065615763 4957.9682738095244 9.7500000000000018 0.012232921086251737 13650.000000000002 0.012738095238094797 4607.7000000000016 337.25000000000006 0.20084102451801303 393.8100004099195 0.32184087301587266 -2350.4999999999995 5340.1663221265835 0.94952639937400829 6.0500000000000007 500.50000000000006 2866.559778998419 4267.0443750000004 3661.0721428571437 32.20000000000001 -7.9499999999999993 -0.18771856543719898 1394.3500000000001 1.0000000180025095e-35 770.00000000000011 -77.599999999999895 -1274.9999999999998 256.75000000000006 1.0135778061224492 13.750000000000002 185.20000000000002 5639.0710714285724
decision_type=2 2 2 2 2 2 2 2 2 2 2 2 2 2 2 2 2 2 2 2 2 2 2 2 2 2 2 2 2 2 2 2 2 2 2
left_child=1 2 -1 5 8 7 23 12 -2 -8 -10 17 13 -4 -15 22 18 -7 -12 24 28 -19 25 -3 -13 -16 27 -6 -18 -17 33 32 -32 34 -25
right_child=4 6 3 -5 26 11 9 -9 10 -11 16 19 -14 14 15 29 20 21 -20 -21 -22 -23 -24 30 -26 -27 -28 -29 -30 -31 31 -33 -34 -35 -36
leaf_value=-0.0031332174164023121 -0.0070183508683478897 0.0091605340301989576 0.00031151623389569574 -0.003646932762584377 -0.00691348533730276 -0.00048598008964715657 0.0061601931187010104 -0.0040300722577845602 -0.00065080476961455085 -0.0015462158756455128 0.00061865942104009084 0.00070951128596441709 -0.00098498296360725857 -0.00091703400670569194 0.00063356047615793819 0.0089693016150931178 -0.0020871771821153848 0.00090562107490700151 -0.0024766157259740636 -0.0045418491221656749 -0.0067791321104487545 0.002440122916596748 -0.0002432004443602749 0.0083146847664611525 -0.00092908715034089803 0.0012754106913443238 -0.0066722646362604859 -0.0070247963168059034 0.0021187836193420971 0.010120551308023654 0.0088652455299306279 0.0043999215624318773 0.0072603064165920857 0.0066315013435000597 0.0083057228273944045
leaf_weight=28.371428102254868 20.849387733265758 25.793469212949276 29.472448885440826 25.699999928474426 19.133673369884491 14.841836601495741 19.834694012999535 17.697959184646606 14.496632821857927 15.744898021221159 10.445918366312982 9.2747959643602353 20.83877557516098 18.496938809752464 34.179591849446297 20.914285808801651 7.9819386750459671 20.952040866017342 13.620408251881598 15.843877524137495 18.942449122667313 15.960204064846037 13.395408157259224 23.267346918582916 10.796938747167589 14.16020408272743 127.45918381214142 34.227959185838699 4.966428607702257 34.051530703902245 20.510204046964645 15.190816223621367 15.647142820060251 15.859796017408369 45.954081654548645
leaf_count=9 8 29 15 15 12 22 33 10 10 22 13 21 37 22 69 26 29 36 32 12 17 33 35 25 21 18 40 36 19 31 21 17 21 22 45
internal_value=-0.00131577 0.0149748 0.0044725 0.00779935 -0.0338072 0.0110732 0.0332897 0.0179418 -0.017337 0.00880764 -0.00875577 -0.00484737 0.0214264 0.024824 0.0201349 0.0258523 -0.0174208 0.00741165 0.000540258 -0.0225125 -0.0309751 0.0174968 0.0140002 0.0386593 -0.00617697 0.0202257 -0.0421237 -0.0320658 -0.00850564 0.0391641 0.0418078 0.0351434 0.043714 0.0458299 0.0463345
internal_weight=814.875 542.751 344.948 316.577 272.124 290.877 197.802 203.207 91.3032 35.5796 70.4538 87.6697 185.509 164.67 135.198 116.701 55.9571 51.7541 24.0663 35.9156 31.8908 36.9122 61.7352 162.223 20.0717 48.3398 180.821 53.3616 12.9484 54.9658 136.429 51.3482 36.1573 85.0812 69.2214
internal_count=883 667 432 423 216 408 235 263 128 55 120 145 253 216 201 179 110 91 45 54 65 69 122 180 42 87 88 48 48 57 151 59 42 92 70
is_linear=0
shrinkage=0.0463345


Tree=27
num_leaves=37
num_cat=0
split_feature=84 54 84 59 49 45 27 72 34 34 47 2 7 72 50 46 46 47 26 60 61 78 50 41 67 83 44 73 82 27 79 26 61 69 61 69
split_gain=195.145 32.8194 28.498 17.0723 17.4173 16.472 9.68112 9.66069 9.43342 13.3598 8.83064 8.15319 11.3866 7.51414 7.0852 6.52751 6.12112 5.82911 5.5698 8.5501 7.44393 6.78552 4.34763 5.30394 3.5194 3.25049 3.03047 2.13031 1.90945 3.93333 1.74598 1.66128 1.189 1.14923 0.698953 0.916267
threshold=0.60249826312065136 0.75009266666666685 0.96263641119003307 195.828185024916 7694.1683333333349 5477.8656250000013 90.200000000000017 22.150000000000002 2469.5000000000005 5490.5000000000009 10475.000000000002 -1.0000000180025095e-35 -0.35273909160235833 16.000000000000004 2387.2142857142858 2689.3291922885824 4100.5585285331917 8125.0000000000009 9.0500000000000025 5677.4688392857151 3587.7001060247362 4892.4000000000005 3771.0000000000005 2399.5000000000005 7133571.9500000002 5000.005000000001 1115.0000000000002 176.55000000000004 5815.3000000000011 627.50000000000011 4623.8500000000013 12.050000000000002 3076.3288944594233 76.115000000000023 2325.9639300329241 89.465000000000018
decision_type=2 2 2 2 2 2 2 2 2 2 2 2 2 2 2 2 2 2 2 2 2 2 2 2 2 2 2 2 2 2 2 2 2 2 2 2
left_child=1 3 5 -1 8 7 34 14 24 10 13 31 -13 -10 -2 17 -7 -4 20 21 -8 -20 23 27 -5 -11 -25 -15 29 -17 -24 -9 33 -21 35 -3
right_child=2 6 15 4 -6 16 18 11 9 25 -12 12 -14 22 -16 28 -18 -19 19 32 -22 -23 30 26 -26 -27 -28 -29 -30 -31 -32 -33 -34 -35 -36 -37
leaf_value=-0.0062471635228817796 0.00025390966517275165 0.008047107793483407 0.00093858172141991195 0.0021789094425968283 -0.0038410202746752197 -0.00098361222660729806 0.0079789735744911737 -0.0056265853397676176 -0.00047881143077390152 0.0059193512788663439 -0.00044516982143641919 -0.0013667324733664073 7.9426487125555559e-05 0.0033158520379778667 -0.00027411508720357516 -0.0062868333951018682 -0.0039619937900840767 -0.0055255904859504738 -0.00047851413891356233 0.0091800091821951039 -0.0021537831817411003 0.0087372147271198349 0.00035234274920948005 -0.0010316610258913658 0.0062522070040138787 0.0095909242670998273 0.0010972897401408236 0.00036854107497113385 -0.0067318998140359753 -0.0065227337229577624 0.0023270611503592377 -0.0018326963538410994 0.0090764020556667636 0.0064540008331953778 0.0078365398601216562 0.0080783040875923411
leaf_weight=12.103571277111767 18.27142858505249 11.913469322025778 9.9298980366438645 16.60816302895546 28.485714435577393 25.771734729409218 24.31826539337635 13.228571340441706 9.7744897902011854 15.930612228810785 38.712244987487793 20.779591798782349 18.599693737924099 10.150000117719175 18.467653021216393 55.541020929813385 37.540816068649292 7.7591835856437674 9.9877552464604396 13.748775482177736 23.408163070678711 10.577551022171972 8.9112243950366992 8.5500000268220884 27.729591801762581 20.489795923233032 6.2795917913317671 12.475510261952875 74.04081654548645 47.765305936336517 14.799999952316282 15.278571441769598 33.691020518541336 11.292652904987333 66.098979562520981 15.863265432417391
leaf_count=6 10 28 38 19 16 37 28 16 19 34 23 31 25 18 35 39 18 7 21 25 14 20 25 22 35 12 19 26 21 12 25 32 23 16 51 37
