tree
version=v4
num_class=1
num_tree_per_iteration=1
label_index=0
max_feature_idx=84
objective=regression_l1
feature_names=hour_sin hour_cos day_sin day_cos month_sin month_cos day_of_year_sin day_of_year_cos week_sin week_cos is_winter is_spring is_summer is_autumn is_heating_season is_dst_period is_dst_transition_day days_to_dst_change cap_regime_all_day_15000 post_aug_2025_cap_change post_jan_2026_cap_change post_apr_2026_cap_change price_cap_norm is_off_day price_cap feelslike windspeed solarradiation heating_degree cooling_degree temp_hour_interaction temp_summer_interaction solar_hour_interaction solar_summer_interaction price_lag_24 price_lag_48 price_lag_168 price_lag_336 ratio_lag_24 ratio_lag_48 ratio_lag_168 price_lag_167 price_lag_169 diff_24_48 diff_168_336 rolling_mean_24 rolling_std_24 rolling_max_24 rolling_min_24 rolling_mean_hour_3d rolling_mean_hour_7d rolling_mean_hour_14d ratio_mean_hour_3d ratio_mean_hour_7d ratio_mean_hour_14d hour_month_interaction price_volatility_24 demand_supply_ratio_lag_24 demand_ramp_std_24 supply_ramp_std_24 rolling_mean_168 rolling_std_168 price_ema_24 price_ema_168 is_attack days_since_attack system_balance_lag_24 demand_x_price_lag_168 dew humidity precip snow windgust winddir sealevelpressure cloudcover visibility uvindex supply_lag_24 supply_lag_168 demand_ramp supply_ramp garpok_lag_24 vdr_supply_lag_24 prob_low_price
feature_infos=none none [-0.97492791218182362:0.97492791218182362] [-0.90096886790241903:1] [-1:1] [-1:1] [-0.9999631612477099:0.9999631612477099] [-1:1] [-0.99956083650879435:0.99956083650879435] [-0.99824373176432146:0.99298109601351703] [0:1] [0:1] [0:1] [0:1] [0:1] [0:1] none [0:14] [0:1] [0:1] [0:1] [0:1] [0.37333333333333335:1] [0:1] [5600:15000] [-24.100000000000001:27.399999999999999] [0:28.100000000000001] none [0:42.100000000000001] [0:5.3999999999999986] none [0:27.399999999999999] none none [57:15000] [57:15000] [57:15000] [57:15000] [0.010178571428571429:1.1000000000000001] [0.010178571428571429:1.1000000000000001] [0.010178571428571429:1.1000000000000001] [26:15000] [57:15000] [-11644.24:10451] [-11372.440000000001:11672.4] [280.27291666666667:15000] [0:5898.5456312838924] [1210:15000] [10:15000] [57:14961.4] [57:13060.785714285714] [57:11272.605] [0.010178571428571429:1.1000000000000001] [0.010178571428571429:1.1000000000000001] [0.010178571428571429:1.1000000000000001] none [0:1.2743607072813463] [0.21504360015395949:2.5412059466522106] [123.0852973948662:569.19454569720631] [117.12176000498788:718.73787615483604] [1630.7810714285713:12774.331964285715] [732.22535918728761:5114.7031962828496] [57:14954.0998402683] [57:12900.158369191318] [0:1] [0:30] [-2919.5999999999999:2574.5] [104988.3:70476000] [-21.100000000000001:21.399999999999999] [28:100] [0:1.3999999999999999] none [2.8999999999999999:54] [0.10000000000000001:360] [985.29999999999995:1048] [0:100] [0:35320] none [1120.8:5460.6999999999998] [1120.8:5460.6999999999998] [-1711.5:936.90000000000009] [-1711.5:2465] [38:5762.5] [10:15000] [1.4860686860629357e-05:0.99948537349700928]
tree_sizes=2900 2703 2690 2996 2995 3013 2898 2781 2895 3108 2888 3009 3007 3327 3337 3318 3434 3309 3325 3308 3329 3439 3423 3194 3728 3214 3219 3327 3537 3426 3217 3538 3428 3329 3731 3640 3429 3641 3732 3855 3651 4073 3965 4156 3844 3734 3761 3507 3950 3669 3864 3844 3841 3647 3413 3437 3636 3755 4064 3564 4047 3542 3432 3124 3531 3867 3644 3540 3652 3655 3843 3634 3739 4258 3321 3124 2568 3528 3735 3409 3117 3637 3954 3538 3960 4258 4162 4071 4055 4057 4067 3833 3400 3526 3115 3951 4172 3537 2578 4153 4294 4172 4170 3209 4261 3652 3122 3943 4070 3851 2255 4489 3959 4270 4274 3768 3750 3543 4298 3220 4167 3970 4186 3344 3769 4206 3967 3872 2390 3985 4407 3773 4172 4314 4401 3977 4285 4191 3878 4273 4089 3765 3872 4420 3964 4192 3976 4513 3988 4289 4066 4399 4415 4037 3685 3634 3779 3964 4202 3984 4197 4189 4055 3875 3963 3997 4198 3772 3435 3353 3960 4299 2942 3773 3139 4084 4512 3773 3046 3975 3991 3480 4192 4210 4085 3046 3126 3051 4104 3344 2828 4301 2712 2824 4083 3996 3363 3355 3789 3992 4116 4224 4193 4226 3149 4084 2502 3465 4005 4533 4189 1977 3583 3680 2598 3877 4081 3987 3890 3351 4320 3575 3568 3247 4321 4098 3901 4000 4194 4310 3344 3987 4073 4197 4207 3983 4087 3684 4066 4514 4190 3670 4296 4194 4300 3654 3678 3989 3891 4091 3149 3881 3658 2941 3136 3971 4084 3997 3985 2806 3562 3255 4229 4098 3877 4213 3871 3987 4097 4196 3877 4092 3884 3330 3138 3892 4201 4070 4501 4296 3965 4085 4507 4087 3561 4100 4189 3991 3882 4207 3773 3463 4295 4407 4299 3460 4093 4103 3995 3680 3888 3359 4100 3998 2717 3244 4515 3353 3373 3259 4212 4198 3873 3347 4001 4000 4312 4194 4187 3774 4203 3962 4097 4294 4191 3882 4193 3453 4295 3911 3019 4182 4310 4186 3874 2817 4198 3124 3024 3439 2801 3236 3337 3550 3766 4319 4181 4395 4085 2589 3343 4393 4280 3668 4183 4405 4304 3987 4203 3978 4317 4092 3992 4107 3660 3994 3868 4405 4191 2375 4199 3782 3781 3253 2823 2502 2705 4100 3540 3444 4188 4001 4606 4185 4213 3133 4208 3985 3886 3987 4079 3874 4296 4212 3450 4201 3350 3663 3251 3229 4000 4216 4190 4088 4095 3984 3880 4401 4204 4305 3870 4084 2932 4625 3973 3037 3874 3870 3977 3666 3550 4529 4097 3983 2924 3772 3348 3982 4091 4088 3345 3672 4525 3760 3243 4197 4073 3558 3022 3351 4392 3450 3234 3547 3976 3439 4298 3883 4297 3987 4081 4628 3983 3439 3446 3438 4290 3983 2801 3869 4083 4209 4508 4201 3771 2821 3869 4433 4072 3452 3449 3344 2928 4095 3880 3563 2172 4313 4207 3871 4191 4195 3653 3871 4068 4086 2915 3567 2497 3451 3877 3863 4183 2811 3980 3727 2280 3454 4189 3132 3768 3843 3969 2920 3035 3035 3656 3656 3252 3136 3135 3561 4196 3365 3472 2611 3255 1974 2928 3367 2178 2070 4206 3880 3460 3249 2835 2913 3993 3464 3782 3783 4082 2721

Tree=0
num_leaves=27
num_cat=0
split_feature=52 38 60 84 25 35 69 45 58 47 53 42 69 43 56 41 43 67 42 2 84 44 79 7 5 74
split_gain=261.218 57.2541 21.4903 23.3411 14.2746 19.7858 20.1384 15.9562 14.0137 18.639 11.4458 5.86222 4.04444 2.94991 4.81356 2.20844 0.969909 0.534485 0.524739 0.263361 0.429224 0.0321855 0.00407128 2.84217e-14 3.55271e-15 3.55271e-15
threshold=0.95964285714285735 0.60357142857142865 7602.5788095238104 0.0048724410589784392 -8.9499999999999975 5110.0000000000009 73.160000000000011 6949.6943750000009 295.3162138347966 13999.500000000002 0.80115857823129266 8804.1250000000018 96.420000000000016 -195.99999999999997 0.6632204173924624 4065.0000000000005 840.00000000000011 22446081.000000004 6499.5000000000009 -0.8783796973249266 0.00022911487758392471 -3349.9999999999995 2137.3000000000006 -0.36874934642598389 0.6830127018922193 1014.9500000000002
decision_type=2 2 2 2 2 2 2 2 2 2 2 2 2 2 2 2 2 2 2 2 2 2 2 2 2 2
left_child=1 8 3 12 -3 6 -6 15 11 22 -8 21 13 14 17 -7 18 -2 -15 20 -20 -1 -10 -21 25 -24
right_child=2 4 -4 -5 5 7 10 -9 9 -11 -12 -13 -14 16 -16 -17 -18 -19 19 23 -22 -23 24 -25 -26 -27
leaf_value=0.89173750071413693 0.92478941379103663 0.91939107857449209 0.89111970856580214 0.91053555000583464 0.91996099563592382 0.90638521117602999 0.90963484142150608 0.90837337801570461 0.89864354068487728 0.90934459351217278 0.9201002820149855 0.87877687031058915 0.91635565208822489 0.92015596715502768 0.92181076834142428 0.9036079470058157 0.92478941379103663 0.92346556952782088 0.92478941379103663 0.92478941379103663 0.92478941379103663 0.89653872996307782 0.89864354068487728 0.92346556952782088 0.89200349508550569 0.88833964113654651
leaf_weight=16.750510811805725 18.615096390247349 24.067809164524078 13.801589250564573 22.924744635820389 36.336776435375214 23.155391573905945 46.623223870992661 39.63723036646843 4.8787400573492077 46.111691117286682 34.673757076263428 33.831101149320602 12.741657137870787 23.668921560049057 15.732463240623472 36.625085175037384 19.921611934900284 12.533371239900587 15.0421339571476 91.267230480909348 10.904109060764311 135.83358685299754 5.3783200681209591 51.732179000973701 9.9442679882049578 11.615210011601446
leaf_count=9 33 16 8 28 27 18 36 22 21 26 38 14 17 26 17 24 33 16 21 157 20 106 19 79 19 32
internal_value=0.916353 0.895839 0.949922 0.952566 0.912167 0.908412 0.921273 0.893195 0.880945 0.897445 0.908456 0.874048 0.956348 0.9576 0.947079 0.87808 0.95992 0.957631 0.960927 0.961832 0.957537 0.870179 0.870165 0.962611 0.869942 0.869942
internal_weight=814.348 505.463 308.885 295.084 241.119 217.051 117.634 99.4177 264.343 77.9282 81.297 186.415 272.159 259.417 46.8809 59.7805 212.536 31.1485 192.615 168.946 25.9462 152.584 31.8165 142.999 26.9378 16.9935
internal_count=882 427 455 447 181 165 101 64 246 117 74 129 419 402 66 42 336 49 303 277 41 115 91 236 70 51
is_linear=0
shrinkage=1


Tree=1
num_leaves=24
num_cat=0
split_feature=52 38 84 54 41 48 25 35 69 45 84 58 43 63 41 43 42 80 5 81 6 25 52
split_gain=263.086 52.8577 21.5763 14.6233 37.0987 12.6889 11.4788 17.3415 20.4882 17.5642 12.2432 3.2375 3.00734 5.44476 1.93239 0.964859 0.678665 0.527362 0.201371 0.00863107 0.00725361 2.84217e-14 7.10543e-15
threshold=0.95964285714285735 0.60357142857142865 0.0048724410589784392 0.56448547789115655 5499.5000000000009 4965.0000000000009 -8.9499999999999975 5110.0000000000009 79.970000000000013 6750.7404166666674 0.0068918517790734777 295.3162138347966 -78.499999999999986 5172.4825921215033 4095.0000000000005 840.00000000000011 6499.5000000000009 -239.60000000000011 0.6830127018922193 -198.60000000000011 0.47753588643748834 11.050000000000002 0.51194355555555615
decision_type=2 2 2 2 2 2 2 2 2 2 2 2 2 2 2 2 2 2 2 2 2 2 2
left_child=1 3 5 4 20 12 -3 8 -8 14 -10 19 13 -2 -9 16 -14 -15 21 -5 -1 -18 -22
right_child=2 6 -4 11 -6 -7 7 9 10 -11 -12 -13 15 17 -16 -17 18 -19 -20 -21 22 -23 -24
leaf_value=-0.017749566748142528 0.0068557835214194326 0.0029700818870912176 -0.0054751305888279464 -0.024990435560023231 0.00038250275881952057 -0.00081043582256226361 0.0035094572060713528 -0.010420545137654386 0.0033451309213370084 -0.0040860678769929389 -0.0065079503311797869 -0.025042445297290036 0.0036995297718725837 0.0081182881817797245 -0.012081746877215556 0.0081182881817797245 0.0035461811486262864 0.0034848415457708207 0.0071852176733041813 -0.022801658755383373 -0.01913531900903773 0.0081182881817797245 -0.016816130135320462
leaf_weight=3.0455845706164828 23.191373467445374 24.067809164524078 22.924744635820389 79.391714215278625 44.874006509780884 23.447219014167786 41.454029619693756 24.530192971229553 36.058955907821655 41.267423361539841 40.120771855115891 43.030760556459427 20.380499362945557 26.878206640481949 33.620090782642365 20.419001251459122 52.245936319231987 11.222701549530028 12.818070292472838 44.840181946754456 22.727014556527138 95.357355356216431 26.434165701270103
leaf_count=29 33 16 28 23 19 16 31 19 35 23 35 26 24 38 22 34 64 18 23 18 60 177 71
internal_value=0.000949783 -0.0196376 0.0346393 -0.0339478 -0.0196433 0.0381066 -0.00394913 -0.00731558 0.00472458 -0.0215618 -0.00953983 -0.0422503 0.0410236 0.0320378 -0.0379683 0.0437606 0.0448389 0.042812 0.0458507 -0.0460442 -0.0461985 0.0463345 -0.0463345
internal_weight=814.348 505.463 308.885 264.343 97.0808 285.96 241.119 217.051 117.634 99.4177 76.1797 167.263 262.513 61.2923 58.1503 201.221 180.802 38.1009 160.421 124.232 52.2068 147.603 49.1612
internal_count=882 427 455 246 179 427 181 165 101 64 70 67 411 89 41 322 288 56 264 41 160 241 131
is_linear=0
shrinkage=0.0463345


Tree=2
num_leaves=24
num_cat=0
split_feature=38 53 52 79 7 74 47 84 42 38 81 43 84 52 78 50 44 43 72 7 78 9 6
split_gain=253.836 40.2228 33.4389 15.1574 16.6341 11.7216 13.4752 12.4388 11.0651 9.7332 8.35343 7.99771 5.08816 2.45726 3.12689 3.59809 1.69321 0.43772 0.685784 0.306168 0.0262997 2.84217e-14 1.42109e-14
threshold=0.93772202380952396 0.92220382653061239 0.68345238095238148 3182.2500000000005 0.75674278485945501 1009.1500000000001 10250.000000000002 0.0041357658337801704 8804.1250000000018 0.99490000000000012 -345.44999999999999 285.21499999999997 0.0024261603830382232 1.0824404761904767 3990.2500000000005 5995.2592857142872 -9113.1349999999984 -29.585000000000033 17.450000000000006 -0.87444874304365161 3364.8500000000008 0.029633327822559546 0.76232555469153152
decision_type=2 2 2 2 2 2 2 2 2 2 2 2 2 2 2 2 2 2 2 2 2 2 2
left_child=2 3 8 -2 -5 -4 7 -7 11 -3 -8 16 13 14 15 20 -1 18 -15 -18 -11 -21 -19
right_child=1 9 5 4 -6 6 10 -9 -10 12 -12 -13 -14 17 -16 -17 19 22 -20 21 -22 -23 -24
leaf_value=-0.027428817148284393 0.0035049583024799229 -5.8358101485349712e-05 0.0045333963501602076 -0.011090160020039602 0.0034239520788540176 0.0024344360937198109 -0.0027823698544111311 -0.003237573637359869 -0.015848143470134645 0.003313977381215165 -0.032974299848273027 -0.015746220337943578 0.0033205311738076608 0.0077421317208022332 0.0032132580014277217 0.0077421317208022332 0.010152159478157483 0.0077421317208022332 0.0077421317208022332 -0.01801940327802138 0.0035837322510309274 -0.023435481229694591 0.0080153174126720312
leaf_weight=7.2624291181564322 28.034733265638351 13.135641276836393 16.813938766717911 54.809988737106323 40.139523088932037 34.782292664051056 33.719182729721069 28.731441766023636 57.028717786073685 19.700771898031235 34.369126200675964 63.988660423085093 20.217934280633926 20.134392648935318 21.571259886026382 20.927537083625793 0.076583430171011879 92.428569763898849 17.555845707654953 94.746311098337173 37.292394697666168 46.350941954180598 10.52959133684635
leaf_count=4 21 19 18 31 28 38 21 34 29 17 19 36 27 25 34 35 1 182 34 77 31 100 21
internal_value=0.000531712 0.0270891 -0.0246662 0.00508119 -0.00375763 -0.00700536 -0.0116597 0.00369148 -0.0343939 0.0369856 -0.0259795 -0.0392589 0.038949 0.0408285 0.0352557 0.0395776 -0.0451618 0.0447705 0.0404983 -0.0462842 0.045611 -0.0463345 0.0463345
internal_weight=814.348 396.478 417.87 122.984 94.9495 148.416 131.602 63.5137 269.454 273.494 68.0883 212.425 260.358 240.14 99.492 77.9207 148.436 140.648 37.6902 141.174 56.9932 141.097 102.958
internal_count=882 505 377 80 59 130 112 72 247 425 40 218 406 379 117 83 182 262 59 178 48 177 203
is_linear=0
shrinkage=0.0463345


Tree=3
num_leaves=27
num_cat=0
split_feature=52 38 84 54 41 62 35 69 60 58 61 51 52 82 58 51 58 72 37 72 81 50 81 6 2 52
split_gain=254.901 45.7261 38.4995 14.6233 37.0987 14.429 24.8021 21.9638 13.4529 9.67821 7.63661 5.64726 4.14845 5.01228 4.29797 5.39935 3.2375 2.63362 3.35141 0.625451 0.33861 0.275393 0.00863107 0.00725361 1.42109e-14 7.10543e-15
threshold=0.91473214285714333 0.60357142857142865 0.0048724410589784392 0.56448547789115655 5499.5000000000009 9155.2346866518947 5132.5000000000009 79.970000000000013 7602.5788095238104 247.95671482100744 3917.1949665345269 4535.2953571428579 1.0824404761904767 2973.3000000000006 272.47230329239227 6041.8685714285721 295.3162138347966 20.000000000000004 6505.0000000000009 29.000000000000004 -557.19999999999993 6473.9007142857154 -198.60000000000011 0.47753588643748834 0.87837969732492682 0.51194355555555615
decision_type=2 2 2 2 2 2 2 2 2 2 2 2 2 2 2 2 2 2 2 2 2 2 2 2 2 2
left_child=1 3 8 4 23 6 7 -3 12 -9 -4 -11 13 14 15 -2 22 20 -19 21 -16 -14 -5 -1 -23 -25
right_child=2 5 10 16 -6 -7 -8 9 -10 11 -12 -13 19 -15 17 -17 -18 18 -20 -21 -22 24 -24 25 -26 -27
leaf_value=-0.015841279983045797 -0.00051528307061556847 0.0033835545490833881 0.00041124173162479294 -0.022847024419037985 0.0010943722444324401 0.0033203742817899911 -0.018707166855077031 0.0010394358722090069 -0.031874495764195529 -0.00057365163572240636 -0.019708737215821705 -0.0059095609243158716 0.0074879771811910299 0.0031370783080154016 0.006252237175746988 0.0073834042645566367 -0.022150176908764946 0.0075885803839237133 0.0014024252308551754 0.0073834042645566367 0.0073834042645566367 0.0073834042645566367 -0.021026942384064759 -0.017220533048511798 0.0073834042645566367 -0.015202044669072177
leaf_weight=3.0455845706164828 17.284790128469471 39.247173845767975 21.874347358942032 79.391714215278625 44.874006509780884 35.061747670173645 59.704086452722549 13.431645929813383 15.460386037826536 18.894960433244705 16.093530058860779 36.797275722026825 19.496594578027725 63.45144122838974 19.864812910556797 13.044835358858107 43.030760556459427 12.06424516439438 10.737343937158583 17.660953491926193 10.12860384583473 92.869966015219688 44.840181946754456 22.727014556527138 16.835641384124756 26.434165701270103
leaf_count=29 21 28 32 23 19 20 33 19 9 14 10 30 34 39 24 22 26 22 20 34 20 174 18 60 31 71
internal_value=0.00108521 -0.0212446 0.0311795 -0.0339478 -0.0196433 -0.00471376 -0.0103539 0.00285725 0.0365914 -0.0128605 -0.0128506 -0.021375 0.0388109 0.0332963 0.0258104 0.0119098 -0.0422503 0.033796 0.021927 0.0443147 0.0428191 0.0454327 -0.0460442 -0.0461985 0.0463345 -0.0463345
internal_weight=814.348 467.48 346.867 264.343 97.0808 203.137 168.075 108.371 308.9 69.1239 37.9679 55.6922 293.439 146.576 83.1246 30.3296 167.263 52.795 22.8016 146.863 29.9934 129.202 124.232 52.2068 109.706 49.1612
internal_count=882 390 492 246 179 144 124 91 450 63 42 44 441 168 129 43 67 86 42 273 44 239 41 160 205 131
is_linear=0
shrinkage=0.0463345


Tree=4
num_leaves=27
num_cat=0
split_feature=52 38 84 54 41 62 35 69 60 58 61 51 52 82 58 51 58 72 37 72 81 50 81 6 2 52
split_gain=254.901 45.7261 38.4995 14.6233 37.0987 14.429 24.8021 21.9638 13.4529 9.67821 7.63661 5.64726 4.14845 5.01228 4.29797 5.39935 3.2375 2.63362 3.35141 0.625451 0.33861 0.275393 0.00863107 0.00725361 1.42109e-14 7.10543e-15
threshold=0.91473214285714333 0.60357142857142865 0.0048724410589784392 0.56448547789115655 5499.5000000000009 9155.2346866518947 5132.5000000000009 79.970000000000013 7602.5788095238104 247.95671482100744 3917.1949665345269 4535.2953571428579 1.0824404761904767 2973.3000000000006 272.47230329239227 6041.8685714285721 295.3162138347966 20.000000000000004 6505.0000000000009 29.000000000000004 -557.19999999999993 6473.9007142857154 -198.60000000000011 0.47753588643748834 0.87837969732492682 0.51194355555555615
decision_type=2 2 2 2 2 2 2 2 2 2 2 2 2 2 2 2 2 2 2 2 2 2 2 2 2 2
left_child=1 3 8 4 23 6 7 -3 12 -9 -4 -11 13 14 15 -2 22 20 -19 21 -16 -14 -5 -1 -23 -25
right_child=2 5 10 16 -6 -7 -8 9 -10 11 -12 -13 19 -15 17 -17 -18 18 -20 -21 -22 24 -24 25 -26 -27
leaf_value=-0.015107282903569146 -0.00049140771020653856 0.0032267793920294696 0.00039218706998794573 -0.021788419987056901 0.0010436651025768954 0.0031665265480076456 -0.01784038046839587 0.00099127417723731174 -0.030397608364582003 -0.00054707179964174225 -0.018795543612017702 -0.0056357446377481536 0.0071410258371036681 0.0029917234933389877 0.0059625431717204753 0.0070412982496020288 -0.021123860526608647 0.007236967645234977 0.001337444621666159 0.0070412982496020288 0.0070412982496020288 0.0070412982496020288 -0.020052670461799305 -0.016422629029507869 0.0070412982496020288 -0.014497666209685395
leaf_weight=3.0455845706164828 17.284790128469471 39.247173845767975 21.874347358942032 79.391714215278625 44.874006509780884 35.061747670173645 59.704086452722549 13.431645929813383 15.460386037826536 18.894960433244705 16.093530058860779 36.797275722026825 19.496594578027725 63.45144122838974 19.864812910556797 13.044835358858107 43.030760556459427 12.06424516439438 10.737343937158583 17.660953491926193 10.12860384583473 92.869966015219688 44.840181946754456 22.727014556527138 16.835641384124756 26.434165701270103
leaf_count=29 21 28 32 23 19 20 33 19 9 14 10 30 34 39 24 22 26 22 20 34 20 174 18 60 31 71
internal_value=0.00108521 -0.0212446 0.0311795 -0.0339478 -0.0196433 -0.00471376 -0.0103539 0.00285725 0.0365914 -0.0128605 -0.0128506 -0.021375 0.0388109 0.0332963 0.0258104 0.0119098 -0.0422503 0.033796 0.021927 0.0443147 0.0428191 0.0454327 -0.0460442 -0.0461985 0.0463345 -0.0463345
internal_weight=814.348 467.48 346.867 264.343 97.0808 203.137 168.075 108.371 308.9 69.1239 37.9679 55.6922 293.439 146.576 83.1246 30.3296 167.263 52.795 22.8016 146.863 29.9934 129.202 124.232 52.2068 109.706 49.1612
internal_count=882 390 492 246 179 144 124 91 450 63 42 44 441 168 129 43 67 86 42 273 44 239 41 160 205 131
is_linear=0
shrinkage=0.0463345


Tree=5
num_leaves=27
num_cat=0
split_feature=52 38 84 62 35 7 54 41 60 60 57 61 52 82 84 83 84 58 53 72 50 7 81 6 2 52
split_gain=253.649 44.9134 38.0769 14.7089 22.3321 19.5053 14.6233 37.0987 13.2797 11.0313 13.5446 7.63661 4.59144 5.61551 4.28443 5.00048 3.68341 3.2375 1.87347 0.625451 0.275393 0.262416 0.00863107 0.00725361 1.42109e-14 7.10543e-15
threshold=0.91473214285714333 0.60357142857142865 0.0048724410589784392 9155.2346866518947 5132.5000000000009 -0.0085834810820868326 0.56448547789115655 5499.5000000000009 7602.5788095238104 6440.2321130952396 0.99999999971284592 3917.1949665345269 1.0824404761904767 2973.3000000000006 0.0006142732163425536 517.6500000000002 0.0075007765553891667 295.3162138347966 1.046964285714286 29.000000000000004 6473.9007142857154 -0.22131713103510575 -198.60000000000011 0.47753588643748834 0.87837969732492682 0.51194355555555615
decision_type=2 2 2 2 2 2 2 2 2 2 2 2 2 2 2 2 2 2 2 2 2 2 2 2 2 2
left_child=1 6 8 4 5 -3 7 23 12 10 16 -4 13 14 18 -16 -7 22 21 20 -14 -2 -8 -1 -22 -25
right_child=2 3 11 -5 -6 9 17 -9 -10 -11 -12 -13 19 -15 15 -17 -18 -19 -20 -21 24 -23 -24 25 -26 -27
leaf_value=-0.014407295178971454 0.0065551199666018453 0.0028883295292481868 0.00037401529571921843 0.0030198072651712597 -0.017013756156814386 -0.0020887981115242709 -0.020778865414823686 0.0009953074485197094 -0.028989151738188342 -0.0055722106599482395 0.0033708241978223745 -0.017924662336441358 0.0068101502945647398 0.0028531036148277387 0.0063113805897060575 -0.00029624483641037914 -0.0039278926571983085 -0.02014509795499847 0.0067150435305096783 0.0067150435305096783 0.0067150435305096783 0.006889147746313563 -0.019123540898378866 -0.015661695458616617 0.0067150435305096783 -0.013825924742548573
leaf_weight=3.0455845706164828 16.134892135858539 34.491918444633484 21.874347358942032 35.061747670173645 59.704086452722549 16.061067044734955 79.391714215278625 44.874006509780884 15.460386037826536 21.378433585166931 19.308989822864532 16.093530058860779 19.496594578027725 63.45144122838974 18.928944617509842 20.846878498792648 17.130647033452988 43.030760556459427 17.160908281803131 17.660953491926193 92.869966015219688 10.053007811307905 44.840181946754456 22.727014556527138 16.835641384124756 26.434165701270103
leaf_count=29 20 24 32 20 33 21 23 19 9 13 14 10 34 39 29 33 19 26 27 34 174 20 18 60 31 71
internal_value=0.000916911 -0.021358 0.0309372 -0.00497473 -0.0106693 0.00186675 -0.0339478 -0.0196433 0.0363193 -0.0115647 -0.000139525 -0.0128506 0.0385245 0.032723 0.0247993 0.0138178 -0.0180897 -0.0422503 0.0348758 0.0443147 0.0454327 0.0426733 -0.0460442 -0.0461985 0.0463345 -0.0463345
internal_weight=814.348 467.48 346.867 203.137 168.075 108.371 264.343 97.0808 308.9 73.8791 52.5007 37.9679 293.439 146.576 83.1246 39.7758 33.1917 167.263 43.3488 146.863 129.202 26.1879 124.232 52.2068 109.706 49.1612
internal_count=882 390 492 144 124 91 246 179 450 67 54 42 441 168 129 62 40 67 67 273 239 40 41 160 205 131
is_linear=0
shrinkage=0.0463345


Tree=6
num_leaves=26
num_cat=0
split_feature=52 38 84 63 54 41 84 35 59 79 73 74 84 34 58 52 82 72 83 74 51 81 6 4 52
split_gain=255.56 38.4971 28.0926 15.7636 14.6233 37.0987 14.0179 13.653 18.3894 13.6533 13.2568 15.0629 7.26551 6.02138 3.2375 2.66359 4.50999 3.24508 3.70767 0.455879 0.3809 0.00863107 0.00725361 1.42109e-14 7.10543e-15
threshold=0.86925595238095277 0.60357142857142865 0.0023172799265012149 7747.8645731565584 0.56448547789115655 5499.5000000000009 7.5837251642951755e-05 4650.0000000000009 248.72708809767042 3200.8500000000004 294.65000000000003 1020.1500000000002 0.0069711958058178434 5569.9000000000005 295.3162138347966 1.0824404761904767 3081.6000000000004 15.650000000000002 531.40000000000009 1007.9000000000001 6020.8085714285726 -198.60000000000011 0.47753588643748834 0.68301270189221941 0.51194355555555615
decision_type=2 2 2 2 2 2 2 2 2 2 2 2 2 2 2 2 2 2 2 2 2 2 2 2 2
left_child=1 4 3 13 5 22 -3 8 -8 -10 11 -4 -11 -2 21 16 17 -15 -19 -17 -21 -6 -1 -22 -24
right_child=2 6 10 -5 14 -7 7 -9 9 12 -12 -13 -14 15 -16 19 -18 18 -20 20 23 -23 24 -25 -26
leaf_value=-0.013739741004318847 0.0024417619275903038 0.0024616656980496515 0.0054634911274788365 -0.020278990693649506 -0.019816088003803745 0.00094919042002348272 0.0029149569702933407 -0.0096239723325638286 7.8368957567507105e-05 0.0017464672553295266 -0.005641624628207163 -0.00061976569179020735 -0.0053695671981338891 0.0060189462078083945 -0.019211685814024691 0.0064039056461197971 0.0027996487996911159 0.0065063011859977631 0.0031915635807884604 0.0064513723762868467 0.0064039056461197971 -0.018237462047194807 -0.014936019330262057 0.0066644334277574753 -0.013185308050402753
leaf_weight=3.0455845706164828 32.564245074987411 15.779114484786986 33.169103443622589 13.999773144721983 79.391714215278625 44.874006509780884 21.819523453712463 67.477866172790527 13.03825208544731 20.187082916498184 21.693189561367035 28.813620835542679 30.212372303009033 23.583064794540405 43.030760556459427 12.369579970836638 50.241929203271866 14.649375855922697 21.609761595726013 10.28251990675926 98.338898718357086 44.840181946754456 22.727014556527138 20.175108030438423 26.434165701270103
leaf_count=29 38 9 36 8 23 19 17 38 10 19 24 26 23 33 26 22 29 25 37 22 180 18 60 40 71
internal_value=0.00145251 -0.0229152 0.0291013 0.0357661 -0.0339478 -0.0196433 -0.00560859 -0.00990394 0.00242038 -0.0102 0.00538041 0.0162911 -0.0211331 0.0381337 -0.0422503 0.0405633 0.0351609 0.0265677 0.017866 0.0447763 0.0455923 -0.0460442 -0.0461985 0.0463345 -0.0463345
internal_weight=814.348 432.858 381.49 297.814 264.343 97.0808 168.514 152.735 85.2572 63.4377 83.6759 61.9827 50.3995 283.814 167.263 251.25 110.084 59.8422 36.2591 141.166 128.797 124.232 52.2068 118.514 49.1612
internal_count=882 362 520 434 246 179 116 107 69 52 86 62 42 426 67 388 124 95 62 264 242 41 160 220 131
is_linear=0
shrinkage=0.0463345


Tree=7
num_leaves=25
num_cat=0
split_feature=52 38 84 63 73 57 58 45 36 35 68 41 58 34 50 82 72 69 79 47 81 79 6 4
split_gain=251.278 32.9943 27.3594 15.6369 13.4325 15.7063 13.0875 17.654 12.132 11.2276 10.3352 8.92877 6.59747 5.89182 2.78214 3.8724 4.2348 4.34375 2.39698 0.443599 0.269801 0.00354968 1.42109e-14 7.10543e-15
threshold=0.86925595238095277 0.60357142857142865 0.0023172799265012149 7747.8645731565584 294.65000000000003 0.85909283148062066 295.3162138347966 5540.2854166666684 5287.9100000000008 4650.0000000000009 7.7500000000000009 3421.0000000000005 240.97401927729354 5569.9000000000005 6525.0935714285724 3081.6000000000004 21.800000000000004 76.060000000000016 4077.8500000000004 8870.5000000000018 -589.64999999999998 2155.9500000000003 0.65365639399891895 0.25000000000000011
decision_type=2 2 2 2 2 2 2 2 2 2 2 2 2 2 2 2 2 2 2 2 2 2 2 2
left_child=1 6 3 13 5 -4 10 21 11 12 -1 -3 -10 -2 15 16 18 -18 20 -16 -15 -8 -21 -23
right_child=2 8 4 -5 -6 -7 7 -9 9 -11 -12 -13 -14 14 19 -17 17 -19 -20 22 -22 23 -24 -25
leaf_value=-0.017451568208850705 0.0023286242186711581 0.00064237899293254292 -0.00072572095509412652 -0.019339374705559954 -0.0053802230239782473 0.0029253279983935689 -0.012574373983751988 -0.00091681385406600872 0.0027553557582757535 -0.0080804338539694435 -0.012087787945351737 -0.0058575422344375088 7.3160829810834363e-06 0.0057400616137107787 0.006107184166130388 0.0026699285974894722 0.006314523751774893 0.00085882581793717385 0.0061250210520221813 0.006107184166130388 0.0063422739202165825 -0.016742264319443645 0.0063556405349119568 -0.014285545758574249
leaf_weight=133.46718535944819 32.564245074987411 17.918342858552933 26.631554901599884 13.999773144721983 21.693189561367035 35.351169377565384 5.3566061109304455 49.662201881408691 17.516458660364151 51.324971616268158 52.948013454675674 46.87007948756218 34.884358793497086 24.781838774681088 13.096140921115873 51.778138071298599 11.935527861118318 18.908172488212585 11.022474348545073 93.023916095495224 11.087150931358339 7.3908059895038631 15.616878584027289 15.518615260720251
leaf_count=107 38 16 28 8 24 34 23 28 11 29 22 31 29 32 20 30 22 34 19 178 22 7 31 59
internal_value=0.00157944 -0.0225832 0.0289956 0.0355729 0.00558632 0.016569 -0.032797 -0.0168514 -0.00656124 0.00326433 -0.0394628 -0.0222919 0.0183512 0.0379309 0.0403343 0.0356072 0.0290684 0.0157339 0.0378393 0.0453634 0.0436466 -0.0460834 0.0463345 -0.0463345
internal_weight=814.348 432.858 381.49 297.814 83.6759 61.9827 264.343 77.9282 168.514 103.726 186.415 64.7884 52.4008 283.814 251.25 129.513 77.7352 30.8437 46.8915 121.737 35.869 28.266 108.641 22.9094
internal_count=882 362 520 434 86 62 246 117 116 69 129 47 40 426 388 159 129 56 73 229 54 89 209 66
is_linear=0
shrinkage=0.0463345


Tree=8
num_leaves=26
num_cat=0
split_feature=52 38 84 63 58 67 84 35 59 79 73 74 68 84 34 50 82 72 69 79 47 81 68 6 9
split_gain=244.122 34.066 27.7365 15.6369 15.2512 16.4165 14.0179 13.653 18.3894 13.6533 13.2568 15.0629 10.3352 7.26551 5.89182 2.78214 3.8724 4.2348 4.34375 2.39698 0.443599 0.269801 0.00356609 1.42109e-14 3.55271e-15
threshold=0.86925595238095277 0.60357142857142865 0.0023172799265012149 7747.8645731565584 295.3162138347966 15222394.000000002 7.5837251642951755e-05 4650.0000000000009 248.72708809767042 3200.8500000000004 294.65000000000003 1020.1500000000002 7.7500000000000009 0.0069711958058178434 5569.9000000000005 6525.0935714285724 3081.6000000000004 21.800000000000004 76.060000000000016 4077.8500000000004 8870.5000000000018 -589.64999999999998 8.5500000000000025 0.65365639399891895 -0.58195561077325075
decision_type=2 2 2 2 2 2 2 2 2 2 2 2 2 2 2 2 2 2 2 2 2 2 2 2 2
left_child=1 4 3 14 12 22 -3 8 -8 -10 11 -4 -1 -11 -2 16 17 19 -19 21 -17 -16 24 -22 -6
right_child=2 6 10 -5 5 -7 7 -9 9 13 -12 -13 -14 -15 15 20 -18 18 -20 -21 23 -23 -24 -25 -26
leaf_value=-0.016642959301534296 0.0022207286838701492 0.0027220082600847521 0.0050747997625614728 -0.018443295312482007 -0.021083479341189964 -0.00090646874639752821 0.002652226118560187 -0.010666892964276829 7.4398787885206338e-05 0.0016357813655895749 -0.0051309333206992483 -0.00058398819508533929 -0.011527706874963682 -0.0048493651978351966 0.0054740989853758904 0.0058242111142959817 0.0025462189101999435 0.0060219437331748091 0.00081903259145423262 0.0058412215377954997 0.0058242111142959817 0.0060484081126769059 -0.011991747214311701 0.0060611553925609876 -0.012122701887505307
leaf_weight=133.46718535944819 32.564245074987411 15.779114484786986 33.169103443622589 13.999773144721983 6.9804767519235673 52.985924959182739 21.819523453712463 67.477866172790527 13.03825208544731 20.187082916498184 21.693189561367035 28.813620835542679 52.948013454675674 30.212372303009033 24.781838774681088 13.096140921115873 51.778138071298599 11.935527861118318 18.908172488212585 11.022474348545073 93.023916095495224 11.087150931358339 5.2056413143873206 15.616878584027289 12.756186217069624
leaf_count=107 38 9 36 8 14 30 17 38 10 19 24 26 22 23 32 20 30 22 34 19 178 22 21 31 52
internal_value=0.00192744 -0.0218887 0.0289505 0.0355729 -0.032267 -0.0150537 -0.00560859 -0.00990394 0.00242038 -0.0102 0.00538041 0.0162911 -0.0394628 -0.0211331 0.0379309 0.0403343 0.0356072 0.0290684 0.0157339 0.0378393 0.0453634 0.0436466 -0.0460499 0.0463345 -0.0463345
internal_weight=814.348 432.858 381.49 297.814 264.343 77.9282 168.514 152.735 85.2572 63.4377 83.6759 61.9827 186.415 50.3995 283.814 251.25 129.513 77.7352 30.8437 46.8915 121.737 35.869 24.9423 108.641 19.7367
internal_count=882 362 520 434 246 117 116 107 69 52 86 62 129 42 426 388 159 129 56 73 229 54 87 209 66
is_linear=0
shrinkage=0.0463345


Tree=9
num_leaves=28
num_cat=0
split_feature=52 38 84 58 67 45 36 68 73 57 82 78 34 34 40 53 51 3 84 3 42 74 48 68 31 37 9
split_gain=230.882 37.9432 35.5052 15.2512 16.4165 15.1775 11.9328 10.3352 10.2473 11.2553 9.98623 8.25598 5.57544 5.23632 4.00989 2.67309 4.45263 5.34665 3.42706 1.07087 0.302011 0.257302 0.0901027 0.00356609 1.42109e-14 7.10543e-15 3.55271e-15
threshold=0.85714285714285754 0.60357142857142865 0.0023172799265012149 295.3162138347966 15222394.000000002 8165.3647916666678 5287.9100000000008 7.7500000000000009 294.65000000000003 0.99999999968483 3943.2000000000003 3632.2000000000003 5569.9000000000005 5375.0000000000009 1.0558035714285716 1.0920918367346941 5638.3075000000017 0.81174490092936691 0.0006142732163425536 -0.56174490092936669 6284.0000000000009 1009.9500000000002 2476.5000000000005 8.5500000000000025 17.650000000000002 5499.5000000000009 -0.58195561077325075
decision_type=2 2 2 2 2 2 2 2 2 2 2 2 2 2 2 2 2 2 2 2 2 2 2 2 2 2 2
left_child=1 3 5 7 23 12 11 -1 9 13 -8 -3 14 -4 -2 16 20 18 19 -18 -14 -17 -21 26 -23 -22 -5
right_child=2 6 8 4 -6 -7 10 -9 -10 -11 -12 -13 15 -15 -16 21 17 -19 -20 22 25 24 -24 -25 -26 -27 -28
leaf_value=-0.015871816847499713 -0.0012226167130015167 -0.0093202271637819918 -0.0015393126922398949 -0.020106587809811057 -0.00086446801077485461 -0.016605478187784836 -0.0032456261545585367 -0.010993576855903232 -0.0048931943200368443 0.002001528667557026 0.0024932626111533614 -0.0026832328094278791 0.0026882459582034447 0.00058441397479238211 0.0036535767760205889 0.0055543494646866087 0.0055388619608984198 0.00070091478741844205 0.004380092480565841 0.0055945442203668531 0.0024407401888488977 0.0055543494646866087 0.0057728974490719436 -0.011436116138884253 0.0055543494646866087 0.0023794005859934316 -0.01156100309862473
leaf_weight=133.46718535944819 18.291713833808899 22.586606115102768 19.657661646604538 6.9804767519235673 52.985924959182739 13.891487121582029 50.936095684766769 52.948013454675674 21.693189561367035 25.74538055062294 45.388558328151703 40.31623163819313 18.846901148557663 20.017820566892624 17.969012469053268 14.263791263103483 16.266174703836434 14.689443796873091 11.792281597852705 21.187287092208869 26.807150930166245 50.383847907185555 10.844721883535383 5.2056413143873206 45.79837691783905 22.630646795034409 12.756186217069624
leaf_count=107 16 16 20 14 30 8 37 22 24 19 26 30 15 25 25 29 27 21 24 32 26 97 20 21 81 18 52
internal_value=0.00219304 -0.0215041 0.0278788 -0.032267 -0.0150537 0.0353594 -0.00363575 -0.0394628 0.00180302 0.010954 0.00661444 -0.0193321 0.0376274 -0.00452752 0.0206334 0.0400582 0.0358777 0.0280666 0.0341922 0.0396598 0.0444319 0.0454732 0.0445763 -0.0460499 0.0463345 0.0463345 -0.0463345
internal_weight=814.348 423.571 390.777 264.343 77.9282 303.663 159.227 186.415 87.1141 65.4209 96.3247 62.9028 289.771 39.6755 36.2607 253.511 143.065 74.7799 60.0905 48.2982 68.2847 110.446 32.032 24.9423 96.1822 49.4378 19.7367
internal_count=882 355 527 246 117 439 109 129 88 64 63 46 431 45 41 390 183 124 103 79 59 207 52 87 178 44 66
is_linear=0
shrinkage=0.0463345


Tree=10
num_leaves=26
num_cat=0
split_feature=52 38 84 58 67 45 36 68 73 57 82 78 34 34 43 78 40 43 50 53 37 3 68 7 9
split_gain=226.374 37.9432 34.1983 15.2512 16.4165 14.7802 11.9328 10.3352 10.2473 11.2553 9.98623 8.25598 6.20858 5.23632 4.12872 3.86248 3.21732 2.10677 3.4529 2.06487 0.202031 0.1533 0.00356609 2.84217e-14 3.55271e-15
threshold=0.85714285714285754 0.60357142857142865 0.0023172799265012149 295.3162138347966 15222394.000000002 8165.3647916666678 5287.9100000000008 7.7500000000000009 294.65000000000003 0.99999999968483 3943.2000000000003 3632.2000000000003 5569.9000000000005 5375.0000000000009 840.00000000000011 3726.2000000000003 1.0558035714285716 -27.155000000000197 6525.0935714285724 0.9581887755102042 6874.6650000000009 0.81174490092936691 8.5500000000000025 0.95517546204608161 -0.58195561077325075
decision_type=2 2 2 2 2 2 2 2 2 2 2 2 2 2 2 2 2 2 2 2 2 2 2 2 2
left_child=1 3 5 7 22 12 11 -1 9 13 -8 -3 16 -4 17 -16 -2 18 -14 -19 -20 23 24 -21 -5
right_child=2 6 8 4 -6 -7 10 -9 -10 -11 -12 -13 14 -15 15 -17 -18 19 20 21 -22 -23 -24 -25 -26
leaf_value=-0.015136404859041625 -0.0011659674335479067 -0.008888379514753849 -0.0014679894770884246 -0.019174960015438568 -0.00082441335636000625 -0.015836072400740364 -0.0030952418345371329 -0.010484195460342322 -0.0046664708264768096 0.0019087889269522301 0.0023777386461130683 -0.0025589066787248169 0.0053381392674907383 0.00055733547159301773 0.0037500529046056619 0.0055477778669578461 0.0034842902861591031 0.0022169516033427495 0.0052969917076217806 0.0052969917076217806 0.0052969917076217806 0.0052969917076217806 -0.010906229926691765 0.002519854488132071 -0.011025330317176962
leaf_weight=133.46718535944819 18.291713833808899 22.586606115102768 19.657661646604538 6.9804767519235673 52.985924959182739 13.891487121582029 50.936095684766769 52.948013454675674 21.693189561367035 25.74538055062294 45.388558328151703 40.31623163819313 20.833711624145508 20.017820566892624 15.86762782931328 11.932508438825606 17.969012469053268 17.335459679365158 18.374347388744358 120.86735525727272 12.439046531915663 23.151146337389946 5.2056413143873206 12.709420949220656 12.756186217069624
leaf_count=107 16 16 20 14 30 8 37 22 24 19 26 30 35 25 23 21 25 21 27 194 20 38 21 11 52
internal_value=0.00196058 -0.0215041 0.0273944 -0.032267 -0.0150537 0.034736 -0.00363575 -0.0394628 0.00180302 0.010954 0.00661444 -0.0193321 0.0369741 -0.00452752 0.0395392 0.0226905 0.0190412 0.0416144 0.0333964 0.0440528 0.0432475 0.0457312 -0.0460499 0.0463345 -0.0463345
internal_weight=814.348 423.571 390.777 264.343 77.9282 303.663 159.227 186.415 87.1141 65.4209 96.3247 62.9028 289.771 39.6755 253.511 27.8001 36.2607 225.71 51.6471 174.063 30.8134 156.728 24.9423 133.577 19.7367
internal_count=882 355 527 246 117 439 109 129 88 64 63 46 431 45 390 44 41 346 82 264 47 243 87 205 66
is_linear=0
shrinkage=0.0463345


Tree=11
num_leaves=27
num_cat=0
split_feature=53 38 84 58 79 69 69 62 81 83 68 48 68 84 82 28 52 42 59 43 43 42 58 79 6 6
split_gain=231.842 36.8289 35.4923 19.4918 19.3749 16.4031 14.7533 14.8286 12.017 10.672 10.3352 7.8459 7.10068 5.73437 7.82122 4.87115 4.09185 3.00765 3.52092 2.57196 1.3307 1.18079 0.140784 0.00441506 2.84217e-14 3.55271e-15
threshold=0.88768635204081658 0.60357142857142865 0.0041357658337801704 295.3162138347966 3652.2500000000005 62.045000000000009 73.965000000000018 8389.3511829849758 -353.09999999999985 3454.7900000000004 7.7500000000000009 5240.5000000000009 4.6500000000000012 0.00062323265592567634 61.500000000000007 6.2500000000000009 0.58167777777777829 7607.0000000000009 314.79583062790016 875.68500000000006 -407.07499999999976 6499.5000000000009 219.11941136090621 2118.6000000000008 0.87857987807829374 0.78409092058139029
decision_type=2 2 2 2 2 2 2 2 2 2 2 2 2 2 2 2 2 2 2 2 2 2 2 2 2 2
left_child=1 3 11 10 16 -3 -7 8 -8 -10 -1 13 -4 19 15 -15 23 -16 -19 20 -2 -22 -23 -5 -24 -25
right_child=2 5 12 4 -6 6 7 -9 9 -11 -12 -13 -14 14 17 -17 -18 18 -20 -21 21 22 24 25 -26 -27
leaf_value=-0.01443506778449946 0.0050463271004529469 -0.022296047458763676 -0.0042774444590833981 -0.010400895703519137 0.00042707571640498618 0.0023294655280216747 -0.0037049257802683876 0.0023949022839045131 0.0014741410220128744 -0.015839902188392114 -0.0099984159742913473 -0.0032641326430637324 0.00039318432785399486 -0.00022925494100119076 0.0022124296316804615 0.0051008266720505065 -0.020528495572817589 0.00039397533417629267 0.0059751859012077942 0.0051293310018673439 0.0013780724775780131 0.0050515584820511501 0.0050515584820511501 -0.0091947665605945986 0.0020676899443287239 -0.015076793212186282
leaf_weight=133.46718535944819 27.082746803760529 18.257207989692688 28.681498289108276 4.4039386957883861 39.541997440159321 25.051691353321075 37.791373461484909 57.010351598262787 23.476231694221497 27.078320384025574 52.948013454675674 14.109421133995054 23.692962527275085 18.310215622186664 42.248444974422455 12.255164653062819 8.6188422441482526 17.477185100317005 10.183427870273588 14.479477912187575 12.721384674310682 11.653007864952086 108.6083994358778 8.1333712711930293 23.879682123661041 13.186265677213667
leaf_count=107 37 8 33 19 30 14 26 34 29 13 22 9 26 23 38 23 5 30 21 25 16 16 195 28 23 32
internal_value=0.00212052 -0.0201825 0.0295254 -0.0314805 -0.0113406 -0.00459475 -0.000122829 -0.00578267 -0.017671 -0.00289609 -0.0394628 0.0354325 -0.00577791 0.0370264 0.0280074 0.00845659 -0.0368008 0.0365554 0.0246779 0.0415932 0.0430732 0.0447107 0.045905 -0.0460586 0.0463345 -0.0463345
internal_weight=814.348 448.965 365.383 260.3 73.8844 188.665 170.408 145.356 88.3459 50.5546 186.415 313.009 52.3745 298.899 100.474 30.5654 34.3424 69.9091 27.6606 198.425 183.945 156.862 144.141 25.7236 132.488 21.3196
internal_count=882 367 515 243 114 124 116 102 68 42 129 456 59 447 135 46 84 89 51 312 287 250 234 79 218 60
is_linear=0
shrinkage=0.0463345


Tree=12
num_leaves=27
num_cat=0
split_feature=52 38 84 58 79 63 73 57 72 26 72 68 84 79 25 79 46 53 42 43 82 66 72 79 3 5
split_gain=227.401 39.7989 23.64 17.7142 18.6733 15.0653 14.5069 11.8101 10.7765 13.5142 10.8462 10.3352 6.58346 5.87955 8.13194 4.56289 4.04368 3.53136 2.54227 1.96965 0.45467 0.154919 0.139343 0.00353028 1.42109e-14 3.55271e-15
threshold=0.86925595238095277 0.60357142857142865 0.0023172799265012149 295.3162138347966 3652.2500000000005 7747.8645731565584 294.65000000000003 0.85909283148062066 29.350000000000005 10.550000000000002 18.200000000000003 7.7500000000000009 0.00039909861516207462 3587.1500000000005 11.050000000000002 3366.8000000000006 4063.5926521528813 1.0135923469387758 8950.2450000000008 -407.07499999999976 52.500000000000007 66.250000000000014 28.600000000000005 2155.9500000000003 0.81174490092936691 1.0000000180025095e-35
decision_type=2 2 2 2 2 2 2 2 2 2 2 2 2 2 2 2 2 2 2 2 2 2 2 2 2 2
left_child=1 3 5 11 16 12 7 -4 9 10 15 -1 19 18 17 -3 23 -15 21 -2 -21 -14 24 -5 -22 -25
right_child=2 8 6 4 -6 -7 -8 -9 -10 -11 -12 -13 13 14 -16 -17 -18 -19 -20 20 22 -23 -24 25 -26 -27
leaf_value=-0.013766226781297087 0.0048177396645199579 -0.00081540434312371557 -0.00034985979242904512 -0.00991897586632828 0.00022309100719392094 -0.016199921767072564 -0.0045065516678962809 0.0029083155821504367 0.002199486464026938 -0.016449981020986704 0.0020927143905638086 -0.0095351448161288214 0.0019752996241611835 0.0020482319466990787 -0.00057527693840768619 -0.0025164805998486432 -0.029947474291900159 0.0051966535737747333 0.0047747014979242063 0.0049562130893632669 0.0048174972713030681 0.0049153579321014077 0.0048174972713030681 -0.0098159026409288183 0.0048174972713030681 -0.014427542596611069
leaf_weight=133.46718535944819 20.421452820301056 14.538932949304579 26.631554901599884 5.3566061109304455 41.478660352528095 13.999773144721983 21.693189561367035 35.351169377565384 37.869602769613266 35.047105729579926 40.898751646280289 52.948013454675674 28.242792248725891 22.886424332857132 16.434960454702377 40.159818321466446 8.8292849063873273 18.48013636469841 14.164472252130507 20.809579908847809 99.71888741850853 16.708036243915558 11.624177038669584 8.2433598488569277 14.323564067482947 14.020318023860453
leaf_count=107 27 9 28 23 31 8 24 34 23 23 28 22 22 30 21 33 5 35 29 29 164 26 19 21 24 37
internal_value=0.00249596 -0.0204901 0.0285771 -0.0317077 -0.0131565 0.0346909 0.00681711 0.0182306 -0.00289333 -0.0092018 -0.000178689 -0.0394628 0.0370055 0.028574 0.0180661 -0.0136741 -0.0373519 0.0290206 0.0388485 0.0429119 0.0447914 0.0442423 0.0458419 -0.0460775 0.0463345 -0.0463345
internal_weight=814.348 432.858 381.49 264.343 77.9282 297.814 83.6759 61.9827 168.514 130.645 95.5975 186.415 283.814 116.917 57.8015 54.6988 36.4496 41.3666 59.1153 166.898 146.476 44.9508 125.667 27.6203 114.042 22.2637
internal_count=882 362 520 246 117 434 86 62 116 93 70 129 426 163 86 42 86 65 77 263 236 48 207 81 188 58
is_linear=0
shrinkage=0.0463345


Tree=13
num_leaves=30
num_cat=0
split_feature=52 38 84 58 45 78 74 60 42 62 48 51 84 84 79 9 61 23 74 43 72 74 82 72 83 80 28 6 7
split_gain=214.621 43.0944 29.6259 20.3025 17.9449 14.7889 14.4078 12.4229 10.3672 8.30188 13.0057 6.02043 5.98042 5.3214 7.80229 8.80219 5.05587 3.14013 2.64701 2.63281 2.03119 1.68328 0.453003 0.139154 0.0468039 0.0717449 0.00401065 1.42109e-14 3.55271e-15
threshold=0.91130952380952401 0.60357142857142865 0.0048724410589784392 295.3162138347966 5540.2854166666684 3065.7500000000005 1022.35 7602.5788095238104 8804.1250000000018 8389.3511829849758 1763.5000000000002 5032.6221428571434 7.1846938226372017e-05 0.00039909861516207462 3587.1500000000005 -0.088795895322935095 3917.1949665345269 1.0000000180025095e-35 1011.9000000000001 -407.07499999999976 28.250000000000004 1014.0500000000001 52.500000000000007 28.600000000000005 502.00000000000006 -322.30000000000013 5.3500000000000014 0.85283291294431829 -0.35273909160235833
decision_type=2 2 2 2 2 2 2 2 2 2 2 2 2 2 2 2 2 2 2 2 2 2 2 2 2 2 2 2 2
left_child=1 3 7 8 18 -3 9 13 12 10 -7 -8 -1 19 21 -16 -4 20 -5 -2 -17 -15 -21 27 25 -14 -20 -24 -28
right_child=2 5 16 4 -6 6 11 -9 -10 -11 -12 -13 24 14 15 17 -18 -19 26 22 -22 -23 23 -25 -26 -27 28 -29 -30
leaf_value=-0.024148570621120573 0.0045945123213241333 -0.0093474781127771984 0.00039117690910339008 -0.0088343628689961685 -0.00017692891331048532 0.0020830517714952954 -0.0023353486833873299 -0.019863236266511451 -0.024570985285263667 0.0036039959690367346 -0.0043189177720179463 -0.0017281286974511919 -0.021823271450639926 0.0018040058230811157 -0.00054862179481238377 0.0050975322640770555 -0.017367959417983452 0.0023277795084919338 -0.0094593855222982332 0.0047265696554519947 0.0026403319329996217 0.0020054859824116828 0.0045942811592649228 0.0045942811592649228 -0.010289922856119505 -0.0095657810420656346 -0.01713310918384426 0.0017631951967021977 -0.013759050268890634
leaf_weight=9.6322358846664411 20.421452820301056 26.131645917892456 23.377866059541702 4.5010215193033245 49.662201881408691 51.176912426948547 20.273257791996002 15.460386037826536 33.831101149320602 34.101157456636429 34.163451105356216 35.529625415802002 4.9322360903024673 25.59023854136467 13.873325914144514 20.341203212738037 16.093530058860779 12.709580034017561 4.6940635740757015 20.809579908847809 13.165811628103254 42.773439228534698 96.241429969668388 11.624177038669584 131.08661778829992 6.9330079015344364 7.3520998954773029 16.146310985088348 11.718842372298234
leaf_count=3 27 17 33 17 28 36 13 9 14 21 24 31 5 38 19 27 10 22 19 29 23 51 168 19 71 36 16 19 37
internal_value=0.00262871 -0.0179517 0.0301213 -0.0302536 -0.0103932 -0.00180317 0.00304558 0.0349476 -0.0385559 0.0121265 0.00440467 -0.0163915 -0.0437011 0.0370786 0.0300047 0.0178245 -0.00768002 0.0275406 -0.0398651 0.0425775 0.0349789 0.0407108 0.0447737 0.0458353 -0.0460822 -0.0432955 -0.0460358 0.0463345 -0.0463345
internal_weight=814.348 465.719 348.628 264.343 77.9282 201.376 175.244 309.157 186.415 119.442 85.3404 55.8029 152.584 293.697 128.454 60.0899 39.4714 46.2166 28.266 165.243 33.507 68.3637 144.821 124.012 142.952 11.8652 23.765 112.388 19.0709
internal_count=882 388 494 246 117 142 125 451 129 81 60 44 115 442 180 91 43 72 89 262 50 89 235 206 112 41 72 187 53
is_linear=0
shrinkage=0.0463345


Tree=14
num_leaves=30
num_cat=0
split_feature=52 38 53 58 45 51 84 84 79 42 74 39 84 43 43 39 59 74 58 80 84 56 56 58 83 80 28 6 7
split_gain=208.719 38.4256 22.4742 20.3025 17.9449 13.9624 13.0127 11.6537 11.9777 10.3672 9.86388 7.47124 5.98042 5.91203 4.88815 4.05504 3.47578 2.64701 2.26818 1.66721 0.836556 2.51049 2.26902 0.13725 0.0468039 0.0717449 0.00401065 1.42109e-14 3.55271e-15
threshold=0.86925595238095277 0.60357142857142865 0.95963392857142871 295.3162138347966 5540.2854166666684 5032.6221428571434 0.0056116909254342326 7.5837251642951755e-05 3276.2500000000005 8804.1250000000018 1018.0500000000001 0.99628666666666676 7.1846938226372017e-05 -407.07499999999976 840.00000000000011 0.70982142857142871 342.31248826649124 1011.9000000000001 295.3162138347966 12.299999999999956 0.00036901923886034643 0.4855282590248462 0.38146568282875931 223.56507167539169 502.00000000000006 -322.30000000000013 5.3500000000000014 0.72800098152115778 -0.35273909160235833
decision_type=2 2 2 2 2 2 2 2 2 2 2 2 2 2 2 2 2 2 2 2 2 2 2 2 2 2 2 2 2
left_child=1 3 5 9 17 -2 13 -3 -9 12 -10 -7 -1 16 19 -12 18 -5 -4 20 23 22 -22 -15 25 -14 -19 -25 -28
right_child=2 7 6 4 -6 11 -8 8 10 -11 15 -13 24 14 -16 -17 -18 26 -20 -21 21 -23 -24 27 -26 -27 28 -29 -30
leaf_value=-0.023029659754801167 0.0018994358522233664 0.002287022356629741 -4.9201727276965361e-05 -0.0084250274774230072 -0.00016873100848310808 0.00026716309477087426 -0.0030657078435352841 0.00050711252937095407 -0.00028096796010634699 -0.023432502065564919 -0.0082691713210308413 -0.0028103140906961493 -0.020812102054824731 0.0043814076441951698 0.0044985817052131021 -0.0045605418884931094 0.0043362843359661622 -0.0090210900465259782 0.0031411040116968492 0.0016230010418843016 0.0047191475557132731 0.0019175336497102577 0.0032320362631089862 0.0043814076441951698 -0.0098131448853674506 -0.0091225557878372027 -0.016339255901991069 0.0045772724894760971 -0.013121532169056104
leaf_weight=9.6322358846664411 48.000363409519196 15.779114484786986 12.582065939903261 4.5010215193033245 49.662201881408691 33.381611615419388 13.258002281188963 45.398297637701035 51.417230486869812 33.831101149320602 22.630578994750977 29.41963666677475 4.9322360903024673 11.782746851444243 20.344858169555664 33.288989812135696 16.23496025800705 4.6940635740757015 12.934506207704542 12.021441549062727 11.833825290203096 37.07945516705513 8.9671964049339277 94.19662868976593 131.08661778829992 6.9330079015344364 7.3520998954773029 19.452871635556221 11.718842372298234
leaf_count=3 37 9 22 17 28 26 23 27 39 14 17 31 5 16 38 24 17 19 21 17 27 42 19 155 71 36 16 29 37
internal_value=0.00279041 -0.0192312 0.0277772 -0.0302536 -0.0103932 0.0101994 0.0349724 -0.00194068 -0.0058571 -0.0385559 -0.0142956 -0.00418031 -0.0437011 0.0372779 0.0403673 -0.0277643 0.0213187 -0.0398651 0.010655 0.0426185 0.0437147 0.0391069 0.0262232 0.0458409 -0.0460822 -0.0432955 -0.0460358 0.0463345 -0.0463345
internal_weight=814.348 432.858 381.49 264.343 77.9282 110.802 270.689 168.514 152.735 186.415 107.337 62.8012 152.584 257.431 215.679 55.9196 41.7515 28.266 25.5166 195.334 183.313 57.8805 20.801 125.432 142.952 11.8652 23.765 113.65 19.0709
internal_count=882 362 520 246 117 94 426 116 107 129 80 57 115 403 343 41 60 89 43 305 288 88 46 200 112 41 72 184 53
is_linear=0
shrinkage=0.0463345


Tree=15
num_leaves=30
num_cat=0
split_feature=53 38 38 58 47 42 35 73 42 84 45 42 84 53 84 59 75 43 59 43 25 74 41 56 68 69 44 35 6
split_gain=200.741 37.8438 35.1087 16.3302 19.6541 12.254 12.3404 11.5105 10.4539 9.61288 9.03773 8.59912 8.24665 8.16998 5.99274 4.84652 4.12162 4.03033 5.51847 4.67399 4.49131 4.252 0.706014 1.81119 0.129431 0.103188 0.0496843 2.84217e-14 1.42109e-14
threshold=0.8110184948979593 0.60357142857142865 0.97937500000000011 321.64058165326247 13999.500000000002 8505.0000000000018 4263.5000000000009 57.050000000000004 8804.1250000000018 0.0023172799265012149 8014.7208333333338 6818.5000000000009 0.0041357658337801704 0.89825446428571432 7.1846938226372017e-05 349.40808964295132 98.65000000000002 -27.155000000000197 339.70767199030757 840.00000000000011 5.7500000000000009 1015.9500000000002 4672.5000000000009 0.43449090503302085 8.4000000000000021 51.630000000000003 -4664.9999999999991 3990.0000000000005 0.93568234840038345
decision_type=2 2 2 2 2 2 2 2 2 2 2 2 2 2 2 2 2 2 2 2 2 2 2 2 2 2 2 2 2
left_child=1 3 7 8 24 6 -3 -2 14 10 17 -8 15 -14 -1 -9 -11 18 21 22 -21 -4 23 -19 -5 -24 -16 -28 -27
right_child=2 5 9 4 -6 -7 11 12 -10 16 -12 -13 13 -15 26 -17 -18 19 -20 20 -22 -23 25 -25 -26 28 27 -29 -30
leaf_value=-0.021962593014016572 -0.0026739124033039307 0.00077324150794701001 -0.00060638548454100191 -0.008561383687917614 0.00053612330215441391 0.001376369553862559 -0.0017177736863387947 0.00088339271240610588 -0.025236575856178708 0.0056066009573445602 -0.013583837721816889 -0.017335908076205005 -0.00018261328174886543 -0.0029352392051760121 -0.017225824626011417 0.0035016767202462199 -0.00028534602812854443 0.0045402023696464637 0.0041807087226965788 0.0042348048131154465 0.0032488855947698158 0.0043953888837117011 0.001518275606977172 0.0037946429601174148 -0.0086031027528898248 0.0041783975074967559 -0.0079135227130107313 -0.015056289725298369 0.0013238689001712827
leaf_weight=9.6322358846664411 19.082746714353561 24.630351811647415 14.625993132591246 16.945062503218654 34.054710268974304 45.021566808223724 37.868172526359558 29.219387084245682 33.77593669295311 21.59489232301712 13.760726451873778 37.705221593379974 17.739840894937515 29.144381463527679 11.255164742469786 16.810329079627991 19.613189548254013 13.682678729295729 23.616799086332321 18.233484596014023 15.563359946012495 17.652781009674072 10.46964807808399 24.337116867303848 5.0687514245510092 104.68880808353424 23.213042017072439 112.43064713478088 12.910783112049101
leaf_count=3 18 20 22 55 19 26 25 36 14 27 8 19 14 30 7 14 17 29 29 27 22 35 10 30 21 179 87 28 11
internal_value=0.00271265 -0.0211894 0.0248537 -0.0322481 -0.0102711 -0.00242838 -0.0114501 0.00261173 -0.038723 0.0328699 0.0360564 -0.0207329 0.0093435 -0.00433405 -0.0437675 0.023275 0.0120276 0.0380243 0.0270255 0.0410999 0.0253931 0.0145725 0.0442961 0.0387516 -0.0443913 0.045942 -0.046089 -0.0463345 0.0463345
internal_weight=814.348 391.601 422.747 246.376 56.0685 145.225 100.204 111.997 190.307 310.75 269.542 75.5734 92.9139 46.8842 156.531 46.0297 41.2081 255.781 55.8956 199.886 33.7968 32.2788 166.089 38.0198 22.0138 128.069 146.899 135.644 117.6
internal_count=882 324 558 234 95 90 64 112 139 446 402 44 94 44 125 50 44 394 86 308 49 57 259 59 76 200 122 115 190
is_linear=0
shrinkage=0.0463345


Tree=16
num_leaves=31
num_cat=0
split_feature=52 38 84 58 45 73 63 84 35 59 59 42 84 67 79 83 45 84 43 58 74 42 82 72 66 61 83 80 28 7
split_gain=206.503 38.3707 21.6177 20.3025 17.9449 14.4124 14.2263 11.6661 11.6398 13.6126 13.367 10.3672 8.26865 8.17933 7.70258 7.15677 6.93831 5.98042 3.95234 3.18984 2.64701 2.5565 0.923472 0.459571 0.153737 0.127749 0.0468039 0.0717449 0.00401065 3.55271e-15
threshold=0.86925595238095277 0.60357142857142865 0.0023172799265012149 295.3162138347966 5540.2854166666684 294.65000000000003 7747.8645731565584 7.5837251642951755e-05 4263.5000000000009 248.72708809767042 287.93370255859526 8804.1250000000018 0.00036901923886034643 16672008.000000002 3510.4500000000003 603.25000000000011 5249.8277083333342 7.1846938226372017e-05 -407.07499999999976 272.47230329239227 1011.9000000000001 8950.2450000000008 65.500000000000014 28.250000000000004 27.000000000000458 1950.1252993497792 502.00000000000006 -322.30000000000013 5.3500000000000014 -0.35273909160235833
decision_type=2 2 2 2 2 2 2 2 2 2 2 2 2 2 2 2 2 2 2 2 2 2 2 2 2 2 2 2 2 2
left_child=1 3 6 11 20 15 12 -3 9 -9 -10 17 18 -12 21 -4 -16 -1 -2 -18 -5 24 -21 25 -14 -20 27 -19 -22 -30
right_child=2 7 5 4 -6 -7 -8 8 10 -11 13 -13 14 -15 16 -17 19 26 23 22 28 -23 -24 -25 -26 -27 -28 -29 29 -31
leaf_value=-0.020944968229448947 0.0039869978612077309 0.0023336544348309526 -0.00035224942111798386 -0.0076379713683526907 -0.00012430851603082246 -0.0036275573186197595 -0.013526588195681621 0.0019239668138998078 -0.012938820943031636 -0.001228656559011877 0.00029119948453796407 -0.021177446849470403 0.0015214988658900539 -0.0023592957279290911 -0.00025057994185912456 0.00087747523656733957 0.0019259642014116578 -0.019150159658736066 0.0042064940486327331 0.0041726091212832472 -0.0082044826728320964 0.0040575106845162174 0.0047366068123251741 0.0039847937349053062 0.0043149507525805583 0.0039847937349053062 -0.0085328387078213563 -0.0083331983698293043 -0.015185498329644987 -0.01134423012686603
leaf_weight=9.6322358846664411 18.038592368364334 15.779114484786986 23.917593538761139 4.5010215193033245 49.662201881408691 21.693189561367035 13.999773144721983 20.450964987277985 27.462088763713837 39.40914860367775 28.641657382249832 33.831101149320602 27.633030593395233 36.771237194538116 22.866560816764832 38.065130740404129 16.241521000862122 4.9322360903024673 10.624710485339163 13.303972840309145 4.6940635740757015 14.051078379154204 12.069262236356733 12.106242835521696 16.701906859874725 120.17760473489761 131.08661778829992 6.9330079015344364 7.3520998954773029 11.718842372298234
leaf_count=3 24 9 27 17 28 24 8 14 17 34 19 14 21 23 32 35 22 5 17 25 19 29 16 20 26 194 71 36 16 37
internal_value=0.00266535 -0.0192391 0.0275192 -0.0302536 -0.0103932 0.00671077 0.0333657 -0.00196091 -0.00587942 0.0100532 -0.0161484 -0.0385559 0.0356148 -0.00475884 0.0265632 0.018087 0.0155239 -0.0437011 0.0425249 0.0267904 -0.0398651 0.038755 0.0370538 0.0451045 0.0442132 0.0459039 -0.0460822 -0.0432955 -0.0460358 -0.0463345
internal_weight=814.348 432.858 381.49 264.343 77.9282 83.6759 297.814 168.514 152.735 59.8601 92.875 186.415 283.814 65.4129 122.867 61.9827 64.4813 152.584 160.947 41.6148 28.266 58.386 25.3732 142.909 44.3349 130.802 142.952 11.8652 23.765 19.0709
internal_count=882 362 520 246 117 86 434 116 107 48 59 129 426 42 171 62 95 115 255 63 89 76 41 231 47 211 112 41 72 53
is_linear=0
shrinkage=0.0463345


Tree=17
num_leaves=30
num_cat=0
split_feature=53 38 38 58 47 73 42 35 42 84 45 42 60 35 83 84 43 59 43 6 25 75 41 56 68 69 44 35 6
split_gain=202.158 37.8438 31.447 16.3302 19.6541 12.4811 12.254 12.3404 10.4539 9.3678 8.88603 8.59912 7.82818 6.53941 9.22137 5.99274 4.37381 6.03854 4.55778 4.508 4.49131 4.12162 0.923455 2.3383 0.129431 0.103188 0.0496843 2.84217e-14 1.42109e-14
threshold=0.8110184948979593 0.60357142857142865 0.97937500000000011 321.64058165326247 13999.500000000002 57.050000000000004 8505.0000000000018 4263.5000000000009 8804.1250000000018 0.0023172799265012149 8014.7208333333338 6818.5000000000009 6894.0402083333347 5287.9100000000008 644.80000000000007 7.1846938226372017e-05 -27.155000000000197 339.70767199030757 840.00000000000011 0.1708297432253443 5.7500000000000009 98.65000000000002 4672.5000000000009 0.43449090503302085 8.4000000000000021 51.630000000000003 -4664.9999999999991 3990.0000000000005 0.93568234840038345
decision_type=2 2 2 2 2 2 2 2 2 2 2 2 2 2 2 2 2 2 2 2 2 2 2 2 2 2 2 2 2
left_child=1 3 5 8 24 -2 7 -3 15 10 16 -9 13 -7 -15 -1 17 19 22 -4 -20 -11 23 -18 -5 -24 -17 -28 -27
right_child=2 6 9 4 -6 12 -8 11 -10 21 -12 -13 -14 14 -16 26 18 -19 20 -21 -22 -23 25 -25 -26 28 27 -29 -30
leaf_value=-0.019974494534987373 -0.0025336968434800612 0.00084430576694625276 -0.00066752744562995807 -0.007808892732783239 0.00051704208834949764 0.0016494188053262952 0.0011070527278304687 -0.0016980290296127742 -0.023086007395222877 0.0053061648186910528 -0.012295296769528919 -0.015933144997347153 -0.0039158669143677469 -0.0011720104642255361 0.0010339469099456275 -0.016032310990844907 0.0041349289553165068 0.0038022624869742008 0.0040250948692389541 0.0040070976866538261 0.0029137170031197273 -0.00020313967418890172 0.001239230624215422 0.0035483224242422009 -0.0078243324370607017 0.0038001604876634373 -0.0071514965717883782 -0.013963300308039144 0.0010060459956854292
leaf_weight=9.6322358846664411 19.082746714353561 24.630351811647415 12.893530070781706 16.945062503218654 34.054710268974304 36.491259962320328 45.021566808223724 37.868172526359558 33.77593669295311 21.59489232301712 13.760726451873778 37.705221593379974 19.562315225601196 18.773893296718597 18.086470037698746 11.255164742469786 13.682678729295729 23.616799086332321 18.233484596014023 19.385244071483612 15.563359946012495 19.613189548254013 10.46964807808399 24.337116867303848 5.0687514245510092 104.68880808353424 23.213042017072439 112.43064713478088 12.910783112049101
leaf_count=3 18 20 21 55 19 38 26 25 14 27 8 19 12 24 20 7 29 29 27 36 22 17 10 30 21 179 87 28 11
internal_value=0.00279682 -0.0211894 0.0250159 -0.0322481 -0.0102711 0.00396567 -0.00242838 -0.0114501 -0.038723 0.0326025 0.0357481 -0.0207329 0.0109755 0.0179209 0.00415572 -0.0437675 0.0376994 0.0262416 0.0409034 0.0132149 0.0253931 0.0120276 0.0440596 0.0377186 -0.0443913 0.045942 -0.046089 -0.0463345 0.0463345
internal_weight=814.348 391.601 422.747 246.376 56.0685 111.997 145.225 100.204 190.307 310.75 269.542 75.5734 92.9139 73.3516 36.8604 156.531 255.781 55.8956 199.886 32.2788 33.7968 41.2081 166.089 38.0198 22.0138 128.069 146.899 135.644 117.6
internal_count=882 324 558 234 95 112 90 64 139 446 402 44 94 82 44 125 394 86 308 57 49 44 259 59 76 200 122 115 190
is_linear=0
shrinkage=0.0463345


Tree=18
num_leaves=30
num_cat=0
split_feature=38 38 58 79 84 35 18 82 62 84 42 43 79 45 84 84 72 51 52 43 43 44 43 50 58 83 80 25 6
split_gain=194.199 51.7216 23.1002 18.3683 14.9466 19.6035 14.885 11.7249 15.1908 10.623 10.3672 8.29117 8.39909 7.42064 5.98042 4.94386 4.58839 4.17183 3.91356 3.39271 2.77398 0.44714 0.222467 0.2046 0.141797 0.0468039 0.0717449 0.00330864 1.42109e-14
threshold=0.60357142857142865 0.99998333333333345 295.3162138347966 3572.0000000000005 0.023534773848950866 6489.0000000000009 1.0000000180025095e-35 3684.4500000000003 5678.9087494411533 0.0006142732163425536 8804.1250000000018 -4.0149999999998718 3590.8500000000008 6346.2187500000009 7.1846938226372017e-05 0.0016804718761704864 22.850000000000005 5590.7464285714295 0.84842261904761951 -407.07499999999976 875.68500000000006 -880.17500000000007 431.48999999999984 5836.6407142857151 219.11941136090621 502.00000000000006 -322.30000000000013 11.550000000000002 0.86167001593038561
decision_type=2 2 2 2 2 2 2 2 2 2 2 2 2 2 2 2 2 2 2 2 2 2 2 2 2 2 2 2 2
left_child=2 4 10 16 5 7 9 8 15 19 14 -11 23 -9 -1 -2 27 -14 -10 -3 21 -21 24 -13 -23 26 -16 -4 -26
right_child=1 6 3 -5 -6 -7 -8 13 18 11 -12 12 17 -15 25 -17 -18 -19 -20 20 -22 22 -24 -25 28 -27 -28 -29 -30
leaf_value=-0.019048987210554362 0.0011582745106724745 0.0035935943904618849 -0.014120065744511094 0.00027301153708594823 -0.0097607876509225467 -0.008956480189985681 -0.013796599010756914 0.00077960798875306725 -0.0078249458825490528 -9.9461584857476998e-05 -0.004734137068951141 0.0014179556498286905 0.0047026741007862088 0.0021977105956691974 -0.01761586552764359 0.0003996280876200248 -0.006028198692507418 -0.00031618521819953084 -0.00028162366957499137 0.003609312222629214 0.0037236740033193285 0.0036240821213652115 0.0036106662772318349 0.0040488937636564632 0.0036240821213652115 -0.0074904923598738144 -0.0076157234640200286 -0.0074470719414113469 0.0012162915922882217
leaf_weight=9.6322358846664411 17.186152011156082 20.692962497472763 17.902497321367267 45.477298326790333 27.636549472808838 49.313961386680603 17.832236289978027 49.063155710697174 18.470034122467041 18.634279280900955 33.831101149320602 25.427922815084457 22.30647012591362 37.077298194169998 4.9322360903024673 28.541770756244659 9.1099886521697027 16.945516496896744 20.579909205436707 15.052973777055739 14.948263376951216 11.445743441581724 12.457616269588469 11.636435836553572 96.845482364296913 131.08661778829992 6.9330079015344364 5.4384449422359458 17.90964812040329
leaf_count=3 16 29 32 36 19 38 10 30 17 33 14 22 19 26 5 29 27 24 23 23 26 15 15 29 178 71 36 22 15
internal_value=0.00293783 0.0186243 -0.0297 -0.00851538 0.002937 0.00696757 0.0314939 0.014393 0.00216016 0.0340696 -0.0385559 0.0214215 0.0281872 0.0264323 -0.0437011 0.0202849 -0.0351456 0.0132504 -0.0190642 0.0404119 0.0425844 0.0444374 0.0452608 0.0440057 0.045844 -0.0460822 -0.0432955 -0.0460304 0.0463345
internal_weight=814.348 550.004 264.343 77.9282 247.869 220.232 302.136 170.918 84.7779 284.303 186.415 94.9506 76.3163 86.1405 152.584 45.7279 32.4509 39.252 39.0499 189.353 168.66 153.711 138.658 37.0644 126.201 142.952 11.8652 23.3409 114.755
internal_count=882 636 246 117 198 179 438 141 85 428 129 127 94 56 115 45 81 43 40 301 272 246 223 51 208 112 41 54 193
is_linear=0
shrinkage=0.0463345


Tree=19
num_leaves=30
num_cat=0
split_feature=38 53 58 84 79 35 84 83 47 53 42 7 61 43 43 82 84 59 69 72 80 83 39 84 56 73 74 25 7
split_gain=193.146 48.5327 21.9224 20 18.3683 16.4388 17.3398 17.3 9.78822 16.3167 9.68551 7.19767 7.06697 5.88119 7.34329 5.75078 5.6639 5.56723 5.39153 4.58839 1.69625 1.17529 1.20604 0.494032 1.6087 1.61953 0.216694 0.00330864 1.42109e-14
threshold=0.60357142857142865 0.95963392857142871 295.3162138347966 0.0039247786626219758 3572.0000000000005 7925.0000000000009 0.033008359372615821 635.05000000000007 12982.980000000001 0.79312244897959194 8804.1250000000018 0.71010885522459966 3036.7138455519644 840.00000000000011 -291.49999999999994 62.500000000000007 7.1846938226372017e-05 299.94012561245739 87.950000000000017 22.850000000000005 12.299999999999956 502.00000000000006 0.36023776190476192 0.00036901923886034643 0.4855282590248462 241.75000000000003 1009.9500000000002 11.550000000000002 0.93262014971044704
decision_type=2 2 2 2 2 2 2 2 2 2 2 2 2 2 2 2 2 2 2 2 2 2 2 2 2 2 2 2 2
left_child=2 5 10 13 19 6 7 12 9 -9 16 -11 15 14 17 -2 -1 -3 -10 27 23 22 -18 26 25 -25 -16 -4 -28
right_child=1 3 4 -5 -6 -7 -8 8 18 11 -12 -13 -14 -15 20 -17 21 -19 -20 -21 -22 -23 -24 24 -26 -27 28 -29 -30
leaf_value=-0.01816636276388723 0.0040311336123386781 0.00056244498907177148 -0.013465820189254095 -0.00059958401411100437 0.00026036169622088153 -0.012819817519479266 -0.0089118828758616344 -0.0057032438464868903 0.0020958808722830492 0.0017473932402146395 -0.0045147834064837647 0.00041109834766996805 -0.0025718241582871767 0.00347308560058228 0.0034561622502618365 -0.0022965252950282872 -0.016799643993551511 0.0034244726867599918 0.00069337264297359314 -0.0057488853895709836 0.0012649407135461956 -0.0071434244763521658 -0.0061359281113121597 0.0036279817801905473 0.0014658075865103012 0.0037513382062990793 0.0034561622502618365 -0.0071020159193286251 0.0022446778324848701
leaf_weight=9.6322358846664411 16.51770713925362 16.757207751274109 17.902497321367267 23.374574363231659 45.477298326790333 40.518501758575439 25.514982998371124 19.06560754776001 35.03259938955307 20.677639156579971 33.831101149320602 26.280045300722122 22.68967068195343 21.376526713371277 18.766242861747742 13.159137368202208 5.7522474359720928 28.992962598800659 53.912372201681137 9.1099886521697027 12.024506241083143 131.08661778829992 6.1129965558648109 9.1723042726516741 32.687627702951431 9.8240636289119703 92.46940965950489 5.4384449422359458 11.190692216157911
leaf_count=3 21 31 32 37 36 19 18 15 21 15 14 28 15 38 32 19 12 35 33 27 17 71 29 21 36 21 156 22 8
internal_value=0.00339636 0.0190402 -0.0291529 0.0327225 -0.00851538 0.00519438 0.00993411 0.0143697 0.02215 0.00863403 -0.0377801 0.0233112 -0.00865457 0.0365073 0.0386511 0.00622872 -0.0427532 0.0220197 0.0321828 -0.0351456 0.042739 -0.0450705 -0.0311061 0.0439014 0.0401027 0.0293797 0.045505 -0.0460304 0.0463345
internal_weight=814.348 550.004 264.343 276.636 77.9282 273.368 232.85 207.335 154.968 66.0233 186.415 46.9577 52.3665 253.262 231.885 29.6768 152.584 45.7502 88.945 32.4509 186.135 142.952 11.8652 174.11 51.684 18.9964 122.426 23.3409 103.66
internal_count=882 636 246 432 117 204 185 167 112 58 129 43 55 395 357 40 115 66 54 81 291 112 41 274 78 42 196 54 164
is_linear=0
shrinkage=0.0463345


Tree=20
num_leaves=30
num_cat=0
split_feature=38 38 58 79 18 25 34 84 73 68 42 84 43 79 2 84 72 51 43 43 46 44 83 39 43 50 58 25 6
split_gain=188.321 48.3586 21.9224 18.3683 14.4423 13.9446 13.1614 11.6026 12.5512 12.2204 9.68551 9.55305 8.29117 8.39909 8.25671 5.6639 4.58839 4.17183 3.02693 3.53106 2.51661 1.87907 1.17529 1.20604 0.222467 0.2046 0.141797 0.00330864 1.42109e-14
threshold=0.60357142857142865 0.99998333333333345 295.3162138347966 3572.0000000000005 1.0000000180025095e-35 -8.9499999999999975 10750.000000000002 0.0032953044865280394 116.40000000000002 4.3500000000000005 8804.1250000000018 0.0006142732163425536 -4.0149999999998718 3590.8500000000008 1.0000000180025095e-35 7.1846938226372017e-05 22.850000000000005 5590.7464285714295 -407.07499999999976 875.68500000000006 2966.340414918493 -880.17500000000007 502.00000000000006 0.36023776190476192 431.48999999999984 5836.6407142857151 219.11941136090621 11.550000000000002 0.86167001593038561
decision_type=2 2 2 2 2 2 2 2 2 2 2 2 2 2 2 2 2 2 2 2 2 2 2 2 2 2 2 2 2
left_child=2 5 10 16 11 -2 7 8 -7 14 15 18 -13 25 -9 -1 27 -15 -3 21 -10 -20 23 -17 26 -14 -23 -4 -28
right_child=1 4 3 -5 -6 6 -8 9 20 -11 -12 12 13 17 -16 22 -18 -19 19 -21 -22 24 -24 -25 -26 -27 28 -29 -30
leaf_value=-0.01732463424020244 0.0017296541938124704 0.0032684160750880474 -0.012841888745440941 0.0002482979788420928 -0.012538931571023927 -0.00010879372599508944 -0.01183332959483473 -0.0027913924442831126 0.0032946666578678135 0.00050962602042999093 -0.0043055933764877419 -6.7071687790256195e-05 0.0012843380510209983 0.0043555633796903076 9.1372870192931254e-05 -0.016021241639656413 -0.0054825139163878081 -0.00046245847789493669 0.0032819373113992358 0.0033902160670532724 0.0025161806470102304 0.0032960228549222788 -0.006812437794170163 -0.0058516232244342102 0.0032832286266193779 0.0037003669469381291 0.0032960228549222788 -0.0067729478800816131 0.0010860277837306102
leaf_weight=9.6322358846664411 21.658864617347717 20.692962497472763 17.902497321367267 45.477298326790333 17.832236289978027 28.75436994433403 39.899659514427185 37.052168011665344 28.154392719268799 43.960499823093414 33.831101149320602 18.634279280900955 25.427922815084457 22.30647012591362 28.944608330726624 5.7522474359720928 9.1099886521697027 16.945516496896744 15.052973777055739 14.948263376951216 19.444267898797989 11.445743441581724 131.08661778829992 6.1129965558648109 12.457616269588469 11.636435836553572 96.845482364296913 5.4384449422359458 17.90964812040329
leaf_count=3 16 29 32 36 10 26 16 35 32 33 14 33 22 19 25 12 27 24 23 26 15 15 71 29 15 29 178 22 15
internal_value=0.00298723 0.0184344 -0.0291529 -0.00851538 0.0308786 0.00326575 -0.000134871 0.00503722 0.0189131 -0.00459805 -0.0377801 0.0334157 0.0214215 0.0281872 -0.0172048 -0.0427532 -0.0351456 0.0132504 0.0394302 0.0414822 0.0335143 0.0435729 -0.0450705 -0.0311061 0.0452608 0.0440057 0.045844 -0.0460304 0.0463345
internal_weight=814.348 550.004 264.343 77.9282 302.136 247.869 226.21 186.31 76.353 109.957 186.415 284.303 94.9506 76.3163 65.9968 152.584 32.4509 39.252 189.353 168.66 47.5987 153.711 142.952 11.8652 138.658 37.0644 126.201 23.3409 114.755
internal_count=882 636 246 117 438 198 182 166 73 93 129 428 127 94 60 115 81 43 301 272 47 246 112 41 223 51 208 54 193
is_linear=0
shrinkage=0.0463345


Tree=21
num_leaves=31
num_cat=0
split_feature=53 45 84 45 59 53 37 54 69 73 61 65 61 81 54 84 6 7 43 43 25 60 60 44 74 26 7 54 5 53
split_gain=151.873 35.9228 32.3791 30.5641 37.2734 22.4524 13.0435 14.8319 9.60386 15.2553 12.2999 8.71472 12.9549 6.28504 4.035 3.91484 3.07992 3.07805 2.86468 2.55082 2.54366 1.70438 1.46357 1.82019 0.87136 0.736253 0.375209 0.2678 1.42109e-14 1.42109e-14
threshold=0.88768635204081658 5459.2614583333343 0.0039247786626219758 6057.6612500000019 289.33273608786936 0.79068551360544226 5578.6650000000009 0.60354397619047628 83.00500000000001 178.95000000000002 3014.758746070916 19.500000000000004 3731.7537941215637 -227.44999999999979 0.61691355102040824 0.00036901923886034643 0.98526426544274892 0.91968655568559055 965.00000000000011 875.68500000000006 -1.0000000180025095e-35 3854.3326785714294 4528.4461904761911 -62.304999999999829 1009.9500000000002 4.2500000000000009 0.68552235175575771 0.60694033333333341 1.0000000180025095e-35 0.53277210884353754
decision_type=2 2 2 2 2 2 2 2 2 2 2 2 2 2 2 2 2 2 2 2 2 2 2 2 2 2 2 2 2 2
left_child=1 5 11 -3 14 8 -6 -8 18 27 21 12 15 -4 -5 25 17 19 29 22 -19 -11 23 -13 -24 -2 28 -10 -26 -1
right_child=2 3 13 4 6 -7 7 -9 9 10 -12 16 -14 -15 -16 -17 -18 20 -20 -21 -22 -23 24 -25 26 -27 -28 -29 -30 -31
leaf_value=-0.010425734921170096 0.00081177967468425551 0.00015752587654971478 7.9745411307957165e-05 -0.0095894029785595601 0.0021891876587358371 -0.00015404517011173883 0.0014325504862936283 -0.011069625763925929 -0.0055797760547939097 -0.006463836103991827 0.0014800669014465599 0.0031433034312399418 -0.0005754309799206142 -0.0021277011414465147 -0.0094750430598202953 0.0011370511222076889 0.0025687234514306392 0.0040590893444553897 -0.0061161960062430859 0.0033998377731153046 0.00071993859554223992 -0.0022104514260571639 0.0031433034312399418 0.0031677673764094923 0.0031433034312399418 0.0031433034312399418 0.0033391493588059988 -0.0097851421348284298 0.0040329500050256947 -0.0064967871996229522
leaf_weight=45.978274611756206 12.657559558749201 70.920204639434814 34.564699172973633 41.922134160995483 47.042905926704407 24.516004651784897 32.365266561508179 37.786833167076111 13.634313089773061 4.7214528918266314 10.77997714281082 12.141089618206026 16.569648087024689 20.497956871986389 37.309784471988678 31.417252987623215 11.306470036506651 12.590011298656465 21.938637793064117 16.599205553531647 9.8887627720832807 4.1820317432284355 26.167536914348602 15.525992989540098 93.137797951698303 19.048660606145859 17.065720915794373 10.161748170852659 16.204653650522232 45.705221600830555
leaf_count=63 16 33 37 15 28 18 18 23 29 29 6 20 12 26 26 37 20 24 7 26 16 11 39 25 124 35 30 11 28 50
internal_value=0.00473973 -0.0133115 0.0269202 -0.00250903 -0.0119227 -0.0292132 0.00467317 -0.00798505 -0.0356488 -0.0171295 0.0130474 0.0327304 0.0195213 -0.00582431 -0.0364702 0.0290927 0.0372947 0.0385105 -0.0427356 0.0403654 0.0222672 -0.0272551 0.0419661 0.0321612 0.043744 0.0405789 0.0453372 -0.042091 0.0463345 -0.0463345
internal_weight=814.348 448.965 365.383 267.347 196.427 181.618 117.195 70.1521 157.102 43.4795 19.6835 310.32 79.6931 55.0627 79.2319 63.1235 230.627 219.321 113.622 196.842 22.4788 8.90348 180.243 27.6671 152.576 31.7062 126.408 23.7961 109.342 91.6835
internal_count=882 367 515 143 110 224 69 41 206 86 46 452 100 63 41 88 352 332 120 292 40 40 266 45 221 51 182 40 152 113
is_linear=0
shrinkage=0.0463345


Tree=22
num_leaves=31
num_cat=0
split_feature=53 45 18 84 58 45 58 42 83 69 73 61 44 54 25 49 65 79 57 43 57 7 42 59 60 74 81 54 53 83
split_gain=148.054 45.934 31.3706 29.124 20.5025 36.1554 17.5837 14.9626 13.9673 9.60386 15.2553 12.2999 9.13754 8.37219 6.89364 5.52247 5.71731 4.68285 3.35906 2.86468 2.77813 2.79458 5 1.90355 1.70438 0.614073 0.512714 0.2678 1.42109e-14 1.42109e-14
threshold=0.79068551360544226 5459.2614583333343 1.0000000180025095e-35 0.00082985189510509383 361.07386574518256 6226.3502083333342 289.30490804665322 8953.3700000000008 631.45000000000016 83.00500000000001 178.95000000000002 3014.758746070916 810.00000000000011 0.97369668367346951 4.0500000000000007 6685.6316666666671 19.500000000000004 3732.9000000000001 0.99999999970017173 965.00000000000011 0.96549490950867745 -0.66012780149078443 8804.1250000000018 270.12362476616858 3854.3326785714294 1008.9500000000002 -361.49999999999994 0.60694033333333341 0.53277210884353754 448.75000000000006
decision_type=2 2 2 2 2 2 2 2 2 2 2 2 2 2 2 2 2 2 2 2 2 2 2 2 2 2 2 2 2 2
left_child=1 9 3 15 5 -3 -7 8 12 19 27 24 13 -5 -9 16 -2 26 -19 28 21 -18 23 -23 -12 -17 -10 -11 -1 -27
right_child=2 4 -4 7 -6 6 -8 14 17 10 11 -13 -14 -15 -16 25 20 18 -20 -21 -22 22 -24 -25 -26 29 -28 -29 -30 -31
leaf_value=-0.0099426641723589781 0.00098778966760798147 0.00018301644468935593 -0.015048374577721534 -0.0018799344514266207 0.0035333129601810786 -0.0096003070835453137 -0.0076357835417664712 -0.003935407168349921 0.00095690938627447349 -0.0053212401705259914 -0.0061643377788802543 0.001411488807741096 0.0037321594836740844 0.0034662369247111325 0.0033344019061563256 0.0029976601788696557 0.0030038248793629522 0.00024191269766983176 0.0013382803931054755 -0.0058328053957056886 0.0009515833589178814 0.0035872914927116812 -0.00047099888222567943 0.0033035233295548041 -0.0021080313632347546 0.0029976601788696557 0.00084239558703994683 -0.0093317529038499502 -0.0061957621034433395 0.0029976601788696557
leaf_weight=45.978274611756206 36.268217712640762 69.970488667488098 18.214302182197571 32.328036278486252 36.914642333984375 56.728717803955078 52.550737619400024 18.325084954500198 17.059477895498276 13.634313089773061 4.7214528918266314 10.77997714281082 13.719636827707289 13.897389292716978 22.757207542657852 10.447219043970106 27.16174790263176 20.600227177143097 22.651305437088013 21.938637793064117 36.805221319198608 13.107831954956056 11.841657340526579 16.359023779630661 4.1820317432284355 26.368070259690285 24.666424572467804 10.161748170852659 45.705221600830555 58.503484666347504
leaf_count=63 33 28 10 31 21 27 30 15 15 29 29 6 24 25 27 21 33 26 16 7 27 26 18 30 11 52 25 11 50 116
internal_value=0.00489372 -0.0165826 0.0230681 0.0256326 -0.00272589 -0.00920157 -0.0258529 0.0119108 0.0189077 -0.0356488 -0.0171295 0.0130474 0.0017812 -0.00807416 -0.0127715 0.0364082 0.0306024 0.0309891 0.0203057 -0.0427356 0.0360682 0.0305497 0.0229592 0.0331782 -0.0272551 0.0450297 0.0420631 -0.042091 -0.0463345 0.0463345
internal_weight=814.348 373.266 441.082 422.867 216.165 179.25 109.279 186.005 144.922 157.102 43.4795 19.6835 59.9451 46.2254 41.0823 236.862 141.544 84.9774 43.2515 113.622 105.275 68.4703 41.3085 29.4669 8.90348 95.3188 41.7259 23.7961 91.6835 84.8716
internal_count=882 312 570 560 106 85 57 204 162 206 86 46 80 56 42 356 167 82 42 120 134 107 74 56 40 189 40 40 113 168
is_linear=0
shrinkage=0.0463345


Tree=23
num_leaves=29
num_cat=0
split_feature=38 52 35 45 57 84 72 26 73 79 75 65 34 45 31 74 58 72 5 84 74 78 37 49 7 81 35 7
split_gain=150.604 49.8848 26.0232 19.6394 26.446 18.836 15.3887 10.067 14.5155 8.51515 10.2381 8.13772 6.85336 6.52789 5.53709 8.45808 12.6921 3.01857 2.6919 7.65655 1.84659 1.71467 0.93394 1.58853 0.306072 0.0763867 1.42109e-14 1.77636e-15
threshold=0.56696428571428592 0.99261994047619084 7925.0000000000009 5459.2614583333343 0.99999999973706588 0.0040240343660116204 27.200000000000003 10.65 81.750000000000014 3276.2500000000005 88.950000000000017 19.500000000000004 7925.0000000000009 5039.6997916666669 12.550000000000002 1014.0500000000001 310.36917283999549 26.800000000000004 0.25000000000000017 0.19036268442869189 1007.9000000000001 4166.7000000000007 5850.0000000000009 6539.666666666667 -0.87444874304365161 -910.79999999999984 6893.5000000000009 0.76235363884839025
decision_type=2 2 2 2 2 2 2 2 2 2 2 2 2 2 2 2 2 2 2 2 2 2 2 2 2 2 2 2
left_child=3 2 6 12 -5 14 7 8 -2 -10 -11 -12 18 -8 15 16 -3 21 24 -20 -16 22 -17 -24 -1 -22 -27 -21
right_child=1 5 -4 4 -6 -7 13 -9 9 10 11 -13 -14 -15 20 17 -18 -19 19 27 25 -23 23 -25 -26 26 -28 -29
leaf_value=0.01872054428117961 -0.00097776916596683454 -0.0038697178939927058 -0.011382023970141963 -0.0058795138053974851 -0.010654381744834514 -0.0021826310783525826 -0.0015343066792008811 -0.0032083665115117854 0.0029707432752796863 -0.0034189825913504305 -0.0006044646683183453 0.0034238178710353459 -0.0084879843167745255 0.0012962771488545697 0.0028587652272679754 0.0018186609821594837 0.00093533797826065408 0.0031906619865015029 -0.0015893862550478593 -0.0088993712159336803 0.0028587652272679754 0.0030567565765432275 0.0010264164024684341 0.0031711285765603503 -0.0059086848411307839 0.0028587652272679754 0.0028587652272679754 -0.0060153418375570476
leaf_weight=0.076583430171011879 28.529852300882339 18.31729856133461 44.953688979148865 65.696935415267944 51.745970606803894 21.046197503805161 15.387355297803877 32.004880756139755 31.9135981798172 24.02542570233345 23.872531116008759 43.508967220783234 23.669012308120728 45.994937658309937 13.682179331779478 51.496708244085312 22.845516532659531 20.268445134162903 4.5946651622652999 7.1469921022653562 8.6622360348701459 16.951543718576431 10.467990934848787 12.339682087302206 89.659477815032005 58.394824147224426 23.196367800235748 3.8979455269873142
leaf_count=1 24 27 18 29 29 29 14 27 25 23 16 38 5 35 22 43 28 39 10 24 23 33 17 27 110 67 65 34
internal_value=0.00461813 0.017746 0.00431249 -0.0256259 -0.0119163 0.0317853 0.0102531 0.00354662 0.00852418 0.0154146 0.0082204 0.01748 -0.0381031 0.0303407 0.0352413 0.0296259 0.0116757 0.0362513 -0.0431637 -0.0254245 0.0434906 0.0398438 0.0428774 0.0350718 -0.0462554 0.0458952 0.0463345 -0.0463345
internal_weight=814.348 567.86 290.191 246.488 117.443 277.669 245.238 183.855 151.85 123.321 91.4069 67.3815 129.045 61.3823 256.623 152.687 41.1628 111.524 105.376 15.6396 103.936 91.2559 74.3044 22.8077 89.7361 90.2534 81.5912 11.0449
internal_count=882 640 220 242 58 420 202 153 126 102 77 54 184 49 391 214 55 159 179 68 177 120 87 44 111 155 132 58
is_linear=0
shrinkage=0.0463345


Tree=24
num_leaves=34
num_cat=0
split_feature=53 45 18 84 6 26 58 73 60 57 69 73 61 50 72 58 57 42 49 47 65 26 43 56 4 60 3 58 74 54 7 53 83
split_gain=149.48 45.8583 31.5549 33.7508 18.8507 23.3499 20.3324 14.8865 12.0423 9.76014 9.60386 15.2553 12.2999 9.26849 9.22305 8.34958 5.87773 5.00574 4.30814 4.35738 4.87603 3.02855 2.86468 1.99727 1.91867 1.70438 1.60203 1.05618 0.614073 0.2678 0.0489401 1.42109e-14 1.42109e-14
threshold=0.79068551360544226 5459.2614583333343 1.0000000180025095e-35 0.00082985189510509383 0.65365639399891895 13.350000000000003 313.84720465437482 137.85000000000005 7013.3698809523821 0.99999999966614939 83.00500000000001 178.95000000000002 3014.758746070916 4969.8292857142869 20.000000000000004 272.47230329239227 0.74617824212172434 8690.0000000000018 6685.6316666666671 14844.000000000002 19.500000000000004 11.65 965.00000000000011 0.49854105515564034 -0.6830127018922193 3854.3326785714294 -0.56174490092936669 249.04350695426095 1008.9500000000002 0.60694033333333341 -0.22131713103510575 0.53277210884353754 448.75000000000006
decision_type=2 2 2 2 2 2 2 2 2 2 2 2 2 2 2 2 2 2 2 2 2 2 2 2 2 2 2 2 2 2 2 2 2
left_child=1 10 3 18 5 14 -6 13 9 15 22 29 25 -5 -3 -9 -15 -18 19 20 -2 26 31 -11 -17 -13 -22 -28 -20 -12 -29 -1 -30
right_child=2 4 -4 7 6 -7 -8 8 -10 23 11 12 -14 16 -16 24 17 -19 28 -21 21 -23 -24 -25 -26 -27 27 30 32 -31 -32 -33 -34
leaf_value=-0.009200408550176651 3.5553736465427294e-05 -3.4834000223759141e-05 -0.013857451363470717 -0.0016491688594805229 -0.0082348333388011889 0.00030846910382117677 0.0015394157464206604 -0.00064293940776504409 -0.0023458610558441222 0.0013631329256294184 -0.0048009077119039786 -0.0056049408517993768 0.0014329323502471356 -0.00074444284081049393 -0.012312183367131359 0.0033145725998257308 0.0012965188052965757 -0.00031379997629511509 0.0027263058975944983 0.00089091324534647655 0.002712587362018867 0.0032848856565007886 -0.0057100986732649258 0.0019467394629103679 0.00317523502090146 -0.0019823493370738124 0.002692763751347423 0.0027257976611500105 0.0027263058975944983 -0.0084870236980143683 0.0032732387101148484 -0.0056349091474002513 0.0027263058975944983
leaf_weight=45.978274611756206 22.502451717853546 43.255391836166382 18.214302182197571 16.319069087505341 59.380477070808411 40.273325681686401 36.888308644294739 22.602837890386581 16.617933839559555 17.31021574139595 13.634313089773061 4.7214528918266314 10.77997714281082 15.538592427968977 36.367083191871643 11.509307593107225 16.061520993709564 16.957207649946213 10.447219043970106 35.51219055056572 15.504313290119169 12.161293983459471 21.938637793064117 36.547696053981781 16.540408700704575 4.1820317432284355 21.979228079319 23.571736603975292 26.368070259690285 10.161748170852659 10.312485784292223 45.705221600830555 58.503484666347504
leaf_count=63 24 26 10 12 28 15 20 31 11 14 29 29 6 12 17 21 14 29 21 21 24 22 7 26 34 11 29 27 52 11 20 50 116
internal_value=0.00498114 -0.0165983 0.0232428 0.0258149 -0.00275305 0.0095077 -0.0180229 0.0110432 0.0206363 0.0264619 -0.0356488 -0.0171295 0.0130474 -0.00686771 -0.00503469 0.0118611 0.00328508 0.0143439 0.0374149 0.0322869 0.0275821 0.0327393 -0.0427356 0.0401937 0.0287481 -0.0272551 0.0363813 0.0400386 0.0450297 -0.042091 0.0451697 -0.0463345 0.0463345
internal_weight=814.348 373.266 441.082 422.867 216.165 119.896 96.2688 186.005 121.128 104.51 157.102 43.4795 19.6835 64.8764 79.6225 50.6526 48.5573 33.0187 236.862 141.544 106.032 83.5291 113.622 53.8579 28.0497 8.90348 71.3678 55.8635 95.3188 23.7961 33.8842 91.6835 84.8716
internal_count=882 312 570 560 106 58 48 204 137 126 206 86 46 67 43 86 55 43 356 167 146 122 120 40 55 40 100 76 189 40 47 113 168
is_linear=0
shrinkage=0.0463345


Tree=25
num_leaves=29
num_cat=0
split_feature=38 53 58 79 35 73 57 84 81 72 78 62 60 3 67 84 72 43 9 72 43 75 6 50 46 74 25 49
split_gain=162.863 44.7198 19.215 21.3706 17.1675 16.2183 14.015 13.8311 13.0422 11.6977 10.1736 9.63081 7.3468 7.16412 6.50421 5.18133 5.1568 4.71373 5.06123 4.58839 4.01752 3.96114 1.93919 0.831694 1.51857 0.303955 0.00330864 1.42109e-14
threshold=0.60357142857142865 0.97844387755102058 295.3162138347966 3572.0000000000005 7925.0000000000009 302.95000000000005 0.99999999970017173 0.0039247786626219758 -321.50000000000017 19.250000000000004 3224.9000000000001 8274.1358407473617 6440.2321130952396 -0.22252093395631442 15759215.000000002 0.0041357658337801704 11.350000000000001 -407.07499999999976 -0.58195561077325075 22.850000000000005 512.69500000000028 60.600000000000009 0.54389891703310045 6303.2728571428588 4059.1669203422666 1008.9500000000002 11.550000000000002 6864.9933333333347
decision_type=2 2 2 2 2 2 2 2 2 2 2 2 2 2 2 2 2 2 2 2 2 2 2 2 2 2 2 2
left_child=2 4 5 19 6 16 8 14 9 13 -10 12 -8 -2 -3 -12 -1 18 -16 26 23 -22 -18 24 -19 -25 -4 -27
right_child=1 7 3 -5 -6 -7 11 -9 10 -11 15 -13 -14 -15 17 -17 22 20 -20 -21 21 -23 -24 25 -26 27 -28 -29
leaf_value=-0.012683985064950899 -0.00043805587286784936 0.00075498416545716326 -0.01112389832692332 0.00034980806742023574 -0.010644785668525558 -0.0037507013757880859 0.0017357226898743359 -8.6532238277342848e-05 0.0014005439059887788 -0.003717022484528851 0.0018565383502599114 0.0022590155839042163 -0.0017708871265092346 0.0030041859327996569 0.0025946507806441131 -0.0020746792935433887 -0.0044255620453515152 0.00063617896936719702 0.002356849278010339 -0.0041407766610330361 0.0027135654744010547 0.00048692449750242144 -0.0053738187013166886 0.0025999839988125766 0.00073385931449663241 0.0025999839988125766 -0.0053361585308877909 0.0025999839988125766
leaf_weight=18.776061272248626 23.910102099180222 16.331214487552643 17.902497321367267 45.477298326790333 40.518501758575439 36.491146609187126 35.256549447774887 19.760045439004898 22.037230610847473 36.770828694105148 17.678887605667118 36.860294967889786 36.143019318580627 26.981021404266357 15.107377976179121 11.96118053793907 21.876481151208282 26.743359476327896 20.221793472766876 9.1099886521697027 13.405380249023439 14.559205591678618 109.27150978147984 13.458229303359984 25.913961410522461 48.774914860725403 5.4384449422359458 47.611282840371132
leaf_count=14 19 29 32 36 19 20 29 31 15 29 25 24 23 23 17 17 23 29 34 27 22 25 72 25 14 76 22 111
internal_value=0.00414634 0.0185115 -0.0257425 -0.00642133 0.00591525 -0.0338195 0.0104906 0.0323695 0.000773809 -0.0101102 0.0192366 0.0229969 0.0130673 0.00427713 0.0354114 0.00150983 -0.040562 0.0374538 0.0219095 -0.0351456 0.040337 0.0241153 -0.0438135 0.0431286 0.038341 0.0454237 -0.0460304 0.0463345
internal_weight=814.348 550.004 264.343 77.9282 288.118 186.415 247.599 261.887 139.339 87.662 51.6773 108.26 71.3996 50.8911 242.127 29.6401 149.924 225.796 35.3292 32.4509 190.466 27.9646 131.148 162.502 52.6573 109.844 23.3409 96.3862
internal_count=882 636 246 117 223 129 204 413 128 71 57 76 52 42 382 42 109 353 51 81 302 47 95 255 43 212 54 187
is_linear=0
shrinkage=0.0463345


Tree=26
num_leaves=29
num_cat=0
split_feature=38 35 84 45 57 34 51 26 79 52 46 34 49 36 46 81 83 56 56 75 5 84 83 59 74 7 36 7
split_gain=147.022 47.6732 44.7397 21.7789 22.8138 14.958 13.9899 13.392 8.37685 8.22371 7.72183 6.85336 5.88905 5.82857 7.05566 5.50846 3.59499 4.60188 4.76562 2.74206 2.6919 7.65655 2.61113 0.619385 0.390211 0.306072 1.42109e-14 1.77636e-15
threshold=0.56696428571428592 7925.0000000000009 0.00082985189510509383 5459.2614583333343 0.99999999973706588 6847.7200000000003 5118.3471428571438 12.750000000000002 3395.3500000000004 0.54312325396825434 3202.7160194917201 7925.0000000000009 6685.6316666666671 5449.9950000000008 2545.1592934650612 -488.79999999999967 1026.8500000000001 0.74247839068119148 0.45912018056100573 79.15000000000002 0.25000000000000017 0.19036268442869189 624.85000000000014 321.74187787240646 1009.9500000000002 -0.87444874304365161 6874.0000000000009 0.76235363884839025
decision_type=2 2 2 2 2 2 2 2 2 2 2 2 2 2 2 2 2 2 2 2 2 2 2 2 2 2 2 2
left_child=3 2 9 11 -5 6 8 10 -4 -2 13 20 16 -8 -15 -10 17 18 22 -18 25 -22 -11 -7 -14 -1 -26 -23
right_child=1 -3 5 4 -6 23 7 -9 15 12 -12 -13 24 14 -16 -17 19 -19 -20 -21 21 27 -24 -25 26 -27 -28 -29
leaf_value=0.018192237134513088 -0.031120011631917025 -0.0071834205881100427 0.00056856379148000514 -0.0050437705775496456 -0.0099460203916449923 0.0048613366618113808 -0.003404538166993393 0.0010867868127233122 -0.0014909572614707572 0.0030990135960015696 -0.0022168807007243744 -0.0075776199948316336 0.0024795151564048312 -0.0014050883660323252 0.00067076453235122508 0.00063966803538830213 0.0010028116836015991 0.0025144962825710206 0.0013543237647604227 0.00083846559423363912 -0.00071425355970081757 -0.0081099902440055945 0.0024514306835837722 0.0036964069377805127 0.0025590907747101124 -0.0051248257388398603 0.0024795151564048312 -0.0051052723243357424
leaf_weight=0.076583430171011879 22.669920682907104 48.502156734466553 43.995596140623093 65.696935415267944 51.745970606803894 16.624177247285846 27.722588062286377 23.055981874465942 25.453802466392517 15.481498390436174 27.94392716884613 23.669012308120728 15.813507318496702 17.917480200529102 14.049262374639509 37.596231579780579 39.562882959842682 14.553734481334685 26.760908097028732 35.695686370134354 4.5946651622652999 7.1469921022653562 11.213166832923887 8.9172530770301801 47.44466470181942 89.659477815032005 46.88580048084259 3.8979455269873142
leaf_count=1 8 20 33 29 29 29 29 34 16 30 18 5 29 31 15 28 28 18 39 30 10 24 23 15 67 110 100 34
internal_value=0.00491838 0.0178892 0.0219919 -0.0249639 -0.0105268 0.00750461 0.00356957 -0.00798037 0.0155127 0.0347577 -0.0162471 -0.0381031 0.0371495 -0.00683629 0.00664727 0.00468531 0.0309562 0.0232353 0.0169463 0.0379335 -0.0431637 -0.0254245 0.0307981 0.0410499 0.0452053 -0.0462554 0.0463345 -0.0463345
internal_weight=814.348 567.86 519.358 246.488 117.443 243.276 217.735 110.689 107.046 276.082 87.6333 129.045 253.412 59.6893 31.9667 63.05 143.268 68.0093 53.4556 75.2586 105.376 15.6396 26.6947 25.5414 110.144 89.7361 94.3305 11.0449
internal_count=882 640 620 242 58 248 204 127 77 372 93 184 364 75 46 44 168 110 92 58 179 68 53 44 196 111 167 58
is_linear=0
shrinkage=0.0463345


Tree=27
num_leaves=30
num_cat=0
split_feature=38 53 42 35 7 82 43 73 40 58 82 52 79 48 78 74 79 45 44 59 84 49 42 72 43 44 6 61 2
split_gain=131.026 39.2968 41.8918 28.1477 18.403 16.1734 11.3878 9.38717 8.93609 8.62693 22.3428 8.43404 9.58335 11.0261 8.19835 7.26408 7.54985 6.44721 4.28402 3.78452 2.84092 3.23062 2.38562 0.847902 0.393486 0.212054 0.00449072 1.42109e-14 1.77636e-15
threshold=0.99998333333333345 0.60628800000000005 8505.0000000000018 7925.0000000000009 -0.52211334636400797 4169.6500000000005 -1177.9999999999998 23.200000000000003 0.80214285714285727 313.84720465437482 3739.9000000000001 1.0824404761904767 3572.0000000000005 1499.5000000000002 3109.9000000000001 1020.0500000000001 3996.2000000000003 5998.604166666667 274.66500000000002 176.49922973571083 0.00043262477265670901 6838.5000000000009 6999.5000000000009 28.250000000000004 -407.07499999999976 -3524.2199999999993 0.64056958004474651 2664.8383025425514 -1.0000000180025095e-35
decision_type=2 2 2 2 2 2 2 2 2 2 2 2 2 2 2 2 2 2 2 2 2 2 2 2 2 2 2 2 2
left_child=1 2 9 4 -3 11 8 -8 -6 19 26 12 22 -14 -9 16 -16 -17 -15 -1 23 -22 -2 24 -13 -21 -11 -26 -28
right_child=5 3 -4 -5 6 -7 7 14 -10 10 -12 20 13 18 15 17 -18 -19 -20 25 21 -23 -24 -25 27 -27 28 -29 -30
leaf_value=-0.0042646527251379946 0.00067152300828936717 -0.0008476163301887002 0.0031466006148409623 -0.0069876955685393184 -0.0086952273653040316 -0.013952060246059319 -0.0031242699053892144 -0.0050809685445395393 0.00020942995021238229 -0.0048661788367006893 0.0044787118482490229 0.0024318360043601973 -0.00074844906164415635 0.0030903032341830037 0.0016462355046864253 -0.00086842925114319716 0.00024005973264120867 0.00032544085313273761 0.0029422703936228365 -0.012045548853414424 0.0023378449781221175 0.0033462807605021761 0.0029420041192821551 0.0023634946486180211 0.0024180407949242612 -0.0067816555944068234 -0.0047794933251290583 0.0023646281721922554 -0.0053289105081543242
leaf_weight=13.741429977118967 36.568989545106888 31.798297703266144 45.53257691860199 50.42043125629425 22.103518784046173 15.407264590263365 10.748127102851866 9.0953461527824384 29.612690091133118 4.133791126310828 12.422701478004454 12.998070299625395 25.992395251989365 27.000113517045975 48.126651495695114 45.603904545307159 31.970646917819977 39.65391606092453 18.563677698373795 10.220317900180815 18.550397336483002 16.258796840906143 28.135754883289337 12.229852467775343 61.437843397259712 91.355380158871412 7.2825198769569388 28.992394864559174 8.3900113701820356
leaf_count=5 23 13 23 21 16 9 11 11 33 23 7 16 28 37 36 36 26 24 22 8 35 38 39 20 116 97 28 55 26
internal_value=0.00614744 -0.00812682 -0.0246265 0.00185567 0.00781638 0.0303467 0.00337406 0.00874217 -0.0158495 -0.036616 -0.015423 0.0328317 0.024481 0.0127962 0.0113315 0.0136872 0.0237067 0.00427426 0.0265336 -0.042539 0.040394 0.0287887 0.0374031 0.0438867 0.0452509 -0.0456264 -0.0459761 0.0463345 -0.0463345
internal_weight=814.348 512.212 193.079 319.134 268.713 302.136 236.915 185.199 51.7162 147.546 32.229 286.728 136.261 71.5562 174.45 165.355 80.0973 85.2578 45.5638 115.317 150.467 34.8092 64.7047 115.658 103.428 101.576 19.8063 90.4302 15.6725
internal_count=882 444 217 227 206 438 193 144 49 194 84 429 149 87 133 122 62 60 59 110 280 73 62 207 187 105 77 171 54
is_linear=0
shrinkage=0.0463345


Tree=28
num_leaves=32
num_cat=0
split_feature=52 53 42 72 84 51 53 56 73 58 82 43 79 59 72 53 6 26 48 59 43 43 6 84 6 83 62 6 2 7 2
split_gain=130.881 35.5513 38.0788 27.0397 25.1005 21.8363 20.2025 13.588 14.3849 11.3841 25.1775 10.4865 13.5649 10.6698 8.77433 9.20826 7.10383 4.59826 4.24914 3.806 3.73349 1.73873 1.33968 0.866417 0.163284 0.150931 0.03042 0.00449072 1.42109e-14 1.42109e-14 1.77636e-15
threshold=0.86925595238095277 0.60628800000000005 8505.0000000000018 27.900000000000002 6.429040513467045e-05 8705.5914285714298 1.0787500000000003 0.64610648832802453 121.95000000000002 313.84720465437482 3739.9000000000001 -195.99999999999997 3531.3500000000004 351.7467998620466 12.800000000000002 0.92283163265306134 -0.36075750887067731 10.550000000000002 1194.5000000000002 176.49922973571083 1.5399999999999638 559.00000000000011 0.81499831288977631 0.001289126987103373 0.51477383718533543 4080.0500000000006 5409.5549316274319 0.64056958004474651 0.6078576107927941 -0.79980977965991029 -1.0000000180025095e-35
decision_type=2 2 2 2 2 2 2 2 2 2 2 2 2 2 2 2 2 2 2 2 2 2 2 2 2 2 2 2 2 2 2
left_child=1 2 9 4 -3 7 11 8 -6 19 27 13 17 16 -14 -16 -2 26 -10 -1 -17 22 23 25 -21 29 -13 -11 -26 -8 -29
right_child=6 3 -4 -5 5 -7 21 -9 18 10 -12 12 14 -15 15 20 -18 -19 -20 24 -22 -23 -24 -25 28 -27 -28 30 -30 -31 -32
leaf_value=-0.0040670523640192234 -0.0012530426406877576 -0.00034895787544368797 0.0030008045892644599 0.0013775000018045481 -0.0015651964610213526 -0.0150321618805661 0.0022525895690345943 -0.0046170452313590753 0.0022808150281673485 -0.0046407070908460564 0.0045855268298696638 0.0021674875012178047 0.0023612655018571053 0.0029275951767805709 -0.0070945410868056809 0.00070904260283255645 0.0018494020296570752 0.00060642536664227086 0.00031262309803490717 -0.011544599198495471 0.0027286487963731972 0.0023167014245501906 0.0027982463453488779 0.0026447421942798199 -0.0078232782763103231 0.0022372245695701375 0.00079468894561172433 -0.0045580381052366349 -0.0062555943701142914 0.0023281601335683514 -0.0050819983423467706
leaf_weight=13.741429977118967 32.156526833772659 16.714869499206543 43.945289731025696 62.218637973070145 20.819523304700851 41.609534621238708 45.98864942789077 45.610329240560532 17.515210092067719 4.133791126310828 14.177525520324705 17.989534586668015 27.337684243917465 15.512939751148222 22.498183876276016 18.754052251577377 22.027446001768112 28.481044203042984 31.709648132324219 12.939035233110188 24.227377831935883 10.0614076256752 10.975482702255247 8.9392735660076124 66.796935215592384 10.600000143051146 40.248694479465485 7.2825198769569388 25.253348559141159 45.691872611641891 8.3900113701820356
leaf_count=5 30 6 22 32 16 17 97 32 13 23 8 19 28 16 16 22 36 32 27 24 39 15 20 21 56 12 34 28 27 83 26
internal_value=0.00704803 -0.0103904 -0.0249429 0.00172619 -0.00764897 -0.0133866 0.0268345 -0.00303058 0.00978519 -0.03588 -0.012234 0.0190672 0.0249889 0.00381311 0.0126782 0.00347323 -0.00588723 0.0381651 0.0234409 -0.0426481 0.0160443 0.0414717 0.0429962 0.0445202 -0.0456494 0.0457292 0.0456265 -0.0459761 -0.0463345 0.0463345 -0.0463345
internal_weight=814.348 432.858 196.66 236.198 173.979 157.264 381.49 115.655 70.0444 152.715 33.9838 249.233 179.537 69.6969 92.8173 65.4796 54.184 86.7193 49.2249 118.731 42.9814 132.257 122.195 111.22 104.989 102.281 58.2382 19.8063 92.0503 91.6805 15.6725
internal_count=882 362 219 143 111 105 520 88 56 197 85 272 190 82 105 77 66 85 40 112 61 248 233 213 107 192 53 77 83 180 54
is_linear=0
shrinkage=0.0463345


Tree=29
num_leaves=31
num_cat=0
split_feature=38 53 42 35 84 18 26 26 39 26 83 58 82 67 79 47 61 60 72 72 59 8 47 45 54 44 68 6 7 2
split_gain=129.567 42.4198 41.8918 30.0065 19.4079 14.3684 12.6678 13.5245 12.4276 12.2671 8.68645 8.62693 22.3428 8.4235 10.5816 7.84896 8.15361 4.58273 4.22354 4.01436 3.78452 2.59577 1.68229 3.28075 0.280843 0.212054 0.133974 0.00449072 1.42109e-14 1.77636e-15
threshold=0.99998333333333345 0.60628800000000005 8505.0000000000018 7925.0000000000009 0.0014348551048897209 1.0000000180025095e-35 12.750000000000002 10.450000000000001 0.492202380952381 5.0500000000000007 2024.6500000000003 313.84720465437482 3739.9000000000001 19558870.350000005 3510.4500000000003 14902.910000000002 2821.102081937071 4235.9841964285724 18.900000000000002 21.800000000000004 176.49922973571083 0.91474371869878845 8949.9800000000014 5218.4685416666671 1.0585714285714289 -3524.2199999999993 16.700000000000006 0.64056958004474651 0.43165695018450106 -1.0000000180025095e-35
decision_type=2 2 2 2 2 2 2 2 2 2 2 2 2 2 2 2 2 2 2 2 2 2 2 2 2 2 2 2 2 2
left_child=1 2 11 4 8 13 7 9 -3 -6 -11 20 27 14 17 16 19 -2 -10 -16 -1 22 23 -15 -19 -22 28 -13 -24 -29
right_child=5 3 -4 -5 6 -7 -8 -9 18 10 -12 12 -14 21 15 -17 -18 24 -20 -21 25 -23 26 -25 -26 -27 -28 29 -30 -31
leaf_value=-0.003878607708002559 0.003102468564499842 -0.0070536770526845489 0.0028617639431198594 -0.0064590140258552198 -0.00017601378501435445 -0.0092147840396530675 0.00052428047976800529 -0.0026229140480407286 0.000624835356078188 -0.00045089112641791588 0.00071356716161398144 -0.00442568245552409 0.0040587252862705142 0.0021506919030905517 0.0026673437541174486 0.0027272193657564836 -0.00087530216042297861 0.00064263936555713586 0.00081560299560433553 -0.00028857946689054702 -0.011018865735698082 0.0028204502961602443 0.0021482170583094176 0.0023618800184759619 0.0021447155373640471 -0.006177581718520086 0.0021482170583094176 -0.0043468438923341705 0.0024207390351104001 -0.0048465267172520853
leaf_weight=13.741429977118967 15.843337178230284 28.974120259284973 45.53257691860199 50.42043125629425 34.86730968952179 17.832236289978027 29.889511913061142 36.181384801864624 29.973371028900146 30.720318138599396 36.483314514160156 4.133791126310828 12.422701478004454 20.08547106385231 16.853007733821872 18.13738939166069 21.829466670751572 39.444267570972443 41.623768508434296 10.322588026523588 10.220317900180815 11.648581266403196 60.064699113368988 15.380590319633482 12.967275738716124 91.355380158871412 11.97219082713127 7.2825198769569388 29.754449501633644 8.3900113701820356
