tree
version=v4
num_class=1
num_tree_per_iteration=1
label_index=0
max_feature_idx=84
objective=regression_l1
feature_names=hour_sin hour_cos day_sin day_cos month_sin month_cos day_of_year_sin day_of_year_cos week_sin week_cos is_winter is_spring is_summer is_autumn is_heating_season is_dst_period is_dst_transition_day days_to_dst_change cap_regime_all_day_15000 post_aug_2025_cap_change post_jan_2026_cap_change post_apr_2026_cap_change price_cap_norm is_off_day price_cap feelslike windspeed solarradiation heating_degree cooling_degree temp_hour_interaction temp_summer_interaction solar_hour_interaction solar_summer_interaction price_lag_24 price_lag_48 price_lag_168 price_lag_336 ratio_lag_24 ratio_lag_48 ratio_lag_168 price_lag_167 price_lag_169 diff_24_48 diff_168_336 rolling_mean_24 rolling_std_24 rolling_max_24 rolling_min_24 rolling_mean_hour_3d rolling_mean_hour_7d rolling_mean_hour_14d ratio_mean_hour_3d ratio_mean_hour_7d ratio_mean_hour_14d hour_month_interaction price_volatility_24 demand_supply_ratio_lag_24 demand_ramp_std_24 supply_ramp_std_24 rolling_mean_168 rolling_std_168 price_ema_24 price_ema_168 is_attack days_since_attack system_balance_lag_24 demand_x_price_lag_168 dew humidity precip snow windgust winddir sealevelpressure cloudcover visibility uvindex supply_lag_24 supply_lag_168 demand_ramp supply_ramp garpok_lag_24 vdr_supply_lag_24 prob_low_price
feature_infos=none none [-0.97492791218182362:0.97492791218182362] [-0.90096886790241903:1] [-1:1] [-1:1] [-0.9999631612477099:0.9999631612477099] [-1:1] [-0.99956083650879435:0.99956083650879435] [-0.99824373176432146:0.99298109601351703] [0:1] [0:1] [0:1] [0:1] [0:1] [0:1] none [0:14] [0:1] [0:1] [0:1] [0:1] [0.46000000000000002:1] [0:1] [6900:15000] [-26.300000000000001:23.899999999999999] [0:34.600000000000001] [0:168] [0:44.299999999999997] none [-184.09999999999999:167.29999999999998] [0:23.899999999999999] [0:1176] [0:168] [10:15000] [10:15000] [10:15000] [10:15000] [0.0014492753623188406:1.1000000000000001] [0.0014492753623188406:1.1000000000000001] [0.0014492753623188406:1.1000000000000001] [34:15000] [10:15000] [-11200:10000] [-11332.799999999999:10003.74] [272.33375000000001:15000] [0:5783.485792865541] [1210:15000] [10:15000] [29:14944.266666666668] [29:12403.088571428571] [29:11206.707857142857] [0.0042028985507246378:1.0333333333333334] [0.0042028985507246378:0.96461697722567297] [0.0042028985507246378:0.94917184265010357] [7:84] [0:1.3309048379880017] [0.31568742848191411:1.879956001259959] [131.34248046200835:582.30717222621161] [103.47455184939957:711.95939448972308] [1630.7810714285713:12709.345654761904] [726.83888982543544:5174.7917508557375] [49.893292656640014:14810.582050039899] [55.842506228505094:12970.205440205382] [0:1] [0:30] [-1760:2475.2999999999997] [31407:76066241.767999992] [-23.699999999999999:21.399999999999999] [42.420000000000002:100] [0:3.1000000000000001] none [1.1000000000000001:65.200000000000003] [0.80000000000000004:360] [987.5:1047] [0:100] [0:32100] none [762.39999999999998:6013] [762.39999999999998:6013] [-485.09999999999991:1314] [-925.19999999999982:1045.8999999999996] [37:6693.3999999999996] [10:15000] [1.8286531485500745e-05:0.99867695569992065]
tree_sizes=3618 2992 3219 3441 2907 3013 3117 3120 3339 3240 3533 3523 3347 3531 3445 3421 3755 4059 3533 3966 3975 4176 3857 4166 4057 4271 4287 3726 4271 3958 4165 4272 4150 3871 4057 4363 4154 4480 4056 4390 4269 4275 4484 3727 4487 3974 3537 3867 3763 3973 3208 4375 4067 3439 4389 3850 3966 3870 4385 3452 3965 4076 4288 3645 4176 4071 4191 2171 3829 4295 4077 3106 4069 3760 3967 3546 3970 3878 3743 3331 3651 4082 3545 3324 3438 4172 4372 3429 3314 4072 3856 3118 3213 4051 3968 3028 3956 3961 3342 2916 4310 3963 3428 4077 3882 3754 4080 4165 3340 2802 3890 3673 3776 3774 3870 3682 3787 2390 3245 2388 3988 3973 3560 4077 3775 2597 2703 3431 4083 4185 4096 3666 3963 3872 3871 3876 4188 3451 3987 4193 3775 3231 3437 3551 3985 3880 4070 3456 3768 3843 3988 4315 3762 3762 3454 4089 4196 4420 4620 4179 3999 4285 3989 3565 2821 3464 2927 3564 4083 3327 3347 3461 3456 4404 4094 4297 4193 4216 3783 4074 3476 4195 3222 4187 2827 2821 2721 3887 4190 3131 4638 3880 4316 3248 3545 3778 3981 4299 2490 3133 2696 2706 3743 3364 2829 3767 3235 3565 4170 3866 3248 2598 3331 3759 3341 3860 3881 3867 3753 3884 3872 4054 3236 4085 3875 3970 3854 3865 3460 4202 3782 3978 3747 3655 3783 4086 3662 3548 3783 3765 3758 3234 3748 3457 3647 3765 3995 3876 3656 3232 3770 3753 3849 3228 2686 3869 3126 3136 3890 4100 3135 3877 3468 3659 3552 3443 3662 3986 3354 3786 3876 3547 3561 3980 3887 3131 3565 3680 3680 1968 4082 3553 4193 3561 2169 3864 3998 2816 3766 3354 2822 3454 3774 2603 3990 2494 3868 3465 2927 4095 4069 3552 3991 3993 3760 3441 3761 3253 3308 3884 4299 3765 3651 3549 3876 3766 3872 4079 3570 3253 2495 3250 1972 2936 3563 3986 3037 3475 3357 4210 3982 3361 3580 3776 4075 4000 3761 4086 3140 3664 3886 3647 3659 4103 3971 3005 3873 3234 3438 3139 3343 4105 3131 4072 3139 3640 3753 4105 3874 3781 3658 3870 3766 3764 2807 3840 4181 3771 3979 3866 3451 3835 3346 3963 3961 3866 4067 4074 3657 2706 2066 3332 3658 3119 2054 2595 3019 3966 2687 3231 3237 3972 4056 3968 2693 4194 3868 3971 3226 3649 3218 4074 4168 3984 4050 4287 4401 3335 3777 4092 3989 2402 3888 3240 2819 4087 3878 3136 4392 3454 3453 2587 2938 2931 3351 2379 3775 2718 2607 2263 3022 2613 3883 3469 3351 3027 3135 3340 3240 3153 3861 3883 3570 3568 3555 3248 4063 4414 3033 3973 3983 2930 3571 2502 2606 3649 3561 2711 3036 3133 4082 4522 2289 3655 3770 3237 4081 3546 3653 3573 3140 3972 4296 4300 4416 2931 4307 3758 3556 3354 3770 3988 3873 3998 3570 2936 3247 3344 3780 3899 3544 3877 3772 4082 3870 4259 3664 4087 3672 4106 3423 3982 3346 3457 3778 3660 3769 3250 3886 3364 3578 3142 4093 3883 4185 2935 3776 4091 3335 3652 3978 3246 4194 4094 3560 3656 4003 3671 3979 2926 3879 3446 3778 2500

Tree=0
num_leaves=34
num_cat=0
split_feature=38 84 53 18 23 84 84 6 73 78 61 63 44 74 67 26 2 9 75 73 46 84 81 6 49 44 6 59 70 67 78 35 43
split_gain=198.798 60.9003 48.198 39.6659 27.7824 15.5465 13.4752 13.355 12.8514 12.7652 7.38193 6.33478 6.02405 8.38545 5.39622 4.80612 3.75801 3.28375 3.89292 2.61599 2.35569 2.0198 2.01891 1.27658 0.800775 1.05551 0.631467 0.268673 0.143016 0.0210798 0.00189716 2.84217e-14 2.84217e-14
threshold=0.62224637681159434 0.011770872864872219 0.54500143271221535 1.0000000180025095e-35 1.0000000180025095e-35 0.13169520348310473 0.034691900014877326 -0.92302220264522072 209.50000000000003 3834.6500000000005 3982.0003272943727 5491.1785109366847 -3284.4999999999995 998.95000000000016 12692908.300000003 12.450000000000001 -0.60785761079279388 0.71624712183991546 81.850000000000009 302.05000000000007 3143.8291734007385 0.0041932272724807271 229.14999999999989 -0.61383352812826175 4488.8333333333348 201.50000000000003 -0.72800098152115733 201.26979023346962 1.0000000180025095e-35 11513232.205000002 2583.9000000000005 7033.5000000000009 -1.0000000180025095e-35
decision_type=2 2 2 2 2 2 2 2 2 2 2 2 2 2 2 2 2 2 2 2 2 2 2 2 2 2 2 2 2 2 2 2 2
left_child=2 3 7 16 6 8 10 -1 11 19 15 -3 -9 -14 -6 20 21 26 -19 -10 22 -2 -4 -20 25 -18 -15 -25 29 -26 -28 -32 -31
right_child=1 5 4 -5 14 -7 -8 12 9 -11 -12 -13 13 17 -16 -17 24 18 23 -21 -22 -23 -24 27 28 -27 30 -29 -30 32 31 -33 -34
leaf_value=0.62411679447486668 0.63097739665262509 0.62075922328803834 0.62588016613309883 0.62013704196018082 0.61736136371044792 0.60676104903401606 0.62022201344472505 0.61278100573422301 0.6314382428838079 0.62055777028723302 0.61909015928526812 0.62275362014770508 0.62478521776303164 0.59457018422152896 0.60777845280090359 0.62276104193100079 0.62680284921493046 0.62290806818478883 0.62275362014770508 0.62296524289039967 0.63144972347336081 0.62760866674164906 0.62478830815988262 0.62022201344472505 0.63150344501004196 0.628280180426665 0.6140440850570047 0.61330542083201178 0.63083193132502602 0.63138257431425826 0.61405412998715247 0.60975638777026686 0.63150344501004196
leaf_weight=6.8887754678726187 18.55632646381855 26.574489861726761 12.893265366554262 68.926530718803406 24.518979698419571 17.704081565141678 25.632653117179871 11.891836762428282 17.973775520920753 16.753061294555664 27.795918226242065 21.481632620096207 6.3989795222878447 8.6479591429233533 32.861122444272041 17.6591836810112 14.546938806772234 6.8214286193251636 1.6000000238418639 14.369387716054915 18.412244826555252 17.269795835018158 12.65102046728134 2.4292857274413064 15.784693777561186 14.280612200498579 11.565612360835074 12.368163244798778 16.518367290496826 45.870000004768372 94.304081082344055 57.316326975822449 95.608163297176361
leaf_count=9 17 31 22 37 35 20 29 7 25 23 16 29 7 7 25 17 24 15 1 20 15 24 18 7 32 16 35 43 13 51 100 12 101
internal_value=0.623069 0.645139 0.599337 0.655896 0.617684 0.616352 0.630819 0.584974 0.623629 0.640302 0.63931 0.606596 0.582923 0.581032 0.591348 0.648252 0.664846 0.579319 0.595674 0.657306 0.656454 0.651012 0.647347 0.583437 0.667292 0.66014 0.577109 0.579186 0.668478 0.668909 0.576463 0.576419 0.669088
internal_weight=814.875 422.218 392.657 307.361 172.424 114.856 115.044 220.232 97.1523 49.0962 89.4116 48.0561 213.344 201.452 57.3801 61.6157 238.435 195.053 23.2189 32.3432 43.9565 35.8261 25.5443 16.3974 202.609 28.8276 171.834 14.7974 173.781 157.263 163.186 151.62 141.478
internal_count=883 463 420 315 177 148 117 243 128 68 88 60 234 227 60 72 278 220 66 45 55 41 40 51 237 40 154 50 197 184 147 112 152
is_linear=0
shrinkage=1


Tree=1
num_leaves=27
num_cat=0
split_feature=38 84 27 84 18 23 56 84 73 78 51 35 56 41 63 2 82 48 9 49 70 79 44 59 68 46
split_gain=172.186 58.1936 54.5639 42.8161 35.4346 24.7325 20.5205 15.0173 13.4493 12.2918 11.4155 10.6486 9.75197 7.21868 6.80815 6.42669 3.1384 3.07262 2.61105 1.73933 0.537537 0.167262 0.365203 0.144933 2.84217e-14 1.42109e-14
threshold=0.62224637681159434 0.011499759275466205 40.300000000000004 0.18222410231828692 1.0000000180025095e-35 1.0000000180025095e-35 0.44639358987470867 0.13169520348310473 209.50000000000003 3834.6500000000005 5325.5710714285724 4499.5000000000009 0.3545489519022153 6587.0000000000009 5491.1785109366847 -0.60785761079279388 97.500000000000014 1024.0000000000002 -0.6737975503130208 4488.8333333333348 1.0000000180025095e-35 3185.7500000000005 99.500000000000014 214.64274442881558 11.750000000000002 2203.5287750500684
decision_type=2 2 2 2 2 2 2 2 2 2 2 2 2 2 2 2 2 2 2 2 2 2 2 2 2 2
left_child=2 4 3 5 15 6 12 8 14 16 17 13 -1 -8 -3 18 -10 -7 -2 -17 21 22 -21 -5 -23 -25
right_child=1 7 -4 23 -6 10 11 -9 9 -11 -12 -13 -14 -15 -16 19 -18 -19 -20 20 -22 24 -24 25 -26 -27
leaf_value=0.001940411851401234 0.0066828397197104617 -0.0019019875674959534 -0.0071380138150424731 -0.010606775528098642 -0.0024953404624212141 -0.006557562258980138 -0.0023776011203579788 -0.015251564042080295 0.00094386660261086834 -0.0020941063532377291 -0.016567355040293157 0.005075927864940751 -0.0063205490574145097 0.0013058641524908564 0 0.0052704901186793 0.0082822254720258236 0.0023248264296172037 0.0032854202942749792 0.0083444064932554976 0.0077040070290700716 0.0083444064932554976 0.0078799490486460497 -0.011629326346797858 0.0076784932860920214 -0.022561477972854821
leaf_weight=17.101020462810993 16.48979589343071 28.094898015260696 130.52653068304062 5.4429591428488484 68.926530718803406 11.86581625044346 18.291836708784103 17.704081565141678 11.318367332220076 16.753061294555664 35.668367296457291 46.946938633918762 29.857550978660583 35.411224633455276 21.481632620096207 26.732653081417084 21.599285677075386 10.903367415070532 19.336326405405998 15.382653146982195 16.518367290496826 108.31693863868713 8.2938775122165662 22.970816347748041 25.269387781620026 27.670408204197884
leaf_count=23 22 32 29 12 37 20 36 20 19 23 16 38 39 34 29 38 27 20 19 35 13 99 18 118 32 35
internal_value=0.000228731 0.0207685 -0.0218574 -0.00966914 0.0314157 0.000100689 0.0102013 -0.00702288 -1.03377e-05 0.0170302 -0.0254126 0.0220015 -0.0150912 0.00791037 -0.0170832 0.0399409 0.0334737 0.000218863 0.0218649 0.0431706 0.0448631 0.0456983 0.042109 -0.0455622 0.0463345 -0.0463345
internal_weight=814.875 422.218 392.657 262.13 305.267 206.046 147.609 116.951 99.2472 49.6707 58.4376 100.65 46.9586 53.7031 49.5765 236.34 32.9177 22.7692 35.8261 200.514 173.781 157.263 23.6765 56.0842 133.586 50.6412
internal_count=883 463 420 391 313 226 170 150 130 69 56 108 62 70 61 276 46 40 41 235 197 184 53 165 131 153
is_linear=0
shrinkage=0.0463345


Tree=2
num_leaves=29
num_cat=0
split_feature=38 84 27 18 84 84 2 56 83 73 6 60 37 11 68 61 79 2 25 26 50 61 46 82 82 7 73 6
split_gain=173.802 78.0622 42.453 41.3907 29.7266 20.4259 19.1611 20.9496 16.4014 12.8194 12.6901 8.3638 12.5205 7.98766 7.91784 7.16887 6.73765 6.27939 5.89018 4.33862 4.15411 3.41139 1.31906 1.25221 0.169484 0.312318 0.017716 1.42109e-14
threshold=0.57753623188405812 0.011499759275466205 40.300000000000004 1.0000000180025095e-35 0.20427757501602176 0.13169520348310473 -0.60785761079279388 0.44639358987470867 1980.0500000000002 209.50000000000003 -0.94159970902280266 5656.6598809523821 5485.0000000000009 1.0000000180025095e-35 2.3500000000000001 3013.9809055915853 3444.6000000000008 -0.60785761079279388 8.7500000000000018 13.150000000000002 4072.2771428571432 2463.8019245917681 4484.0150737009653 74.500000000000014 98.500000000000014 -0.16236614133076385 319.60000000000008 0.89445413044074684
decision_type=2 2 2 2 2 2 2 2 2 2 2 2 2 2 2 2 2 2 2 2 2 2 2 2 2 2 2 2
left_child=2 3 4 17 6 9 13 19 10 15 -9 12 20 -1 -11 16 -3 21 -16 -8 -12 -2 23 -19 25 -25 27 -26
right_child=1 5 -4 -5 -6 -7 7 8 -10 14 11 -13 -14 -15 18 -17 -18 22 -20 -21 -22 -23 -24 24 26 -27 -28 -29
leaf_value=-0.0062537211835285884 0.0057123509796532801 0.0029076546979987694 -0.0072342237916088294 -0.0045328178051591153 -0.013139719930799924 -0.013976993337562808 -0.0038300607827954011 0.0030594218941229572 0.0025122422951289604 -0.00029539407100811804 -0.0081958186733789417 -0.00045704257890481743 0.0080579837618845428 -0.016506000385545866 0.0078984730659992716 -0.0018894055427895484 -0.00071851864873749333 0.0046002045383998161 0.0039314037225898039 -0.0036844332720276742 -0.00062560412239578186 0.0030849814107465892 -0.00037562157298991905 0.0052410215061565691 0.0078436160789065491 0.006614745593447601 0.0042228471680930187 0.016687453630435275
leaf_weight=23.949489861726761 16.647653073072433 11.209183573722841 126.57959192991257 74.638775587081909 45.3025510776788 27.40530601143837 21.270408168435097 12.051020473241804 35.377550899982452 18.227551132440567 7.7744897753000322 13.411224544048308 11.429591774940489 26.19897948205471 20.220408052206039 32.924489796161652 14.646938741207121 13.714285671710966 16.260918453335762 18.613265298306942 9.6244899034500104 20.824081480503082 22.026530742645264 18.4887755215168 101.24755090475082 13.637142837047575 18.208163291215897 22.964285671710968
leaf_count=24 23 22 28 39 152 29 27 11 21 28 28 11 14 19 18 22 27 30 33 25 14 22 13 22 119 22 23 17
internal_value=-0.000304147 0.018337 -0.0248682 0.0309103 -0.0127919 -0.0104334 -0.00433583 0.00507755 0.017504 -0.00176402 0.00150747 -0.0104579 0.00360481 -0.0286541 0.0143776 -0.0167875 0.00147201 0.0400226 0.0268373 -0.0228602 -0.0211441 0.0225481 0.0431364 0.0443916 0.0454509 0.0424109 0.0461366 0.0463345
internal_weight=814.875 463.292 351.583 322.397 225.003 140.895 179.701 129.552 89.6684 113.489 54.2908 42.2398 28.8286 50.1485 54.7089 58.7806 25.8561 247.758 36.4813 39.8837 17.399 37.4717 210.287 188.26 174.546 32.1259 142.42 124.212
internal_count=883 509 374 330 346 179 194 151 99 150 78 67 56 43 79 71 49 291 51 52 42 45 246 233 203 44 159 136
is_linear=0
shrinkage=0.0463345


Tree=3
num_leaves=31
num_cat=0
split_feature=38 84 18 27 2 84 47 7 41 80 25 51 59 83 2 46 61 61 83 25 61 49 61 68 66 6 26 68 4 8
split_gain=177.064 80.8324 43.9667 33.0079 26.2299 26.0563 19.4517 26.0421 11.6049 10.2963 10.058 9.57305 7.30076 6.80637 5.97139 4.90771 5.8094 3.82888 7.38792 3.5575 3.41139 2.53234 2.25241 0.934796 0.732399 0.224191 0.110221 0.0180365 2.84217e-14 3.55271e-15
threshold=0.54340579710144932 0.011499759275466205 1.0000000180025095e-35 40.300000000000004 -1.0000000180025095e-35 0.13169520348310473 8415.0000000000018 0.65368047477200586 8295.5000000000018 165.50000000000026 4.6500000000000012 4467.0839285714292 307.00854009853509 1980.0500000000002 -0.60785761079279388 2780.7382509944005 2676.3314992619953 3770.3837930894929 2809.5000000000005 12.950000000000001 2463.8019245917681 4265.3333333333348 2881.4008090154907 -5.8499999999999988 1353.6000000000004 -0.81499831288977609 3.2500000000000004 14.850000000000003 -0.6830127018922193 0.71719215405236236
decision_type=2 2 2 2 2 2 2 2 2 2 2 2 2 2 2 2 2 2 2 2 2 2 2 2 2 2 2 2 2 2
left_child=3 2 14 4 17 9 24 13 -4 15 22 -12 -13 -8 20 16 -3 18 19 26 -2 -16 -11 -23 -6 -25 -1 28 -27 -28
right_child=1 5 8 -5 6 -7 7 -9 -10 10 11 12 -14 -15 21 -17 -18 -19 -20 -21 -22 23 -24 25 -26 27 29 -29 -30 -31
leaf_value=-0.0072373459135289964 0.0054476723084538265 0.00036690774494585574 -0.0069812954707408736 -0.0064720840139079186 -0.0078160698793030437 -0.011314834528429929 0.0010977492359601033 -0.0028876230915035033 0.0032928159148155052 -0.0016525585611379316 0.0023724835534280684 -0.0024758278961209577 -0.00041197961406255361 0.0047538621529697256 0.0031113745516962122 0.0075517793989141992 -0.0016834172182148858 -0.016324262293325478 0.0091817153256706398 -0.0043552753064852656 0.0029420404774286282 0.0072158903639704475 -0.0034982033676262867 0.0072453360513498174 -0.0085007009842784365 0.007480186400205386 -0.0096758499330563113 0.0069536843255020801 0.0078861197344730419 -0.014545440600761865
leaf_weight=5.5142857730388704 16.647653073072433 16.755408272147182 40.516326665878296 122.61632651090622 16.405204122886065 32.417550921440125 31.320408135652542 36.02448958158493 35.989795804023743 14.592857152223589 24.463265299797058 17.894898146390915 21.879591822624207 24.251020312309265 21.832653135061264 18.825918316841125 9.7571428716182691 38.767346978187561 9.3040816187858564 6.4237755537033072 20.824081480503082 24.437755107879639 15.547142863273619 20.525510132312775 4.0188776366412631 22.687755048274994 7.4233673438429859 18.010204166173935 107.26020395755768 11.939795926213263
leaf_count=13 23 39 20 27 72 40 37 32 20 30 26 21 26 13 30 18 12 19 6 16 22 27 11 28 21 23 30 32 114 35
internal_value=-0.000287902 0.0168136 0.030283 -0.0275659 -0.0155418 -0.00890957 -0.00110312 0.00801422 -0.000484504 -0.000226086 -0.00894415 0.00141683 -0.012611 0.0279062 0.0396155 0.0179217 0.00507583 -0.0359194 -0.0259757 -0.036751 0.0225481 0.0425935 -0.0310266 0.0442861 -0.0419917 0.0455145 -0.0446886 0.046144 0.0463345 -0.0463345
internal_weight=814.875 500.866 328.732 314.009 191.393 172.134 112.02 91.5959 76.5061 139.716 94.3778 64.2378 39.7745 55.5714 252.226 45.3385 26.5126 79.3727 40.6053 31.3012 37.4717 214.754 30.14 192.921 20.4241 168.484 24.8774 147.958 129.948 19.3632
internal_count=883 562 339 321 294 223 175 82 40 183 114 73 47 50 299 69 51 119 100 94 45 254 41 224 93 197 78 169 137 65
is_linear=0
shrinkage=0.0463345


Tree=4
num_leaves=26
num_cat=0
split_feature=38 27 84 84 18 23 84 65 57 50 46 6 61 46 60 2 58 62 46 82 59 84 68 2 6
split_gain=165.017 59.1076 58.9543 45.2639 32.0601 23.7171 16.6764 18.4326 15.3151 14.5628 9.72203 7.67748 7.42289 7.4157 8.40123 5.9149 4.79357 3.74791 1.34834 1.13472 0.160421 0.068987 0.016698 1.42109e-14 7.10543e-15
threshold=0.65181159420289869 40.300000000000004 0.011770872864872219 0.18222410231828692 1.0000000180025095e-35 1.0000000180025095e-35 0.050478665158152587 19.500000000000004 0.99999999977961651 5231.9542857142869 2838.983774730606 -0.65365639399891895 3820.0095473841234 2129.8277478505684 5255.698422619048 -0.60785761079279388 294.62920146054091 4794.4252879004316 4484.0150737009653 79.500000000000014 212.0424867272279 0.004766270052641631 14.450000000000001 -1.0000000180025095e-35 -0.99628166032228227
decision_type=2 2 2 2 2 2 2 2 2 2 2 2 2 2 2 2 2 2 2 2 2 2 2 2 2
left_child=1 3 4 5 15 8 7 -4 10 17 13 -9 -12 16 -15 -2 -1 -7 19 -17 -5 22 23 -21 -22
right_child=2 -3 6 20 -6 9 -8 11 -10 -11 12 -13 -14 14 -16 18 -18 -19 -20 21 24 -23 -24 -25 -26
leaf_value=0.00017169819199682962 0.0062886837322051001 -0.0061722035263829149 -0.0011700139767733746 -0.009824631124521253 0.00085083698259617597 -0.0047812162530694886 -0.0098055068702686612 0.0070573874432098716 -0.008325117891221959 -0.014892163665114668 0.006090054984693909 0.00074472213481491408 0.00050090423939379357 0.0014029836300640767 -0.0017430186450323733 0.0049785363521728607 0.0021617641484646759 0.0012677743299319333 -0.00027666147477707279 0.0071349539563249189 -0.014497643453936353 0.0067467172753409334 0.0066621509951335315 0.0072435986417119149 -0.010668346187138864
leaf_weight=14.921428650617601 34.658367231488228 130.79387763142586 22.632959321141243 4.9796938430517903 67.065306186676025 16.027040705084804 27.842857092618942 15.930612236261366 25.408163264393806 38.583061188459396 35.497959047555923 22.290816366672516 49.5448979139328 21.428571477532387 19.125918328762054 13.957142800092695 11.03061220794916 12.328877553343771 22.026530742645264 23.964489668607712 4.9306122660636893 21.923265248537064 19.002040922641754 90.733265280723572 48.246326554566622
leaf_count=29 39 30 25 11 36 25 33 23 34 19 35 34 30 32 31 31 15 24 13 22 7 33 33 90 149
internal_value=-0.000536465 -0.0201251 0.0216579 -0.00885802 0.0316669 -9.94078e-05 -0.0114428 0.00214691 0.00878722 -0.0235918 0.0143686 0.02177 0.0247467 0.00109793 -0.011279 0.0400066 0.020439 0.00161769 0.0431928 0.0445936 -0.0455898 0.0457287 0.0461237 0.0463345 -0.0463345
internal_weight=814.875 432.847 382.028 302.053 293.33 243.897 88.6972 60.8544 176.958 66.939 151.549 38.2214 85.0429 66.5065 40.5545 226.265 25.952 28.3559 191.607 169.58 58.1566 155.623 133.7 114.698 53.1769
internal_count=883 471 412 441 297 274 115 82 206 68 172 57 65 107 63 261 44 49 222 209 167 178 145 112 156
is_linear=0
shrinkage=0.0463345


Tree=5
num_leaves=27
num_cat=0
split_feature=38 27 84 84 18 23 56 84 83 76 4 51 84 43 56 43 73 73 43 46 65 43 84 35 6 43
split_gain=159.773 54.697 48.6865 41.722 30.6926 28.44 21.769 15.9076 12.8108 11.3724 10.7367 8.91838 8.06279 8.05565 7.6554 7.48823 5.8199 5.51917 3.03554 3.03306 2.68997 0.73929 0.372882 0.126239 1.42109e-14 7.10543e-15
threshold=0.62224637681159434 41.100000000000009 0.011770872864872219 0.18222410231828692 1.0000000180025095e-35 1.0000000180025095e-35 0.44639358987470867 0.13169520348310473 813.70000000000016 20.300000000000004 -0.6830127018922193 5325.5710714285724 0.0034309978364035492 -727.99999999999989 0.3545489519022153 1.0900000000001457 296.35000000000008 172.80000000000004 -500.49999999999994 2409.4542702060107 2.5000000000000004 17.844999999999803 0.30431225895881658 4551.2300000000005 0.93568234840038345 -652.49999999999989
decision_type=2 2 2 2 2 2 2 2 2 2 2 2 2 2 2 2 2 2 2 2 2 2 2 2 2 2
left_child=1 3 4 5 12 6 14 9 13 10 -4 18 20 -8 -1 -12 19 -15 -7 -14 -2 -21 -5 -22 -25 -24
right_child=2 -3 7 22 -6 11 8 -9 -10 -11 15 -13 16 17 -16 -17 -18 -19 -20 21 23 -23 25 24 -26 -27
leaf_value=0.0020615999841301896 0.0058148677413598689 -0.0063129457395461729 0.0055443118815888303 -0.0055601890510717077 -0.0023450883312755373 0.0033405950543570814 0.00099655452265624855 -0.01291867524157172 0.004534363435130734 -0.0016190696184996164 -0.00065917523993888117 -0.014063556810197917 0.0044446956647657106 -0.0023749507326007177 -0.0049334693117369325 0.00066486757246241523 0.0010139364570037484 7.1257632727880844e-05 -0.0065674856263695097 0.0069163387522432783 0.00699336635276856 0.0061648729517408589 -0.016633005308027152 0.0069121247247139741 0.015218256288225573 -0.010174034177466261
leaf_weight=17.101020462810993 19.612244978547096 126.58367365598679 18.904387697577477 7.61224491149187 68.926530718803406 11.868877544999124 26.218367427587509 17.704081565141678 53.408163115382195 25.212245047092438 26.026530593633652 35.668367296457291 22.222448974847794 12.869387626647951 29.857550978660583 27.009183675050735 20.413673400878906 12.09693883359432 10.900306120514868 20.796734571456909 18.406122386455536 18.843877583742142 24.903979666531086 91.222448885440826 26.917346894741058 23.567959116771817
leaf_count=23 17 28 36 20 37 18 29 20 37 21 33 16 38 23 39 38 29 20 22 22 23 26 38 106 17 107
internal_value=1.28111e-05 -0.0212623 0.0197984 -0.00933434 0.0294166 0.000147837 0.0107364 -0.00594032 0.022503 0.0014207 0.0108055 -0.0273124 0.0372889 0.00593856 -0.0154718 0.000118566 0.0255506 -0.0128984 -0.00465716 0.0326296 0.0434736 0.0403112 -0.0448373 0.0457784 0.0463345 -0.0463345
internal_weight=814.875 392.657 422.218 266.073 307.361 209.989 151.551 114.856 104.593 97.1523 71.9401 58.4376 238.435 51.1847 46.9586 53.0357 82.2767 24.9663 22.7692 61.8631 156.158 39.6406 56.0842 136.546 118.14 48.4719
internal_count=883 420 463 392 315 227 171 148 109 128 107 56 278 72 62 71 115 43 40 86 163 48 165 146 123 145
is_linear=0
shrinkage=0.0463345


Tree=6
num_leaves=28
num_cat=0
split_feature=38 84 27 18 84 84 2 56 73 49 6 84 11 50 45 61 58 41 79 63 9 84 2 58 36 72 17
split_gain=167.33 60.0956 43.7251 36.0107 29.0241 24.0244 19.7939 15.9711 14.9925 14.3962 11.1814 8.13998 7.98766 7.94714 7.90439 6.69894 6.42148 6.17537 5.94636 4.93922 3.9568 3.37729 2.13275 3.38465 0.252558 0.132801 7.10543e-15
threshold=0.57753623188405812 0.011499759275466205 40.300000000000004 1.0000000180025095e-35 0.20427757501602176 0.13169520348310473 -0.60785761079279388 0.44639358987470867 209.50000000000003 4455.3333333333339 -0.90199700731761212 0.0046702236868441114 1.0000000180025095e-35 4199.9285714285716 4949.0233333333344 3028.3105485376786 261.2135832490755 6805.0000000000009 3479.3000000000006 5551.1338364170742 0.67498300151821033 0.026166640222072605 -1.0000000180025095e-35 325.40177902846557 4870.5000000000009 10.600000000000003 9.5000000000000018
decision_type=2 2 2 2 2 2 2 2 2 2 2 2 2 2 2 2 2 2 2 2 2 2 2 2 2 2 2
left_child=2 3 4 11 6 8 12 20 15 10 -9 22 -1 14 -12 18 -10 19 -3 -13 -8 -18 23 -2 -24 -6 -27
right_child=1 5 -4 -5 25 -7 7 9 16 -11 13 17 -14 -15 -16 -17 21 -19 -20 -21 -22 -23 24 -25 -26 26 -28
leaf_value=-0.0051408322185056811 0.0065364538349664183 0.00099688780780440595 -0.0060206568943470999 -0.0043123729165154331 -0.012905765191614297 -0.011752197668931813 -0.0065473760644051537 0.0021166535905811283 -0.0013577110825034823 0.0072566459885776138 -0.0016518045239380902 -0.00030280462500869036 -0.013753128121912152 -0.0011408993738116313 -0.00074071719696460782 -0.0026312865520991256 0.0022523527605538504 0.0063036032196043213 -0.00098187193871072964 0.0064735889941275031 -0.0019139960716721886 0.0024626364979862072 0.0030254232949891158 0.0064746302347376081 0.006612832146058986 -0.018885913361374847 -0.0085409248581363884
leaf_weight=23.949489861726761 35.529183655977249 13.288775384426119 126.57959192991257 74.638775587081909 5.1408163160085669 27.40530601143837 15.527551084756849 14.717347025871275 15.325510233640669 34.034693688154221 12.143877610564234 17.861836731433868 26.19897948205471 18.7163265645504 10.056122481822966 29.940816342830658 20.899285778403282 26.134898006916046 15.551020383834837 16.927550941705704 24.356122381985188 18.484081625938416 21.954081594944 20.678469240665436 108.67244902253151 11.978571429848669 28.183163331821561
leaf_count=24 34 24 28 39 14 29 23 12 20 24 32 27 19 21 10 20 34 37 27 24 29 25 33 24 112 22 116
internal_value=-0.000446601 0.0178441 -0.0245489 0.028876 -0.0122931 -0.00739915 -0.00393749 0.00563009 0.0020029 0.01648 0.0019589 0.0373755 -0.0286541 -0.0104991 0.00825058 -0.0142442 0.0194592 0.0226682 0.0016935 0.00988237 -0.0187633 0.0293617 0.0421714 0.0346246 0.0454187 -0.0454369 -0.0463345
internal_weight=814.875 463.292 351.583 322.397 225.003 140.895 179.701 129.552 113.489 89.6684 55.6337 247.758 50.1485 40.9163 22.2 58.7806 54.7089 60.9243 28.8398 34.7894 39.8837 39.3834 186.834 56.2077 130.627 45.3026 40.1617
internal_count=883 509 374 330 346 179 194 151 150 99 75 291 43 63 42 71 79 88 51 51 52 59 203 58 145 152 138
is_linear=0
shrinkage=0.0463345


Tree=7
num_leaves=28
num_cat=0
split_feature=21 84 38 2 3 79 63 83 73 50 80 84 40 75 44 58 73 57 80 51 6 84 37 84 62 25 39
split_gain=152.917 113.954 38.9825 23.0926 17.7149 13.9859 14.3391 12.1258 11.5317 11.3941 9.60518 8.32915 8.08496 10.5053 8.74728 6.56648 6.35252 6.23261 5.1584 2.74173 1.39382 1.15087 1.36925 0.328256 0.271851 1.42109e-14 1.42109e-14
threshold=1.0000000180025095e-35 0.20427757501602176 0.72246376811594215 -0.60785761079279388 0.81174490092936691 4601.2500000000009 7624.9224958972563 4406.6000000000013 218.70000000000002 9276.1214285714304 269.2000000000001 0.0098192035220563429 0.62311594202898568 97.300000000000026 -1597.5399999999997 280.40818384529211 197.45000000000002 0.71652882564723408 98.750000000000128 4177.7071428571435 -0.94159970902280266 0.0034309978364035492 5559.0000000000009 0.36001029610633856 5104.741568230439 -12.749999999999998 0.2894420289855073
decision_type=2 2 2 2 2 2 2 2 2 2 2 2 2 2 2 2 2 2 2 2 2 2 2 2 2 2 2
left_child=1 2 4 8 5 6 7 12 -4 11 19 21 14 16 -1 -10 -14 -16 -19 -6 -20 24 -23 -3 -5 -26 -25
right_child=-2 23 3 9 10 -7 -8 -9 15 -11 -12 -13 13 -15 17 -17 -18 18 20 -21 -22 22 -24 26 25 -27 -28
leaf_value=-0.0010534616843932614 -0.0061292533506457515 -0.0047580290422307046 -0.0020028735813620068 0.0064169246798971239 0.0014490336907207987 0.0022488841565587161 -0.010416826398199188 0.0034135339722311674 0.0022828312637826862 -0.0018056097957137882 -0.00037379020660036321 0.0041746601615054498 9.2423945136937429e-05 -0.0002466682200528985 0.00027530746593094695 0.0053342468294388917 0.0030613916743906506 0.00015611158238153843 -0.0012948022790231319 0.0062146498095063951 -0.0057788777366289861 0.0062398033545899073 0.0037439714992017663 -0.016067342072659776 0.0062976992278539808 0.0063367894618235037 -0.011207665991210047
leaf_weight=12.710204064846037 151.94897949695587 7.0632653012871733 30.76469375193119 24.206734657287598 15.235714361071585 36.406224653124809 35.691836714744568 17.203265190124512 19.057142972946167 25.373469352722168 19.007142767310143 23.226530700922012 17.364897936582565 31.274897933006287 16.100204139947891 20.052142783999443 24.011632591485977 5.1571428179740897 4.8275510072708085 35.808571398258209 29.256428606808189 23.419387817382812 14.993673533201216 11.934183606877921 16.919387817382812 93.449183642864227 52.410204112529755
leaf_count=13 33 18 38 24 24 33 20 12 17 14 17 34 25 37 26 25 35 6 4 38 63 32 21 42 14 99 119
internal_value=0.000387025 0.00999657 0.0166712 0.02874 0.00494798 -0.00126519 -0.00621991 -0.000224774 0.00551447 0.0360637 0.0253481 0.039842 -0.00471443 0.00603507 -0.0161905 0.0222092 0.0213532 -0.0241516 -0.0341116 0.0358177 -0.0406463 0.04334 0.0362662 -0.0452936 0.0453592 0.0463345 -0.0463345
internal_weight=814.875 662.926 591.518 291.462 300.056 230.004 193.598 157.906 69.874 221.588 70.0514 196.215 140.703 72.6514 68.0515 39.1093 41.3765 55.3413 39.2411 51.0443 34.084 172.988 38.4131 71.4077 134.575 110.369 64.3444
internal_count=883 850 671 318 353 274 241 221 80 238 79 224 209 97 112 42 60 99 73 62 67 190 53 179 137 113 161
is_linear=0
shrinkage=0.0463345


Tree=8
num_leaves=30
num_cat=0
split_feature=38 27 84 84 18 23 84 63 56 49 6 18 69 49 69 50 44 38 49 46 80 80 2 72 43 84 69 37 6
split_gain=151.687 56.9389 46.8404 41.521 33.2308 25.7247 16.9027 15.6432 12.1421 12.2328 11.3647 11.3132 9.25438 11.8944 7.80044 7.71989 7.80844 7.13241 5.65971 4.62913 4.77158 4.4802 4.09789 4.615 3.95246 0.730709 0.666061 0.114938 7.10543e-15
threshold=0.62224637681159434 41.100000000000009 0.0076593076810240754 0.18222410231828692 1.0000000180025095e-35 1.0000000180025095e-35 0.30431225895881658 5470.6142060420134 0.44639358987470867 4529.666666666667 -0.94159970902280266 1.0000000180025095e-35 90.245000000000019 4446.166666666667 92.030000000000015 4199.9285714285716 -1.0000000180025095e-35 0.45652173913043487 4265.3333333333348 3153.5525850691861 190.00000000000003 379.59999999999997 -1.0000000180025095e-35 18.900000000000002 -716.8249999999997 0.38234554231166845 83.970000000000013 4277.5000000000009 -0.9998158143810113
decision_type=2 2 2 2 2 2 2 2 2 2 2 2 2 2 2 2 2 2 2 2 2 2 2 2 2 2 2 2 2
left_child=1 3 4 5 18 8 7 12 17 10 -10 24 13 -4 19 16 -12 -1 -2 20 -9 -15 23 26 -7 -5 -20 -24 -27
right_child=2 -3 6 25 -6 11 -8 14 9 -11 15 -13 -14 21 -16 -17 -18 -19 22 -21 -22 -23 27 -25 -26 28 -28 -29 -30
leaf_value=-0.0053025251606043889 0.001614772454192574 -0.0054574793639784597 0.0019002185101947803 -0.0045375683581950644 -0.0019695566901699411 0.0041277712514823563 -0.011403039974912181 0.00075726694952089641 0.0021917437874117889 0.0040673152092536424 0.0029633075734878749 -0.012181202058345419 -0.0012348083206864429 -0.0025434156665607591 -0.00012168114101713567 -0.00032707621093274326 -0.0017030057274814738 8.8846207417456782e-05 0.0059756806799119745 0.0064962781134792818 -0.0003856050337709136 0.0013597026372617073 0.006005898764405675 0.0062629111361868538 -0.0044803792628821436 -0.0067802841888202686 0.0060377244296882793 0.0060316276158973855 -0.011937939100421586
leaf_weight=20.6622449234128 13.620408177375792 126.58367365598679 11.82142850756645 9.1387755796313268 68.926530718803406 11.633163258433344 16.721428513526917 10.888061240315439 12.81122452020645 40.010203748941422 13.235714346170425 35.326530575752258 20.594897985458374 15.503061264753343 20.251020431518555 24.769387811422348 13.766326576471329 26.296326518058777 19.007755070924759 20.924489617347717 10.709591776132582 12.973469495773314 18.107142955064774 22.291836708784103 11.477857127785681 0.37959182262420554 23.736530497670174 116.14020401239395 46.565816292539239
leaf_count=27 19 28 20 24 37 18 18 26 10 27 13 15 23 20 21 28 31 35 28 13 23 21 24 24 23 1 22 124 140
internal_value=-2.38816e-05 -0.0207537 0.0192545 -0.00858368 0.0301468 0.000875628 -0.00261178 0.00330015 0.010946 0.0197338 0.00726156 -0.0252409 -0.0134318 -0.000518582 0.0195309 -0.00240732 0.0147293 -0.00862726 0.0391995 0.0308026 0.0157549 -0.0167377 0.0411745 0.0316285 -3.55964e-05 -0.044001 0.040542 0.0457991 -0.0463345
internal_weight=814.875 392.657 422.218 266.073 281.83 209.989 140.387 123.666 151.551 104.593 64.5827 58.4376 60.8929 40.298 62.7732 51.7714 27.002 46.9586 212.904 42.5221 21.5977 28.4765 199.283 65.0361 23.111 56.0842 42.7443 134.247 46.9454
internal_count=883 420 463 392 278 227 185 167 171 109 82 56 84 61 83 72 44 62 241 62 49 41 222 74 41 165 50 148 141
is_linear=0
shrinkage=0.0463345


Tree=9
num_leaves=29
num_cat=0
split_feature=38 27 84 84 2 3 78 60 18 56 59 35 84 84 80 41 66 84 41 79 60 69 84 2 74 84 13 6
split_gain=155.722 61.727 50.3987 43.1805 24.2297 20.7932 12.4203 12.3622 12.0933 12.0144 12.599 13.8577 10.4584 8.82411 7.77508 7.4678 6.7591 6.30008 5.95077 5.38736 5.12352 4.39056 1.77817 3.22799 1.13122 0.407027 0.0895111 7.10543e-15
threshold=0.6594927536231886 41.70000000000001 0.050478665158152587 0.20427757501602176 -0.60785761079279388 0.81174490092936691 3108.1500000000005 6521.8956845238108 1.0000000180025095e-35 0.61038759697404432 389.99921544593735 6068.0000000000009 0.0098192035220563429 0.0050507113337516793 269.2000000000001 6776.8200000000006 293.59999999999997 0.018694031052291397 5391.8350000000009 3881.1500000000005 5473.7469345238105 89.475000000000009 0.0015565413050353529 -1.0000000180025095e-35 1022.6500000000002 0.38234554231166845 1.0000000180025095e-35 -0.99937381720471408
decision_type=2 2 2 2 2 2 2 2 2 2 2 2 2 2 2 2 2 2 2 2 2 2 2 2 2 2 2 2
left_child=1 3 4 5 7 6 16 13 12 10 11 15 22 -2 21 18 -1 -11 -8 -15 -14 -7 -6 -24 26 -5 -25 -27
right_child=2 -3 -4 25 8 14 9 -9 -10 17 -12 -13 20 19 -16 -17 -18 -19 -20 -21 -22 -23 23 24 -26 27 -28 -29
leaf_value=-0.0070994856731090832 0.0060069097458049191 -0.0047778821286262978 -0.0070312362993590763 -0.0043273225998721647 0.0058006813369200104 0.0022224439153721428 -0.00054746674029480487 -0.0052565655336960591 0.0029769233041951519 0.0015496263999950188 0.0026595764983924652 -0.0094143481988596192 -0.0008502206698252434 8.8235898405816386e-05 -0.0002992566700210847 -0.0008502206698252434 -7.9163613122674743e-05 -9.180256023779245e-05 0.00033644796837508929 -0.0011497995614652026 0.0062002361988057258 0.0064830300492889634 0.0051687204069666261 0.0050931844876503912 0.0043517254089433773 -0.017081945767250483 0.0057088889130154528 -0.011028805613408953
leaf_weight=24.510510087013245 18.319999858736992 126.3204083442688 26.904081583023071 7.5928571894764891 96.645714104175568 19.214285805821419 20.033775478601459 23.714897900819778 50.957142949104309 23.964897871017456 20.869795881211758 27.069387793540955 15.001020431518556 21.165612295269966 19.007142767310143 27.976938843727112 10.920408099889753 27.532857298851013 10.806326568126677 15.596938848495482 13.720408141613005 28.34428545832634 20.028571516275406 37.981428593397141 15.202040910720823 0.76020407676696677 16.670408129692078 48.042346904054284
leaf_count=39 19 27 31 19 100 29 37 15 27 19 16 15 22 35 17 37 18 26 16 18 20 26 28 47 20 2 17 141
internal_value=-0.000390344 -0.0189498 0.0217152 -0.00802523 0.0264783 -6.02059e-05 -0.00773818 0.00390895 0.0331589 -0.00218636 -0.0110533 -0.0188998 0.0379639 0.015951 0.0222802 -0.00627348 -0.0325357 0.0161951 0.00945153 0.00285937 0.0119363 0.0322912 0.0419717 0.0372806 0.0419824 -0.0447818 0.0450922 -0.0463345
internal_weight=814.875 442.966 371.908 316.646 345.004 260.251 193.685 78.7974 266.207 158.254 106.756 85.8864 215.25 55.0826 66.5657 58.817 35.4309 51.4978 30.8401 36.7626 28.7214 47.5586 186.528 89.8824 69.8539 56.3954 54.6518 48.8026
internal_count=883 484 399 457 368 295 223 87 281 166 121 105 254 72 72 90 57 45 53 53 42 55 212 112 84 162 64 143
is_linear=0
shrinkage=0.0463345


Tree=10
num_leaves=32
num_cat=0
split_feature=38 27 84 84 23 6 2 43 26 73 50 84 83 62 84 38 2 68 52 79 63 37 49 46 82 65 84 73 7 6 44
split_gain=155.966 65.9663 48.2667 36.562 19.6821 19.9111 19.3501 11.0441 12.666 12.2506 9.85202 10.2215 9.59974 9.51439 8.11667 8.03463 10.1956 7.37427 7.95373 6.87131 3.48463 3.44791 2.95303 2.93613 1.81395 3.2309 0.699685 0.142173 1.42109e-14 7.10543e-15 3.55271e-15
threshold=0.68949275362318851 41.70000000000001 0.20427757501602176 0.050478665158152587 1.0000000180025095e-35 0.27947533894953847 -0.60785761079279388 -15.61499999999978 13.800000000000002 259.40000000000003 9276.1214285714304 0.0090265003964304941 973.25000000000011 6763.6635911745125 0.0050507113337516793 0.50688405797101466 1.0000000180025095e-35 6.5000000000000009 0.50672004830917894 3586.2000000000003 5283.8687136915632 5532.5000000000009 6678.665 4484.0150737009653 100.50000000000001 29.500000000000004 0.38234554231166845 313.50000000000006 -0.91968655568559032 -0.99863729997741457 -16.949999999999815
decision_type=2 2 2 2 2 2 2 2 2 2 2 2 2 2 2 2 2 2 2 2 2 2 2 2 2 2 2 2 2 2 2
left_child=1 2 4 6 7 -6 13 8 15 17 11 23 -11 14 -2 21 -17 18 -9 -16 -13 -1 -7 24 25 -8 -4 28 30 -28 -26
right_child=3 -3 26 -5 5 22 10 9 -10 12 -12 20 -14 -15 19 16 -18 -19 -20 -21 -22 -23 -24 -25 27 -27 29 -29 -30 -31 -32
leaf_value=0.0020857505262616735 0.0057451156162190709 -0.0050759015925597693 -0.0038793704410674734 -0.0067054477952506178 0.0011522599247048874 -0.0049350853519497286 0.0047102053782078048 -0.0023228111089458312 -0.00088977159148475433 -0.0001663866242653558 -0.001768623632682859 -0.00081082615819295836 0.0037415857382048509 -0.0083134643887053453 8.4147536114122774e-05 0.0056221930888817467 -0.0016204298818088842 -0.0005144701175734623 0.0012764697589153426 -0.001238761172890312 0.0059211396395286477 0.00066994346072604823 -0.011201175425895131 0.0060331393888778595 0.0048467979157094066 0.0030541268649273328 -0.010259281811051691 0.009778965319348909 0.0054716849473903295 -0.010873787493791367 0.0049599664683914364
leaf_weight=18.710204005241394 20.496122345328331 132.17551040649414 8.4040816798806173 21.698979526758194 23.731428354978561 23.769796133041382 18.388775497674942 16.95816333591938 27.22551017999649 18.519387789070606 25.373469352722168 13.745918393135073 14.344897866249083 19.9428571164608 15.658469423651693 21.772857159376144 22.37346938252449 18.595918357372284 15.098979562520979 19.410204082727432 14.136734664440153 34.326530456542969 26.165305972099304 23.863265514373779 9.2938776016235369 14.158163279294966 3.0306122303009024 19.527550965547562 93.575102090835571 48.182142833247781 12.220408171415327
leaf_count=21 21 29 21 22 31 35 23 25 26 39 14 19 11 12 28 28 25 25 25 22 21 21 11 14 18 25 5 24 79 141 22
internal_value=2.48563e-05 -0.017192 -0.00642682 0.0238915 0.00159165 -0.0189885 0.0278408 0.00888304 0.0176324 -0.00415016 0.0341774 0.0373454 0.0178809 0.00734031 0.0171939 0.0254575 0.0108549 -0.0184442 -0.00497915 0.00365541 0.0111389 0.0376124 -0.0355949 0.0411705 0.0433409 0.0335248 -0.044301 0.0457142 0.0463345 -0.0463345 0.0463345
internal_weight=814.875 473.385 341.209 341.49 281.592 73.6665 319.791 207.926 124.409 83.5173 244.283 218.91 32.8643 75.5077 55.5648 97.1831 44.1463 50.6531 32.0571 35.0687 27.8827 53.0367 49.9351 191.027 167.164 32.5469 59.6168 134.617 115.089 51.2128 21.5143
internal_count=883 519 490 364 323 77 342 246 121 125 259 245 50 83 71 95 53 75 50 50 40 42 46 205 191 48 167 143 119 146 40
is_linear=0
shrinkage=0.0463345


Tree=11
num_leaves=32
num_cat=0
split_feature=38 27 84 84 23 49 2 46 56 62 50 84 78 84 81 38 49 67 79 80 46 84 46 78 65 27 84 19 57 34 6
split_gain=144.629 57.0026 48.4215 35.6847 19.4479 19.3506 17.9598 12.4833 15.1446 9.51439 9.15675 9.40197 8.32371 8.11667 7.62794 8.13474 6.92425 10.9178 6.87131 6.05742 3.66129 3.13817 2.42696 1.71608 1.83726 3.16912 0.699685 0.472799 0.554918 0.0647128 7.10543e-15
threshold=0.68949275362318851 41.70000000000001 0.20427757501602176 0.050478665158152587 1.0000000180025095e-35 5339.6900000000014 -0.60785761079279388 2838.983774730606 0.45712359106774819 6763.6635911745125 9276.1214285714304 0.0098192035220563429 3033.2500000000005 0.0050507113337516793 -21.549999999999951 0.5102565217391305 4455.3333333333339 10952285.050000003 3586.2000000000003 214.10000000000016 2145.541940527014 0.0061092968098819265 4484.0150737009653 3430.2000000000003 24.500000000000004 1.8 0.38234554231166845 1.0000000180025095e-35 0.73231698617416097 5527.5000000000009 -0.99863729997741457
decision_type=2 2 2 2 2 2 2 2 2 2 2 2 2 2 2 2 2 2 2 2 2 2 2 2 2 2 2 2 2 2 2
left_child=1 2 4 6 7 19 9 12 -9 13 11 22 -1 -2 20 -16 17 -10 -15 -6 -14 -17 23 24 -8 -26 -4 28 -25 -30 -28
right_child=3 -3 26 -5 5 -7 10 8 16 -11 -12 -13 14 18 15 21 -18 -19 -20 -21 -22 -23 -24 27 25 -27 30 -29 29 -31 -32
leaf_value=-0.0053938959581093593 0.0054789188134308107 -0.0048407124570456457 -0.0036996219247228956 -0.0063947545240272928 0.00087485296873572008 -0.010960012039179208 0.0052053197646181439 -0.0038831005297532981 0.003410801885245781 -0.0079282645444898776 -0.0016866754200086348 0.0031707260083042115 -1.7393753911721631e-06 8.0248605862338131e-05 -0.0022151849214176221 0.0035938806259732943 0.0038616828039071396 -0.00012565013231357071 -0.0011813638486814282 -0.0037333146931993388 -0.0007122934328672528 0.0019712802735173791 0.0057535971614662328 0.0044643379194240634 0.0023373435261502262 0.0052389782365250513 -0.00978392357643308 0.0052866126104255482 0.004384014421644186 0.0047540099906892641 -0.01036995647307621
leaf_weight=13.642857134342192 20.496122345328331 132.17551040649414 8.4040816798806173 21.698979526758194 21.995918273925781 37.655510187149048 17.820408254861832 24.791836619377136 17.320408165454865 19.9428571164608 25.373469352722168 26.297959178686142 13.128571458160879 15.658469423651693 15.195918366312979 17.608571350574497 44.54183641076088 31.88469398021698 19.410204082727432 14.015101999044417 16.608163326978683 13.203061282634733 23.863265514373779 14.423469334840773 13.186734825372698 10.915306121110914 3.0306122303009024 87.558775365352631 9.8836734294891375 14.960204154253004 48.182142833247781
leaf_count=38 21 29 21 22 32 17 28 14 15 12 14 36 27 28 22 21 30 28 22 28 27 24 14 24 18 27 5 55 18 25 141
internal_value=0.000206115 -0.0163733 -0.00636613 0.023189 0.00166519 -0.0187921 0.0270906 0.00891306 0.0187718 0.00734031 0.0331954 0.0362495 -0.00416093 0.0171939 0.00183979 0.0136611 0.0272887 0.0153077 0.00365541 0.00549147 -0.0164497 0.0273436 0.0397976 0.0417535 0.0336264 0.0252858 -0.044301 0.0444399 0.0402154 0.0444123 -0.0463345
internal_weight=814.875 473.385 341.209 341.49 281.592 73.6665 319.791 207.926 118.539 75.5077 244.283 218.91 89.3871 55.5648 75.7443 46.0076 93.7469 49.2051 35.0687 36.011 29.7367 30.8116 192.612 168.749 41.9224 24.102 59.6168 126.826 39.2673 24.8439 51.2128
internal_count=883 519 490 364 323 77 342 246 87 83 259 245 159 71 121 67 73 43 50 60 54 45 209 195 73 45 167 122 67 43 146
is_linear=0
shrinkage=0.0463345


Tree=12
num_leaves=30
num_cat=0
split_feature=38 53 84 23 18 84 6 26 9 73 84 58 63 69 67 56 36 61 40 65 79 56 84 82 51 33 25 34 56
split_gain=147.584 47.6593 44.8156 26.5243 26.4069 17.8057 12.9759 11.4257 11.4251 11.323 8.74742 8.34394 7.55223 7.46436 6.70418 6.31693 11.6138 5.18678 4.83977 4.4373 3.98732 1.50554 2.37373 0.877064 0.867682 0.0177958 0.000317041 1.42109e-14 7.10543e-15
threshold=0.6139855072463769 0.54500143271221535 0.011499759275466205 1.0000000180025095e-35 1.0000000180025095e-35 0.13169520348310473 -0.72800098152115733 12.250000000000002 -0.37516752806967918 209.50000000000003 0.0033261569915339355 300.81187362903182 5491.1785109366847 91.240000000000023 12692908.300000003 0.65184601377428797 4314.0000000000009 3071.100238470774 0.81036231884057985 2.5000000000000004 4075.8000000000006 0.58650885502257155 0.0061092968098819265 124.50000000000001 4954.5578571428587 12.350000000000001 11.250000000000002 5649.0000000000009 0.41491447384720631
decision_type=2 2 2 2 2 2 2 2 2 2 2 2 2 2 2 2 2 2 2 2 2 2 2 2 2 2 2 2 2
left_child=1 6 4 7 10 9 -1 8 -3 12 19 -11 -4 17 -5 16 23 20 -10 -2 21 22 -12 -8 -21 27 -17 -26 -25
right_child=2 3 5 14 -6 -7 15 -9 18 11 13 -13 -14 -15 -16 26 -18 -19 -20 24 -22 -23 -24 28 25 -27 -28 -29 -30
leaf_value=-0.0060023020838566874 0.00399034648879492 -0.0018725002779581567 -0.0011022474301058251 -0.0022125660915769041 -0.0018561330739810863 -0.0093245387772587316 -0.0015406350141674836 -0.0013146265852012372 0.0057641034812046217 -0.00024481490666782886 0.0046397650748225871 0.0018442544438664976 0.00020233693149319758 -0.0002038064641598993 -0.010497228161612547 -0.0074244291202936038 -0.0013474043513202604 0.0051201112799297765 0.00010925010081593545 0.0048094604228688829 -0.00025001538840150797 0.0016068599503963196 0.00050136906137586011 -0.0052982952427431309 0.0049591753165430467 0.00451875313090237 -0.0027771934624090085 0.012859368856592541 -0.0078527334643023593
leaf_weight=21.795918375253677 21.297959223389626 22.245918393135071 29.545918375253677 21.091020494699478 68.926530718803406 20.64999994635582 7.0959183871746054 27.638775438070297 36.880000174045563 23.594591811299324 10.777551054954534 27.505102097988129 23.630612164735794 18.417346924543381 30.543673515319824 69.743469433858991 33.650000005960464 25.739999920129776 21.741836607456207 22.759183496236801 11.140918418765066 11.670408099889753 8.1357143223285657 12.239795953035353 47.462244868278503 17.510204076766968 45.197244673967361 46.202040791511536 30.044795967638493
leaf_count=20 18 29 33 30 37 24 16 32 36 33 22 39 31 19 22 30 20 20 14 35 20 19 21 76 46 36 17 25 63
internal_value=-0.000393918 -0.0214931 0.0180346 -0.00226803 0.0274754 -0.00539549 -0.0355022 0.0107402 0.0195302 0.00238889 0.0347053 0.0179644 -0.0125783 0.0228402 -0.0296038 -0.0392379 -0.0294998 0.0299773 0.0302588 0.0412697 0.0198866 0.0285316 0.0204562 -0.0438048 0.0443936 0.046081 -0.0462725 0.0463345 -0.0463345
internal_weight=814.875 379.908 434.966 160.141 310.04 124.926 219.767 108.507 80.8678 104.276 241.114 51.0997 53.1765 85.8819 51.6347 197.971 83.0305 67.4646 58.6218 155.232 41.7246 30.5837 18.9133 49.3805 133.934 111.174 114.941 93.6643 42.2846
internal_count=883 405 478 163 318 160 242 111 79 136 281 72 64 121 52 222 175 102 50 160 82 62 43 155 142 107 47 71 139
is_linear=0
shrinkage=0.0463345


Tree=13
num_leaves=32
num_cat=0
split_feature=21 84 38 2 80 40 84 63 37 6 83 50 61 42 73 67 46 63 58 81 73 84 45 57 37 74 84 5 79 62 2
split_gain=146.974 107.222 35.5251 17.3048 14.9048 19.4827 13.0973 17.3554 14.3695 11.8452 11.3443 9.93405 8.43787 6.45125 6.30963 9.73658 6.27571 6.25689 4.79343 4.5773 3.90272 2.42737 2.55077 2.22328 3.97121 0.926785 0.718644 0.201839 0.491023 1.42109e-14 7.10543e-15
threshold=1.0000000180025095e-35 0.20427757501602176 0.75289855072463785 -0.60785761079279388 230.59999999999994 0.52384057971014497 0.011770872864872219 7454.8765183343867 4330.0000000000009 0.62060948182742293 4599.2450000000008 9276.1214285714304 2030.499084099192 3020.0000000000005 234.95000000000002 14084945.000000002 2424.2171815395909 5480.7328056837823 273.25775424389752 343.50000000000006 222.55000000000004 0.0034309978364035492 6045.0910416666675 0.99999999965642139 5054.3450000000012 1013.2500000000001 0.38234554231166845 -0.68301270189221952 3437.7500000000005 4523.4466916309129 0.6078576107927941
decision_type=2 2 2 2 2 2 2 2 2 2 2 2 2 2 2 2 2 2 2 2 2 2 2 2 2 2 2 2 2 2 2
left_child=1 2 4 10 12 9 7 18 -8 -6 17 13 -1 -5 15 16 -14 -4 -7 -20 -10 27 -23 24 -16 -11 -3 28 -15 -29 -28
right_child=-2 26 3 11 5 6 8 -9 20 25 -12 -13 14 21 23 -17 -18 -19 19 -21 -22 22 -24 -25 -26 -27 30 29 -30 -31 -32
leaf_value=-0.0010932782028754394 -0.004887895421555679 -0.0034117978533647004 -0.00094006069064717633 0.004143156555443628 0.00029627930121862772 0.0029548120280934553 0.00085891282696671665 -0.0071338555551732526 -0.0017857389975053483 -0.0046643481390879846 -0.0064405836830446865 -0.0030371884327700456 7.0517372775045725e-05 0.0046486345594188858 0.0023865588917284771 -9.1505038398326699e-05 0.0024304256771304636 0.0049370985798193306 8.386994555644287e-05 0.0033334785020923395 -0.00074069348515081119 0.0039844456022795479 0.0052090468638771341 0.0036329310315581578 0.001923989513327902 -0.0063082102238267565 -0.01080056374918688 -0.00077112892024412108 0.0043557375460781204 0.0050648109715790528 -0.0085700141334395623
leaf_weight=13.637244895100592 151.94897949695587 8.4040816798806173 18.212245047092438 23.500000149011612 17.625510104000568 26.680000066757202 23.085918396711349 35.610204100608826 19.534693956375122 10.041836619377134 17.957755029201508 19.877550959587097 17.292857140302658 7.4816326498985317 13.932653039693834 22.423469513654709 33.298469215631485 23.65877540409565 15.279591739177702 19.026122331619263 13.027550995349882 16.283673495054249 12.300816357135771 20.446938842535019 12.834387794136999 25.580612301826477 50.430408114567399 6.8877550363540641 14.827551096677778 91.172244936227798 12.573163226246832
leaf_count=31 33 21 25 27 23 25 29 20 21 13 12 11 32 21 24 20 37 30 24 20 19 30 15 13 19 33 118 4 23 70 40
internal_value=-0.00042569 0.00899529 0.0154697 0.0286425 0.00568165 -0.00215582 0.00628164 0.0165967 -0.0116235 -0.0262798 0.0068795 0.0354124 0.0177126 0.0389875 0.0216304 0.0130949 0.0243595 0.0200927 0.0316044 0.0201487 -0.0314487 0.0425471 0.0304093 0.0348304 0.0260426 -0.0416519 -0.0446368 0.0454295 0.0414516 0.0463345 -0.0463345
internal_weight=814.875 662.926 591.518 252.16 339.358 205.492 152.244 96.5959 55.6482 53.248 59.8288 192.331 133.866 172.454 120.229 73.0148 50.5913 41.871 60.9857 34.3057 32.5622 148.954 28.5845 47.214 26.767 35.6224 71.4077 120.369 22.3092 98.06 63.0036
internal_count=883 850 671 268 403 227 158 89 69 69 67 201 176 190 145 89 69 55 69 44 40 163 45 56 43 46 179 118 44 74 158
is_linear=0
shrinkage=0.0463345


Tree=14
num_leaves=31
num_cat=0
split_feature=38 84 27 84 23 2 51 56 74 49 6 59 34 52 35 41 62 84 82 45 43 80 52 51 35 84 84 7 43 6
split_gain=126.162 39.1498 36.4623 42.1721 19.4625 18.3358 16.3172 15.3027 11.998 10.2833 10.9527 9.30508 10.7029 8.69979 8.3628 8.18354 7.60865 7.31811 6.09096 5.65459 4.93482 6.85973 3.81809 1.78359 1.63548 0.767836 0.589077 0.483376 1.42109e-14 7.10543e-15
threshold=0.6594927536231886 0.050478665158152587 41.70000000000001 0.20427757501602176 1.0000000180025095e-35 -0.60785761079279388 5553.3214285714294 0.5663875510996309 1017.9000000000001 4455.3333333333339 -0.61383352812826175 389.99921544593735 5239.7850000000008 0.62183700483091797 5590.1450000000013 6899.7500000000009 6022.2610701656076 0.0090265003964304941 5568.7500000000009 5303.4404166666673 399.00000000000006 135.10000000000005 0.9904759371980677 4423.3928571428578 4372.2200000000003 0.0034309978364035492 0.38234554231166845 -0.94445443497892134 1.0900000000001457 -0.99937381720471408
decision_type=2 2 2 2 2 2 2 2 2 2 2 2 2 2 2 2 2 2 2 2 2 2 2 2 2 2 2 2 2 2
left_child=2 5 3 4 7 8 19 11 14 10 -9 12 15 16 -2 20 -7 18 22 -6 21 -1 23 -15 -23 27 -5 -25 -29 -28
right_child=1 -3 -4 26 6 13 -8 9 -10 -11 -12 -13 -14 17 -16 -17 -18 -19 -20 -21 -22 24 -24 25 -26 -27 29 28 -30 -31
leaf_value=-0.0001461019511466038 -0.00073335026838194321 -0.0062802039033565266 -0.0039468587265654581 -0.0032537140581906658 -0.0026739117754579246 0.0028179024222191669 -0.0098522677589575041 0.00097342341907385641 -0.0026963849343822461 0.00022862669856830439 -0.00015464311868785692 0.00056588797492168694 -0.0078762250347434917 0.0045176371171024073 0.0050857967941100868 0.0060224262046525345 -0.005556925111009612 0.0026440467191301046 0.0036040519715442696 0.0027898271855591955 8.3183328437557485e-05 -0.0023456355593420896 0.012022954472817149 0.0041400878474709673 -0.00063197337279427893 0.0037337272907636853 -0.015231761768351022 0.0048196654652778986 0.004578653443672781 -0.0087875427444886363
leaf_weight=13.398979485034941 22.737347036600113 26.904081583023071 126.3204083442688 7.5928571894764891 15.553571358323099 23.098979443311691 37.514693856239319 33.803061336278915 32.356938764452934 37.201020061969757 26.286734789609909 15.962244905531405 16.04489803314209 22.232653051614761 23.703163102269173 14.364693790674208 21.481632709503174 22.832653135061264 18.619183778762817 16.219693794846535 10.407142877578734 13.915306225419046 18.506122469902039 18.788775533437729 9.5785714387893659 22.617142885923386 0.76020407676696677 48.945918351411819 49.083673417568207 48.042346904054284
leaf_count=21 33 31 27 19 30 29 17 26 32 25 39 18 9 27 22 19 11 34 12 24 20 32 10 38 15 37 2 42 41 141
internal_value=0.000167217 0.0200643 -0.0165381 -0.00814175 -0.000270291 0.0242624 -0.0213058 0.00736213 0.00462898 0.0202322 0.00837967 -0.00600521 -0.0126239 0.0300739 0.0197207 -0.0038525 0.0113978 0.0338306 0.0366841 0.00312668 -0.0131545 -0.0211033 0.0392913 0.0415733 -0.0361918 0.0435167 -0.0444666 0.0450296 0.0463345 -0.0463345
internal_weight=814.875 371.908 442.966 316.646 260.251 345.004 69.288 190.963 78.7974 97.2908 60.0898 93.6718 77.7096 266.207 46.4405 61.6647 44.5806 221.626 198.793 31.7733 47.3 36.8929 180.174 161.668 23.4939 139.436 56.3954 116.818 98.0296 48.8026
internal_count=883 399 484 457 295 368 71 224 87 90 65 134 116 281 55 107 40 241 207 54 88 68 195 185 47 158 162 121 83 143
is_linear=0
shrinkage=0.0463345


Tree=15
num_leaves=31
num_cat=0
split_feature=38 84 27 84 2 84 18 56 73 11 82 6 3 67 73 50 9 65 68 43 83 19 43 74 67 84 4 7 66 7
split_gain=117.654 49.59 30.4468 32.7744 23.5443 22.8544 23.1393 16.2889 15.2939 9.47922 8.63015 11.8969 9.46527 8.59159 6.40642 6.0353 5.94697 4.96034 4.6378 3.40926 2.40714 1.93528 2.45499 1.50579 2.70273 0.616303 0.410677 0.206884 0.0353882 7.10543e-15
threshold=0.57753623188405812 0.13169520348310473 41.100000000000009 0.20427757501602176 -0.60785761079279388 0.0076593076810240754 1.0000000180025095e-35 0.44639358987470867 208.10000000000005 1.0000000180025095e-35 4169.1500000000005 -0.88664765382614386 0.81174490092936691 11330550.000000002 309.70000000000005 4398.0950000000012 0.67498300151821033 2.5000000000000004 1.2500000000000002 303.00000000000006 330.15000000000003 1.0000000180025095e-35 -395.49999999999994 1015.9500000000002 16482768.638000002 0.55684509873390209 -0.6830127018922193 -0.5793997530542554 250.94999999999985 0.33662488294938436
decision_type=2 2 2 2 2 2 2 2 2 2 2 2 2 2 2 2 2 2 2 2 2 2 2 2 2 2 2 2 2 2
left_child=2 5 3 4 9 6 15 16 13 -1 11 -9 20 -7 18 -2 -6 -17 -10 -15 -13 22 -19 28 -25 -5 -20 -23 -24 -27
right_child=1 -3 -4 25 7 8 -8 10 14 -11 -12 12 -14 19 -16 17 -18 21 26 -21 -22 27 23 24 -26 29 -28 -29 -30 -31
leaf_value=-0.0045767051122240455 0.0036359411775537262 -0.0081570048056914344 -0.003927347251562221 -0.0018698149483837422 -0.0047085791833853434 0.00034370574882167825 -0.0015050142678809883 0.0020415958455691158 0.00042965071780097779 -0.010730963324473632 -0.00034207507847699975 -0.0015591823796548346 0.00075929227724057463 -0.0013669123982999591 0.00024467184462324397 0.0032912354177226676 -0.00016064188696713591 0.0018958029634696721 0.0050160087925412745 -0.00033070746980117785 -0.0021429468111323485 0.0039585332195455902 0.0044272973876566092 0.0018087683316362906 0.0037694971793645312 -0.0088793478985789587 0.0055651210410444232 0.011470524834995171 0.0039740088611366301 -0.011356855136977028
leaf_weight=23.949489861726761 27.904081732034683 27.40530601143837 122.63673490285873 7.076530657708644 15.527551084756849 25.654081404209137 74.638775587081909 13.771428614854811 11.965306103229521 26.19897948205471 44.638775408267975 8.1285714060068148 14.685714200139044 21.466938942670822 27.144285619258881 25.920714288949966 24.356122381985188 9.3265305757522565 16.169081702828407 21.698979467153549 12.386734768748282 28 6.6581633090972927 13.489796012640001 11.886734575033186 14.562244877219198 14.275510251522066 75.830612063407898 23.857142895460129 23.663775542750955
leaf_count=24 33 29 27 22 23 38 39 13 20 19 24 18 22 29 35 25 29 18 20 23 23 20 21 32 22 44 23 43 39 86
internal_value=0.00151825 0.0168555 -0.0186921 -0.00871274 -5.53539e-06 0.0206566 0.0278922 0.0101629 0.00509951 -0.027074 0.0207275 0.00729584 -0.00698838 -0.0103865 0.0204221 0.0353701 -0.0146332 0.0382546 0.0316721 -0.0230074 -0.0273167 0.0411486 0.0348933 0.0385655 0.0302257 -0.0440092 0.0412779 0.0450777 0.0455009 -0.0463345
internal_weight=814.875 463.292 351.583 228.946 183.643 435.887 297.513 133.495 138.374 50.1485 93.6112 48.9724 35.201 68.82 69.5542 222.874 39.8837 194.97 42.4099 43.1659 20.5153 169.049 65.2184 55.8918 25.3765 45.3026 30.4446 103.831 30.5153 38.226
internal_count=883 509 374 347 195 480 292 152 188 43 100 76 63 90 98 253 52 220 63 52 41 195 132 114 54 152 43 63 60 130
is_linear=0
shrinkage=0.0463345


Tree=16
num_leaves=34
num_cat=0
split_feature=52 84 2 60 27 37 38 38 52 68 35 37 73 84 7 60 84 82 54 82 83 66 42 53 47 69 75 51 61 2 66 46 83
split_gain=105.354 60.9788 31.3017 27.9699 25.8783 25.7548 20.3981 15.9215 17.3925 14.76 12.3735 12.2077 10.0754 9.52562 7.44697 7.3546 6.96481 6.01309 5.7231 5.15988 4.55257 3.95466 3.69983 2.70504 2.40701 2.31008 1.38225 0.512668 0.147081 0.0709252 0.0209969 1.42109e-14 7.10543e-15
threshold=0.49814975845410631 0.050478665158152587 -0.60785761079279388 5996.5968452380957 65.000000000000014 3799.0000000000005 0.66710144927536241 0.50378840579710149 0.66652705314009675 -5.3499999999999988 5392.5000000000009 5597.5000000000009 151.25000000000003 0.18222410231828692 0.66012780149078465 5328.3816071428582 0.0090265003964304941 93.500000000000014 0.53955631469979315 5568.7500000000009 444.50000000000006 1147.3500000000006 3659.5000000000005 0.77427834782608707 14999.750000000002 95.010000000000005 3.7000000000000006 4943.4642857142871 2630.7004202126623 -1.0000000180025095e-35 -272.94999999999999 2662.5105956275597 372.85000000000008
decision_type=2 2 2 2 2 2 2 2 2 2 2 2 2 2 2 2 2 2 2 2 2 2 2 2 2 2 2 2 2 2 2 2 2
left_child=4 2 3 15 5 18 7 -4 10 -7 12 -11 -9 14 -3 21 19 -14 25 22 -18 -2 -8 -17 26 30 -24 -28 -15 -29 -1 -31 -32
right_child=1 13 6 -5 -6 9 16 8 -10 11 -12 -13 17 28 -16 23 20 -19 -20 -21 -22 -23 24 -25 -26 -27 27 29 -30 31 32 -33 -34
leaf_value=-0.0050113627840945169 -0.001592417533757056 -0.0017729997496935984 0.00092597030018100204 -0.0048811169729127517 -0.0041530786057578642 -0.0068397364137588144 0.00098330231126157915 -0.00013037487761083347 0.006799731447912489 -0.0016325542378080806 -0.0054133198795371582 0.00018970929180093688 -0.00015319863263404384 -0.003639396920383712 3.5263339463081164e-05 0.00045179756846486159 -0.0009016003776441138 0.0026910032218820704 -0.00063035229861096846 0.0021696977407550735 0.004894715840158252 0.0010033979737804097 0.0040225174362260941 0.0047752002883097089 0.0035303394634041436 -0.0025329756453086622 0.0037483439357553741 0.0047781979567161669 -0.0077291574389979738 0.0040641561847567145 -0.0047638079991901179 0.0042006405919783676 -0.0075960004662423575
leaf_weight=6.1234693974256507 21.061224550008774 17.750204145908359 46.154081881046295 48.53520405292511 78.763265132904053 22.553061187267303 28.630612254142761 23.198979586362839 21.290204018354416 33.830612450838089 24.306122362613678 42.03877529501915 13.552040845155718 13.363265216350554 13.71734696626663 15.578265354037283 16.014285743236545 13.786734580993651 8.8397958576679212 18.719183802604675 13.239795893430708 14.740408152341841 23.825510233640671 16.905510097742081 26.477551102638245 6.5268368050456038 22.732653081417084 22.162244826555252 24.82857146859169 24.298979729413986 15.70765304006636 49.072244703769684 26.549999915063381
leaf_count=26 29 24 31 32 17 15 32 24 26 34 10 22 23 27 19 27 26 17 10 12 18 16 29 20 15 23 39 22 23 34 77 42 42
internal_value=0.00116897 0.0119634 0.0175766 -0.00344695 -0.024545 -0.0139622 0.0239152 0.00996001 -0.000779328 0.000898308 -0.0112907 0.0106813 0.00177472 -0.0286722 -0.00979601 0.0156672 0.0320143 0.0208325 -0.0369058 0.0348888 0.0107977 0.00118274 0.0370957 0.031631 0.0397112 -0.0424763 0.0421013 0.0441525 -0.044225 0.0456406 -0.045967 0.0463345 -0.0463345
internal_weight=814.875 573.941 504.282 116.821 240.933 162.17 387.461 142.288 96.1341 98.4224 74.8439 75.8694 50.5378 69.6594 31.4676 68.2854 245.173 27.3388 63.7478 215.919 29.2541 35.8016 197.2 32.4838 168.569 54.908 142.092 118.266 38.1918 95.5335 48.3811 73.3712 42.2577
internal_count=883 617 524 124 266 249 400 131 100 71 74 56 64 93 43 92 269 40 178 225 44 45 213 47 181 168 166 137 50 98 145 76 119
is_linear=0
shrinkage=0.0463345


Tree=17
num_leaves=37
num_cat=0
split_feature=38 41 84 84 27 50 52 74 84 54 38 79 6 43 59 60 38 73 78 65 44 61 84 56 53 61 74 7 72 34 80 73 82 80 43 80
split_gain=92.9818 40.2476 33.0569 22.8057 22.3841 18.2081 15.8499 14.876 11.9513 13.0165 11.8636 11.1147 9.19063 7.41337 12.235 17.2757 12.169 12.1741 5.63328 4.49616 4.37222 3.9972 3.53973 3.52522 4.13413 5.479 2.79488 2.71073 1.77959 1.34789 0.654242 0.125055 0.0779114 0.0116812 1.42109e-14 1.42109e-14
threshold=0.68949275362318851 4107.5000000000009 0.0092062270268797892 0.30431225895881658 75.000000000000014 8986.5085714285724 0.39058695652173919 1025.45 0.050478665158152587 0.60903209109730849 0.53463768115942034 3509.0500000000006 0.99054754357789243 -475.49999999999994 337.80008842438411 6797.6036011904771 0.56920289855072481 206.10000000000002 3921.6500000000005 2.5000000000000004 -2454.3249999999994 3491.5225623094743 0.0033261569915339355 0.66862421460850407 0.63243612836438934 2798.2979859471325 1026.5000000000002 -0.8572830456751136 18.550000000000001 5547.1950000000006 -75.200000000000031 309.70000000000005 73.500000000000014 34.949999999999825 -1437.2849999999996 446.2000000000001
decision_type=2 2 2 2 2 2 2 2 2 2 2 2 2 2 2 2 2 2 2 2 2 2 2 2 2 2 2 2 2 2 2 2 2 2 2 2
left_child=1 10 5 4 6 19 -3 12 9 -4 20 -11 13 14 15 -8 18 -18 -15 -2 -1 -9 26 24 -24 28 29 -22 -26 -21 -29 35 -5 -32 -35 -31
right_child=2 3 8 32 -6 -7 7 21 -10 11 -12 -13 -14 16 -16 -17 17 -19 -20 22 27 -23 23 -25 25 -27 -28 30 -30 31 33 -33 -34 34 -36 -37
leaf_value=0.0029280745136930054 0.0031899260355620325 0.00019541275079709865 0.0046788966632052634 -0.0024299174009989721 -0.002969258120733057 -0.0051537271973459498 0.00063623688365175906 -0.00023134125390230975 -0.0052531374016162105 0.0021846436134897894 -0.00047435174933002899 -0.0017223900202009979 -0.00036038293237570417 -0.005156043415557976 0.0055141471355300833 -0.0080570216235300498 -0.00016836166367210971 0.0025977691616170988 -0.00044449537229488946 0.0035228481690013787 0.010323841626988413 -0.0066115433908440057 0.0041386718779975219 0.0034239413895748544 0.0043516219398098722 -0.0023585402271736303 0.0044993187021319676 -0.0041439175248618575 0.0015340666698849324 0.0039549167887622605 -0.012415225040677916 0.011164044079214402 -0.011453600281847913 -0.01513322709002044 -0.0069066322443613491 0.0028856980631147664
leaf_weight=4.3693878203630439 21.033469393849373 33.892857059836388 14.738775461912153 8.7561223804950732 75.146939039230347 39.783673405647278 30.453673362731934 14.347448945045469 21.698979526758194 21.568673476576805 26.992653250694275 23.231632828712463 17.847959280014038 14.315306052565576 35.225918352603912 22.836734771728516 22.524489760398865 28.336734592914581 12.076530635356901 26.827550977468491 0.70438775420188804 20.793877601623535 12.4193879365921 14.726530492305754 9.7306122779846245 11.243877440690992 18.972449034452438 7.0259183030575505 10.186734735965727 46.708163231611252 10.892346803098915 20.408163279294968 17.44387748837471 23.071428716182709 46.330203734338284 28.211224526166916
leaf_count=6 21 27 17 17 14 22 38 32 22 36 31 26 16 33 31 13 28 34 14 37 2 12 12 14 23 10 15 30 20 42 10 21 34 11 86 26
internal_value=0.00250183 -0.0107917 0.0209297 -0.00294576 0.000379093 0.0289841 0.00698245 0.00241444 -0.00487286 0.00585594 -0.034056 -0.0065703 0.00770031 0.0111017 0.0202556 0.00625008 0.000613239 0.0138602 -0.0249157 0.0341902 -0.0419507 -0.0252048 0.0363391 0.0267355 0.0201127 0.0111034 0.0403068 -0.0441964 0.0257013 0.0428766 -0.0449267 0.0454586 -0.0445443 -0.0461131 -0.0463345 0.0463345
internal_weight=814.875 473.385 341.49 353.998 327.798 260.252 252.652 218.759 81.2381 59.5391 119.386 44.8003 183.617 165.769 88.5163 53.2904 77.2531 50.8612 26.3918 220.468 92.3937 35.1413 199.435 58.3071 43.5806 31.1612 141.128 88.0243 19.9173 122.155 87.3199 95.3276 26.2 80.294 69.4016 74.9194
internal_count=883 519 364 343 292 263 278 251 101 79 176 62 207 191 82 51 109 62 47 241 145 44 220 79 65 53 141 139 43 126 137 89 51 107 97 68
is_linear=0
shrinkage=0.0463345


Tree=18
num_leaves=32
num_cat=0
split_feature=38 84 2 84 47 18 75 48 62 21 46 6 35 78 45 73 80 61 42 51 79 81 82 27 53 51 36 58 59 73 48
split_gain=98.6943 46.6219 29.2991 21.4814 20.7447 18.8541 16.625 24.807 11.8953 11.4571 11.1713 11.8839 13.2746 9.53439 9.85107 9.27971 7.95296 8.16006 7.53625 7.44656 7.32969 6.77676 5.10626 4.84762 3.94172 3.7365 3.95589 2.02994 1.46098 0.377627 0.162021
threshold=0.57753623188405812 0.13169520348310473 -1.0000000180025095e-35 0.0076593076810240754 14897.720000000003 1.0000000180025095e-35 60.150000000000006 892.00000000000011 4607.1955503315176 1.0000000180025095e-35 3627.1363440579635 0.69174588062027964 4272.5000000000009 3541.8500000000004 6021.6050000000005 208.10000000000005 185.89999999999989 3047.0272740409769 4678.0000000000009 4021.3214285714289 3488.9000000000005 238.05000000000021 90.500000000000014 2.8500000000000001 0.57112908902691528 5188.3928571428578 5495.0000000000009 348.48179785024718 275.86301892041666 311.25000000000006 737.50000000000011
decision_type=2 2 2 2 2 2 2 2 2 2 2 2 2 2 2 2 2 2 2 2 2 2 2 2 2 2 2 2 2 2 2
left_child=2 3 10 5 6 18 9 8 -8 19 11 12 28 14 15 -5 -15 -18 21 -4 -9 22 -2 -23 -22 26 -20 -28 -1 -27 -13
right_child=1 -3 4 13 -6 -7 7 20 -10 -11 -12 30 -14 16 -16 -17 17 -19 25 -21 24 23 -24 -25 -26 29 27 -29 -30 -31 -32
leaf_value=-0.00071298484121380332 0.00035148552232858665 -0.0071276298788441241 -0.0048333524574718512 -0.0011807404553713496 0.00047792115939484717 -0.0012155479363506584 -4.9467147753859616e-05 -0.0018575094043845467 0.00016529563694444452 -0.0030079158327983033 -0.0085080710479802212 -0.0089918479276115994 0.0010206449283941563 0.00014077844001831479 0.0044712147820763406 0.0010925399926173297 0.0001401079442759695 -0.0013168508987767245 0.0021350029060397194 0.00030603317819154815 -0.00082859981001364357 -0.00083783525669830887 0.0036960457705348718 0.0035257666556572126 0.0015589323989402644 0.0038815654164337668 0.0035693068974732337 0.00322023152496752 -0.0033159070476330567 0.0049308338878224622 -0.0038147623825842739
leaf_weight=4.7723469212651279 18.712040796875954 27.40530601143837 8.9897959455847758 23.965306133031845 55.408163547515869 74.638775587081909 14.844489784911273 19.644897930324078 23.569387227296829 43.277551174163818 85.093877553939819 8.6632654368877429 23.420612305402756 24.31469389796257 19.169693663716316 22.20714282989502 21.598979592323303 27.118367373943329 15.354183569550512 13.198979616165159 11.087755084037783 18.330408245325089 30.34183669090271 17.253061205148697 10.789795994758604 68.137142837047577 20.819591939449314 10.752040743827818 12.3339796513319 23.173469424247742 16.487755015492439
leaf_count=13 29 29 31 39 29 39 36 38 13 10 31 16 23 35 22 36 37 19 27 20 24 17 32 25 16 54 30 19 38 20 36
internal_value=0.000971113 0.0150184 -0.0175394 0.0187039 -0.00594938 0.0257188 -0.0151425 -0.000963862 0.025872 -0.0324551 -0.032976 -0.0186199 -0.00309321 0.00362139 0.0164797 0.0048875 -0.00788298 -0.018685 0.0324689 -0.00538456 -0.0257907 0.02158 0.0327466 0.0061862 -0.00734349 0.0391358 0.0285095 0.0378913 -0.0341219 0.0445967 -0.0436388
internal_weight=814.875 463.292 351.583 435.887 200.811 297.513 145.403 79.9363 38.4139 65.4663 150.772 65.678 40.5269 138.374 65.3421 46.1724 73.032 48.7173 222.874 22.1888 41.5224 84.6373 49.0539 35.5835 21.8776 138.236 46.9258 31.5716 17.1063 91.3106 25.151
internal_count=883 509 374 480 217 292 188 127 49 61 157 126 74 188 97 75 91 56 253 51 78 103 61 42 40 150 76 49 51 74 52
is_linear=0
shrinkage=0.0463345


Tree=19
num_leaves=36
num_cat=0
split_feature=38 84 41 54 27 84 18 56 83 44 37 67 42 84 37 41 6 81 41 83 72 61 56 48 84 67 51 61 7 73 80 63 80 48 61
split_gain=89.6399 46.2571 29.5456 32.6312 29.277 20.7276 17.4053 14.2193 16.075 12.4585 11.6509 11.2654 10.6496 9.33269 9.25056 9.53822 6.7083 6.2993 6.88261 10.3638 6.17064 6.10223 10.4453 5.96183 3.4363 4.02388 2.70826 4.00946 2.70152 2.14781 0.864026 0.0128869 0.0120895 1.42109e-14 7.10543e-15
threshold=0.54340579710144932 0.011499759275466205 4248.5000000000009 0.42898328571428573 41.100000000000009 0.49109570682048803 1.0000000180025095e-35 0.55189075971892865 1980.0500000000002 -2136.9999999999995 7166.5000000000009 10118240.700000001 4678.0000000000009 0.050478665158152587 4330.0000000000009 5794.0000000000009 -0.88664765382614386 238.05000000000021 6699.5000000000009 521.55000000000007 24.650000000000002 3750.2840225028194 0.41832073422691624 1161.5000000000002 0.0034309978364035492 16619040.150000002 5188.3928571428578 2867.6817397165573 -0.8572830456751136 131.75000000000003 -75.200000000000031 5433.8090435696713 30.649999999999867 1265.0000000000002 2598.7873558558272
decision_type=2 2 2 2 2 2 2 2 2 2 2 2 2 2 2 2 2 2 2 2 2 2 2 2 2 2 2 2 2 2 2 2 2 2 2
left_child=2 6 9 -4 7 11 12 21 16 -1 -8 13 17 -3 15 -13 -9 18 19 -2 29 22 -5 -19 26 -26 27 -14 -11 -16 -30 -28 -32 -34 -33
right_child=1 5 3 4 -6 -7 10 8 -10 28 -12 14 24 -15 20 -17 -18 23 -20 -21 -22 -23 -24 -25 25 -27 31 -29 30 -31 32 34 33 -35 -36
leaf_value=0.0027702595593817243 -0.00015197148420061115 0.0029004224804758684 0.00028118015862806941 0.0015405325901635184 -0.0028261257049459199 -0.010118744075171047 -0.0046451014435049294 -0.00059497516188577895 0.00044871861357146525 0.0097982010216380432 0.0025369156414709894 -0.0011260314895055851 0.0036138912658729813 -0.00048166345736388571 -0.0026581572355960166 0.00055665936179062733 -0.0014450934997893923 0.003124839321037496 0.0035247915029448752 0.0026219597357010458 0.00039060536483144379 -0.006743987670644924 -0.0027630530115854333 -0.00034755498196802358 0.0031013302705085464 0.0034039250065335406 0.0031542673420712746 0.0029201667069310624 -0.0035576945257117286 -0.0012887375957641649 -0.0086318777661111065 0.0035849377426373213 -0.0085752155516275429 -0.0031622663007121288 0.010303585444903091
leaf_weight=7.082653120160102 16.386530563235286 23.526836737990379 37.68571437895298 17.57040810585022 51.530612409114838 23.595918267965317 39.86326539516449 14.067347079515455 25.255101919174194 0.70438775420188804 36.642857074737549 29.266326636075974 20.455714225769043 18.170612245798111 18.288775622844696 28.941020399332047 20.872448936104774 21.298367261886597 30.792857140302658 13.659183681011198 14.924489885568617 29.877551078796387 20.242857158184052 22.251836836338043 19.660305961966515 13.87795916199684 21.151020437479019 13.43530613183975 7.2075509559363118 15.419795870780943 10.600510064512489 13.792857140302656 46.863877430558205 24.44795910269022 45.463877558708191
leaf_count=9 28 37 23 22 12 26 21 13 13 2 19 31 37 27 19 36 32 27 34 18 25 17 33 25 36 17 19 13 31 22 10 16 42 62 29
internal_value=0.00129742 0.0134654 -0.0181114 -0.00861573 -0.0168485 -0.00599356 0.0236547 -0.00496736 0.0114165 -0.0393846 0.00429627 0.000414781 0.0295266 0.0208402 -0.00755681 0.00490546 -0.0089405 0.0181964 0.0278264 0.0120494 -0.0224725 -0.0195369 -0.00717079 0.0047434 0.037527 0.0244861 0.0413536 0.0303677 -0.0440497 -0.0334545 -0.0447641 0.045984 -0.0461174 -0.0463345 0.0463345
internal_weight=814.875 500.866 314.009 217.102 179.416 172.134 328.732 127.886 60.1949 96.9069 76.5061 148.538 252.226 41.6974 106.84 58.2073 34.9398 104.389 60.8386 30.0457 48.6331 67.6908 37.8133 43.5502 147.837 33.5383 114.299 33.891 89.8243 33.7086 89.1199 80.4078 81.9123 71.3118 59.2567
internal_count=883 562 321 165 142 223 339 130 58 156 40 197 299 64 133 67 45 132 80 46 66 72 55 52 167 53 114 50 147 41 145 64 114 104 45
is_linear=0
shrinkage=0.0463345


Tree=20
num_leaves=36
num_cat=0
split_feature=38 40 54 27 84 4 84 60 84 36 63 34 73 84 79 68 60 25 65 37 83 48 41 41 84 40 56 39 52 38 80 52 66 38 6
split_gain=72.4778 38.0863 28.5864 46.6784 25.8922 24.3366 18.6247 15.684 14.7076 11.7731 13.9208 9.14367 13.239 8.99742 8.84385 7.90632 6.92384 6.70859 5.94854 4.88266 4.68319 4.64225 4.4576 8.83645 8.377 3.46756 1.78374 1.69451 1.64039 0.447329 0.199699 0.111234 0.0215395 1.42109e-14 7.10543e-15
threshold=0.72391304347826091 0.45652173913043487 0.43110300207039343 52.500000000000007 0.0076593076810240754 0.25000000000000011 0.49109570682048803 7673.1797916666674 0.15909820795059207 5590.1450000000013 7454.8765183343867 3918.5000000000005 169.95000000000002 0.050478665158152587 4150.6500000000005 2.9500000000000006 5468.9437797619057 6.5500000000000007 29.500000000000004 4330.0000000000009 2120.5000000000005 1094.0000000000002 6883.5000000000009 6699.5000000000009 0.0016032796702347698 0.7891304347826088 0.53178599518500558 0.78152173913043488 0.67258454106280208 0.80394130434782618 -297.94999999999999 0.75881642512077319 -272.94999999999999 0.35413043478260875 0.88664765382614419
decision_type=2 2 2 2 2 2 2 2 2 2 2 2 2 2 2 2 2 2 2 2 2 2 2 2 2 2 2 2 2 2 2 2 2 2 2
left_child=1 5 -3 6 7 8 9 22 -1 11 20 18 21 15 28 -6 -17 19 -4 -14 -11 -13 23 27 -25 -24 -20 -2 30 -29 -7 -27 -32 -34 -33
right_child=4 2 3 -5 13 14 -8 -9 -10 10 -12 12 17 -15 -16 16 -18 -19 26 -21 -22 -23 25 24 -26 31 -28 29 -30 -31 32 34 33 -35 -36
leaf_value=0.0046159558113728306 0.0036742642321786587 0.00028678412536576659 0.004587963179934873 -0.0026975783705715959 -0.0028451476638808181 -0.0019513153967462436 -0.0069809550588055226 -0.0016737982306270845 -0.012421477944710409 1.8956923408944747e-05 -0.0017478179447096185 -0.0011518712343487228 3.5805161652766504e-05 -0.006982147855395018 -0.00087284726707833877 -0.00051812696322462988 0.0043464501760424514 0.00057756661565646359 0.00024425417007397125 -0.0012290246412229242 0.0032212730189825037 -0.00013692162158199098 0.0029971935893163045 0.0034910184977427344 -0.00023907361097700916 0.0037989748455544196 -0.00096623141022737942 0.003140342766615413 -0.003105476195438482 0.0034211299117479356 -0.0043829104009944289 0.0030664776383761715 -0.0084329276873726117 -0.0061324840994403688 0.010286465163299955
leaf_weight=20.755408018827438 23.814898073673248 39.381632715463638 17.283877730369568 57.077551126480103 12.405102133750914 0.66020408272743125 20.172449022531509 33.761224508285522 17.598163187503815 19.606122374534607 42.828571438789368 25.746530503034592 13.726632699370386 18.739795833826065 20.451020285487175 21.093877643346786 19.940102055668831 29.104489833116531 13.714285761117937 13.45285704731941 32.418367266654968 15.886734724044798 26.859183460474014 23.189795970916748 19.441836833953857 20.253877699375153 11.531632632017134 13.068163290619848 12.280612289905546 24.914081513881683 6.3408163338899604 26.238571316003799 25.261734770610929 56.227550752460957 19.646938800811768
leaf_count=24 29 11 18 13 18 4 29 19 20 23 24 25 24 20 21 33 29 39 26 26 18 26 19 24 21 24 14 20 8 33 27 29 45 89 11
internal_value=0.00149523 -0.00914668 -0.000633017 -0.00532052 0.0194385 -0.0279229 0.00314323 0.0270021 0.00424618 0.0068063 0.0194178 -0.00171111 -0.00950268 -0.00478749 -0.0381009 0.00489999 0.0146992 0.00515046 0.0162276 -0.0114029 0.0355233 -0.0293122 0.0319927 0.0254225 0.00919503 0.0393705 0.00188964 0.0366173 -0.0437389 0.0426927 -0.0459412 0.045072 -0.046132 -0.0463345 0.0463345
internal_weight=814.875 511.507 351.932 312.55 303.367 159.576 255.473 231.189 38.3536 235.3 94.8531 140.447 97.9172 72.1789 121.222 53.4391 41.034 56.284 42.5298 27.1795 52.0245 41.6333 197.427 104.429 42.6316 92.9986 25.2459 61.7971 100.771 37.9822 88.4903 66.1394 87.8301 81.4893 45.8855
internal_count=883 554 316 305 329 238 292 229 44 263 65 198 140 100 194 80 62 89 58 50 41 51 210 127 45 83 40 82 173 53 165 64 161 134 40
is_linear=0
shrinkage=0.0463345


Tree=21
num_leaves=38
num_cat=0
split_feature=52 23 41 54 8 60 56 51 84 82 76 84 51 47 6 40 51 59 46 44 50 73 81 7 79 75 28 49 73 57 63 81 7 57 80 67 59
split_gain=70.9651 38.8305 27.4952 19.924 27.1981 19.3982 19.1995 18.1701 16.2043 14.1824 14.7567 11.7052 9.47939 12.5656 7.23089 6.58808 9.38223 9.25138 6.57137 6.18127 5.20588 4.9387 4.53912 4.09391 4.06215 3.86444 3.68298 3.37927 3.28849 3.17296 2.8756 2.50479 2.42033 1.41576 0.273822 0.0111758 0.0319736
threshold=0.59154589371980693 1.0000000180025095e-35 3757.5000000000005 0.42898328571428573 0.86066547284873163 5981.3307440476201 0.64735546202852856 6077.6428571428578 0.49109570682048803 83.500000000000014 20.300000000000004 0.0050507113337516793 3727.6071428571436 11350.000000000002 0.23803327706148572 0.80950289855072477 9272.4603571428579 277.50327416946169 4538.9736847253453 -1732.4999999999998 4242.7292857142866 230.85000000000002 -42.249999999999766 0.68552235175575771 3359.5000000000005 4.7000000000000011 16.050000000000004 5460.3333333333348 280.05000000000007 0.99999999975067633 5256.9472229332341 238.05000000000021 -0.8572830456751136 0.99827546566256398 -130.59999999999988 7141652.5000000009 383.80592962626946
decision_type=2 2 2 2 2 2 2 2 2 2 2 2 2 2 2 2 2 2 2 2 2 2 2 2 2 2 2 2 2 2 2 2 2 2 2 2 2
left_child=2 9 19 6 7 11 -4 8 12 10 23 -3 21 20 22 16 17 -11 33 -1 -14 -5 -13 24 -2 -19 -16 28 31 -7 -24 -27 -21 -17 -34 36 -36
right_child=1 5 3 4 -6 29 -8 -9 -10 15 -12 14 13 -15 26 18 -18 25 -20 32 -22 -23 30 -25 -26 27 -28 -29 -30 -31 -32 -33 34 -35 35 -37 -38
leaf_value=0.0006182337201221526 0.0016914340403267455 0.0036837898629240541 -0.00063879352487342675 -0.00096384702467509442 0.0023015372934021457 -0.0021231194285782498 0.00027247570862453199 -0.0035070729437714928 -0.011058608914011486 -9.9601639086401784e-05 -0.0019694275862646793 -6.9652015503311623e-05 8.6261757309386337e-05 5.4440760404736052e-05 -0.0020154644925923057 0.002878513585094548 -0.0020809615049581951 0.0011297612915682472 0.0027691512178037317 0.0091303289159829683 -0.0022784350178514422 0.00011613910865591714 -0.00027860376701207694 -0.00012801842787929925 0.0036188606483730243 0.0033347367451961253 -9.3773756988965975e-05 0.0036805473525810531 0.00031828607852830895 -0.0042151925677073338 0.0039840508212465832 0.0032211029727006735 -0.0028173082729407318 0.0097401798911005179 -0.0056178162298858173 -0.012064969463783333 -0.0042000857414112198
leaf_weight=3.8081632852554312 8.6734693348407799 16.439387649297714 24.518367454409599 12.813571438193323 34.433673501014709 24.013163268566132 32.82551009953022 84.879591822624207 19.990816250443459 29.396938741207123 11.759183645248411 16.48775514960289 24.116326451301575 28.552244782447815 15.000000000000002 23.907142698764801 21.777551054954529 22.694898068904877 24.710204124450684 0.62755101919174094 20.287755191326141 8.2714286446571332 12.285510152578356 11.455101966857908 10.894285708665846 26.887755185365677 11.268367499113081 36.347959101200104 13.218367427587507 33.812448889017105 15.754183664917944 14.809183746576307 5.1799999456852666 55.163469403982162 7.5062244795262796 47.0857143253088 3.2214285582304001
leaf_count=10 23 17 33 28 27 18 14 29 27 34 8 24 37 16 25 39 12 27 14 1 25 20 16 24 21 28 16 32 21 22 26 20 22 40 37 29 21
internal_value=0.00132087 0.0134283 -0.0141214 -0.00793796 -0.0139514 -0.00637505 0.0165321 -0.020533 -0.008451 0.0226446 -0.00213468 0.00742003 -0.000397933 0.00751049 -0.000758729 0.0265868 0.0208375 0.0251421 0.035735 -0.0407783 -0.0079091 -0.0277619 0.0106149 0.0146192 0.0274976 0.0311205 -0.0200381 0.0353754 0.0281216 -0.0271862 0.021959 0.0345056 -0.0442105 0.0422529 -0.0451125 -0.046027 -0.0446773
internal_weight=814.875 456.756 358.118 290.689 233.345 145.061 57.3439 198.912 114.032 311.696 42.782 87.2352 94.0413 72.9563 70.7958 268.913 165.133 143.355 103.781 67.4291 44.4041 21.085 44.5274 31.0229 19.5678 113.958 26.2684 91.2633 54.9153 57.8256 28.0397 41.6969 63.6209 79.0706 62.9934 57.8134 10.7277
internal_count=883 507 376 256 209 164 47 182 153 343 76 124 126 78 107 267 174 162 93 120 62 48 66 68 44 128 41 101 69 40 42 48 110 79 109 87 58
is_linear=0
shrinkage=0.0463345


Tree=22
num_leaves=35
num_cat=0
split_feature=38 40 84 79 61 61 50 44 44 81 53 79 56 65 42 39 54 81 47 81 45 51 78 35 41 59 34 34 75 72 69 6 46 61
split_gain=68.63 37.1606 29.9012 26.7201 33.9897 17.9308 14.362 13.9022 13.4777 12.0563 8.90552 8.04976 7.15714 7.88897 6.63272 6.57881 6.23649 5.98846 13.0064 5.20026 5.04485 4.55304 4.28027 4.24528 3.45438 3.42023 4.51169 3.40535 2.23473 1.77492 0.874209 0.523942 0.265012 0.750277
threshold=0.68949275362318851 0.41737318840579712 0.0076593076810240754 4163.7000000000016 3820.0095473841234 3534.2322332709387 8986.5085714285724 880.00000000000011 -2136.9999999999995 356.10000000000019 0.52669772256728786 3444.6000000000008 0.50066728789302628 29.500000000000004 5571.4000000000005 0.55057971014492757 0.78548654244306426 59.050000000000189 9354.0000000000018 -35.650000000000084 5151.7095833333342 5188.3928571428578 4018.0500000000006 5420.0000000000009 6110.0000000000009 366.03523391838166 5581.755000000001 5445.0000000000009 99.850000000000009 19.600000000000005 78.825000000000017 -0.24635219865135785 1809.327405682179 1456.1386832843061
decision_type=2 2 2 2 2 2 2 2 2 2 2 2 2 2 2 2 2 2 2 2 2 2 2 2 2 2 2 2 2 2 2 2 2 2
left_child=1 8 6 4 5 7 14 10 -1 17 30 20 13 -5 16 -15 21 18 24 -9 -12 25 32 -19 -4 26 27 -2 -13 -28 -3 -16 33 -10
right_child=2 3 9 12 -6 -7 -8 19 22 -11 11 28 -14 15 31 -17 -18 23 -20 -21 -22 -23 -24 -25 -26 -27 29 -29 -30 -31 -32 -33 -34 -35
leaf_value=-0.0015905825495139171 0.0025011712649760172 -0.00063352336175208812 0.001702431682966058 0.00080411588787312799 -0.0040483466768504294 9.4637384519772856e-05 -0.0045834013206911134 -0.0011091076701510553 -0.0030968607920274813 -0.0020656064609418608 0.00068309612789483882 -0.00057640003336778501 0.0029945499715568437 0.0021948968165295866 0.0027824481210810921 -0.0015233731356234833 -0.00036822189658048592 0.00050599793442396399 -0.0023498982023620208 0.00027336429016897924 -0.00010056185264803967 0.0029161454765373562 -0.0033391879807943099 0.0016177495854660033 -0.00043658099886824885 0.0033769391068869462 0.0031551119596565889 -0.00026100412394281907 -0.00046576423598943993 0.0035100111957451596 -0.00076301768994593172 0.0097221965758039191 -0.0086009453605316536 -0.00052916829185636503
leaf_weight=23.545918330550194 21.866326481103897 16.088775515556339 11.301326647400858 14.879081562161444 86.362653106451035 53.615918397903442 39.783673405647278 12.786734737455847 8.0331632886081916 16.478571355342865 22.166530787944794 14.512449026107788 46.7153060734272 13.739795863628386 19.798979669809341 21.58571445941925 34.66734704375267 18.163265258073807 17.875510215759277 18.08469358086586 10.138775378465651 28.926530539989471 16.046938672661781 17.623469442129135 9.1479591429233533 22.197959035634995 14.982244879007341 14.557959243655203 15.234081864356995 12.877551048994063 11.642142780125139 41.241224616765976 64.871428415179253 3.3346938639879218
leaf_count=22 34 36 23 12 39 18 22 22 56 14 36 25 35 20 17 36 29 18 12 21 20 24 22 26 23 32 25 23 21 16 35 26 25 18
internal_value=0.00159967 -0.00982115 0.0174316 -0.0024322 -0.0101563 0.00162291 0.0256701 -0.00828468 -0.0326295 -0.00538597 -0.0175074 -0.00775202 0.018339 0.00619321 0.0304824 -0.00572706 0.0252447 0.00258456 -0.0101428 0.0185375 0.00826197 0.0304215 -0.0406129 0.0162146 0.0150938 0.025099 0.0196843 0.00894892 -0.0251435 0.0337198 -0.0393363 0.0433601 -0.0451909 -0.0386651
internal_weight=814.875 473.385 341.49 357.553 260.633 174.27 250.9 120.654 115.832 90.5901 89.7828 62.0518 96.9199 50.2046 211.116 35.3255 150.076 74.1115 38.3248 30.8714 32.3053 115.409 92.2862 35.7867 20.4493 86.482 64.2841 36.4243 29.7465 27.8598 27.7309 61.0402 76.2393 11.3679
internal_count=883 519 364 376 273 234 248 216 143 116 173 102 103 68 226 56 183 102 58 43 56 154 121 44 46 130 98 57 46 41 71 43 99 74
is_linear=0
shrinkage=0.0463345


Tree=23
num_leaves=38
num_cat=0
split_feature=84 38 2 82 39 27 83 56 43 2 79 73 66 84 59 69 40 61 78 70 74 45 49 82 58 69 46 61 37 67 82 76 42 57 53 79 59
split_gain=59.8891 49.5602 24.8331 30.3336 21.1608 21.8895 24.7172 16.3759 15.1033 13.7317 10.8467 9.1636 8.85506 11.6378 7.83696 7.64469 6.64874 5.64889 5.28694 4.94846 6.2096 5.52302 9.4288 4.36345 5.06413 3.6284 3.62826 2.18408 2.06439 2.36197 1.42259 0.68932 1.36352 0.636516 0.0469428 0.0981096 0.0176529
threshold=0.49109570682048803 0.72391304347826091 -0.60785761079279388 219.50000000000003 0.2166666666666667 75.000000000000014 1495.0000000000002 0.44639358987470867 -953.49999999999989 -0.8783796973249266 4011.2000000000003 151.25000000000003 367.90000000000015 0.02691824454814196 296.65198835928408 83.970000000000013 0.99992753623188413 2753.782383720325 3534.3000000000006 1.0000000180025095e-35 1009.2500000000001 7281.6929166666678 6650.3300000000008 90.500000000000014 314.41617114858599 65.965000000000018 2409.4542702060107 2685.6720679232835 5392.5000000000009 15908758.750000002 309.00000000000006 11.66666666666667 2999.5000000000005 0.76645858212233942 0.36759834368530026 3492.5500000000006 355.27331641374911
decision_type=2 2 2 2 2 2 2 2 2 2 2 2 2 2 2 2 2 2 2 2 2 2 2 2 2 2 2 2 2 2 2 2 2 2 2 2 2
left_child=1 2 3 17 -4 6 8 -8 18 10 -3 27 -13 26 -5 -16 19 -1 -6 20 -11 22 23 24 -22 -2 -14 -10 33 30 -30 32 36 -25 35 -33 -27
right_child=25 9 4 14 5 -7 7 -9 11 16 -12 12 13 -15 15 -17 -18 -19 -20 -21 21 -23 -24 28 -26 31 -28 -29 29 -31 -32 34 -34 -35 -36 -37 -38
leaf_value=9.8091680828765144e-05 1.3444503568057468e-06 0.0016106411147465897 -0.00040315046119784658 -0.0076315157671493043 0.00079204338578800374 -0.0022431748692296441 -6.4930616178491589e-05 0.0021409971078437794 -0.00086739266151016764 2.6815446005123357e-05 -0.0043813882393097603 -0.0038004498807936728 0.00068568476240726502 -0.0012413859136909428 -0.0059813354200302146 -0.00030878324035658015 0.0092008443191199368 0.00090988948158506999 -9.590237398031608e-05 -0.00082371048493304821 -0.00022341226157080005 0.0037771924223761423 -0.0021231684481822742 0.0025172881333682976 0.002966474805944442 -0.0039169960235406441 0.0015299357296343059 -0.00043610927854004547 0.0031204485489401633 0.0027534940047496117 0.0024736636430353789 -0.015011630098644932 -0.0012259758590560028 0.0036383773082439732 -0.010564460394039177 -0.0055138456016338381 -0.002351448667911512
leaf_weight=15.597040906548502 3.2397959232330313 26.54591828584671 28.359183579683304 52.517959237098694 19.956122428178787 75.077551126480103 42.081632554531097 66.47959166765213 14.298979610204695 29.713265299797058 19.359387710690498 13.460204191505907 17.960612177848819 13.016326509416102 23.034693896770477 19.091122329235077 29.185101985931396 11.677755057811735 13.238775596022604 17.871632546186447 16.878571510314945 43.334693908691406 14.748979806900023 11.85510194301605 12.356122493743895 5.2963264938443881 13.432653129100798 19.375510007143021 15.917653009295465 20.206122487783432 7.9438776969909659 5.8756122849881631 4.6244898140430442 26.608163326978683 38.064285688102245 3.5040816068649292 3.0897959023714066
leaf_count=34 8 33 17 20 24 15 27 38 37 35 19 31 31 29 22 19 17 12 19 14 30 25 8 15 23 21 21 15 23 20 21 22 11 36 52 20 19
internal_value=0.00267747 0.0063352 -0.00316946 -0.0210873 0.00331786 -0.000204466 0.00679843 0.0229647 -0.00727118 0.0212378 -0.00203064 -0.0169798 -0.00579716 0.00418125 -0.0334943 -0.0186072 0.0255689 0.021965 0.0195032 0.0227816 0.0248734 0.028292 0.023402 0.027997 0.0126146 -0.0404599 0.0194543 -0.0361973 0.0334459 0.0265996 0.0364709 -0.04302 -0.033572 0.0412897 -0.045611 -0.0426749 -0.0447107
internal_weight=814.875 751.18 458.656 121.919 336.737 308.378 233.3 108.561 124.739 292.525 45.9053 91.5443 57.8698 44.4096 94.6438 42.1258 246.619 27.2748 33.1949 217.434 199.563 169.849 126.515 111.766 29.2347 63.6944 31.3933 33.6745 82.5309 44.0677 23.8615 60.4546 13.0106 38.4633 47.444 9.37969 8.38612
internal_count=883 730 411 107 304 287 272 65 207 319 52 164 112 81 61 41 267 46 43 250 236 201 176 168 53 153 52 52 115 64 44 145 51 51 94 42 40
is_linear=0
shrinkage=0.0463345


Tree=24
num_leaves=37
num_cat=0
split_feature=38 41 84 35 41 79 61 61 49 44 60 48 84 4 43 39 34 68 60 83 74 5 55 62 78 74 57 69 84 9 84 67 84 84 45 83
split_gain=54.3319 36.5408 21.4433 15.4311 28.899 18.5304 22.4506 25.4489 12.8597 12.6985 11.5479 11.0558 10.5368 8.66972 8.47246 8.05452 7.8327 6.48347 6.92384 6.19452 5.32176 5.27339 5.23284 4.5835 4.57303 4.5682 3.48995 3.73458 4.5246 3.22626 3.10484 1.76328 3.32253 0.0792007 7.10543e-15 1.77636e-15
threshold=0.72391304347826091 3757.5000000000005 0.050478665158152587 4304.0000000000009 6894.0500000000011 4250.5000000000009 3643.0471872442054 3534.2322332709387 5350.3333333333348 -114.99999999999999 8821.325833333336 164.50000000000003 0.0076593076810240754 1.0000000180025095e-35 -953.49999999999989 0.47693043478260877 4685.3450000000003 2.9500000000000006 5468.9437797619057 272.80000000000007 1011.5500000000001 0.93301270189221952 59.500000000000007 4879.3307275203415 4656.0500000000011 1023.35 0.9817706192453618 81.605000000000018 0.0023682834580540661 0.67498300151821033 0.026166640222072605 7660662.5000000009 0.94541978836059581 0.06470279768109323 5287.315833333334 384.55000000000001
decision_type=2 2 2 2 2 2 2 2 2 2 2 2 2 2 2 2 2 2 2 2 2 2 2 2 2 2 2 2 2 2 2 2 2 2 2 2
left_child=1 13 10 4 9 6 7 8 14 11 12 -3 21 -1 -5 29 -7 -14 -19 -16 -6 24 -17 -13 25 26 27 28 -2 33 -21 32 -15 -11 -28 -34
right_child=2 3 -4 5 20 16 -8 -9 -10 15 -12 23 17 31 19 22 -18 18 -20 30 -22 -23 -24 -25 -26 -27 34 -29 -30 -31 -32 -33 35 -35 -36 -37
leaf_value=-0.00056628878117228883 0.0024373225233463632 0.00028419906151601836 -0.0049647249732740787 0.0001801891654765145 3.617128836008319e-05 0.0027589472225772039 -0.003122628799224896 1.4163269306232543e-05 -0.0014863731954677473 -0.0022312498420425245 -0.004746210333156079 -9.29132188925869e-05 -0.0026897180451962402 -0.00030330067170012765 -0.00052699532376774855 0.00040770102802067747 -0.00013551711470211674 -0.00017900205356950679 0.0038069515263532377 0.00089403681522786185 0.00036012737934250979 6.649234936786473e-05 -0.0011841203284803086 -0.0071417905042023304 0.0024630845987666638 0.0019724213870693564 0.008753495323285768 0.0027097426247042291 0.0028773174996699741 -0.00060233018765460419 -0.0014272092829005656 -0.007491004937237665 -0.0058344201278698613 -0.0027222370064432975 0.0048867266852796031 -0.0063220085435764612
leaf_weight=20.025306105613708 18.60102042555809 17.729591771960258 18.739795833826065 20.168571293354034 23.752040773630142 20.155204281210899 87.183061212301254 25.146938920021057 19.41020405292511 14.273469358682638 19.50204074382782 15.79489801824093 12.405102133750914 6.0709183625876895 17.814285665750504 14.906122475862505 46.248979598283768 21.093877643346786 19.940102055668831 10.582040786743166 41.196326345205307 26.069795966148376 13.644897937774656 11.123469263315199 29.19653058052063 32.442653223872185 18.103061139583588 27.393877506256104 14.18367353081703 8.5459183752536756 10.304081708192824 50.124489717185497 5.7540816199034435 8.4870408177375776 45.695918351411819 3.0653061345219612
leaf_count=23 27 12 20 32 19 23 35 7 5 31 11 23 18 28 19 27 32 33 29 21 28 20 14 17 28 30 15 36 22 23 20 31 39 25 40 20
internal_value=0.00298219 -0.00623174 0.0185178 -0.000701595 0.010153 -0.00785822 -0.0152016 -0.000601777 -0.0136287 -0.00493167 0.0216787 0.0137696 0.0242099 -0.0339648 -0.00284504 -0.018881 0.0132204 0.00582544 0.0146992 -0.0155346 0.034425 0.0288509 -0.00108301 -0.00494258 0.0315916 0.0347337 0.0387843 0.0307799 0.0202289 -0.0351125 0.0015855 -0.0421755 -0.0281753 -0.0442268 0.0463345 -0.0463345
internal_weight=814.875 511.507 303.367 426.467 169.454 257.013 190.609 103.426 78.2792 104.505 284.628 44.648 265.126 85.0401 58.869 59.8574 66.4042 53.4391 41.034 38.7004 64.9484 211.687 28.551 26.9184 185.617 156.42 123.978 60.1786 32.7847 31.3064 20.8861 65.0148 14.8903 22.7605 63.799 8.81939
internal_count=883 554 329 413 219 194 139 104 97 172 309 52 298 141 92 120 55 80 62 60 47 218 41 40 198 170 140 85 49 79 41 118 87 56 55 59
is_linear=0
shrinkage=0.0463345


Tree=25
num_leaves=39
num_cat=0
split_feature=38 41 84 2 41 42 51 27 60 6 36 54 54 67 41 40 4 72 40 80 80 69 81 50 5 74 78 61 57 69 39 82 67 84 83 81 73 83
split_gain=54.3272 35.8243 21.411 18.6983 22.2893 17.2507 15.5859 15.6722 14.2159 13.8337 11.11 11.6991 10.1092 9.79398 9.17164 9.00223 8.66972 8.53111 9.74518 7.45979 5.63039 5.5866 5.97041 5.31307 5.14335 4.99201 6.43969 3.74958 3.43724 4.36367 3.75949 2.96238 1.76328 3.32253 1.7222 1.01411 0.111745 1.77636e-15
threshold=0.72391304347826091 3757.5000000000005 0.0076593076810240754 0.87837969732492682 6848.4050000000016 7840.0000000000009 6118.6121428571441 30.150000000000002 8821.325833333336 -0.99275167208229986 4255.5000000000009 0.5814124741200829 0.47588538095238103 16237809.000000002 6882.5000000000009 0.62521739130434795 1.0000000180025095e-35 19.600000000000005 0.81036231884057985 80.100000000000151 272.80000000000001 91.170000000000016 -42.249999999999766 4242.7292857142866 0.93301270189221952 1023.35 4805.2000000000016 3013.9809055915853 0.9817706192453618 81.605000000000018 0.78007246376811612 122.50000000000001 7660662.5000000009 0.94541978836059581 1788.6000000000001 80.000000000000128 257.15000000000003 384.55000000000001
decision_type=2 2 2 2 2 2 2 2 2 2 2 2 2 2 2 2 2 2 2 2 2 2 2 2 2 2 2 2 2 2 2 2 2 2 2 2 2 2
left_child=1 16 8 4 6 9 7 10 24 -6 11 19 -11 21 -5 -14 -1 18 -17 -3 -13 22 -4 -12 25 26 28 -24 29 30 -2 -25 33 -18 -19 -21 -31 -35
right_child=2 3 13 14 5 -7 -8 -9 -10 12 23 20 15 -15 -16 17 32 34 -20 35 -22 -23 27 31 -26 -27 -28 -29 -30 36 -32 -33 -34 37 -36 -37 -38 -39
leaf_value=-0.00054005009894675599 0.001759486532109579 0.0025291398151225746 -0.00017070809091744029 -1.6474459305084121e-05 -0.0013111034992776514 -0.0026774682959706895 -0.0078522068886144256 0.00027692109828762529 -0.0045262972625679156 -0.00063097991858831451 -9.749284456734793e-06 0.00087408640652330595 -0.0010678569173939723 -0.002934329744261856 -0.0014011292752540915 0.0047078116888353682 -0.00028924740028080581 0.0001569287024721278 -0.0028286048900867341 -0.001396804075011286 0.00044168054026510768 -0.00099652851915764265 0.00086331180229209199 -0.00031251864656343812 6.3411462577417837e-05 0.001880887667996996 0.0022252935022475783 0.0019466145080129591 0.0078767820314645381 0.0024741862379986154 0.0025100110238946097 -0.0011678051177042624 -0.0071439133037230606 -0.0055640854491772578 0.0061509546248884927 -0.0042431408081334979 0.0025056950336254922 -0.0060290817212251199
leaf_weight=20.025306105613708 14.102040886878966 10.721428520977499 18.150000125169754 21.269387699663639 6.4387755095958701 30.077551007270813 47.761224508285522 16.265612185001373 19.50204074382782 31.552040725946426 17.727551162242889 22.255204066634178 31.783673375844955 16.492857187986374 35.005102008581161 20.228979498147964 6.0709183625876895 21.807143092155457 20.138775408267975 7.1091836690902737 12.754285663366316 12.541836738586424 12.694183662533762 22.913673430681229 26.069795966148376 36.124285861849785 18.826326489448547 12.299999952316282 64.312040716409683 17.040816336870197 20.724489808082581 16.803061246871948 50.124489717185497 5.7540816199034435 24.918775677680969 8.9357142001390439 14.486734658479689 3.0653061345219612
leaf_count=23 21 18 31 34 8 12 17 15 11 11 28 28 19 14 17 26 28 25 15 27 18 15 31 31 20 32 19 9 56 23 30 21 31 39 15 28 17 20
internal_value=0.00270856 -0.00650497 0.0182435 -0.00102931 0.00275341 0.0140098 -0.00873017 -0.000707077 0.0251214 0.0201729 -0.00652787 0.0071117 0.0230196 -0.00378659 -0.0259133 0.0168315 -0.0339648 0.0245341 0.00893229 -0.0159488 0.0247425 0.00550208 0.0134148 -0.0211959 0.0286088 0.0313155 0.0350508 0.0281028 0.0387011 0.0313027 0.0199973 -0.0306103 -0.0421755 -0.0281753 0.0380129 -0.0359443 0.0437911 -0.0463345
internal_weight=814.875 511.507 303.367 426.467 370.193 186.946 183.247 135.486 231.189 156.868 119.22 61.7758 150.429 72.1789 56.2745 118.877 85.0401 87.0937 40.3678 26.7663 35.0095 55.686 43.1442 57.4443 211.687 185.617 149.492 24.9942 130.666 66.3541 34.8265 39.7167 65.0148 14.8903 46.7259 16.0449 31.5276 8.81939
internal_count=883 554 329 413 362 131 231 214 229 119 199 119 111 100 51 100 141 81 41 73 46 86 71 80 218 198 166 40 147 91 51 52 118 87 40 55 40 59
is_linear=0
shrinkage=0.0463345


Tree=26
num_leaves=39
num_cat=0
split_feature=38 41 34 54 41 43 84 51 47 39 27 34 38 47 38 5 80 36 50 82 49 7 55 37 74 19 66 80 84 37 59 67 61 37 45 57 43 37
split_gain=50.4409 37.0291 15.064 22.0369 15.8352 16.4193 14.4335 13.2943 13.0254 11.8923 11.2937 10.2694 10.1547 8.35368 9.97399 7.75285 6.21346 6.29767 7.11124 6.66101 6.05019 5.98271 5.26837 4.88594 4.12178 3.94912 3.63014 4.34494 2.40828 2.29261 2.10006 2.04673 1.96993 1.46007 0.110524 0.0773728 0.17078 7.10543e-15
threshold=0.80108695652173922 3757.5000000000005 7559.0000000000009 0.42898328571428573 6890.5000000000009 -3149.4999999999995 0.0081045883707702177 6118.6121428571441 10830.500000000002 0.43162608695652177 11.750000000000002 14832.900000000001 0.54340579710144932 11650.000000000002 0.54536231884057984 0.93301270189221952 430.84999999999997 4277.5000000000009 3634.2142857142862 86.500000000000014 4583.0366666666678 0.89825865960743323 59.500000000000007 4284.5000000000009 1023.9500000000002 1.0000000180025095e-35 232.95000000000007 433.7000000000001 0.0090265003964304941 5592.1950000000006 329.01735735501745 5069118.0000000009 2735.9792557233691 1895.0000000000002 5208.0660416666678 0.99999999963161101 -215.49999999999997 5597.5000000000009
decision_type=2 2 2 2 2 2 2 2 2 2 2 2 2 2 2 2 2 2 2 2 2 2 2 2 2 2 2 2 2 2 2 2 2 2 2 2 2 2
left_child=1 12 3 29 7 -6 11 10 -8 -7 16 15 31 14 -12 24 17 18 -5 23 21 -20 -21 -19 26 28 34 -28 -11 -3 -16 33 -18 -1 -2 36 -33 -36
